{"learner":{"attributes":{"scikit_learn":"{\"_estimator_type\": \"regressor\"}"},"feature_names":["barrel_pct","barrel_pa","exit_velocity","hard_hit_pct","launch_angle","sweet_spot_pct","xwoba","iso","k_pct","bb_pct"],"feature_types":["float","float","float","float","float","float","float","float","float","float"],"gradient_booster":{"model":{"cats":{"enc":[],"feature_segments":[],"sorted_idx":[]},"gbtree_model_param":{"num_parallel_tree":"1","num_trees":"300"},"iteration_indptr":[0,1,2,3,4,5,6,7,8,9,10,11,12,13,14,15,16,17,18,19,20,21,22,23,24,25,26,27,28,29,30,31,32,33,34,35,36,37,38,39,40,41,42,43,44,45,46,47,48,49,50,51,52,53,54,55,56,57,58,59,60,61,62,63,64,65,66,67,68,69,70,71,72,73,74,75,76,77,78,79,80,81,82,83,84,85,86,87,88,89,90,91,92,93,94,95,96,97,98,99,100,101,102,103,104,105,106,107,108,109,110,111,112,113,114,115,116,117,118,119,120,121,122,123,124,125,126,127,128,129,130,131,132,133,134,135,136,137,138,139,140,141,142,143,144,145,146,147,148,149,150,151,152,153,154,155,156,157,158,159,160,161,162,163,164,165,166,167,168,169,170,171,172,173,174,175,176,177,178,179,180,181,182,183,184,185,186,187,188,189,190,191,192,193,194,195,196,197,198,199,200,201,202,203,204,205,206,207,208,209,210,211,212,213,214,215,216,217,218,219,220,221,222,223,224,225,226,227,228,229,230,231,232,233,234,235,236,237,238,239,240,241,242,243,244,245,246,247,248,249,250,251,252,253,254,255,256,257,258,259,260,261,262,263,264,265,266,267,268,269,270,271,272,273,274,275,276,277,278,279,280,281,282,283,284,285,286,287,288,289,290,291,292,293,294,295,296,297,298,299,300],"tree_info":[0,0,0,0,0,0,0,0,0,0,0,0,0,0,0,0,0,0,0,0,0,0,0,0,0,0,0,0,0,0,0,0,0,0,0,0,0,0,0,0,0,0,0,0,0,0,0,0,0,0,0,0,0,0,0,0,0,0,0,0,0,0,0,0,0,0,0,0,0,0,0,0,0,0,0,0,0,0,0,0,0,0,0,0,0,0,0,0,0,0,0,0,0,0,0,0,0,0,0,0,0,0,0,0,0,0,0,0,0,0,0,0,0,0,0,0,0,0,0,0,0,0,0,0,0,0,0,0,0,0,0,0,0,0,0,0,0,0,0,0,0,0,0,0,0,0,0,0,0,0,0,0,0,0,0,0,0,0,0,0,0,0,0,0,0,0,0,0,0,0,0,0,0,0,0,0,0,0,0,0,0,0,0,0,0,0,0,0,0,0,0,0,0,0,0,0,0,0,0,0,0,0,0,0,0,0,0,0,0,0,0,0,0,0,0,0,0,0,0,0,0,0,0,0,0,0,0,0,0,0,0,0,0,0,0,0,0,0,0,0,0,0,0,0,0,0,0,0,0,0,0,0,0,0,0,0,0,0,0,0,0,0,0,0,0,0,0,0,0,0,0,0,0,0,0,0,0,0,0,0,0,0,0,0,0,0,0,0,0,0,0,0,0,0,0,0,0,0,0,0],"trees":[{"base_weights":[-0E0,-3.5168454E-3,5.5140834E-3,-3.0875028E-4,-0E0,-0E0,6.0216384E-3,-0E0,3.237965E-4],"categories":[],"categories_nodes":[],"categories_segments":[],"categories_sizes":[],"default_left":[0,0,0,0,0,0,0,0,0],"id":0,"left_children":[1,3,5,-1,-1,-1,7,-1,-1],"loss_changes":[5.3770714E-3,1.1178823E-3,4.159105E-4,0E0,0E0,0E0,5.5311248E-6,0E0,0E0],"parents":[2147483647,0,0,1,1,2,2,6,6],"right_children":[2,4,6,-1,-1,-1,8,-1,-1],"split_conditions":[1.1E1,7E0,1.5448505E-1,-3.0875028E-4,-0E0,-0E0,1.05E1,-0E0,3.237965E-4],"split_indices":[0,0,8,0,0,0,4,0,0],"split_type":[0,0,0,0,0,0,0,0,0],"sum_hessian":[2.82E2,1.82E2,1E2,8.7E1,9.5E1,5E0,9.5E1,1.3E1,8.2E1],"tree_param":{"num_deleted":"0","num_feature":"10","num_nodes":"9","size_leaf_vector":"1"}},{"base_weights":[-0E0,-3.2419467E-3,5.110946E-3,-2.3070649E-4,-0E0,-0E0,2.8549726E-4],"categories":[],"categories_nodes":[],"categories_segments":[],"categories_sizes":[],"default_left":[0,0,0,0,0,0,0],"id":1,"left_children":[1,3,5,-1,-1,-1,-1],"loss_changes":[4.8369607E-3,4.3633464E-4,4.647323E-4,0E0,0E0,0E0,0E0],"parents":[2147483647,0,0,1,1,2,2],"right_children":[2,4,6,-1,-1,-1,-1],"split_conditions":[1.02E1,8.93E1,8.94E1,-2.3070649E-4,-0E0,-0E0,2.8549726E-4],"split_indices":[0,2,2,0,0,0,0],"split_type":[0,0,0,0,0,0,0],"sum_hessian":[2.75E2,1.55E2,1.2E2,9.6E1,5.9E1,1E1,1.1E2],"tree_param":{"num_deleted":"0","num_feature":"10","num_nodes":"7","size_leaf_vector":"1"}},{"base_weights":[-0E0,-4.0697367E-3,3.716168E-3,-2.3038825E-4,-0E0,-0E0,4.2998847E-3,-0E0,2.5971152E-4],"categories":[],"categories_nodes":[],"categories_segments":[],"categories_sizes":[],"default_left":[0,0,0,0,0,0,0,0,0],"id":2,"left_children":[1,3,5,-1,-1,-1,7,-1,-1],"loss_changes":[4.144355E-3,1.5296065E-4,4.0890125E-4,0E0,0E0,0E0,2.4102256E-4,0E0,0E0],"parents":[2147483647,0,0,1,1,2,2,6,6],"right_children":[2,4,6,-1,-1,-1,8,-1,-1],"split_conditions":[7E0,6.3E0,1.5448505E-1,-2.3038825E-4,-0E0,-0E0,7.7E0,-0E0,2.5971152E-4],"split_indices":[1,1,8,0,0,0,1,0,0],"split_type":[0,0,0,0,0,0,0,0,0],"sum_hessian":[2.66E2,1.49E2,1.17E2,1.23E2,2.6E1,8E0,1.09E2,2.6E1,8.3E1],"tree_param":{"num_deleted":"0","num_feature":"10","num_nodes":"9","size_leaf_vector":"1"}},{"base_weights":[-0E0,-3.594159E-3,4.3599675E-3,-4.530641E-3,-0E0,-0E0,4.8236353E-3,-2.3677565E-4,-0E0,-0E0,3.047547E-4],"categories":[],"categories_nodes":[],"categories_segments":[],"categories_sizes":[],"default_left":[0,0,0,0,0,0,0,0,0,0,0],"id":3,"left_children":[1,3,5,7,-1,-1,9,-1,-1,-1,-1],"loss_changes":[4.462786E-3,3.5757362E-4,3.1860243E-4,1.15680275E-4,0E0,0E0,2.2195606E-4,0E0,0E0,0E0,0E0],"parents":[2147483647,0,0,1,1,2,2,3,3,6,6],"right_children":[2,4,6,8,-1,-1,10,-1,-1,-1,-1],"split_conditions":[6.9E0,8.3E0,1.5297906E-1,3.56E-1,-0E0,-0E0,7.8E0,-2.3677565E-4,-0E0,-0E0,3.047547E-4],"split_indices":[1,0,8,6,0,0,1,0,0,0,0],"split_type":[0,0,0,0,0,0,0,0,0,0,0],"sum_hessian":[2.83E2,1.61E2,1.22E2,1.18E2,4.3E1,9E0,1.13E2,1.13E2,5E0,3.7E1,7.6E1],"tree_param":{"num_deleted":"0","num_feature":"10","num_nodes":"11","size_leaf_vector":"1"}},{"base_weights":[-0E0,-4.413805E-3,3.3803666E-3,-2.3245846E-4,-0E0,-0E0,4.4116443E-3,-0E0,4.87669E-3,-0E0,2.653164E-4],"categories":[],"categories_nodes":[],"categories_segments":[],"categories_sizes":[],"default_left":[0,0,0,0,0,0,0,0,0,0,0],"id":4,"left_children":[1,3,5,-1,-1,-1,7,-1,9,-1,-1],"loss_changes":[4.350242E-3,1.3268297E-4,7.1238074E-4,0E0,0E0,0E0,2.82604E-4,0E0,1.7645885E-4,0E0,0E0],"parents":[2147483647,0,0,1,1,2,2,6,6,8,8],"right_children":[2,4,6,-1,-1,-1,8,-1,10,-1,-1],"split_conditions":[8.3E0,1.95E1,1.05E1,-2.3245846E-4,-0E0,-0E0,8.91E1,-0E0,6.4E0,-0E0,2.653164E-4],"split_indices":[0,4,4,0,0,0,2,0,1,0,0],"split_type":[0,0,0,0,0,0,0,0,0,0,0],"sum_hessian":[2.9E2,1.21E2,1.69E2,1.15E2,6E0,3.4E1,1.35E2,1.3E1,1.22E2,1.3E1,1.09E2],"tree_param":{"num_deleted":"0","num_feature":"10","num_nodes":"11","size_leaf_vector":"1"}},{"base_weights":[-0E0,-3.851433E-3,2.940622E-3,-4.123063E-3,-0E0,-0E0,3.8063137E-3,-2.1747123E-4,-0E0,-0E0,4.454121E-3,2.3443582E-4,-0E0],"categories":[],"categories_nodes":[],"categories_segments":[],"categories_sizes":[],"default_left":[0,0,0,0,0,0,0,0,0,0,0,0,0],"id":5,"left_children":[1,3,5,7,-1,-1,9,-1,-1,-1,11,-1,-1],"loss_changes":[3.3118534E-3,9.643508E-5,5.989468E-4,4.6459376E-5,0E0,0E0,4.1346345E-4,0E0,0E0,0E0,1.163648E-4,0E0,0E0],"parents":[2147483647,0,0,1,1,2,2,3,3,6,6,10,10],"right_children":[2,4,6,8,-1,-1,10,-1,-1,-1,12,-1,-1],"split_conditions":[8.2E0,4.32E1,1.01E1,1.84E1,-0E0,-0E0,8.94E1,-2.1747123E-4,-0E0,-0E0,4.09E1,2.3443582E-4,-0E0],"split_indices":[0,3,4,4,0,0,2,0,0,0,5,0,0],"split_type":[0,0,0,0,0,0,0,0,0,0,0,0,0],"sum_hessian":[2.91E2,1.21E2,1.7E2,1.11E2,1E1,2.8E1,1.42E2,1.02E2,9E0,1.8E1,1.24E2,1.17E2,7E0],"tree_param":{"num_deleted":"0","num_feature":"10","num_nodes":"13","size_leaf_vector":"1"}},{"base_weights":[-0E0,-4.7205687E-3,9.81423E-4,-2.504599E-4,-0E0,-0E0,2.0655985E-3,-0E0,2.5805156E-3,-0E0,1.4626292E-4],"categories":[],"categories_nodes":[],"categories_segments":[],"categories_sizes":[],"default_left":[0,0,0,0,0,0,0,0,0,0,0],"id":6,"left_children":[1,3,5,-1,-1,-1,7,-1,9,-1,-1],"loss_changes":[2.0780899E-3,1.1324498E-4,4.4750172E-4,0E0,0E0,0E0,2.874792E-4,0E0,2.0203437E-4,0E0,0E0],"parents":[2147483647,0,0,1,1,2,2,6,6,8,8],"right_children":[2,4,6,-1,-1,-1,8,-1,10,-1,-1],"split_conditions":[7E0,2.2543353E-1,1.05E1,-2.504599E-4,-0E0,-0E0,3.1E-1,-0E0,3.87E1,-0E0,1.4626292E-4],"split_indices":[0,8,4,0,0,0,6,0,3,0,0],"split_type":[0,0,0,0,0,0,0,0,0,0,0],"sum_hessian":[2.72E2,8.3E1,1.89E2,7.8E1,5E0,4.3E1,1.46E2,1E1,1.36E2,7E0,1.29E2],"tree_param":{"num_deleted":"0","num_feature":"10","num_nodes":"11","size_leaf_vector":"1"}},{"base_weights":[-0E0,-1.7382895E-3,5.3347093E-3,-3.718531E-3,-0E0,-0E0,2.9187038E-4,-1.9681822E-4,-0E0],"categories":[],"categories_nodes":[],"categories_segments":[],"categories_sizes":[],"default_left":[0,0,0,0,0,0,0,0,0],"id":7,"left_children":[1,3,5,7,-1,-1,-1,-1,-1],"loss_changes":[3.2734443E-3,6.185308E-4,2.8939568E-4,6.9264555E-5,0E0,0E0,0E0,0E0,0E0],"parents":[2147483647,0,0,1,1,2,2,3,3],"right_children":[2,4,6,8,-1,-1,-1,-1,-1],"split_conditions":[7.7E0,7E0,1.5448505E-1,2.2161423E-1,-0E0,-0E0,2.9187038E-4,-1.9681822E-4,-0E0],"split_indices":[1,0,8,8,0,0,0,0,0],"split_type":[0,0,0,0,0,0,0,0,0],"sum_hessian":[2.88E2,1.96E2,9.2E1,8.6E1,1.1E2,7E0,8.5E1,8.1E1,5E0],"tree_param":{"num_deleted":"0","num_feature":"10","num_nodes":"9","size_leaf_vector":"1"}},{"base_weights":[-0E0,-2.2241168E-3,3.0616985E-3,-1.3848655E-4,-0E0,-0E0,3.713018E-3,-0E0,4.3629697E-3,-0E0,2.3119217E-4],"categories":[],"categories_nodes":[],"categories_segments":[],"categories_sizes":[],"default_left":[0,0,0,0,0,0,0,0,0,0,0],"id":8,"left_children":[1,3,5,-1,-1,-1,7,-1,9,-1,-1],"loss_changes":[1.981969E-3,2.9786892E-4,2.8465828E-4,0E0,0E0,0E0,8.575525E-5,0E0,4.2583444E-5,0E0,0E0],"parents":[2147483647,0,0,1,1,2,2,6,6,8,8],"right_children":[2,4,6,-1,-1,-1,8,-1,10,-1,-1],"split_conditions":[1.02E1,1.8E1,1.05E1,-1.3848655E-4,-0E0,-0E0,1.12E1,-0E0,8.91E1,-0E0,2.3119217E-4],"split_indices":[0,4,4,0,0,0,0,0,2,0,0],"split_type":[0,0,0,0,0,0,0,0,0,0,0],"sum_hessian":[2.83E2,1.58E2,1.25E2,1.4E2,1.8E1,2E1,1.05E2,2.5E1,8E1,7E0,7.3E1],"tree_param":{"num_deleted":"0","num_feature":"10","num_nodes":"11","size_leaf_vector":"1"}},{"base_weights":[-0E0,-3.1185928E-3,4.0056007E-3,-4.343586E-3,-0E0,-0E0,4.496259E-3,-2.3303638E-4,-0E0,-0E0,2.3761361E-4],"categories":[],"categories_nodes":[],"categories_segments":[],"categories_sizes":[],"default_left":[0,0,0,0,0,0,0,0,0,0,0],"id":9,"left_children":[1,3,5,7,-1,-1,9,-1,-1,-1,-1],"loss_changes":[3.6521475E-3,3.8542133E-4,3.074021E-4,6.375159E-5,0E0,0E0,1.3915356E-4,0E0,0E0,0E0,0E0],"parents":[2147483647,0,0,1,1,2,2,3,3,6,6],"right_children":[2,4,6,8,-1,-1,10,-1,-1,-1,-1],"split_conditions":[6.9E0,5.5E0,1.5448505E-1,2.2543353E-1,-0E0,-0E0,4.16E1,-2.3303638E-4,-0E0,-0E0,2.3761361E-4],"split_indices":[1,1,8,8,0,0,3,0,0,0,0],"split_type":[0,0,0,0,0,0,0,0,0,0,0],"sum_hessian":[2.89E2,1.64E2,1.25E2,1.04E2,6E1,1.1E1,1.14E2,9.3E1,1.1E1,6E0,1.08E2],"tree_param":{"num_deleted":"0","num_feature":"10","num_nodes":"11","size_leaf_vector":"1"}},{"base_weights":[-0E0,-2.5171295E-3,2.206246E-4,-2.1089769E-4,-0E0],"categories":[],"categories_nodes":[],"categories_segments":[],"categories_sizes":[],"default_left":[0,0,0,0,0],"id":10,"left_children":[1,3,-1,-1,-1],"loss_changes":[3.1747944E-3,5.996643E-4,0E0,0E0,0E0],"parents":[2147483647,0,0,1,1],"right_children":[2,4,-1,-1,-1],"split_conditions":[7.6E0,5.5E0,2.206246E-4,-2.1089769E-4,-0E0],"split_indices":[1,1,0,0,0],"split_type":[0,0,0,0,0],"sum_hessian":[2.96E2,2.01E2,9.5E1,1.04E2,9.7E1],"tree_param":{"num_deleted":"0","num_feature":"10","num_nodes":"5","size_leaf_vector":"1"}},{"base_weights":[-0E0,-2.348216E-3,3.2560807E-3,-2.8651103E-3,-0E0,-0E0,3.675846E-3,-0E0,-1.6011437E-4,-0E0,1.9079878E-4],"categories":[],"categories_nodes":[],"categories_segments":[],"categories_sizes":[],"default_left":[0,0,0,0,0,0,0,0,0,0,0],"id":11,"left_children":[1,3,5,7,-1,-1,9,-1,-1,-1,-1],"loss_changes":[2.1417732E-3,2.8107793E-4,2.662302E-4,1.1210702E-4,0E0,0E0,3.545964E-5,0E0,0E0,0E0,0E0],"parents":[2147483647,0,0,1,1,2,2,3,3,6,6],"right_children":[2,4,6,8,-1,-1,10,-1,-1,-1,-1],"split_conditions":[6.9E0,1.72E1,4.16E1,2.95E1,-0E0,-0E0,7E0,-0E0,-1.6011437E-4,-0E0,1.9079878E-4],"split_indices":[1,4,3,5,0,0,1,0,0,0,0],"split_type":[0,0,0,0,0,0,0,0,0,0,0],"sum_hessian":[2.7E2,1.48E2,1.22E2,1.33E2,1.5E1,7E0,1.15E2,1.6E1,1.17E2,6E0,1.09E2],"tree_param":{"num_deleted":"0","num_feature":"10","num_nodes":"11","size_leaf_vector":"1"}},{"base_weights":[-0E0,-1.8782326E-3,4.651471E-3,-1.3465298E-4,-0E0,-0E0,4.857849E-3,-0E0,2.5761378E-4],"categories":[],"categories_nodes":[],"categories_segments":[],"categories_sizes":[],"default_left":[0,0,0,0,0,0,0,0,0],"id":12,"left_children":[1,3,5,-1,-1,-1,7,-1,-1],"loss_changes":[2.6532772E-3,4.977837E-4,3.699679E-5,0E0,0E0,0E0,3.814837E-5,0E0,0E0],"parents":[2147483647,0,0,1,1,2,2,6,6],"right_children":[2,4,6,-1,-1,-1,8,-1,-1],"split_conditions":[7.7E0,1.72E1,7.8E0,-1.3465298E-4,-0E0,-0E0,4.38E1,-0E0,2.5761378E-4],"split_indices":[1,4,1,0,0,0,3,0,0],"split_type":[0,0,0,0,0,0,0,0,0],"sum_hessian":[2.81E2,1.92E2,8.9E1,1.61E2,3.1E1,6E0,8.3E1,8E0,7.5E1],"tree_param":{"num_deleted":"0","num_feature":"10","num_nodes":"9","size_leaf_vector":"1"}},{"base_weights":[-0E0,-2.1911587E-3,3.3610712E-3,-3.2215645E-3,-0E0,-0E0,4.1887104E-3,-3.5367021E-3,-0E0,-0E0,2.2943868E-4,-1.8552499E-4,-0E0],"categories":[],"categories_nodes":[],"categories_segments":[],"categories_sizes":[],"default_left":[0,0,0,0,0,0,0,0,0,0,0,0,0],"id":13,"left_children":[1,3,5,7,-1,-1,9,11,-1,-1,-1,-1,-1],"loss_changes":[2.1108133E-3,2.2892165E-4,3.688709E-4,1.4404778E-4,0E0,0E0,1.7216569E-4,1.9503525E-5,0E0,0E0,0E0,0E0,0E0],"parents":[2147483647,0,0,1,1,2,2,3,3,6,6,7,7],"right_children":[2,4,6,8,-1,-1,10,12,-1,-1,-1,-1,-1],"split_conditions":[6.9E0,7.6E0,1.05E1,3.57E-1,-0E0,-0E0,1.5448505E-1,1.86E1,-0E0,-0E0,2.2943868E-4,-1.8552499E-4,-0E0],"split_indices":[1,0,4,6,0,0,8,4,0,0,0,0,0],"split_type":[0,0,0,0,0,0,0,0,0,0,0,0,0],"sum_hessian":[2.76E2,1.6E2,1.16E2,9.5E1,6.5E1,2.1E1,9.5E1,9E1,5E0,8E0,8.7E1,8.3E1,7E0],"tree_param":{"num_deleted":"0","num_feature":"10","num_nodes":"13","size_leaf_vector":"1"}},{"base_weights":[-0E0,-3.280638E-3,1.3676389E-3,-3.5291251E-3,-0E0,-0E0,2.1927552E-3,-1.9277578E-4,-0E0,-0E0,3.1332583E-3,-0E0,1.6164791E-4],"categories":[],"categories_nodes":[],"categories_segments":[],"categories_sizes":[],"default_left":[0,0,0,0,0,0,0,0,0,0,0,0,0],"id":14,"left_children":[1,3,5,7,-1,-1,9,-1,-1,-1,11,-1,-1],"loss_changes":[1.2683322E-3,8.155819E-5,3.4367296E-4,4.417193E-5,0E0,0E0,4.8089155E-4,0E0,0E0,0E0,2.3905304E-5,0E0,0E0],"parents":[2147483647,0,0,1,1,2,2,3,3,6,6,10,10],"right_children":[2,4,6,8,-1,-1,10,-1,-1,-1,12,-1,-1],"split_conditions":[7E0,2.2161423E-1,1.05E1,1.73E1,-0E0,-0E0,8.9E1,-1.9277578E-4,-0E0,-0E0,3.98E1,-0E0,1.6164791E-4],"split_indices":[0,8,4,4,0,0,2,0,0,0,3,0,0],"split_type":[0,0,0,0,0,0,0,0,0,0,0,0,0],"sum_hessian":[2.7E2,8.3E1,1.87E2,7.8E1,5E0,4.4E1,1.43E2,6.8E1,1E1,2.5E1,1.18E2,5E0,1.13E2],"tree_param":{"num_deleted":"0","num_feature":"10","num_nodes":"13","size_leaf_vector":"1"}},{"base_weights":[-0E0,-3.0307416E-3,1.6678263E-3,-1.6866943E-4,-0E0,-0E0,2.1706973E-3,-0E0,2.3713296E-3,-0E0,1.4407965E-4],"categories":[],"categories_nodes":[],"categories_segments":[],"categories_sizes":[],"default_left":[0,0,0,0,0,0,0,0,0,0,0],"id":15,"left_children":[1,3,5,-1,-1,-1,7,-1,9,-1,-1],"loss_changes":[1.4640618E-3,8.6859334E-5,2.962434E-4,0E0,0E0,0E0,1.1099834E-4,0E0,1.909989E-4,0E0,0E0],"parents":[2147483647,0,0,1,1,2,2,6,6,8,8],"right_children":[2,4,6,-1,-1,-1,8,-1,10,-1,-1],"split_conditions":[5.5E0,1.73E1,3.09E-1,-1.6866943E-4,-0E0,-0E0,3.83E1,-0E0,1.05E1,-0E0,1.4407965E-4],"split_indices":[1,4,6,0,0,0,3,0,4,0,0],"split_type":[0,0,0,0,0,0,0,0,0,0,0],"sum_hessian":[2.76E2,1.05E2,1.71E2,9.2E1,1.3E1,8E0,1.63E2,7E0,1.56E2,2.8E1,1.28E2],"tree_param":{"num_deleted":"0","num_feature":"10","num_nodes":"11","size_leaf_vector":"1"}},{"base_weights":[-0E0,-2.2793964E-3,2.6438246E-3,-2.430578E-3,-0E0,-0E0,3.0609558E-3,-0E0,-2.6013362E-3,-0E0,3.2928153E-3,-1.4100222E-4,-0E0,-0E0,1.7234821E-4],"categories":[],"categories_nodes":[],"categories_segments":[],"categories_sizes":[],"default_left":[0,0,0,0,0,0,0,0,0,0,0,0,0,0,0],"id":16,"left_children":[1,3,5,7,-1,-1,9,-1,11,-1,13,-1,-1,-1,-1],"loss_changes":[1.6145359E-3,7.869484E-5,1.12147594E-4,5.187199E-5,0E0,0E0,9.3105074E-5,0E0,2.6060152E-5,0E0,3.9290404E-5,0E0,0E0,0E0,0E0],"parents":[2147483647,0,0,1,1,2,2,3,3,6,6,8,8,10,10],"right_children":[2,4,6,8,-1,-1,10,-1,12,-1,14,-1,-1,-1,-1],"split_conditions":[6.9E0,1.95E1,1.05E1,2.94E1,-0E0,-0E0,4.05E1,-0E0,9.09E1,-0E0,5.7636887E-2,-1.4100222E-4,-0E0,-0E0,1.7234821E-4],"split_indices":[1,4,4,5,0,0,3,0,2,0,9,0,0,0,0],"split_type":[0,0,0,0,0,0,0,0,0,0,0,0,0,0,0],"sum_hessian":[2.66E2,1.5E2,1.16E2,1.45E2,5E0,1.8E1,9.8E1,1.1E1,1.34E2,5E0,9.3E1,1.17E2,1.7E1,5E0,8.8E1],"tree_param":{"num_deleted":"0","num_feature":"10","num_nodes":"15","size_leaf_vector":"1"}},{"base_weights":[-0E0,-1.1373942E-3,3.6657595E-3,-1.9513448E-3,-0E0,-0E0,1.9222245E-4,-1.6219163E-4,-0E0],"categories":[],"categories_nodes":[],"categories_segments":[],"categories_sizes":[],"default_left":[0,0,0,0,0,0,0,0,0],"id":17,"left_children":[1,3,5,7,-1,-1,-1,-1,-1],"loss_changes":[1.261393E-3,3.5568097E-4,2.6750611E-5,1.7994427E-4,0E0,0E0,0E0,0E0,0E0],"parents":[2147483647,0,0,1,1,2,2,3,3],"right_children":[2,4,6,8,-1,-1,-1,-1,-1],"split_conditions":[1.23E1,1.66E1,1.5448505E-1,4.08E1,-0E0,-0E0,1.9222245E-4,-1.6219163E-4,-0E0],"split_indices":[0,4,8,3,0,0,0,0,0],"split_type":[0,0,0,0,0,0,0,0,0],"sum_hessian":[2.67E2,1.94E2,7.3E1,1.58E2,3.6E1,5E0,6.8E1,7.3E1,8.5E1],"tree_param":{"num_deleted":"0","num_feature":"10","num_nodes":"9","size_leaf_vector":"1"}},{"base_weights":[-0E0,-2.3068467E-3,2.517609E-3,-0E0,-2.5334016E-3,-0E0,2.8150845E-3,-1.3704266E-4,-0E0,-0E0,2.9658976E-3,1.528211E-4,-0E0],"categories":[],"categories_nodes":[],"categories_segments":[],"categories_sizes":[],"default_left":[0,0,0,0,0,0,0,0,0,0,0,0,0],"id":18,"left_children":[1,3,5,-1,7,-1,9,-1,-1,-1,11,-1,-1],"loss_changes":[1.6602476E-3,8.746976E-5,1.7611973E-4,0E0,6.835809E-5,0E0,1.7449842E-5,0E0,0E0,0E0,9.369687E-6,0E0,0E0],"parents":[2147483647,0,0,1,1,2,2,4,4,6,6,10,10],"right_children":[2,4,6,-1,8,-1,10,-1,-1,-1,12,-1,-1],"split_conditions":[6.6E0,2.94E1,3.98E1,-0E0,1.86E1,-0E0,8.6E0,-1.3704266E-4,-0E0,-0E0,4.05E1,1.528211E-4,-0E0],"split_indices":[1,5,3,0,4,0,4,0,0,0,5,0,0],"split_type":[0,0,0,0,0,0,0,0,0,0,0,0,0],"sum_hessian":[2.82E2,1.48E2,1.34E2,1.2E1,1.36E2,5E0,1.29E2,1.25E2,1.1E1,1.1E1,1.18E2,1.12E2,6E0],"tree_param":{"num_deleted":"0","num_feature":"10","num_nodes":"13","size_leaf_vector":"1"}},{"base_weights":[-0E0,-1.8600714E-3,2.598445E-3,-2.9584456E-3,-0E0,-0E0,2.92735E-3,-0E0,-1.6048833E-4,-0E0,1.6074908E-4],"categories":[],"categories_nodes":[],"categories_segments":[],"categories_sizes":[],"default_left":[0,0,0,0,0,0,0,0,0,0,0],"id":19,"left_children":[1,3,5,7,-1,-1,9,-1,-1,-1,-1],"loss_changes":[1.2553385E-3,7.257102E-4,1.0488555E-4,7.288798E-5,0E0,0E0,6.968854E-6,0E0,0E0,0E0,0E0],"parents":[2147483647,0,0,1,1,2,2,3,3,6,6],"right_children":[2,4,6,8,-1,-1,10,-1,-1,-1,-1],"split_conditions":[7.7E0,1.61E1,1.5448505E-1,2.95E1,-0E0,-0E0,1.22E1,-0E0,-1.6048833E-4,-0E0,1.6074908E-4],"split_indices":[1,4,8,5,0,0,0,0,0,0,0],"split_type":[0,0,0,0,0,0,0,0,0,0,0],"sum_hessian":[2.77E2,1.93E2,8.4E1,1.58E2,3.5E1,6E0,7.8E1,1.7E1,1.41E2,1.3E1,6.5E1],"tree_param":{"num_deleted":"0","num_feature":"10","num_nodes":"11","size_leaf_vector":"1"}},{"base_weights":[-0E0,-1.5810316E-3,2.1951848E-3,-1.1275557E-4,-0E0,-0E0,1.364985E-4],"categories":[],"categories_nodes":[],"categories_segments":[],"categories_sizes":[],"default_left":[0,0,0,0,0,0,0],"id":20,"left_children":[1,3,5,-1,-1,-1,-1],"loss_changes":[9.468205E-4,3.2331987E-4,2.1122073E-4,0E0,0E0,0E0,0E0],"parents":[2147483647,0,0,1,1,2,2],"right_children":[2,4,6,-1,-1,-1,-1],"split_conditions":[1.12E1,1.66E1,1.6567165E-1,-1.1275557E-4,-0E0,-0E0,1.364985E-4],"split_indices":[0,4,8,0,0,0,0],"split_type":[0,0,0,0,0,0,0],"sum_hessian":[2.82E2,1.84E2,9.8E1,1.53E2,3.1E1,7E0,9.1E1],"tree_param":{"num_deleted":"0","num_feature":"10","num_nodes":"7","size_leaf_vector":"1"}},{"base_weights":[-0E0,-1.4765661E-3,1.7357803E-3,-1.00038575E-4,-0E0,-0E0,2.163881E-3,-0E0,1.21568264E-4],"categories":[],"categories_nodes":[],"categories_segments":[],"categories_sizes":[],"default_left":[0,0,0,0,0,0,0,0,0],"id":21,"left_children":[1,3,5,-1,-1,-1,7,-1,-1],"loss_changes":[6.793851E-4,2.7028075E-4,4.8581394E-5,0E0,0E0,0E0,4.6884234E-5,0E0,0E0],"parents":[2147483647,0,0,1,1,2,2,6,6],"right_children":[2,4,6,-1,-1,-1,8,-1,-1],"split_conditions":[7.6E0,1.8E1,9.05E1,-1.00038575E-4,-0E0,-0E0,8E0,-0E0,1.21568264E-4],"split_indices":[1,4,2,0,0,0,1,0,0],"split_type":[0,0,0,0,0,0,0,0,0],"sum_hessian":[2.74E2,1.88E2,8.6E1,1.69E2,1.9E1,2.1E1,6.5E1,6E0,5.9E1],"tree_param":{"num_deleted":"0","num_feature":"10","num_nodes":"9","size_leaf_vector":"1"}},{"base_weights":[-0E0,-1.0475989E-3,2.3252906E-3,-1.7496871E-3,-0E0,-0E0,1.2413491E-4,-0E0,-1.08372995E-4],"categories":[],"categories_nodes":[],"categories_segments":[],"categories_sizes":[],"default_left":[0,0,0,0,0,0,0,0,0],"id":22,"left_children":[1,3,5,7,-1,-1,-1,-1,-1],"loss_changes":[8.438643E-4,2.2458345E-4,6.302592E-5,1.3287799E-4,0E0,0E0,0E0,0E0,0E0],"parents":[2147483647,0,0,1,1,2,2,3,3],"right_children":[2,4,6,8,-1,-1,-1,-1,-1],"split_conditions":[6.9E0,1.61E1,4.05E1,2.95E1,-0E0,-0E0,1.2413491E-4,-0E0,-1.08372995E-4],"split_indices":[1,4,3,5,0,0,0,0,0],"split_type":[0,0,0,0,0,0,0,0,0],"sum_hessian":[2.78E2,1.56E2,1.22E2,1.28E2,2.8E1,5E0,1.17E2,1.7E1,1.11E2],"tree_param":{"num_deleted":"0","num_feature":"10","num_nodes":"9","size_leaf_vector":"1"}},{"base_weights":[-0E0,-2.0996376E-3,1.6109558E-3,-2.577129E-3,-0E0,-0E0,2.1459428E-3,-1.3803218E-4,-0E0,-0E0,2.3579786E-3,-0E0,1.3342085E-4],"categories":[],"categories_nodes":[],"categories_segments":[],"categories_sizes":[],"default_left":[0,0,0,0,0,0,0,0,0,0,0,0,0],"id":23,"left_children":[1,3,5,7,-1,-1,9,-1,-1,-1,11,-1,-1],"loss_changes":[9.730425E-4,1.6840769E-4,2.1391024E-4,5.908578E-5,0E0,0E0,1.003386E-4,0E0,0E0,0E0,1.16525975E-4,0E0,0E0],"parents":[2147483647,0,0,1,1,2,2,3,3,6,6,10,10],"right_children":[2,4,6,8,-1,-1,10,-1,-1,-1,12,-1,-1],"split_conditions":[8.3E0,1.7E1,1.01E1,9.09E1,-0E0,-0E0,1.5448505E-1,-1.3803218E-4,-0E0,-0E0,8.9E1,-0E0,1.3342085E-4],"split_indices":[0,4,4,2,0,0,8,0,0,0,2,0,0],"split_type":[0,0,0,0,0,0,0,0,0,0,0,0,0],"sum_hessian":[2.85E2,1.21E2,1.64E2,1.05E2,1.6E1,2.6E1,1.38E2,9.9E1,6E0,6E0,1.32E2,1.3E1,1.19E2],"tree_param":{"num_deleted":"0","num_feature":"10","num_nodes":"13","size_leaf_vector":"1"}},{"base_weights":[-0E0,-1.0713339E-3,1.8463772E-3,-9.701237E-5,-0E0,-0E0,2.1554404E-3,-0E0,1.1533667E-4],"categories":[],"categories_nodes":[],"categories_segments":[],"categories_sizes":[],"default_left":[0,0,0,0,0,0,0,0,0],"id":24,"left_children":[1,3,5,-1,-1,-1,7,-1,-1],"loss_changes":[5.7481404E-4,3.7346742E-4,1.044636E-4,0E0,0E0,0E0,4.3324544E-6,0E0,0E0],"parents":[2147483647,0,0,1,1,2,2,6,6],"right_children":[2,4,6,-1,-1,-1,8,-1,-1],"split_conditions":[1.12E1,1.72E1,1.5448505E-1,-9.701237E-5,-0E0,-0E0,1.05E1,-0E0,1.1533667E-4],"split_indices":[0,4,8,0,0,0,4,0,0],"split_type":[0,0,0,0,0,0,0,0,0],"sum_hessian":[2.86E2,1.81E2,1.05E2,1.53E2,2.8E1,6E0,9.9E1,1.2E1,8.7E1],"tree_param":{"num_deleted":"0","num_feature":"10","num_nodes":"9","size_leaf_vector":"1"}},{"base_weights":[-0E0,-1.3230486E-3,2.72642E-3,-2.2023835E-3,-0E0,-0E0,3.2807142E-3,-0E0,-2.372882E-3,-0E0,1.7799798E-4,-1.2645476E-4,-0E0],"categories":[],"categories_nodes":[],"categories_segments":[],"categories_sizes":[],"default_left":[0,0,0,0,0,0,0,0,0,0,0,0,0],"id":25,"left_children":[1,3,5,7,-1,-1,9,-1,11,-1,-1,-1,-1],"loss_changes":[9.779952E-4,4.2733699E-4,1.6130239E-4,2.4242094E-5,0E0,0E0,3.806007E-5,0E0,7.1613467E-6,0E0,0E0,0E0,0E0],"parents":[2147483647,0,0,1,1,2,2,3,3,6,6,8,8],"right_children":[2,4,6,8,-1,-1,10,-1,12,-1,-1,-1,-1],"split_conditions":[7.9E0,1.58E1,1.6608997E-1,2.97E1,-0E0,-0E0,4.38E1,-0E0,7.2E0,-0E0,1.7799798E-4,-1.2645476E-4,-0E0],"split_indices":[1,4,8,5,0,0,3,0,1,0,0,0,0],"split_type":[0,0,0,0,0,0,0,0,0,0,0,0,0],"sum_hessian":[2.82E2,2E2,8.2E1,1.59E2,4.1E1,1.1E1,7.1E1,1.8E1,1.41E2,8E0,6.3E1,1.25E2,1.6E1],"tree_param":{"num_deleted":"0","num_feature":"10","num_nodes":"13","size_leaf_vector":"1"}},{"base_weights":[-0E0,-1.5645949E-3,1.676632E-3,-9.3837974E-5,-0E0,-0E0,2.1227146E-3,-0E0,1.0873014E-4],"categories":[],"categories_nodes":[],"categories_segments":[],"categories_sizes":[],"default_left":[0,0,0,0,0,0,0,0,0],"id":26,"left_children":[1,3,5,-1,-1,-1,7,-1,-1],"loss_changes":[7.33281E-4,7.792795E-5,1.8101244E-4,0E0,0E0,0E0,6.4577907E-6,0E0,0E0],"parents":[2147483647,0,0,1,1,2,2,6,6],"right_children":[2,4,6,-1,-1,-1,8,-1,-1],"split_conditions":[6.3E0,1.73E1,8.8E0,-9.3837974E-5,-0E0,-0E0,-3.16E-1,-0E0,1.0873014E-4],"split_indices":[1,4,4,0,0,0,7,0,0],"split_type":[0,0,0,0,0,0,0,0,0],"sum_hessian":[2.73E2,1.23E2,1.5E2,1.07E2,1.6E1,1.7E1,1.33E2,5E0,1.28E2],"tree_param":{"num_deleted":"0","num_feature":"10","num_nodes":"9","size_leaf_vector":"1"}},{"base_weights":[-0E0,-7.16666E-5,5.721983E-4,-0E0,1.3782826E-3,-0E0,1.6977872E-3,-0E0,9.701128E-5],"categories":[],"categories_nodes":[],"categories_segments":[],"categories_sizes":[],"default_left":[0,0,0,0,0,0,0,0,0],"id":27,"left_children":[1,-1,3,-1,5,-1,7,-1,-1],"loss_changes":[2.472552E-4,0E0,2.3558195E-4,0E0,1.2456084E-4,0E0,9.665487E-5,0E0,0E0],"parents":[2147483647,0,0,2,2,4,4,6,6],"right_children":[2,-1,4,-1,6,-1,8,-1,-1],"split_conditions":[7E0,-7.16666E-5,1.03E1,-0E0,3.8E1,-0E0,5.7636887E-2,-0E0,9.701128E-5],"split_indices":[0,0,4,0,3,0,9,0,0],"split_type":[0,0,0,0,0,0,0,0,0],"sum_hessian":[2.87E2,8.6E1,2.01E2,4.4E1,1.57E2,1.1E1,1.46E2,9E0,1.37E2],"tree_param":{"num_deleted":"0","num_feature":"10","num_nodes":"9","size_leaf_vector":"1"}},{"base_weights":[-0E0,-9.759658E-4,2.3492528E-3,-1.4664652E-3,-0E0,-0E0,2.7677424E-3,-8.358141E-5,-0E0,-0E0,1.6302316E-4],"categories":[],"categories_nodes":[],"categories_segments":[],"categories_sizes":[],"default_left":[0,0,0,0,0,0,0,0,0,0,0],"id":28,"left_children":[1,3,5,7,-1,-1,9,-1,-1,-1,-1],"loss_changes":[6.7311927E-4,3.527329E-5,1.4462305E-4,2.8699447E-5,0E0,0E0,1.2959156E-4,0E0,0E0,0E0,0E0],"parents":[2147483647,0,0,1,1,2,2,3,3,6,6],"right_children":[2,4,6,8,-1,-1,10,-1,-1,-1,-1],"split_conditions":[7.7E0,5.5E0,1.5448505E-1,2.2543353E-1,-0E0,-0E0,4.38E1,-8.358141E-5,-0E0,-0E0,1.6302316E-4],"split_indices":[1,1,8,8,0,0,3,0,0,0,0],"split_type":[0,0,0,0,0,0,0,0,0,0,0],"sum_hessian":[2.76E2,1.89E2,8.7E1,9.9E1,9E1,6E0,8.1E1,8.6E1,1.3E1,1.1E1,7E1],"tree_param":{"num_deleted":"0","num_feature":"10","num_nodes":"11","size_leaf_vector":"1"}},{"base_weights":[-0E0,-1.4948752E-3,7.126469E-5,-1.9055693E-3,-0E0,-0E0,9.117722E-4,-1.0925265E-4,-0E0,-0E0,1.1256544E-3,-0E0,6.391573E-5],"categories":[],"categories_nodes":[],"categories_segments":[],"categories_sizes":[],"default_left":[0,0,0,0,0,0,0,0,0,0,0,0,0],"id":29,"left_children":[1,3,5,7,-1,-1,9,-1,-1,-1,11,-1,-1],"loss_changes":[1.9545076E-4,1.03343235E-4,1.2615722E-4,5.0777337E-5,0E0,0E0,5.400172E-5,0E0,0E0,0E0,2.960235E-5,0E0,0E0],"parents":[2147483647,0,0,1,1,2,2,3,3,6,6,10,10],"right_children":[2,4,6,8,-1,-1,10,-1,-1,-1,12,-1,-1],"split_conditions":[3.92E1,-2.2E-1,1.03E1,1.86E1,-0E0,-0E0,5.5855855E-2,-1.0925265E-4,-0E0,-0E0,8.91E1,-0E0,6.391573E-5],"split_indices":[3,7,4,4,0,0,9,0,0,0,2,0,0],"split_type":[0,0,0,0,0,0,0,0,0,0,0,0,0],"sum_hessian":[2.87E2,8.5E1,2.02E2,8E1,5E0,5.1E1,1.51E2,7.1E1,9E0,1E1,1.41E2,1.4E1,1.27E2],"tree_param":{"num_deleted":"0","num_feature":"10","num_nodes":"13","size_leaf_vector":"1"}},{"base_weights":[-0E0,-6.558749E-4,2.9661716E-3,-1.1958857E-3,-0E0,-0E0,1.5448779E-4,-8.160349E-5,-0E0],"categories":[],"categories_nodes":[],"categories_segments":[],"categories_sizes":[],"default_left":[0,0,0,0,0,0,0,0,0],"id":30,"left_children":[1,3,5,7,-1,-1,-1,-1,-1],"loss_changes":[9.752749E-4,9.08957E-5,9.512412E-6,3.1017044E-5,0E0,0E0,0E0,0E0,0E0],"parents":[2147483647,0,0,1,1,2,2,3,3],"right_children":[2,4,6,8,-1,-1,-1,-1,-1],"split_conditions":[1.12E1,8.2E0,1.6567165E-1,3.92E1,-0E0,-0E0,1.5448779E-4,-8.160349E-5,-0E0],"split_indices":[0,0,8,3,0,0,0,0,0],"split_type":[0,0,0,0,0,0,0,0,0],"sum_hessian":[2.79E2,1.79E2,1E2,1.16E2,6.3E1,7E0,9.3E1,7.3E1,4.3E1],"tree_param":{"num_deleted":"0","num_feature":"10","num_nodes":"9","size_leaf_vector":"1"}},{"base_weights":[-0E0,-2.5554586E-4,2.2511927E-3,-0E0,-6.612955E-4,-0E0,1.2445943E-4,-1.1353368E-3,-0E0,-7.648672E-5,-0E0],"categories":[],"categories_nodes":[],"categories_segments":[],"categories_sizes":[],"default_left":[0,0,0,0,0,0,0,0,0,0,0],"id":31,"left_children":[1,3,5,-1,7,-1,-1,9,-1,-1,-1],"loss_changes":[6.588092E-4,5.1101568E-5,8.244795E-5,0E0,9.345511E-5,0E0,0E0,9.571061E-5,0E0,0E0,0E0],"parents":[2147483647,0,0,1,1,2,2,4,4,7,7],"right_children":[2,4,6,-1,8,-1,-1,10,-1,-1,-1],"split_conditions":[6.9E0,2.95E1,1.5448505E-1,-0E0,1.72E1,-0E0,1.2445943E-4,9.09E1,-0E0,-7.648672E-5,-0E0],"split_indices":[1,5,8,0,4,0,0,2,0,0,0],"split_type":[0,0,0,0,0,0,0,0,0,0,0],"sum_hessian":[2.79E2,1.53E2,1.26E2,1.5E1,1.38E2,1E1,1.16E2,1.18E2,2E1,1.05E2,1.3E1],"tree_param":{"num_deleted":"0","num_feature":"10","num_nodes":"11","size_leaf_vector":"1"}},{"base_weights":[-0E0,-1.032649E-3,1.3106359E-3,-6.8980815E-5,-0E0,-0E0,2.0813034E-3,-0E0,2.3941016E-3,-0E0,1.3239046E-4],"categories":[],"categories_nodes":[],"categories_segments":[],"categories_sizes":[],"default_left":[0,0,0,0,0,0,0,0,0,0,0],"id":32,"left_children":[1,3,5,-1,-1,-1,7,-1,9,-1,-1],"loss_changes":[4.161335E-4,6.259982E-5,2.555073E-4,0E0,0E0,0E0,1.477286E-4,0E0,1.05703366E-4,0E0,0E0],"parents":[2147483647,0,0,1,1,2,2,6,6,8,8],"right_children":[2,4,6,-1,-1,-1,8,-1,10,-1,-1],"split_conditions":[8.3E0,1.73E1,1.14E1,-6.8980815E-5,-0E0,-0E0,3.1E-1,-0E0,1.5448505E-1,-0E0,1.3239046E-4],"split_indices":[0,4,4,0,0,0,6,0,8,0,0],"split_type":[0,0,0,0,0,0,0,0,0,0,0],"sum_hessian":[2.83E2,1.16E2,1.67E2,9.7E1,1.9E1,4.3E1,1.24E2,5E0,1.19E2,7E0,1.12E2],"tree_param":{"num_deleted":"0","num_feature":"10","num_nodes":"11","size_leaf_vector":"1"}},{"base_weights":[-0E0,-3.5589223E-4,1.6586679E-3,-8.2047004E-4,-0E0,-0E0,1.0091893E-4,-0E0,-1.2637001E-3,-6.465508E-5,-0E0],"categories":[],"categories_nodes":[],"categories_segments":[],"categories_sizes":[],"default_left":[0,0,0,0,0,0,0,0,0,0,0],"id":33,"left_children":[1,3,5,7,-1,-1,-1,-1,9,-1,-1],"loss_changes":[2.5867549E-4,8.288216E-5,7.983636E-5,1.2065474E-4,0E0,0E0,0E0,0E0,2.3893372E-6,0E0,0E0],"parents":[2147483647,0,0,1,1,2,2,3,3,8,8],"right_children":[2,4,6,8,-1,-1,-1,-1,10,-1,-1],"split_conditions":[7.8E0,1.66E1,1.821366E-1,2.97E1,-0E0,-0E0,1.0091893E-4,-0E0,1.3122173E-1,-6.465508E-5,-0E0],"split_indices":[1,4,8,5,0,0,0,0,9,0,0],"split_type":[0,0,0,0,0,0,0,0,0,0,0],"sum_hessian":[2.77E2,1.94E2,8.3E1,1.58E2,3.6E1,8E0,7.5E1,1.7E1,1.41E2,1.36E2,5E0],"tree_param":{"num_deleted":"0","num_feature":"10","num_nodes":"11","size_leaf_vector":"1"}},{"base_weights":[-0E0,-6.661327E-4,8.3037146E-4,-3.5077264E-5,-0E0,-0E0,9.04178E-4,-0E0,4.8401693E-5],"categories":[],"categories_nodes":[],"categories_segments":[],"categories_sizes":[],"default_left":[0,0,0,0,0,0,0,0,0],"id":34,"left_children":[1,3,5,-1,-1,-1,7,-1,-1],"loss_changes":[1.5251034E-4,3.0697702E-6,1.0634736E-5,0E0,0E0,0E0,6.591057E-6,0E0,0E0],"parents":[2147483647,0,0,1,1,2,2,6,6],"right_children":[2,4,6,-1,-1,-1,8,-1,-1],"split_conditions":[7E0,1.02E1,8.9E1,-3.5077264E-5,-0E0,-0E0,1.5448505E-1,-0E0,4.8401693E-5],"split_indices":[1,0,2,0,0,0,8,0,0],"split_type":[0,0,0,0,0,0,0,0,0],"sum_hessian":[2.76E2,1.63E2,1.13E2,1.53E2,1E1,5E0,1.08E2,7E0,1.01E2],"tree_param":{"num_deleted":"0","num_feature":"10","num_nodes":"9","size_leaf_vector":"1"}},{"base_weights":[-0E0,-1.8312735E-3,1.4232772E-3,-1.0736515E-4,-0E0,-0E0,2.0185458E-3,-0E0,2.4743855E-3,-0E0,1.3097003E-4],"categories":[],"categories_nodes":[],"categories_segments":[],"categories_sizes":[],"default_left":[0,0,0,0,0,0,0,0,0,0,0],"id":35,"left_children":[1,3,5,-1,-1,-1,7,-1,9,-1,-1],"loss_changes":[7.320575E-4,6.620944E-5,2.1996151E-4,0E0,0E0,0E0,1.9284111E-4,0E0,5.0428323E-5,0E0,0E0],"parents":[2147483647,0,0,1,1,2,2,6,6,8,8],"right_children":[2,4,6,-1,-1,-1,8,-1,10,-1,-1],"split_conditions":[8E0,1.72E1,1.05E1,-1.0736515E-4,-0E0,-0E0,8.9E1,-0E0,5.5855855E-2,-0E0,1.3097003E-4],"split_indices":[0,4,4,0,0,0,2,0,9,0,0],"split_type":[0,0,0,0,0,0,0,0,0,0,0],"sum_hessian":[2.82E2,1.13E2,1.69E2,9.6E1,1.7E1,3.2E1,1.37E2,1.5E1,1.22E2,6E0,1.16E2],"tree_param":{"num_deleted":"0","num_feature":"10","num_nodes":"11","size_leaf_vector":"1"}},{"base_weights":[-0E0,-1.0279943E-3,3.1074008E-4,-5.4330863E-5,-0E0,-0E0,8.4256666E-4,-0E0,9.712983E-4,-0E0,5.5389683E-5],"categories":[],"categories_nodes":[],"categories_segments":[],"categories_sizes":[],"default_left":[0,0,0,0,0,0,0,0,0,0,0],"id":36,"left_children":[1,3,5,-1,-1,-1,7,-1,9,-1,-1],"loss_changes":[1.6012539E-4,7.66122E-6,7.018951E-5,0E0,0E0,0E0,2.3069617E-5,0E0,2.6215617E-5,0E0,0E0],"parents":[2147483647,0,0,1,1,2,2,6,6,8,8],"right_children":[2,4,6,-1,-1,-1,8,-1,10,-1,-1],"split_conditions":[6.5E0,1.86E1,1.05E1,-5.4330863E-5,-0E0,-0E0,3.98E1,-0E0,6.7E0,-0E0,5.5389683E-5],"split_indices":[1,4,4,0,0,0,3,0,1,0,0],"split_type":[0,0,0,0,0,0,0,0,0,0,0],"sum_hessian":[2.82E2,1.36E2,1.46E2,1.28E2,8E0,2.9E1,1.17E2,5E0,1.12E2,5E0,1.07E2],"tree_param":{"num_deleted":"0","num_feature":"10","num_nodes":"11","size_leaf_vector":"1"}},{"base_weights":[-0E0,-1.0192292E-4,1.109276E-4,-0E0,4.3010738E-4,-0E0,7.2646374E-4,-0E0,6.0096976E-5],"categories":[],"categories_nodes":[],"categories_segments":[],"categories_sizes":[],"default_left":[0,0,0,0,0,0,0,0,0],"id":37,"left_children":[1,-1,3,-1,5,-1,7,-1,-1],"loss_changes":[2.6444255E-4,0E0,3.3415647E-5,0E0,3.4117187E-5,0E0,7.8609155E-5,0E0,0E0],"parents":[2147483647,0,0,2,2,4,4,6,6],"right_children":[2,-1,4,-1,6,-1,8,-1,-1],"split_conditions":[6.3E0,-1.0192292E-4,1.5297906E-1,-0E0,6.4E0,-0E0,7.442748E-2,-0E0,6.0096976E-5],"split_indices":[0,0,8,0,1,0,9,0,0],"split_type":[0,0,0,0,0,0,0,0,0],"sum_hessian":[2.75E2,6.1E1,2.14E2,2.1E1,1.93E2,6.2E1,1.31E2,3E1,1.01E2],"tree_param":{"num_deleted":"0","num_feature":"10","num_nodes":"9","size_leaf_vector":"1"}},{"base_weights":[-0E0,-8.585965E-5,2.6882126E-4,-0E0,8.4934954E-4,-0E0,1.2156749E-3,-0E0,7.1179944E-5],"categories":[],"categories_nodes":[],"categories_segments":[],"categories_sizes":[],"default_left":[0,0,0,0,0,0,0,0,0],"id":38,"left_children":[1,-1,3,-1,5,-1,7,-1,-1],"loss_changes":[1.9893769E-4,0E0,1.10128996E-4,0E0,8.656857E-5,0E0,6.888948E-5,0E0,0E0],"parents":[2147483647,0,0,2,2,4,4,6,6],"right_children":[2,-1,4,-1,6,-1,8,-1,-1],"split_conditions":[6.3E0,-8.585965E-5,1.05E1,-0E0,3.88E1,-0E0,3.1E-1,-0E0,7.1179944E-5],"split_indices":[0,0,4,0,3,0,6,0,0],"split_type":[0,0,0,0,0,0,0,0,0],"sum_hessian":[2.81E2,6E1,2.21E2,4.8E1,1.73E2,3.1E1,1.42E2,5E0,1.37E2],"tree_param":{"num_deleted":"0","num_feature":"10","num_nodes":"9","size_leaf_vector":"1"}},{"base_weights":[-0E0,-9.6191514E-5,-0E0,-0E0,6.053849E-4,9.5720426E-4,-0E0,-0E0,5.970159E-5],"categories":[],"categories_nodes":[],"categories_segments":[],"categories_sizes":[],"default_left":[0,0,0,0,0,0,0,0,0],"id":39,"left_children":[1,-1,3,-1,5,7,-1,-1,-1],"loss_changes":[2.3317075E-4,0E0,5.827205E-5,0E0,6.2671636E-5,4.5864617E-5,0E0,0E0,0E0],"parents":[2147483647,0,0,2,2,4,4,5,5],"right_children":[2,-1,4,-1,6,8,-1,-1,-1],"split_conditions":[6.3E0,-9.6191514E-5,1.05E1,-0E0,-2.39E-1,1.5297906E-1,-0E0,-0E0,5.970159E-5],"split_indices":[0,0,4,0,7,8,0,0,0],"split_type":[0,0,0,0,0,0,0,0,0],"sum_hessian":[2.63E2,6.1E1,2.02E2,4.5E1,1.57E2,1.3E2,2.7E1,1.5E1,1.15E2],"tree_param":{"num_deleted":"0","num_feature":"10","num_nodes":"9","size_leaf_vector":"1"}},{"base_weights":[-0E0,-1.0683566E-3,9.147681E-5,-6.1215505E-5,-0E0,-0E0,3.4555944E-4,-0E0,4.9854035E-4,-0E0,2.8912791E-5],"categories":[],"categories_nodes":[],"categories_segments":[],"categories_sizes":[],"default_left":[0,0,0,0,0,0,0,0,0,0,0],"id":40,"left_children":[1,3,5,-1,-1,-1,7,-1,9,-1,-1],"loss_changes":[1.12229034E-4,1.819402E-5,1.9262963E-5,0E0,0E0,0E0,1.8740679E-5,0E0,1.1641856E-5,0E0,0E0],"parents":[2147483647,0,0,1,1,2,2,6,6,8,8],"right_children":[2,4,6,-1,-1,-1,8,-1,10,-1,-1],"split_conditions":[5.5E0,2.2543353E-1,3.09E-1,-6.1215505E-5,-0E0,-0E0,1.5297906E-1,-0E0,2.92E1,-0E0,2.8912791E-5],"split_indices":[1,8,6,0,0,0,8,0,5,0,0],"split_type":[0,0,0,0,0,0,0,0,0,0,0],"sum_hessian":[2.74E2,9.5E1,1.79E2,8.4E1,1.1E1,7E0,1.72E2,1.5E1,1.57E2,6E0,1.51E2],"tree_param":{"num_deleted":"0","num_feature":"10","num_nodes":"11","size_leaf_vector":"1"}},{"base_weights":[-0E0,-1.8000263E-3,1.5180213E-4,-9.6596836E-5,-0E0,-0E0,6.415793E-4,-0E0,1.0684064E-3,-0E0,6.5305816E-5],"categories":[],"categories_nodes":[],"categories_segments":[],"categories_sizes":[],"default_left":[0,0,0,0,0,0,0,0,0,0,0],"id":41,"left_children":[1,3,5,-1,-1,-1,7,-1,9,-1,-1],"loss_changes":[1.899855E-4,9.398325E-6,6.755735E-5,0E0,0E0,0E0,9.4941934E-5,0E0,6.762032E-5,0E0,0E0],"parents":[2147483647,0,0,1,1,2,2,6,6,8,8],"right_children":[2,4,6,-1,-1,-1,8,-1,10,-1,-1],"split_conditions":[6E0,1.1111111E-1,1.05E1,-9.6596836E-5,-0E0,-0E0,3.88E1,-0E0,5.5855855E-2,-0E0,6.5305816E-5],"split_indices":[0,9,4,0,0,0,3,0,9,0,0],"split_type":[0,0,0,0,0,0,0,0,0,0,0],"sum_hessian":[2.83E2,5.5E1,2.28E2,5E1,5E0,5.3E1,1.75E2,3E1,1.45E2,9E0,1.36E2],"tree_param":{"num_deleted":"0","num_feature":"10","num_nodes":"11","size_leaf_vector":"1"}},{"base_weights":[-0E0,-4.9753103E-4,1.3976878E-3,-8.6504343E-4,-0E0,-0E0,1.8324066E-3,-4.7586345E-5,-0E0,-0E0,1.9733538E-3,1.02109094E-4,-0E0],"categories":[],"categories_nodes":[],"categories_segments":[],"categories_sizes":[],"default_left":[0,0,0,0,0,0,0,0,0,0,0,0,0],"id":42,"left_children":[1,3,5,7,-1,-1,9,-1,-1,-1,11,-1,-1],"loss_changes":[3.2672152E-4,3.6191468E-5,1.08491775E-4,6.9663947E-6,0E0,0E0,3.6574114E-5,0E0,0E0,0E0,1.0102143E-5,0E0,0E0],"parents":[2147483647,0,0,1,1,2,2,3,3,6,6,10,10],"right_children":[2,4,6,8,-1,-1,10,-1,-1,-1,12,-1,-1],"split_conditions":[6.4E0,8.93E1,1.05E1,1.86E1,-0E0,-0E0,8.91E1,-4.7586345E-5,-0E0,-0E0,3.0217028E-1,1.02109094E-4,-0E0],"split_indices":[1,2,4,4,0,0,2,0,0,0,8,0,0],"split_type":[0,0,0,0,0,0,0,0,0,0,0,0,0],"sum_hessian":[2.89E2,1.42E2,1.47E2,9.4E1,4.8E1,3E1,1.17E2,8.5E1,9E0,7E0,1.1E2,1.05E2,5E0],"tree_param":{"num_deleted":"0","num_feature":"10","num_nodes":"13","size_leaf_vector":"1"}},{"base_weights":[-0E0,-1.4252898E-5,5.8199844E-4,-0E0,1.1130241E-3,-0E0,1.4198858E-3,8.596531E-5,-0E0],"categories":[],"categories_nodes":[],"categories_segments":[],"categories_sizes":[],"default_left":[0,0,0,0,0,0,0,0,0],"id":43,"left_children":[1,-1,3,-1,5,-1,7,-1,-1],"loss_changes":[5.858084E-5,0E0,9.684367E-5,0E0,7.077788E-5,0E0,7.988124E-5,0E0,0E0],"parents":[2147483647,0,0,2,2,4,4,6,6],"right_children":[2,-1,4,-1,6,-1,8,-1,-1],"split_conditions":[6.4E0,-1.4252898E-5,1.01E1,-0E0,8.91E1,-0E0,4.05E1,8.596531E-5,-0E0],"split_indices":[1,0,4,0,2,0,5,0,0],"split_type":[0,0,0,0,0,0,0,0,0],"sum_hessian":[2.67E2,1.27E2,1.4E2,2.5E1,1.15E2,1E1,1.05E2,9.8E1,7E0],"tree_param":{"num_deleted":"0","num_feature":"10","num_nodes":"9","size_leaf_vector":"1"}},{"base_weights":[-0E0,-4.2058018E-4,2.2625587E-4,-2.9036513E-5,-0E0,-0E0,7.357872E-4,3.822456E-5,-0E0],"categories":[],"categories_nodes":[],"categories_segments":[],"categories_sizes":[],"default_left":[0,0,0,0,0,0,0,0,0],"id":44,"left_children":[1,3,5,-1,-1,-1,7,-1,-1],"loss_changes":[2.3723867E-5,9.11907E-6,8.029669E-5,0E0,0E0,0E0,4.2263855E-6,0E0,0E0],"parents":[2147483647,0,0,1,1,2,2,6,6],"right_children":[2,4,6,-1,-1,-1,8,-1,-1],"split_conditions":[3.88E1,2.1116929E-1,7E0,-2.9036513E-5,-0E0,-0E0,-2.17E-1,3.822456E-5,-0E0],"split_indices":[3,8,0,0,0,0,7,0,0],"split_type":[0,0,0,0,0,0,0,0,0],"sum_hessian":[2.63E2,7.8E1,1.85E2,6.7E1,1.1E1,2.1E1,1.64E2,1.59E2,5E0],"tree_param":{"num_deleted":"0","num_feature":"10","num_nodes":"9","size_leaf_vector":"1"}},{"base_weights":[-0E0,-5.941299E-4,-0E0,-8.8023243E-4,-0E0,-5.420099E-5,-0E0],"categories":[],"categories_nodes":[],"categories_segments":[],"categories_sizes":[],"default_left":[0,0,0,0,0,0,0],"id":45,"left_children":[1,3,-1,5,-1,-1,-1],"loss_changes":[3.847595E-5,3.4356108E-5,0E0,3.0576637E-5,0E0,0E0,0E0],"parents":[2147483647,0,0,1,1,3,3],"right_children":[2,4,-1,6,-1,-1,-1],"split_conditions":[8E0,1.7E1,-0E0,2.3255815E-1,-0E0,-5.420099E-5,-0E0],"split_indices":[0,4,0,8,0,0,0],"split_type":[0,0,0,0,0,0,0],"sum_hessian":[2.7E2,1.07E2,1.63E2,9.2E1,1.5E1,8.6E1,6E0],"tree_param":{"num_deleted":"0","num_feature":"10","num_nodes":"7","size_leaf_vector":"1"}},{"base_weights":[-0E0,-6.172495E-4,2.3246459E-3,-8.549497E-5,-0E0,-0E0,2.768739E-3,-0E0,1.483208E-4],"categories":[],"categories_nodes":[],"categories_segments":[],"categories_sizes":[],"default_left":[0,0,0,0,0,0,0,0,0],"id":46,"left_children":[1,3,5,-1,-1,-1,7,-1,-1],"loss_changes":[5.4672646E-4,1.1053998E-4,1.4312717E-4,0E0,0E0,0E0,2.7005444E-6,0E0,0E0],"parents":[2147483647,0,0,1,1,2,2,6,6],"right_children":[2,4,6,-1,-1,-1,8,-1,-1],"split_conditions":[7.8E0,6.3E0,1.5448505E-1,-8.549497E-5,-0E0,-0E0,8.1E0,-0E0,1.483208E-4],"split_indices":[1,0,8,0,0,0,1,0,0],"split_type":[0,0,0,0,0,0,0,0,0],"sum_hessian":[2.84E2,1.99E2,8.5E1,6.2E1,1.37E2,7E0,7.8E1,1E1,6.8E1],"tree_param":{"num_deleted":"0","num_feature":"10","num_nodes":"9","size_leaf_vector":"1"}},{"base_weights":[-0E0,-8.5107767E-4,-0E0,-7.420648E-5,-0E0,-0E0,5.571932E-4,-0E0,7.855329E-4,-0E0,4.8365786E-5],"categories":[],"categories_nodes":[],"categories_segments":[],"categories_sizes":[],"default_left":[0,0,0,0,0,0,0,0,0,0,0],"id":47,"left_children":[1,3,5,-1,-1,-1,7,-1,9,-1,-1],"loss_changes":[7.098465E-5,9.641603E-5,4.1602212E-5,0E0,0E0,0E0,3.7381706E-5,0E0,3.4235738E-5,0E0,0E0],"parents":[2147483647,0,0,1,1,2,2,6,6,8,8],"right_children":[2,4,6,-1,-1,-1,8,-1,10,-1,-1],"split_conditions":[3.98E1,1.66E1,1.05E1,-7.420648E-5,-0E0,-0E0,5.5855855E-2,-0E0,1.5448505E-1,-0E0,4.8365786E-5],"split_indices":[3,4,4,0,0,0,9,0,8,0,0],"split_type":[0,0,0,0,0,0,0,0,0,0,0],"sum_hessian":[2.78E2,9.6E1,1.82E2,7.4E1,2.2E1,5E1,1.32E2,6E0,1.26E2,7E0,1.19E2],"tree_param":{"num_deleted":"0","num_feature":"10","num_nodes":"11","size_leaf_vector":"1"}},{"base_weights":[-0E0,-3.870257E-5,-0E0,-0E0,6.1899185E-4,-0E0,3.503462E-5],"categories":[],"categories_nodes":[],"categories_segments":[],"categories_sizes":[],"default_left":[0,0,0,0,0,0,0],"id":48,"left_children":[1,-1,3,-1,5,-1,-1],"loss_changes":[5.0928214E-5,0E0,4.5978108E-5,0E0,1.0483429E-5,0E0,0E0],"parents":[2147483647,0,0,2,2,4,4],"right_children":[2,-1,4,-1,6,-1,-1],"split_conditions":[3.88E1,-3.870257E-5,1.2E1,-0E0,3.15E-1,-0E0,3.503462E-5],"split_indices":[3,0,4,0,6,0,0],"split_type":[0,0,0,0,0,0,0],"sum_hessian":[2.79E2,8.3E1,1.96E2,7.8E1,1.18E2,5E0,1.13E2],"tree_param":{"num_deleted":"0","num_feature":"10","num_nodes":"7","size_leaf_vector":"1"}},{"base_weights":[-0E0,-4.003485E-5,2.3773752E-4,-0E0,7.567913E-4,-0E0,9.810961E-4,-0E0,6.478058E-5],"categories":[],"categories_nodes":[],"categories_segments":[],"categories_sizes":[],"default_left":[0,0,0,0,0,0,0,0,0],"id":49,"left_children":[1,-1,3,-1,5,-1,7,-1,-1],"loss_changes":[5.8896538E-5,0E0,8.4124076E-5,0E0,5.4901117E-5,0E0,6.374168E-5,0E0,0E0],"parents":[2147483647,0,0,2,2,4,4,6,6],"right_children":[2,-1,4,-1,6,-1,8,-1,-1],"split_conditions":[6.6E0,-4.003485E-5,1.05E1,-0E0,5.7636887E-2,-0E0,8.91E1,-0E0,6.478058E-5],"split_indices":[0,0,4,0,9,0,2,0,0],"split_type":[0,0,0,0,0,0,0,0,0],"sum_hessian":[2.83E2,7.1E1,2.12E2,4.6E1,1.66E2,1.1E1,1.55E2,2.9E1,1.26E2],"tree_param":{"num_deleted":"0","num_feature":"10","num_nodes":"9","size_leaf_vector":"1"}},{"base_weights":[-0E0,-1.0256241E-3,4.0658077E-5,-7.805824E-5,-0E0],"categories":[],"categories_nodes":[],"categories_segments":[],"categories_sizes":[],"default_left":[0,0,0,0,0],"id":50,"left_children":[1,3,-1,-1,-1],"loss_changes":[2.6027422E-4,2.15135E-4,0E0,0E0,0E0],"parents":[2147483647,0,0,1,1],"right_children":[2,4,-1,-1,-1],"split_conditions":[7.8E0,1.8E1,4.0658077E-5,-7.805824E-5,-0E0],"split_indices":[1,4,0,0,0],"split_type":[0,0,0,0,0],"sum_hessian":[2.75E2,1.92E2,8.3E1,1.7E2,2.2E1],"tree_param":{"num_deleted":"0","num_feature":"10","num_nodes":"5","size_leaf_vector":"1"}},{"base_weights":[-0E0,-8.0240925E-4,-0E0,-1.4753649E-3,-0E0,-0E0,-8.0943326E-5],"categories":[],"categories_nodes":[],"categories_segments":[],"categories_sizes":[],"default_left":[0,0,0,0,0,0,0],"id":51,"left_children":[1,3,-1,5,-1,-1,-1],"loss_changes":[1.2812826E-4,2.6803144E-4,0E0,3.626049E-5,0E0,0E0,0E0],"parents":[2147483647,0,0,1,1,3,3],"right_children":[2,4,-1,6,-1,-1,-1],"split_conditions":[7.6E0,1.86E1,-0E0,2.95E1,-0E0,-0E0,-8.0943326E-5],"split_indices":[1,4,0,5,0,0,0],"split_type":[0,0,0,0,0,0,0],"sum_hessian":[2.81E2,1.97E2,8.4E1,1.8E2,1.7E1,1.7E1,1.63E2],"tree_param":{"num_deleted":"0","num_feature":"10","num_nodes":"7","size_leaf_vector":"1"}},{"base_weights":[-0E0,-1.7309727E-5,3.9032506E-4,-0E0,7.583426E-4,-0E0,1.0065297E-3,-0E0,5.7165318E-5],"categories":[],"categories_nodes":[],"categories_segments":[],"categories_sizes":[],"default_left":[0,0,0,0,0,0,0,0,0],"id":52,"left_children":[1,-1,3,-1,5,-1,7,-1,-1],"loss_changes":[4.036147E-5,0E0,6.243745E-5,0E0,5.7076526E-5,0E0,3.7571386E-5,0E0,0E0],"parents":[2147483647,0,0,2,2,4,4,6,6],"right_children":[2,-1,4,-1,6,-1,8,-1,-1],"split_conditions":[6.5E0,-1.7309727E-5,8.93E1,-0E0,1.576507E-1,-0E0,6.3E0,-0E0,5.7165318E-5],"split_indices":[0,0,2,0,8,0,4,0,0],"split_type":[0,0,0,0,0,0,0,0,0],"sum_hessian":[2.75E2,6.4E1,2.11E2,4.8E1,1.63E2,1.5E1,1.48E2,5E0,1.43E2],"tree_param":{"num_deleted":"0","num_feature":"10","num_nodes":"9","size_leaf_vector":"1"}},{"base_weights":[-0E0,-5.1973155E-4,6.295056E-4,-6.5439654E-4,-0E0,-0E0,9.52943E-4,-0E0,-3.4769462E-5,-0E0,1.2548427E-3,7.6445474E-5,-0E0],"categories":[],"categories_nodes":[],"categories_segments":[],"categories_sizes":[],"default_left":[0,0,0,0,0,0,0,0,0,0,0,0,0],"id":53,"left_children":[1,3,5,7,-1,-1,9,-1,-1,-1,11,-1,-1],"loss_changes":[9.662924E-5,1.1311557E-5,7.6443066E-5,2.8530594E-6,0E0,0E0,8.375007E-5,0E0,0E0,0E0,5.9247745E-5,0E0,0E0],"parents":[2147483647,0,0,1,1,2,2,3,3,6,6,10,10],"right_children":[2,4,6,8,-1,-1,10,-1,-1,-1,12,-1,-1],"split_conditions":[8.3E0,1.72E1,3.1E-1,2.89E1,-0E0,-0E0,1.5448505E-1,-0E0,-3.4769462E-5,-0E0,-2.39E-1,7.6445474E-5,-0E0],"split_indices":[0,4,6,5,0,0,8,0,0,0,7,0,0],"split_type":[0,0,0,0,0,0,0,0,0,0,0,0,0],"sum_hessian":[2.79E2,1.21E2,1.58E2,1.02E2,1.9E1,6E0,1.52E2,6E0,9.6E1,1.2E1,1.4E2,1.19E2,2.1E1],"tree_param":{"num_deleted":"0","num_feature":"10","num_nodes":"13","size_leaf_vector":"1"}},{"base_weights":[-0E0,-1.7489133E-3,2.4287676E-5,-1.1856448E-4,-0E0,-0E0,6.0401455E-4,-0E0,7.526884E-4,-0E0,4.114697E-5],"categories":[],"categories_nodes":[],"categories_segments":[],"categories_sizes":[],"default_left":[0,0,0,0,0,0,0,0,0,0,0],"id":54,"left_children":[1,3,5,-1,-1,-1,7,-1,9,-1,-1],"loss_changes":[2.8151582E-4,1.2907982E-4,4.585342E-5,0E0,0E0,0E0,2.2582284E-5,0E0,1.0007272E-5,0E0,0E0],"parents":[2147483647,0,0,1,1,2,2,6,6,8,8],"right_children":[2,4,6,-1,-1,-1,8,-1,10,-1,-1],"split_conditions":[3.98E1,1.66E1,1.14E1,-1.1856448E-4,-0E0,-0E0,5.4158606E-2,-0E0,3.18E-1,-0E0,4.114697E-5],"split_indices":[3,4,4,0,0,0,9,0,6,0,0],"split_type":[0,0,0,0,0,0,0,0,0,0,0],"sum_hessian":[2.84E2,9E1,1.94E2,7.1E1,1.9E1,7E1,1.24E2,5E0,1.19E2,5E0,1.14E2],"tree_param":{"num_deleted":"0","num_feature":"10","num_nodes":"11","size_leaf_vector":"1"}},{"base_weights":[-0E0,-3.7823452E-4,-0E0,-0E0,-2.6874264E-5],"categories":[],"categories_nodes":[],"categories_segments":[],"categories_sizes":[],"default_left":[0,0,0,0,0],"id":55,"left_children":[1,3,-1,-1,-1],"loss_changes":[2.217451E-5,1.7692368E-5,0E0,0E0,0E0],"parents":[2147483647,0,0,1,1],"right_children":[2,4,-1,-1,-1],"split_conditions":[6.9E0,2.95E1,-0E0,-0E0,-2.6874264E-5],"split_indices":[1,5,0,0,0],"split_type":[0,0,0,0,0],"sum_hessian":[2.74E2,1.53E2,1.21E2,1.7E1,1.36E2],"tree_param":{"num_deleted":"0","num_feature":"10","num_nodes":"5","size_leaf_vector":"1"}},{"base_weights":[-0E0,-6.999838E-5,8.604312E-6,-0E0,5.5853394E-4,-0E0,1.0849443E-3,-0E0,5.9410493E-5],"categories":[],"categories_nodes":[],"categories_segments":[],"categories_sizes":[],"default_left":[0,0,0,0,0,0,0,0,0],"id":56,"left_children":[1,-1,3,-1,5,-1,7,-1,-1],"loss_changes":[1.2152954E-4,0E0,5.208217E-5,0E0,8.6800974E-5,0E0,1.6404374E-5,0E0,0E0],"parents":[2147483647,0,0,2,2,4,4,6,6],"right_children":[2,-1,4,-1,6,-1,8,-1,-1],"split_conditions":[6.3E0,-6.999838E-5,1.02E1,-0E0,8.94E1,-0E0,1.5297906E-1,-0E0,5.9410493E-5],"split_indices":[0,0,4,0,2,0,8,0,0],"split_type":[0,0,0,0,0,0,0,0,0],"sum_hessian":[2.63E2,6E1,2.03E2,3.8E1,1.65E2,4.9E1,1.16E2,8E0,1.08E2],"tree_param":{"num_deleted":"0","num_feature":"10","num_nodes":"9","size_leaf_vector":"1"}},{"base_weights":[-0E0,-3.079134E-4,3.473648E-4,-9.0147066E-4,-0E0,4.4964894E-4,-0E0,-0E0,-4.9699127E-5,-0E0,5.891861E-4,-0E0,3.8055685E-5],"categories":[],"categories_nodes":[],"categories_segments":[],"categories_sizes":[],"default_left":[0,0,0,0,0,0,0,0,0,0,0,0,0],"id":57,"left_children":[1,3,5,7,-1,9,-1,-1,-1,-1,11,-1,-1],"loss_changes":[2.979589E-5,1.2965788E-4,6.244526E-6,1.1341384E-5,0E0,8.704908E-6,0E0,0E0,0E0,0E0,9.0692665E-6,0E0,0E0],"parents":[2147483647,0,0,1,1,2,2,3,3,5,5,10,10],"right_children":[2,4,6,8,-1,10,-1,-1,-1,-1,12,-1,-1],"split_conditions":[7.6E0,1.86E1,4.09E1,2.97E1,-0E0,4.38E1,-0E0,-0E0,-4.9699127E-5,-0E0,1.23E1,-0E0,3.8055685E-5],"split_indices":[1,4,5,5,0,3,0,0,0,0,0,0,0],"split_type":[0,0,0,0,0,0,0,0,0,0,0,0,0],"sum_hessian":[2.86E2,1.99E2,8.7E1,1.81E2,1.8E1,8.2E1,5E0,2.1E1,1.6E2,1E1,7.2E1,1.4E1,5.8E1],"tree_param":{"num_deleted":"0","num_feature":"10","num_nodes":"13","size_leaf_vector":"1"}},{"base_weights":[-0E0,-4.044439E-4,-0E0,-0E0,-7.1604276E-4,-9.202075E-4,-0E0,-5.0767103E-5,-0E0],"categories":[],"categories_nodes":[],"categories_segments":[],"categories_sizes":[],"default_left":[0,0,0,0,0,0,0,0,0],"id":58,"left_children":[1,3,-1,-1,5,7,-1,-1,-1],"loss_changes":[2.6171978E-5,4.817202E-5,0E0,0E0,4.2511892E-5,1.6998529E-6,0E0,0E0,0E0],"parents":[2147483647,0,0,1,1,4,4,5,5],"right_children":[2,4,-1,-1,6,8,-1,-1,-1],"split_conditions":[7E0,2.95E1,-0E0,-0E0,1.96E1,9.09E1,-0E0,-5.0767103E-5,-0E0],"split_indices":[1,5,0,0,4,2,0,0,0],"split_type":[0,0,0,0,0,0,0,0,0],"sum_hessian":[2.64E2,1.58E2,1.06E2,1.5E1,1.43E2,1.36E2,7E0,1.13E2,2.3E1],"tree_param":{"num_deleted":"0","num_feature":"10","num_nodes":"9","size_leaf_vector":"1"}},{"base_weights":[-0E0,-4.9843435E-4,1.132783E-3,-7.935128E-4,-0E0,6.123996E-5,-0E0,-0E0,-4.7947946E-5],"categories":[],"categories_nodes":[],"categories_segments":[],"categories_sizes":[],"default_left":[0,0,0,0,0,0,0,0,0],"id":59,"left_children":[1,3,5,7,-1,-1,-1,-1,-1],"loss_changes":[2.0627608E-4,4.7409118E-5,1.898392E-5,2.5877926E-5,0E0,0E0,0E0,0E0,0E0],"parents":[2147483647,0,0,1,1,2,2,3,3],"right_children":[2,4,6,8,-1,-1,-1,-1,-1],"split_conditions":[6.9E0,1.66E1,4.09E1,2.95E1,-0E0,6.123996E-5,-0E0,-0E0,-4.7947946E-5],"split_indices":[1,4,5,5,0,0,0,0,0],"split_type":[0,0,0,0,0,0,0,0,0],"sum_hessian":[2.89E2,1.62E2,1.27E2,1.38E2,2.4E1,1.21E2,6E0,1.6E1,1.22E2],"tree_param":{"num_deleted":"0","num_feature":"10","num_nodes":"9","size_leaf_vector":"1"}},{"base_weights":[-0E0,-6.3084025E-4,-0E0,-3.7595248E-5,-0E0],"categories":[],"categories_nodes":[],"categories_segments":[],"categories_sizes":[],"default_left":[0,0,0,0,0],"id":60,"left_children":[1,3,-1,-1,-1],"loss_changes":[3.9397983E-5,1.2615234E-5,0E0,0E0,0E0],"parents":[2147483647,0,0,1,1],"right_children":[2,4,-1,-1,-1],"split_conditions":[5.3E0,2.3255815E-1,-0E0,-3.7595248E-5,-0E0],"split_indices":[1,8,0,0,0],"split_type":[0,0,0,0,0],"sum_hessian":[2.83E2,9.7E1,1.86E2,9E1,7E0],"tree_param":{"num_deleted":"0","num_feature":"10","num_nodes":"5","size_leaf_vector":"1"}},{"base_weights":[-0E0,-3.1535805E-4,8.52442E-4,-4.6536486E-5,-0E0,-0E0,1.3179581E-3,-0E0,7.455287E-5],"categories":[],"categories_nodes":[],"categories_segments":[],"categories_sizes":[],"default_left":[0,0,0,0,0,0,0,0,0],"id":61,"left_children":[1,3,5,-1,-1,-1,7,-1,-1],"loss_changes":[8.717093E-5,1.14678165E-4,6.443389E-5,0E0,0E0,0E0,2.3614615E-5,0E0,0E0],"parents":[2147483647,0,0,1,1,2,2,6,6],"right_children":[2,4,6,-1,-1,-1,8,-1,-1],"split_conditions":[7.8E0,1.58E1,9.03E1,-4.6536486E-5,-0E0,-0E0,8.6E0,-0E0,7.455287E-5],"split_indices":[1,4,2,0,0,0,4,0,0],"split_type":[0,0,0,0,0,0,0,0,0],"sum_hessian":[2.86E2,1.95E2,9.1E1,1.53E2,4.2E1,1.7E1,7.4E1,6E0,6.8E1],"tree_param":{"num_deleted":"0","num_feature":"10","num_nodes":"9","size_leaf_vector":"1"}},{"base_weights":[-0E0,-4.1003228E-4,-0E0,-1.106883E-3,-0E0,-0E0,-6.605748E-5],"categories":[],"categories_nodes":[],"categories_segments":[],"categories_sizes":[],"default_left":[0,0,0,0,0,0,0],"id":62,"left_children":[1,3,-1,5,-1,-1,-1],"loss_changes":[3.4129673E-5,1.6190074E-4,0E0,5.3566924E-5,0E0,0E0,0E0],"parents":[2147483647,0,0,1,1,3,3],"right_children":[2,4,-1,6,-1,-1,-1],"split_conditions":[7.8E0,1.66E1,-0E0,2.97E1,-0E0,-0E0,-6.605748E-5],"split_indices":[1,4,0,5,0,0,0],"split_type":[0,0,0,0,0,0,0],"sum_hessian":[2.71E2,2.01E2,7E1,1.58E2,4.3E1,1.7E1,1.41E2],"tree_param":{"num_deleted":"0","num_feature":"10","num_nodes":"7","size_leaf_vector":"1"}},{"base_weights":[-0E0,-1.4563867E-4,-0E0,-2.4414901E-5,-0E0,-0E0,3.932049E-4,-0E0,5.6373747E-4,3.5721918E-5,-0E0],"categories":[],"categories_nodes":[],"categories_segments":[],"categories_sizes":[],"default_left":[0,0,0,0,0,0,0,0,0,0,0],"id":63,"left_children":[1,3,5,-1,-1,-1,7,-1,9,-1,-1],"loss_changes":[1.6544285E-6,1.3843844E-5,2.2418462E-5,0E0,0E0,0E0,2.2073535E-5,0E0,2.3394143E-5,0E0,0E0],"parents":[2147483647,0,0,1,1,2,2,6,6,8,8],"right_children":[2,4,6,-1,-1,-1,8,-1,10,-1,-1],"split_conditions":[3.88E1,2.1116929E-1,1.05E1,-2.4414901E-5,-0E0,-0E0,3.1E-1,-0E0,4.09E1,3.5721918E-5,-0E0],"split_indices":[3,8,4,0,0,0,6,0,5,0,0],"split_type":[0,0,0,0,0,0,0,0,0,0,0],"sum_hessian":[2.76E2,7.6E1,2E2,6.3E1,1.3E1,5.7E1,1.43E2,5E0,1.38E2,1.31E2,7E0],"tree_param":{"num_deleted":"0","num_feature":"10","num_nodes":"11","size_leaf_vector":"1"}},{"base_weights":[-0E0],"categories":[],"categories_nodes":[],"categories_segments":[],"categories_sizes":[],"default_left":[0],"id":64,"left_children":[-1],"loss_changes":[0E0],"parents":[2147483647],"right_children":[-1],"split_conditions":[-0E0],"split_indices":[0],"split_type":[0],"sum_hessian":[2.77E2],"tree_param":{"num_deleted":"0","num_feature":"10","num_nodes":"1","size_leaf_vector":"1"}},{"base_weights":[-0E0,-3.8232093E-4,-0E0,-2.509339E-5,-0E0,-0E0,1.1598895E-4,-0E0,1.5035707E-5],"categories":[],"categories_nodes":[],"categories_segments":[],"categories_sizes":[],"default_left":[0,0,0,0,0,0,0,0,0],"id":65,"left_children":[1,3,5,-1,-1,-1,7,-1,-1],"loss_changes":[2.7625996E-5,1.7710838E-5,1.1569955E-6,0E0,0E0,0E0,5.625179E-6,0E0,0E0],"parents":[2147483647,0,0,1,1,2,2,6,6],"right_children":[2,4,6,-1,-1,-1,8,-1,-1],"split_conditions":[7.7E0,2.6712328E-1,1.5448505E-1,-2.509339E-5,-0E0,-0E0,4.38E1,-0E0,1.5035707E-5],"split_indices":[1,8,8,0,0,0,3,0,0],"split_type":[0,0,0,0,0,0,0,0,0],"sum_hessian":[2.77E2,1.87E2,9E1,1.78E2,9E0,6E0,8.4E1,1.1E1,7.3E1],"tree_param":{"num_deleted":"0","num_feature":"10","num_nodes":"9","size_leaf_vector":"1"}},{"base_weights":[-0E0,-1.8387604E-5,8.444636E-4,-0E0,-2.3004404E-4,-0E0,1.0913364E-3,-2.3277353E-5,-0E0,-0E0,1.2777026E-3,-0E0,8.591911E-5],"categories":[],"categories_nodes":[],"categories_segments":[],"categories_sizes":[],"default_left":[0,0,0,0,0,0,0,0,0,0,0,0,0],"id":66,"left_children":[1,3,5,-1,7,-1,9,-1,-1,-1,11,-1,-1],"loss_changes":[6.995023E-5,9.249388E-6,3.9687744E-5,0E0,2.6447155E-5,0E0,2.4293578E-5,0E0,0E0,0E0,7.57845E-5,0E0,0E0],"parents":[2147483647,0,0,1,1,2,2,4,4,6,6,10,10],"right_children":[2,4,6,-1,8,-1,10,-1,-1,-1,12,-1,-1],"split_conditions":[7.7E0,2.95E1,1.5297906E-1,-0E0,2.6712328E-1,-0E0,4.38E1,-2.3277353E-5,-0E0,-0E0,8.1E0,-0E0,8.591911E-5],"split_indices":[1,5,8,0,8,0,3,0,0,0,1,0,0],"split_type":[0,0,0,0,0,0,0,0,0,0,0,0,0],"sum_hessian":[2.85E2,1.89E2,9.6E1,1.5E1,1.74E2,6E0,9E1,1.63E2,1.1E1,1E1,8E1,1.1E1,6.9E1],"tree_param":{"num_deleted":"0","num_feature":"10","num_nodes":"13","size_leaf_vector":"1"}},{"base_weights":[-0E0,-3.4165595E-4,1.1966091E-3,-4.3362143E-5,-0E0,-0E0,1.7036318E-3,-0E0,2.0103469E-3,-0E0,1.0701764E-4],"categories":[],"categories_nodes":[],"categories_segments":[],"categories_sizes":[],"default_left":[0,0,0,0,0,0,0,0,0,0,0],"id":67,"left_children":[1,3,5,-1,-1,-1,7,-1,9,-1,-1],"loss_changes":[2.6520007E-4,3.118414E-5,1.5722323E-4,0E0,0E0,0E0,9.999532E-5,0E0,4.0505023E-5,0E0,0E0],"parents":[2147483647,0,0,1,1,2,2,6,6,8,8],"right_children":[2,4,6,-1,-1,-1,8,-1,10,-1,-1],"split_conditions":[8E0,6.3E0,1.05E1,-4.3362143E-5,-0E0,-0E0,8.91E1,-0E0,5.5855855E-2,-0E0,1.0701764E-4],"split_indices":[0,0,4,0,0,0,2,0,9,0,0],"split_type":[0,0,0,0,0,0,0,0,0,0,0],"sum_hessian":[2.85E2,1.11E2,1.74E2,5.7E1,5.4E1,3.5E1,1.39E2,1.5E1,1.24E2,6E0,1.18E2],"tree_param":{"num_deleted":"0","num_feature":"10","num_nodes":"11","size_leaf_vector":"1"}},{"base_weights":[-0E0,-1.1368818E-5,2.7488402E-4,-0E0,5.8269204E-4,-0E0,6.704277E-4,3.7653925E-5,-0E0],"categories":[],"categories_nodes":[],"categories_segments":[],"categories_sizes":[],"default_left":[0,0,0,0,0,0,0,0,0],"id":68,"left_children":[1,-1,3,-1,5,-1,7,-1,-1],"loss_changes":[1.900566E-5,0E0,3.9780756E-5,0E0,1.4564259E-5,0E0,1.3228717E-5,0E0,0E0],"parents":[2147483647,0,0,2,2,4,4,6,6],"right_children":[2,-1,4,-1,6,-1,8,-1,-1],"split_conditions":[5.5E0,-1.1368818E-5,8.8E0,-0E0,3.1E-1,-0E0,3.0217028E-1,3.7653925E-5,-0E0],"split_indices":[1,0,4,0,6,0,8,0,0],"split_type":[0,0,0,0,0,0,0,0,0],"sum_hessian":[2.81E2,1.04E2,1.77E2,2.2E1,1.55E2,6E0,1.49E2,1.41E2,8E0],"tree_param":{"num_deleted":"0","num_feature":"10","num_nodes":"9","size_leaf_vector":"1"}},{"base_weights":[-0E0,-7.0938304E-6,-0E0],"categories":[],"categories_nodes":[],"categories_segments":[],"categories_sizes":[],"default_left":[0,0,0],"id":69,"left_children":[1,-1,-1],"loss_changes":[1.2479961E-6,0E0,0E0],"parents":[2147483647,0,0],"right_children":[2,-1,-1],"split_conditions":[6.3E0,-7.0938304E-6,-0E0],"split_indices":[0,0,0],"split_type":[0,0,0],"sum_hessian":[2.66E2,6E1,2.06E2],"tree_param":{"num_deleted":"0","num_feature":"10","num_nodes":"3","size_leaf_vector":"1"}},{"base_weights":[-0E0,-6.3250365E-4,1.2385088E-4,-3.6417154E-5,-0E0,-0E0,7.6812337E-4,-0E0,9.927165E-4,-0E0,5.9520415E-5],"categories":[],"categories_nodes":[],"categories_segments":[],"categories_sizes":[],"default_left":[0,0,0,0,0,0,0,0,0,0,0],"id":70,"left_children":[1,3,5,-1,-1,-1,7,-1,9,-1,-1],"loss_changes":[3.6364894E-5,7.1116992E-6,8.770224E-5,0E0,0E0,0E0,4.8091468E-5,0E0,5.3768206E-5,0E0,0E0],"parents":[2147483647,0,0,1,1,2,2,6,6,8,8],"right_children":[2,4,6,-1,-1,-1,8,-1,10,-1,-1],"split_conditions":[3.88E1,1.86E1,1.05E1,-3.6417154E-5,-0E0,-0E0,7E0,-0E0,3.1E-1,-0E0,5.9520415E-5],"split_indices":[3,4,4,0,0,0,0,0,6,0,0],"split_type":[0,0,0,0,0,0,0,0,0,0,0],"sum_hessian":[2.85E2,8.1E1,2.04E2,7.4E1,7E0,5.2E1,1.52E2,1.3E1,1.39E2,5E0,1.34E2],"tree_param":{"num_deleted":"0","num_feature":"10","num_nodes":"11","size_leaf_vector":"1"}},{"base_weights":[-0E0,-8.683111E-6,1.598817E-5,-5.940759E-4,-0E0,-0E0,-7.576337E-4,-4.3432225E-5,-0E0],"categories":[],"categories_nodes":[],"categories_segments":[],"categories_sizes":[],"default_left":[0,0,0,0,0,0,0,0,0],"id":71,"left_children":[1,3,-1,5,-1,-1,7,-1,-1],"loss_changes":[8.501188E-6,5.7512414E-5,0E0,2.6278321E-5,0E0,0E0,5.230824E-6,0E0,0E0],"parents":[2147483647,0,0,1,1,3,3,6,6],"right_children":[2,4,-1,6,-1,-1,8,-1,-1],"split_conditions":[7.8E0,1.73E1,1.598817E-5,2.97E1,-0E0,-0E0,9.09E1,-4.3432225E-5,-0E0],"split_indices":[1,4,0,5,0,0,2,0,0],"split_type":[0,0,0,0,0,0,0,0,0],"sum_hessian":[2.72E2,1.91E2,8.1E1,1.61E2,3E1,1.7E1,1.44E2,1.16E2,2.8E1],"tree_param":{"num_deleted":"0","num_feature":"10","num_nodes":"9","size_leaf_vector":"1"}},{"base_weights":[-0E0],"categories":[],"categories_nodes":[],"categories_segments":[],"categories_sizes":[],"default_left":[0],"id":72,"left_children":[-1],"loss_changes":[0E0],"parents":[2147483647],"right_children":[-1],"split_conditions":[-0E0],"split_indices":[0],"split_type":[0],"sum_hessian":[2.87E2],"tree_param":{"num_deleted":"0","num_feature":"10","num_nodes":"1","size_leaf_vector":"1"}},{"base_weights":[-0E0,-6.49615E-5,1.5937403E-4,-3.2419008E-5,-0E0,-0E0,2.5977652E-5],"categories":[],"categories_nodes":[],"categories_segments":[],"categories_sizes":[],"default_left":[0,0,0,0,0,0,0],"id":73,"left_children":[1,3,5,-1,-1,-1,-1],"loss_changes":[2.8548257E-6,7.0619244E-5,1.5809128E-5,0E0,0E0,0E0,0E0],"parents":[2147483647,0,0,1,1,2,2],"right_children":[2,4,6,-1,-1,-1,-1],"split_conditions":[7.8E0,1.73E1,9.04E1,-3.2419008E-5,-0E0,-0E0,2.5977652E-5],"split_indices":[1,4,2,0,0,0,0],"split_type":[0,0,0,0,0,0,0],"sum_hessian":[2.76E2,1.99E2,7.7E1,1.68E2,3.1E1,1.3E1,6.4E1],"tree_param":{"num_deleted":"0","num_feature":"10","num_nodes":"7","size_leaf_vector":"1"}},{"base_weights":[-0E0,-2.4151863E-4,-0E0,-3.9528175E-5,-0E0],"categories":[],"categories_nodes":[],"categories_segments":[],"categories_sizes":[],"default_left":[0,0,0,0,0],"id":74,"left_children":[1,3,-1,-1,-1],"loss_changes":[1.1782913E-5,9.3215516E-5,0E0,0E0,0E0],"parents":[2147483647,0,0,1,1],"right_children":[2,4,-1,-1,-1],"split_conditions":[1.23E1,1.66E1,-0E0,-3.9528175E-5,-0E0],"split_indices":[0,4,0,0,0],"split_type":[0,0,0,0,0],"sum_hessian":[2.78E2,2E2,7.8E1,1.66E2,3.4E1],"tree_param":{"num_deleted":"0","num_feature":"10","num_nodes":"5","size_leaf_vector":"1"}},{"base_weights":[-0E0,-9.680952E-4,-0E0,-5.581928E-5,-0E0,-0E0,4.7769665E-4,-0E0,7.787621E-4,-0E0,5.1832056E-5],"categories":[],"categories_nodes":[],"categories_segments":[],"categories_sizes":[],"default_left":[0,0,0,0,0,0,0,0,0,0,0],"id":75,"left_children":[1,3,5,-1,-1,-1,7,-1,9,-1,-1],"loss_changes":[6.560458E-5,1.5406004E-5,4.0846746E-5,0E0,0E0,0E0,5.7401463E-5,0E0,3.6079895E-5,0E0,0E0],"parents":[2147483647,0,0,1,1,2,2,6,6,8,8],"right_children":[2,4,6,-1,-1,-1,8,-1,10,-1,-1],"split_conditions":[6.3E0,9E1,1.05E1,-5.581928E-5,-0E0,-0E0,1.5448505E-1,-0E0,8.91E1,-0E0,5.1832056E-5],"split_indices":[0,2,4,0,0,0,8,0,2,0,0],"split_type":[0,0,0,0,0,0,0,0,0,0,0],"sum_hessian":[2.98E2,6.8E1,2.3E2,6.3E1,5E0,5.3E1,1.77E2,1.7E1,1.6E2,3.7E1,1.23E2],"tree_param":{"num_deleted":"0","num_feature":"10","num_nodes":"11","size_leaf_vector":"1"}},{"base_weights":[-0E0],"categories":[],"categories_nodes":[],"categories_segments":[],"categories_sizes":[],"default_left":[0],"id":76,"left_children":[-1],"loss_changes":[0E0],"parents":[2147483647],"right_children":[-1],"split_conditions":[-0E0],"split_indices":[0],"split_type":[0],"sum_hessian":[2.81E2],"tree_param":{"num_deleted":"0","num_feature":"10","num_nodes":"1","size_leaf_vector":"1"}},{"base_weights":[-0E0,-3.0478233E-5,5.505351E-4,-4.7074258E-4,-0E0,-0E0,8.7818387E-4,-0E0,-2.975805E-5,-0E0,4.74574E-5],"categories":[],"categories_nodes":[],"categories_segments":[],"categories_sizes":[],"default_left":[0,0,0,0,0,0,0,0,0,0,0],"id":77,"left_children":[1,3,5,7,-1,-1,9,-1,-1,-1,-1],"loss_changes":[2.8065318E-5,3.904181E-5,3.304117E-5,1.780593E-5,0E0,0E0,5.7399084E-6,0E0,0E0,0E0,0E0],"parents":[2147483647,0,0,1,1,2,2,3,3,6,6],"right_children":[2,4,6,8,-1,-1,10,-1,-1,-1,-1],"split_conditions":[7.7E0,1.86E1,4.38E1,2.97E1,-0E0,-0E0,1.5448505E-1,-0E0,-2.975805E-5,-0E0,4.74574E-5],"split_indices":[1,4,3,5,0,0,8,0,0,0,0],"split_type":[0,0,0,0,0,0,0,0,0,0,0],"sum_hessian":[2.83E2,1.93E2,9E1,1.75E2,1.8E1,1.3E1,7.7E1,1.6E1,1.59E2,5E0,7.2E1],"tree_param":{"num_deleted":"0","num_feature":"10","num_nodes":"11","size_leaf_vector":"1"}},{"base_weights":[-0E0],"categories":[],"categories_nodes":[],"categories_segments":[],"categories_sizes":[],"default_left":[0],"id":78,"left_children":[-1],"loss_changes":[0E0],"parents":[2147483647],"right_children":[-1],"split_conditions":[-0E0],"split_indices":[0],"split_type":[0],"sum_hessian":[2.74E2],"tree_param":{"num_deleted":"0","num_feature":"10","num_nodes":"1","size_leaf_vector":"1"}},{"base_weights":[-0E0],"categories":[],"categories_nodes":[],"categories_segments":[],"categories_sizes":[],"default_left":[0],"id":79,"left_children":[-1],"loss_changes":[0E0],"parents":[2147483647],"right_children":[-1],"split_conditions":[-0E0],"split_indices":[0],"split_type":[0],"sum_hessian":[2.8E2],"tree_param":{"num_deleted":"0","num_feature":"10","num_nodes":"1","size_leaf_vector":"1"}},{"base_weights":[-0E0],"categories":[],"categories_nodes":[],"categories_segments":[],"categories_sizes":[],"default_left":[0],"id":80,"left_children":[-1],"loss_changes":[0E0],"parents":[2147483647],"right_children":[-1],"split_conditions":[-0E0],"split_indices":[0],"split_type":[0],"sum_hessian":[2.8E2],"tree_param":{"num_deleted":"0","num_feature":"10","num_nodes":"1","size_leaf_vector":"1"}},{"base_weights":[-0E0,-5.6344876E-4,-0E0,-3.2491847E-5,-0E0],"categories":[],"categories_nodes":[],"categories_segments":[],"categories_sizes":[],"default_left":[0,0,0,0,0],"id":81,"left_children":[1,3,-1,-1,-1],"loss_changes":[3.7144517E-5,9.7294505E-6,0E0,0E0,0E0],"parents":[2147483647,0,0,1,1],"right_children":[2,4,-1,-1,-1],"split_conditions":[8.94E1,7.5E0,-0E0,-3.2491847E-5,-0E0],"split_indices":[2,1,0,0,0],"split_type":[0,0,0,0,0],"sum_hessian":[2.78E2,1.15E2,1.63E2,1.09E2,6E0],"tree_param":{"num_deleted":"0","num_feature":"10","num_nodes":"5","size_leaf_vector":"1"}},{"base_weights":[-0E0,-6.1919744E-4,-0E0,-3.6877726E-5,-0E0],"categories":[],"categories_nodes":[],"categories_segments":[],"categories_sizes":[],"default_left":[0,0,0,0,0],"id":82,"left_children":[1,3,-1,-1,-1],"loss_changes":[3.2972872E-5,6.1941682E-6,0E0,0E0,0E0],"parents":[2147483647,0,0,1,1],"right_children":[2,4,-1,-1,-1],"split_conditions":[3.88E1,2.1116929E-1,-0E0,-3.6877726E-5,-0E0],"split_indices":[3,8,0,0,0],"split_type":[0,0,0,0,0],"sum_hessian":[2.79E2,8.4E1,1.95E2,7E1,1.4E1],"tree_param":{"num_deleted":"0","num_feature":"10","num_nodes":"5","size_leaf_vector":"1"}},{"base_weights":[-0E0,-2.0125775E-4,-0E0,-7.298573E-4,-0E0,-0E0,-4.284779E-5],"categories":[],"categories_nodes":[],"categories_segments":[],"categories_sizes":[],"default_left":[0,0,0,0,0,0,0],"id":83,"left_children":[1,3,-1,5,-1,-1,-1],"loss_changes":[8.181945E-6,7.9179496E-5,0E0,1.9122679E-5,0E0,0E0,0E0],"parents":[2147483647,0,0,1,1,3,3],"right_children":[2,4,-1,6,-1,-1,-1],"split_conditions":[7.7E0,1.66E1,-0E0,2.97E1,-0E0,-0E0,-4.284779E-5],"split_indices":[1,4,0,5,0,0,0],"split_type":[0,0,0,0,0,0,0],"sum_hessian":[2.92E2,2E2,9.2E1,1.62E2,3.8E1,1.9E1,1.43E2],"tree_param":{"num_deleted":"0","num_feature":"10","num_nodes":"7","size_leaf_vector":"1"}},{"base_weights":[-0E0,-0E0,3.6888418E-4,-0E0,7.227943E-4,-0E0,8.6093385E-4,-0E0,5.136147E-5],"categories":[],"categories_nodes":[],"categories_segments":[],"categories_sizes":[],"default_left":[0,0,0,0,0,0,0,0,0],"id":84,"left_children":[1,-1,3,-1,5,-1,7,-1,-1],"loss_changes":[2.8167638E-5,0E0,6.6914916E-5,0E0,3.5369878E-5,0E0,3.6269208E-5,0E0,0E0],"parents":[2147483647,0,0,2,2,4,4,6,6],"right_children":[2,-1,4,-1,6,-1,8,-1,-1],"split_conditions":[3.88E1,-0E0,7E0,-0E0,3.1E-1,-0E0,1.5448505E-1,-0E0,5.136147E-5],"split_indices":[3,0,0,0,6,0,8,0,0],"split_type":[0,0,0,0,0,0,0,0,0],"sum_hessian":[2.83E2,7.8E1,2.05E2,2.5E1,1.8E2,6E0,1.74E2,1.8E1,1.56E2],"tree_param":{"num_deleted":"0","num_feature":"10","num_nodes":"9","size_leaf_vector":"1"}},{"base_weights":[-0E0,-0E0,2.4579934E-4,3.7473987E-4,-0E0,-0E0,2.4358462E-5],"categories":[],"categories_nodes":[],"categories_segments":[],"categories_sizes":[],"default_left":[0,0,0,0,0,0,0],"id":85,"left_children":[1,-1,3,5,-1,-1,-1],"loss_changes":[1.2808472E-5,0E0,1.2188064E-5,1.34515485E-5,0E0,0E0,0E0],"parents":[2147483647,0,0,2,2,3,3],"right_children":[2,-1,4,6,-1,-1,-1],"split_conditions":[6.3E0,-0E0,-2.39E-1,1.5448505E-1,-0E0,-0E0,2.4358462E-5],"split_indices":[0,0,7,8,0,0,0],"split_type":[0,0,0,0,0,0,0],"sum_hessian":[2.7E2,6E1,2.1E2,1.76E2,3.4E1,1.6E1,1.6E2],"tree_param":{"num_deleted":"0","num_feature":"10","num_nodes":"7","size_leaf_vector":"1"}},{"base_weights":[-0E0,-3.851272E-4,1.2192955E-3,-7.999579E-4,-0E0,-0E0,1.6158835E-3,-0E0,-1.1045083E-3,-0E0,1.0100969E-4,-6.062609E-5,-0E0],"categories":[],"categories_nodes":[],"categories_segments":[],"categories_sizes":[],"default_left":[0,0,0,0,0,0,0,0,0,0,0,0,0],"id":86,"left_children":[1,3,5,7,-1,-1,9,-1,11,-1,-1,-1,-1],"loss_changes":[1.4249719E-4,9.486386E-5,5.9705708E-5,7.394326E-5,0E0,0E0,6.290726E-5,0E0,3.0692318E-6,0E0,0E0,0E0,0E0],"parents":[2147483647,0,0,1,1,2,2,3,3,6,6,8,8],"right_children":[2,4,6,8,-1,-1,10,-1,12,-1,-1,-1,-1],"split_conditions":[1.23E1,1.86E1,9.02E1,3.09E1,-0E0,-0E0,1.28E1,-0E0,1.58E1,-0E0,1.0100969E-4,-6.062609E-5,-0E0],"split_indices":[0,4,2,5,0,0,0,0,4,0,0,0,0],"split_type":[0,0,0,0,0,0,0,0,0,0,0,0,0],"sum_hessian":[2.89E2,2.17E2,7.2E1,1.97E2,2E1,9E0,6.3E1,3.4E1,1.63E2,8E0,5.5E1,1.37E2,2.6E1],"tree_param":{"num_deleted":"0","num_feature":"10","num_nodes":"13","size_leaf_vector":"1"}},{"base_weights":[-0E0,-0E0,2.188441E-4,-0E0,3.9554632E-4,-0E0,2.9884142E-5],"categories":[],"categories_nodes":[],"categories_segments":[],"categories_sizes":[],"default_left":[0,0,0,0,0,0,0],"id":87,"left_children":[1,-1,3,-1,5,-1,-1],"loss_changes":[8.237552E-6,0E0,1.7108465E-5,0E0,2.3951001E-5,0E0,0E0],"parents":[2147483647,0,0,2,2,4,4],"right_children":[2,-1,4,-1,6,-1,-1],"split_conditions":[8.3E0,-0E0,5.5855855E-2,-0E0,-2.88E-1,-0E0,2.9884142E-5],"split_indices":[0,0,9,0,7,0,0],"split_type":[0,0,0,0,0,0,0],"sum_hessian":[2.94E2,1.24E2,1.7E2,1E1,1.6E2,2.4E1,1.36E2],"tree_param":{"num_deleted":"0","num_feature":"10","num_nodes":"7","size_leaf_vector":"1"}},{"base_weights":[-0E0,-2.2566598E-4,-0E0,-5.369011E-4,-0E0,-3.0373785E-5,-0E0],"categories":[],"categories_nodes":[],"categories_segments":[],"categories_sizes":[],"default_left":[0,0,0,0,0,0,0],"id":88,"left_children":[1,3,-1,5,-1,-1,-1],"loss_changes":[9.166523E-6,4.041468E-5,0E0,1.1677228E-5,0E0,0E0,0E0],"parents":[2147483647,0,0,1,1,3,3],"right_children":[2,4,-1,6,-1,-1,-1],"split_conditions":[1.12E1,1.96E1,-0E0,7.6E0,-0E0,-3.0373785E-5,-0E0],"split_indices":[0,4,0,1,0,0,0],"split_type":[0,0,0,0,0,0,0],"sum_hessian":[2.71E2,1.78E2,9.3E1,1.7E2,8E0,1.64E2,6E0],"tree_param":{"num_deleted":"0","num_feature":"10","num_nodes":"7","size_leaf_vector":"1"}},{"base_weights":[-0E0,-6.469463E-4,-0E0,-3.9502975E-5,-0E0],"categories":[],"categories_nodes":[],"categories_segments":[],"categories_sizes":[],"default_left":[0,0,0,0,0],"id":89,"left_children":[1,3,-1,-1,-1],"loss_changes":[2.7623611E-5,1.0452224E-5,0E0,0E0,0E0],"parents":[2147483647,0,0,1,1],"right_children":[2,4,-1,-1,-1],"split_conditions":[6.3E0,9E1,-0E0,-3.9502975E-5,-0E0],"split_indices":[0,2,0,0,0],"split_type":[0,0,0,0,0],"sum_hessian":[2.92E2,6.4E1,2.28E2,5.9E1,5E0],"tree_param":{"num_deleted":"0","num_feature":"10","num_nodes":"5","size_leaf_vector":"1"}},{"base_weights":[-0E0,-3.9744526E-4,-0E0,-7.6506176E-4,-0E0,-0E0,-4.283913E-5],"categories":[],"categories_nodes":[],"categories_segments":[],"categories_sizes":[],"default_left":[0,0,0,0,0,0,0],"id":90,"left_children":[1,3,-1,5,-1,-1,-1],"loss_changes":[2.5274037E-5,5.6085373E-5,0E0,8.931973E-6,0E0,0E0,0E0],"parents":[2147483647,0,0,1,1,3,3],"right_children":[2,4,-1,6,-1,-1,-1],"split_conditions":[6.9E0,1.66E1,-0E0,2.95E1,-0E0,-0E0,-4.283913E-5],"split_indices":[1,4,0,5,0,0,0],"split_type":[0,0,0,0,0,0,0],"sum_hessian":[2.74E2,1.58E2,1.16E2,1.37E2,2.1E1,1.6E1,1.21E2],"tree_param":{"num_deleted":"0","num_feature":"10","num_nodes":"7","size_leaf_vector":"1"}},{"base_weights":[-0E0,-1.4824307E-5,-0E0],"categories":[],"categories_nodes":[],"categories_segments":[],"categories_sizes":[],"default_left":[0,0,0],"id":91,"left_children":[1,-1,-1],"loss_changes":[1.8284038E-5,0E0,0E0],"parents":[2147483647,0,0],"right_children":[2,-1,-1],"split_conditions":[1.23E1,-1.4824307E-5,-0E0],"split_indices":[0,0,0],"split_type":[0,0,0],"sum_hessian":[2.83E2,2.06E2,7.7E1],"tree_param":{"num_deleted":"0","num_feature":"10","num_nodes":"3","size_leaf_vector":"1"}},{"base_weights":[-0E0],"categories":[],"categories_nodes":[],"categories_segments":[],"categories_sizes":[],"default_left":[0],"id":92,"left_children":[-1],"loss_changes":[0E0],"parents":[2147483647],"right_children":[-1],"split_conditions":[-0E0],"split_indices":[0],"split_type":[0],"sum_hessian":[2.87E2],"tree_param":{"num_deleted":"0","num_feature":"10","num_nodes":"1","size_leaf_vector":"1"}},{"base_weights":[-0E0,-3.5933204E-4,-0E0,-8.292232E-4,-0E0,-0E0,-9.5324113E-4,-4.890486E-5,-0E0],"categories":[],"categories_nodes":[],"categories_segments":[],"categories_sizes":[],"default_left":[0,0,0,0,0,0,0,0,0],"id":93,"left_children":[1,3,-1,5,-1,-1,7,-1,-1],"loss_changes":[2.6082143E-5,1.0043831E-4,0E0,2.2501219E-5,0E0,0E0,1.1761585E-6,0E0,0E0],"parents":[2147483647,0,0,1,1,3,3,6,6],"right_children":[2,4,-1,6,-1,-1,8,-1,-1],"split_conditions":[8E0,1.86E1,-0E0,2.97E1,-0E0,-0E0,7.8E0,-4.890486E-5,-0E0],"split_indices":[1,4,0,5,0,0,1,0,0],"split_type":[0,0,0,0,0,0,0,0,0],"sum_hessian":[2.64E2,2E2,6.4E1,1.82E2,1.8E1,2E1,1.62E2,1.55E2,7E0],"tree_param":{"num_deleted":"0","num_feature":"10","num_nodes":"9","size_leaf_vector":"1"}},{"base_weights":[-0E0,-2.3254642E-4,2.9267545E-4,-2.2019569E-5,-0E0,-0E0,8.170554E-4,9.543333E-4,-0E0,-0E0,5.9444395E-5],"categories":[],"categories_nodes":[],"categories_segments":[],"categories_sizes":[],"default_left":[0,0,0,0,0,0,0,0,0,0,0],"id":94,"left_children":[1,3,5,-1,-1,-1,7,9,-1,-1,-1],"loss_changes":[2.2756738E-5,8.067536E-6,9.897398E-5,0E0,0E0,0E0,3.666627E-5,2.4680834E-5,0E0,0E0,0E0],"parents":[2147483647,0,0,1,1,2,2,6,6,7,7],"right_children":[2,4,6,-1,-1,-1,8,10,-1,-1,-1],"split_conditions":[6.3E0,1.1262136E-1,1.03E1,-2.2019569E-5,-0E0,-0E0,4.09E1,8.91E1,-0E0,-0E0,5.9444395E-5],"split_indices":[0,9,4,0,0,0,5,2,0,0,0],"split_type":[0,0,0,0,0,0,0,0,0,0,0],"sum_hessian":[2.86E2,6.4E1,2.22E2,5.8E1,6E0,4.7E1,1.75E2,1.68E2,7E0,4.3E1,1.25E2],"tree_param":{"num_deleted":"0","num_feature":"10","num_nodes":"11","size_leaf_vector":"1"}},{"base_weights":[-0E0],"categories":[],"categories_nodes":[],"categories_segments":[],"categories_sizes":[],"default_left":[0],"id":95,"left_children":[-1],"loss_changes":[0E0],"parents":[2147483647],"right_children":[-1],"split_conditions":[-0E0],"split_indices":[0],"split_type":[0],"sum_hessian":[2.81E2],"tree_param":{"num_deleted":"0","num_feature":"10","num_nodes":"1","size_leaf_vector":"1"}},{"base_weights":[-0E0,-0E0,5.4455497E-5,-2.2189248E-4,-0E0,-0E0,-2.4232586E-5],"categories":[],"categories_nodes":[],"categories_segments":[],"categories_sizes":[],"default_left":[0,0,0,0,0,0,0],"id":96,"left_children":[1,3,-1,5,-1,-1,-1],"loss_changes":[9.607899E-5,8.32093E-6,0E0,2.7147049E-5,0E0,0E0,0E0],"parents":[2147483647,0,0,1,1,3,3],"right_children":[2,4,-1,6,-1,-1,-1],"split_conditions":[1.23E1,1.58E1,5.4455497E-5,2.97E1,-0E0,-0E0,-2.4232586E-5],"split_indices":[0,4,0,5,0,0,0],"split_type":[0,0,0,0,0,0,0],"sum_hessian":[2.9E2,2.11E2,7.9E1,1.67E2,4.4E1,1.8E1,1.49E2],"tree_param":{"num_deleted":"0","num_feature":"10","num_nodes":"7","size_leaf_vector":"1"}},{"base_weights":[-0E0],"categories":[],"categories_nodes":[],"categories_segments":[],"categories_sizes":[],"default_left":[0],"id":97,"left_children":[-1],"loss_changes":[0E0],"parents":[2147483647],"right_children":[-1],"split_conditions":[-0E0],"split_indices":[0],"split_type":[0],"sum_hessian":[2.96E2],"tree_param":{"num_deleted":"0","num_feature":"10","num_nodes":"1","size_leaf_vector":"1"}},{"base_weights":[-0E0,-6.5786566E-4,-0E0,-1.3537973E-3,-0E0,-0E0,-7.933591E-5],"categories":[],"categories_nodes":[],"categories_segments":[],"categories_sizes":[],"default_left":[0,0,0,0,0,0,0],"id":98,"left_children":[1,3,-1,5,-1,-1,-1],"loss_changes":[4.7173802E-5,1.1960801E-4,0E0,4.4702843E-5,0E0,0E0,0E0],"parents":[2147483647,0,0,1,1,3,3],"right_children":[2,4,-1,6,-1,-1,-1],"split_conditions":[8.94E1,1.72E1,-0E0,2.94E1,-0E0,-0E0,-7.933591E-5],"split_indices":[2,4,0,5,0,0,0],"split_type":[0,0,0,0,0,0,0],"sum_hessian":[2.73E2,1.07E2,1.66E2,8.9E1,1.8E1,7E0,8.2E1],"tree_param":{"num_deleted":"0","num_feature":"10","num_nodes":"7","size_leaf_vector":"1"}},{"base_weights":[-0E0],"categories":[],"categories_nodes":[],"categories_segments":[],"categories_sizes":[],"default_left":[0],"id":99,"left_children":[-1],"loss_changes":[0E0],"parents":[2147483647],"right_children":[-1],"split_conditions":[-0E0],"split_indices":[0],"split_type":[0],"sum_hessian":[2.79E2],"tree_param":{"num_deleted":"0","num_feature":"10","num_nodes":"1","size_leaf_vector":"1"}},{"base_weights":[-0E0],"categories":[],"categories_nodes":[],"categories_segments":[],"categories_sizes":[],"default_left":[0],"id":100,"left_children":[-1],"loss_changes":[0E0],"parents":[2147483647],"right_children":[-1],"split_conditions":[-0E0],"split_indices":[0],"split_type":[0],"sum_hessian":[2.79E2],"tree_param":{"num_deleted":"0","num_feature":"10","num_nodes":"1","size_leaf_vector":"1"}},{"base_weights":[-0E0,-2.2468716E-5,9.1276816E-5,-0E0,2.9674667E-4,-0E0,4.8385144E-4,-0E0,3.2300515E-5],"categories":[],"categories_nodes":[],"categories_segments":[],"categories_sizes":[],"default_left":[0,0,0,0,0,0,0,0,0],"id":101,"left_children":[1,-1,3,-1,5,-1,7,-1,-1],"loss_changes":[1.44383275E-5,0E0,1.4662617E-5,0E0,2.4356632E-5,0E0,2.9793122E-5,0E0,0E0],"parents":[2147483647,0,0,2,2,4,4,6,6],"right_children":[2,-1,4,-1,6,-1,8,-1,-1],"split_conditions":[6.5E0,-2.2468716E-5,1.5448505E-1,-0E0,3.08E-1,-0E0,6.3E0,-0E0,3.2300515E-5],"split_indices":[0,0,8,0,6,0,4,0,0],"split_type":[0,0,0,0,0,0,0,0,0],"sum_hessian":[2.65E2,6.1E1,2.04E2,2E1,1.84E2,1.2E1,1.72E2,5E0,1.67E2],"tree_param":{"num_deleted":"0","num_feature":"10","num_nodes":"9","size_leaf_vector":"1"}},{"base_weights":[-0E0,-1.17200856E-4,-0E0,-8.04767E-6,-0E0],"categories":[],"categories_nodes":[],"categories_segments":[],"categories_sizes":[],"default_left":[0,0,0,0,0],"id":102,"left_children":[1,3,-1,-1,-1],"loss_changes":[2.8433603E-6,2.3637447E-6,0E0,0E0,0E0],"parents":[2147483647,0,0,1,1],"right_children":[2,4,-1,-1,-1],"split_conditions":[7.8E0,4E1,-0E0,-8.04767E-6,-0E0],"split_indices":[1,5,0,0,0],"split_type":[0,0,0,0,0],"sum_hessian":[2.92E2,2.05E2,8.7E1,1.99E2,6E0],"tree_param":{"num_deleted":"0","num_feature":"10","num_nodes":"5","size_leaf_vector":"1"}},{"base_weights":[-0E0],"categories":[],"categories_nodes":[],"categories_segments":[],"categories_sizes":[],"default_left":[0],"id":103,"left_children":[-1],"loss_changes":[0E0],"parents":[2147483647],"right_children":[-1],"split_conditions":[-0E0],"split_indices":[0],"split_type":[0],"sum_hessian":[2.75E2],"tree_param":{"num_deleted":"0","num_feature":"10","num_nodes":"1","size_leaf_vector":"1"}},{"base_weights":[-0E0],"categories":[],"categories_nodes":[],"categories_segments":[],"categories_sizes":[],"default_left":[0],"id":104,"left_children":[-1],"loss_changes":[0E0],"parents":[2147483647],"right_children":[-1],"split_conditions":[-0E0],"split_indices":[0],"split_type":[0],"sum_hessian":[2.64E2],"tree_param":{"num_deleted":"0","num_feature":"10","num_nodes":"1","size_leaf_vector":"1"}},{"base_weights":[-0E0,-3.756137E-4,-0E0,-4.7424208E-5,-0E0],"categories":[],"categories_nodes":[],"categories_segments":[],"categories_sizes":[],"default_left":[0,0,0,0,0],"id":105,"left_children":[1,3,-1,-1,-1],"loss_changes":[3.0051242E-5,1.345796E-4,0E0,0E0,0E0],"parents":[2147483647,0,0,1,1],"right_children":[2,4,-1,-1,-1],"split_conditions":[8.1E0,1.72E1,-0E0,-4.7424208E-5,-0E0],"split_indices":[1,4,0,0,0],"split_type":[0,0,0,0,0],"sum_hessian":[2.88E2,2.11E2,7.7E1,1.81E2,3E1],"tree_param":{"num_deleted":"0","num_feature":"10","num_nodes":"5","size_leaf_vector":"1"}},{"base_weights":[-0E0,-0E0,4.3482767E-4,-0E0,8.5838523E-4,9.318733E-4,-0E0,5.2629337E-5,-0E0],"categories":[],"categories_nodes":[],"categories_segments":[],"categories_sizes":[],"default_left":[0,0,0,0,0,0,0,0,0],"id":106,"left_children":[1,-1,3,-1,5,7,-1,-1,-1],"loss_changes":[4.1218373E-5,0E0,1.0025206E-4,0E0,2.0049687E-5,3.680095E-5,0E0,0E0,0E0],"parents":[2147483647,0,0,2,2,4,4,5,5],"right_children":[2,-1,4,-1,6,8,-1,-1,-1],"split_conditions":[6.1E0,-0E0,8.8E0,-0E0,2.9895365E-1,4.09E1,-0E0,5.2629337E-5,-0E0],"split_indices":[0,0,4,0,8,5,0,0,0],"split_type":[0,0,0,0,0,0,0,0,0],"sum_hessian":[2.69E2,5.3E1,2.16E2,2.6E1,1.9E2,1.84E2,6E0,1.77E2,7E0],"tree_param":{"num_deleted":"0","num_feature":"10","num_nodes":"9","size_leaf_vector":"1"}},{"base_weights":[-0E0],"categories":[],"categories_nodes":[],"categories_segments":[],"categories_sizes":[],"default_left":[0],"id":107,"left_children":[-1],"loss_changes":[0E0],"parents":[2147483647],"right_children":[-1],"split_conditions":[-0E0],"split_indices":[0],"split_type":[0],"sum_hessian":[2.78E2],"tree_param":{"num_deleted":"0","num_feature":"10","num_nodes":"1","size_leaf_vector":"1"}},{"base_weights":[-0E0,-0E0,3.1388813E-4,-0E0,6.9321395E-4,-0E0,8.742529E-4,-0E0,5.040914E-5],"categories":[],"categories_nodes":[],"categories_segments":[],"categories_sizes":[],"default_left":[0,0,0,0,0,0,0,0,0],"id":108,"left_children":[1,-1,3,-1,5,-1,7,-1,-1],"loss_changes":[2.1971244E-5,0E0,7.0774055E-5,0E0,3.948174E-5,0E0,3.8533617E-5,0E0,0E0],"parents":[2147483647,0,0,2,2,4,4,6,6],"right_children":[2,-1,4,-1,6,-1,8,-1,-1],"split_conditions":[6.3E0,-0E0,8.8E0,-0E0,1.5448505E-1,-0E0,2.9E1,-0E0,5.040914E-5],"split_indices":[0,0,4,0,8,0,5,0,0],"split_type":[0,0,0,0,0,0,0,0,0],"sum_hessian":[2.79E2,5.8E1,2.21E2,3E1,1.91E2,2E1,1.71E2,5E0,1.66E2],"tree_param":{"num_deleted":"0","num_feature":"10","num_nodes":"9","size_leaf_vector":"1"}},{"base_weights":[-0E0],"categories":[],"categories_nodes":[],"categories_segments":[],"categories_sizes":[],"default_left":[0],"id":109,"left_children":[-1],"loss_changes":[0E0],"parents":[2147483647],"right_children":[-1],"split_conditions":[-0E0],"split_indices":[0],"split_type":[0],"sum_hessian":[2.97E2],"tree_param":{"num_deleted":"0","num_feature":"10","num_nodes":"1","size_leaf_vector":"1"}},{"base_weights":[-0E0,-6.0906106E-5,4.1516832E-4,-9.199716E-6,-0E0,-0E0,6.4834446E-4,-0E0,8.2343427E-4,-0E0,4.6822417E-5],"categories":[],"categories_nodes":[],"categories_segments":[],"categories_sizes":[],"default_left":[0,0,0,0,0,0,0,0,0,0,0],"id":110,"left_children":[1,3,5,-1,-1,-1,7,-1,9,-1,-1],"loss_changes":[3.9184426E-5,1.6658269E-6,4.6376725E-5,0E0,0E0,0E0,4.0785024E-5,0E0,3.260914E-5,0E0,0E0],"parents":[2147483647,0,0,1,1,2,2,6,6,8,8],"right_children":[2,4,6,-1,-1,-1,8,-1,10,-1,-1],"split_conditions":[6.3E0,1.1262136E-1,1.5448505E-1,-9.199716E-6,-0E0,-0E0,3.09E-1,-0E0,6.3E0,-0E0,4.6822417E-5],"split_indices":[0,9,8,0,0,0,6,0,4,0,0],"split_type":[0,0,0,0,0,0,0,0,0,0,0],"sum_hessian":[2.84E2,6E1,2.24E2,5.4E1,6E0,2.3E1,2.01E2,1.7E1,1.84E2,5E0,1.79E2],"tree_param":{"num_deleted":"0","num_feature":"10","num_nodes":"11","size_leaf_vector":"1"}},{"base_weights":[-0E0,-0E0,2.1965029E-4,-2.0175245E-4,-0E0,-0E0,6.2684173E-4,-0E0,-2.0207295E-5,7.3669566E-4,-0E0,-0E0,4.243384E-5],"categories":[],"categories_nodes":[],"categories_segments":[],"categories_sizes":[],"default_left":[0,0,0,0,0,0,0,0,0,0,0,0,0],"id":111,"left_children":[1,3,5,7,-1,-1,9,-1,-1,11,-1,-1,-1],"loss_changes":[8.250108E-6,3.7447728E-6,3.9687417E-5,9.975275E-6,0E0,0E0,1.3932611E-5,0E0,0E0,1.6637365E-5,0E0,0E0,0E0],"parents":[2147483647,0,0,1,1,2,2,3,3,6,6,9,9],"right_children":[2,4,6,8,-1,-1,10,-1,-1,12,-1,-1,-1],"split_conditions":[8.94E1,1.64E1,1.07E1,2.94E1,-0E0,-0E0,4.09E1,-0E0,-2.0207295E-5,5E0,-0E0,-0E0,4.243384E-5],"split_indices":[2,4,4,5,0,0,5,0,0,1,0,0,0],"split_type":[0,0,0,0,0,0,0,0,0,0,0,0,0],"sum_hessian":[2.82E2,1.13E2,1.69E2,9E1,2.3E1,4.9E1,1.2E2,8E0,8.2E1,1.12E2,8E0,5E0,1.07E2],"tree_param":{"num_deleted":"0","num_feature":"10","num_nodes":"13","size_leaf_vector":"1"}},{"base_weights":[-0E0,-5.01156E-4,-0E0,-1.074252E-3,-0E0,-0E0,-5.50524E-5],"categories":[],"categories_nodes":[],"categories_segments":[],"categories_sizes":[],"default_left":[0,0,0,0,0,0,0],"id":112,"left_children":[1,3,-1,5,-1,-1,-1],"loss_changes":[5.5254615E-5,1.5477654E-4,0E0,3.3348333E-6,0E0,0E0,0E0],"parents":[2147483647,0,0,1,1,3,3],"right_children":[2,4,-1,6,-1,-1,-1],"split_conditions":[1.23E1,1.61E1,-0E0,3.9426524E-2,-0E0,-0E0,-5.50524E-5],"split_indices":[0,4,0,9,0,0,0],"split_type":[0,0,0,0,0,0,0],"sum_hessian":[2.92E2,2.18E2,7.4E1,1.8E2,3.8E1,6E0,1.74E2],"tree_param":{"num_deleted":"0","num_feature":"10","num_nodes":"7","size_leaf_vector":"1"}},{"base_weights":[-0E0],"categories":[],"categories_nodes":[],"categories_segments":[],"categories_sizes":[],"default_left":[0],"id":113,"left_children":[-1],"loss_changes":[0E0],"parents":[2147483647],"right_children":[-1],"split_conditions":[-0E0],"split_indices":[0],"split_type":[0],"sum_hessian":[2.73E2],"tree_param":{"num_deleted":"0","num_feature":"10","num_nodes":"1","size_leaf_vector":"1"}},{"base_weights":[-0E0,-4.4536035E-4,-0E0,-9.785693E-4,-0E0,-0E0,-5.0684746E-5],"categories":[],"categories_nodes":[],"categories_segments":[],"categories_sizes":[],"default_left":[0,0,0,0,0,0,0],"id":114,"left_children":[1,3,-1,5,-1,-1,-1],"loss_changes":[4.5619545E-5,1.2962084E-4,0E0,1.5029218E-6,0E0,0E0,0E0],"parents":[2147483647,0,0,1,1,3,3],"right_children":[2,4,-1,6,-1,-1,-1],"split_conditions":[1.28E1,1.58E1,-0E0,2.89E1,-0E0,-0E0,-5.0684746E-5],"split_indices":[0,4,0,5,0,0,0],"split_type":[0,0,0,0,0,0,0],"sum_hessian":[2.9E2,2.28E2,6.2E1,1.81E2,4.7E1,1.1E1,1.7E2],"tree_param":{"num_deleted":"0","num_feature":"10","num_nodes":"7","size_leaf_vector":"1"}},{"base_weights":[-0E0,-2.548736E-5,1.7203993E-4,-0E0,5.6328415E-4,6.193835E-4,-0E0,3.549799E-5,-0E0],"categories":[],"categories_nodes":[],"categories_segments":[],"categories_sizes":[],"default_left":[0,0,0,0,0,0,0,0,0],"id":115,"left_children":[1,-1,3,-1,5,7,-1,-1,-1],"loss_changes":[2.4907642E-5,0E0,5.7056408E-5,0E0,1.1033917E-5,2.0455096E-5,0E0,0E0,0E0],"parents":[2147483647,0,0,2,2,4,4,5,5],"right_children":[2,-1,4,-1,6,8,-1,-1,-1],"split_conditions":[6.3E0,-2.548736E-5,8.8E0,-0E0,3.0217028E-1,4.09E1,-0E0,3.549799E-5,-0E0],"split_indices":[0,0,4,0,8,5,0,0,0],"split_type":[0,0,0,0,0,0,0,0,0],"sum_hessian":[2.93E2,6.8E1,2.25E2,2.6E1,1.99E2,1.93E2,6E0,1.87E2,6E0],"tree_param":{"num_deleted":"0","num_feature":"10","num_nodes":"9","size_leaf_vector":"1"}},{"base_weights":[-0E0],"categories":[],"categories_nodes":[],"categories_segments":[],"categories_sizes":[],"default_left":[0],"id":116,"left_children":[-1],"loss_changes":[0E0],"parents":[2147483647],"right_children":[-1],"split_conditions":[-0E0],"split_indices":[0],"split_type":[0],"sum_hessian":[2.9E2],"tree_param":{"num_deleted":"0","num_feature":"10","num_nodes":"1","size_leaf_vector":"1"}},{"base_weights":[-0E0],"categories":[],"categories_nodes":[],"categories_segments":[],"categories_sizes":[],"default_left":[0],"id":117,"left_children":[-1],"loss_changes":[0E0],"parents":[2147483647],"right_children":[-1],"split_conditions":[-0E0],"split_indices":[0],"split_type":[0],"sum_hessian":[2.92E2],"tree_param":{"num_deleted":"0","num_feature":"10","num_nodes":"1","size_leaf_vector":"1"}},{"base_weights":[-0E0],"categories":[],"categories_nodes":[],"categories_segments":[],"categories_sizes":[],"default_left":[0],"id":118,"left_children":[-1],"loss_changes":[0E0],"parents":[2147483647],"right_children":[-1],"split_conditions":[-0E0],"split_indices":[0],"split_type":[0],"sum_hessian":[2.74E2],"tree_param":{"num_deleted":"0","num_feature":"10","num_nodes":"1","size_leaf_vector":"1"}},{"base_weights":[-0E0],"categories":[],"categories_nodes":[],"categories_segments":[],"categories_sizes":[],"default_left":[0],"id":119,"left_children":[-1],"loss_changes":[0E0],"parents":[2147483647],"right_children":[-1],"split_conditions":[-0E0],"split_indices":[0],"split_type":[0],"sum_hessian":[2.88E2],"tree_param":{"num_deleted":"0","num_feature":"10","num_nodes":"1","size_leaf_vector":"1"}},{"base_weights":[-0E0,-3.641299E-4,-0E0,-8.530089E-4,-0E0,-0E0,-5.0507544E-5],"categories":[],"categories_nodes":[],"categories_segments":[],"categories_sizes":[],"default_left":[0,0,0,0,0,0,0],"id":120,"left_children":[1,3,-1,5,-1,-1,-1],"loss_changes":[2.718107E-5,1.0233604E-4,0E0,3.2727243E-5,0E0,0E0,0E0],"parents":[2147483647,0,0,1,1,3,3],"right_children":[2,4,-1,6,-1,-1,-1],"split_conditions":[7.8E0,1.8E1,-0E0,2.97E1,-0E0,-0E0,-5.0507544E-5],"split_indices":[1,4,0,5,0,0,0],"split_type":[0,0,0,0,0,0,0],"sum_hessian":[2.81E2,2.03E2,7.8E1,1.76E2,2.7E1,1.9E1,1.57E2],"tree_param":{"num_deleted":"0","num_feature":"10","num_nodes":"7","size_leaf_vector":"1"}},{"base_weights":[-0E0,-3.9265488E-4,-0E0,-8.5288635E-4,-0E0,-4.340345E-5,-0E0],"categories":[],"categories_nodes":[],"categories_segments":[],"categories_sizes":[],"default_left":[0,0,0,0,0,0,0],"id":121,"left_children":[1,3,-1,5,-1,-1,-1],"loss_changes":[3.1298106E-5,1.01818856E-4,0E0,1.0138174E-6,0E0,0E0,0E0],"parents":[2147483647,0,0,1,1,3,3],"right_children":[2,4,-1,6,-1,-1,-1],"split_conditions":[7.8E0,1.86E1,-0E0,7.6E0,-0E0,-4.340345E-5,-0E0],"split_indices":[1,4,0,1,0,0,0],"split_type":[0,0,0,0,0,0,0],"sum_hessian":[2.83E2,2.01E2,8.2E1,1.81E2,2E1,1.76E2,5E0],"tree_param":{"num_deleted":"0","num_feature":"10","num_nodes":"7","size_leaf_vector":"1"}},{"base_weights":[-0E0,-0E0,9.522008E-5,-0E0,5.8922404E-4,-0E0,7.4508274E-4,4.141495E-5,-0E0],"categories":[],"categories_nodes":[],"categories_segments":[],"categories_sizes":[],"default_left":[0,0,0,0,0,0,0,0,0],"id":122,"left_children":[1,-1,3,-1,5,-1,7,-1,-1],"loss_changes":[2.1035125E-6,0E0,5.9695416E-5,0E0,2.0363019E-5,0E0,1.5261292E-5,0E0,0E0],"parents":[2147483647,0,0,2,2,4,4,6,6],"right_children":[2,-1,4,-1,6,-1,8,-1,-1],"split_conditions":[4.7E0,-0E0,1.05E1,-0E0,3.88E1,-0E0,2.868217E-1,4.141495E-5,-0E0],"split_indices":[1,0,4,0,3,0,8,0,0],"split_type":[0,0,0,0,0,0,0,0,0],"sum_hessian":[2.95E2,6.5E1,2.3E2,5.4E1,1.76E2,3E1,1.46E2,1.4E2,6E0],"tree_param":{"num_deleted":"0","num_feature":"10","num_nodes":"9","size_leaf_vector":"1"}},{"base_weights":[-0E0],"categories":[],"categories_nodes":[],"categories_segments":[],"categories_sizes":[],"default_left":[0],"id":123,"left_children":[-1],"loss_changes":[0E0],"parents":[2147483647],"right_children":[-1],"split_conditions":[-0E0],"split_indices":[0],"split_type":[0],"sum_hessian":[2.74E2],"tree_param":{"num_deleted":"0","num_feature":"10","num_nodes":"1","size_leaf_vector":"1"}},{"base_weights":[-0E0,-8.7369466E-5,-0E0,-8.676801E-4,-0E0,-4.6355413E-5,-0E0],"categories":[],"categories_nodes":[],"categories_segments":[],"categories_sizes":[],"default_left":[0,0,0,0,0,0,0],"id":124,"left_children":[1,3,-1,5,-1,-1,-1],"loss_changes":[1.6717198E-6,1.3083318E-4,0E0,1.4474674E-5,0E0,0E0,0E0],"parents":[2147483647,0,0,1,1,3,3],"right_children":[2,4,-1,6,-1,-1,-1],"split_conditions":[1.23E1,1.62E1,-0E0,1.3114753E-1,-0E0,-4.6355413E-5,-0E0],"split_indices":[0,4,0,9,0,0,0],"split_type":[0,0,0,0,0,0,0],"sum_hessian":[2.93E2,2.17E2,7.6E1,1.74E2,4.3E1,1.69E2,5E0],"tree_param":{"num_deleted":"0","num_feature":"10","num_nodes":"7","size_leaf_vector":"1"}},{"base_weights":[-0E0,-0E0,3.4902795E-4,-0E0,6.041211E-4,-0E0,6.6573464E-4,-0E0,4.2577652E-5],"categories":[],"categories_nodes":[],"categories_segments":[],"categories_sizes":[],"default_left":[0,0,0,0,0,0,0,0,0],"id":125,"left_children":[1,-1,3,-1,5,-1,7,-1,-1],"loss_changes":[2.6678694E-5,0E0,3.4999925E-5,0E0,6.1313694E-6,0E0,2.8633978E-5,0E0,0E0],"parents":[2147483647,0,0,2,2,4,4,6,6],"right_children":[2,-1,4,-1,6,-1,8,-1,-1],"split_conditions":[6.3E0,-0E0,1.05E1,-0E0,5.5855855E-2,-0E0,3.87E1,-0E0,4.2577652E-5],"split_indices":[0,0,4,0,9,0,3,0,0],"split_type":[0,0,0,0,0,0,0,0,0],"sum_hessian":[2.78E2,6.1E1,2.17E2,5E1,1.67E2,1.6E1,1.51E2,2E1,1.31E2],"tree_param":{"num_deleted":"0","num_feature":"10","num_nodes":"9","size_leaf_vector":"1"}},{"base_weights":[-0E0],"categories":[],"categories_nodes":[],"categories_segments":[],"categories_sizes":[],"default_left":[0],"id":126,"left_children":[-1],"loss_changes":[0E0],"parents":[2147483647],"right_children":[-1],"split_conditions":[-0E0],"split_indices":[0],"split_type":[0],"sum_hessian":[2.9E2],"tree_param":{"num_deleted":"0","num_feature":"10","num_nodes":"1","size_leaf_vector":"1"}},{"base_weights":[-0E0],"categories":[],"categories_nodes":[],"categories_segments":[],"categories_sizes":[],"default_left":[0],"id":127,"left_children":[-1],"loss_changes":[0E0],"parents":[2147483647],"right_children":[-1],"split_conditions":[-0E0],"split_indices":[0],"split_type":[0],"sum_hessian":[2.92E2],"tree_param":{"num_deleted":"0","num_feature":"10","num_nodes":"1","size_leaf_vector":"1"}},{"base_weights":[-0E0],"categories":[],"categories_nodes":[],"categories_segments":[],"categories_sizes":[],"default_left":[0],"id":128,"left_children":[-1],"loss_changes":[0E0],"parents":[2147483647],"right_children":[-1],"split_conditions":[-0E0],"split_indices":[0],"split_type":[0],"sum_hessian":[2.8E2],"tree_param":{"num_deleted":"0","num_feature":"10","num_nodes":"1","size_leaf_vector":"1"}},{"base_weights":[-0E0,-0E0,1.7201352E-4,-1.3083451E-4,-0E0,-0E0,2.16785E-5,-9.433313E-6,-0E0],"categories":[],"categories_nodes":[],"categories_segments":[],"categories_sizes":[],"default_left":[0,0,0,0,0,0,0,0,0],"id":129,"left_children":[1,3,5,7,-1,-1,-1,-1,-1],"loss_changes":[2.781333E-6,2.9955925E-6,1.3949148E-5,2.8775755E-6,0E0,0E0,0E0,0E0,0E0],"parents":[2147483647,0,0,1,1,2,2,3,3],"right_children":[2,4,6,8,-1,-1,-1,-1,-1],"split_conditions":[7.7E0,2.699187E-1,1.5297906E-1,-2.31E-1,-0E0,-0E0,2.16785E-5,-9.433313E-6,-0E0],"split_indices":[1,8,8,7,0,0,0,0,0],"split_type":[0,0,0,0,0,0,0,0,0],"sum_hessian":[2.76E2,1.84E2,9.2E1,1.73E2,1.1E1,5E0,8.7E1,1.63E2,1E1],"tree_param":{"num_deleted":"0","num_feature":"10","num_nodes":"9","size_leaf_vector":"1"}},{"base_weights":[-0E0,-2.7740953E-4,-0E0,-4.8639558E-4,-0E0,-0E0,-2.8610044E-5],"categories":[],"categories_nodes":[],"categories_segments":[],"categories_sizes":[],"default_left":[0,0,0,0,0,0,0],"id":130,"left_children":[1,3,-1,5,-1,-1,-1],"loss_changes":[1.5160342E-5,2.931682E-5,0E0,1.1838019E-5,0E0,0E0,0E0],"parents":[2147483647,0,0,1,1,3,3],"right_children":[2,4,-1,6,-1,-1,-1],"split_conditions":[7.8E0,1.96E1,-0E0,2.95E1,-0E0,-0E0,-2.8610044E-5],"split_indices":[1,4,0,5,0,0,0],"split_type":[0,0,0,0,0,0,0],"sum_hessian":[2.85E2,1.95E2,9E1,1.86E2,9E0,1.6E1,1.7E2],"tree_param":{"num_deleted":"0","num_feature":"10","num_nodes":"7","size_leaf_vector":"1"}},{"base_weights":[-0E0],"categories":[],"categories_nodes":[],"categories_segments":[],"categories_sizes":[],"default_left":[0],"id":131,"left_children":[-1],"loss_changes":[0E0],"parents":[2147483647],"right_children":[-1],"split_conditions":[-0E0],"split_indices":[0],"split_type":[0],"sum_hessian":[2.79E2],"tree_param":{"num_deleted":"0","num_feature":"10","num_nodes":"1","size_leaf_vector":"1"}},{"base_weights":[-0E0],"categories":[],"categories_nodes":[],"categories_segments":[],"categories_sizes":[],"default_left":[0],"id":132,"left_children":[-1],"loss_changes":[0E0],"parents":[2147483647],"right_children":[-1],"split_conditions":[-0E0],"split_indices":[0],"split_type":[0],"sum_hessian":[2.88E2],"tree_param":{"num_deleted":"0","num_feature":"10","num_nodes":"1","size_leaf_vector":"1"}},{"base_weights":[-0E0,-1.5858024E-4,-0E0,-0E0,-2.0115661E-4,-2.696608E-4,-0E0,-2.0843965E-5,-0E0],"categories":[],"categories_nodes":[],"categories_segments":[],"categories_sizes":[],"default_left":[0,0,0,0,0,0,0,0,0],"id":133,"left_children":[1,3,-1,-1,5,7,-1,-1,-1],"loss_changes":[4.9038E-6,2.4606447E-6,0E0,0E0,3.0340784E-6,1.358427E-5,0E0,0E0,0E0],"parents":[2147483647,0,0,1,1,4,4,5,5],"right_children":[2,4,-1,-1,6,8,-1,-1,-1],"split_conditions":[1.23E1,2.97E1,-0E0,-0E0,1.0500808E-1,9.2E1,-0E0,-2.0843965E-5,-0E0],"split_indices":[0,5,0,0,9,2,0,0,0],"split_type":[0,0,0,0,0,0,0,0,0],"sum_hessian":[2.67E2,1.93E2,7.4E1,1.3E1,1.8E2,1.41E2,3.9E1,1.36E2,5E0],"tree_param":{"num_deleted":"0","num_feature":"10","num_nodes":"9","size_leaf_vector":"1"}},{"base_weights":[-0E0,-0E0,8.273623E-5,-0E0,2.5974135E-4,3.6484844E-4,-0E0,-0E0,2.408559E-5],"categories":[],"categories_nodes":[],"categories_segments":[],"categories_sizes":[],"default_left":[0,0,0,0,0,0,0,0,0],"id":134,"left_children":[1,-1,3,-1,5,7,-1,-1,-1],"loss_changes":[1.5059626E-6,0E0,1.0233047E-5,0E0,1.0624209E-5,9.195073E-6,0E0,0E0,0E0],"parents":[2147483647,0,0,2,2,4,4,5,5],"right_children":[2,-1,4,-1,6,8,-1,-1,-1],"split_conditions":[6.3E0,-0E0,1.05E1,-0E0,4.09E1,3.88E1,-0E0,-0E0,2.408559E-5],"split_indices":[0,0,4,0,5,3,0,0,0],"split_type":[0,0,0,0,0,0,0,0,0],"sum_hessian":[2.81E2,6.3E1,2.18E2,4.6E1,1.72E2,1.66E2,6E0,3.2E1,1.34E2],"tree_param":{"num_deleted":"0","num_feature":"10","num_nodes":"9","size_leaf_vector":"1"}},{"base_weights":[-0E0],"categories":[],"categories_nodes":[],"categories_segments":[],"categories_sizes":[],"default_left":[0],"id":135,"left_children":[-1],"loss_changes":[0E0],"parents":[2147483647],"right_children":[-1],"split_conditions":[-0E0],"split_indices":[0],"split_type":[0],"sum_hessian":[2.94E2],"tree_param":{"num_deleted":"0","num_feature":"10","num_nodes":"1","size_leaf_vector":"1"}},{"base_weights":[-0E0],"categories":[],"categories_nodes":[],"categories_segments":[],"categories_sizes":[],"default_left":[0],"id":136,"left_children":[-1],"loss_changes":[0E0],"parents":[2147483647],"right_children":[-1],"split_conditions":[-0E0],"split_indices":[0],"split_type":[0],"sum_hessian":[2.88E2],"tree_param":{"num_deleted":"0","num_feature":"10","num_nodes":"1","size_leaf_vector":"1"}},{"base_weights":[-0E0],"categories":[],"categories_nodes":[],"categories_segments":[],"categories_sizes":[],"default_left":[0],"id":137,"left_children":[-1],"loss_changes":[0E0],"parents":[2147483647],"right_children":[-1],"split_conditions":[-0E0],"split_indices":[0],"split_type":[0],"sum_hessian":[2.93E2],"tree_param":{"num_deleted":"0","num_feature":"10","num_nodes":"1","size_leaf_vector":"1"}},{"base_weights":[-0E0],"categories":[],"categories_nodes":[],"categories_segments":[],"categories_sizes":[],"default_left":[0],"id":138,"left_children":[-1],"loss_changes":[0E0],"parents":[2147483647],"right_children":[-1],"split_conditions":[-0E0],"split_indices":[0],"split_type":[0],"sum_hessian":[2.82E2],"tree_param":{"num_deleted":"0","num_feature":"10","num_nodes":"1","size_leaf_vector":"1"}},{"base_weights":[-0E0,-6.8224736E-6,1.1943859E-4,-0E0,6.37161E-4,-0E0,7.92276E-4,-0E0,4.583631E-5],"categories":[],"categories_nodes":[],"categories_segments":[],"categories_sizes":[],"default_left":[0,0,0,0,0,0,0,0,0],"id":139,"left_children":[1,-1,3,-1,5,-1,7,-1,-1],"loss_changes":[4.602993E-6,0E0,6.9794274E-5,0E0,2.9239942E-5,0E0,2.3742745E-5,0E0,0E0],"parents":[2147483647,0,0,2,2,4,4,6,6],"right_children":[2,-1,4,-1,6,-1,8,-1,-1],"split_conditions":[6.3E0,-6.8224736E-6,1.05E1,-0E0,1.5448505E-1,-0E0,3.09E-1,-0E0,4.583631E-5],"split_indices":[0,0,4,0,8,0,6,0,0],"split_type":[0,0,0,0,0,0,0,0,0],"sum_hessian":[2.97E2,6.9E1,2.28E2,5E1,1.78E2,1.7E1,1.61E2,1.3E1,1.48E2],"tree_param":{"num_deleted":"0","num_feature":"10","num_nodes":"9","size_leaf_vector":"1"}},{"base_weights":[-0E0],"categories":[],"categories_nodes":[],"categories_segments":[],"categories_sizes":[],"default_left":[0],"id":140,"left_children":[-1],"loss_changes":[0E0],"parents":[2147483647],"right_children":[-1],"split_conditions":[-0E0],"split_indices":[0],"split_type":[0],"sum_hessian":[2.81E2],"tree_param":{"num_deleted":"0","num_feature":"10","num_nodes":"1","size_leaf_vector":"1"}},{"base_weights":[-0E0],"categories":[],"categories_nodes":[],"categories_segments":[],"categories_sizes":[],"default_left":[0],"id":141,"left_children":[-1],"loss_changes":[0E0],"parents":[2147483647],"right_children":[-1],"split_conditions":[-0E0],"split_indices":[0],"split_type":[0],"sum_hessian":[2.84E2],"tree_param":{"num_deleted":"0","num_feature":"10","num_nodes":"1","size_leaf_vector":"1"}},{"base_weights":[-0E0,-0E0,3.113034E-5,-1.2199215E-4,-0E0,-2.3805603E-4,-0E0,-0E0,-1.4207246E-5],"categories":[],"categories_nodes":[],"categories_segments":[],"categories_sizes":[],"default_left":[0,0,0,0,0,0,0,0,0],"id":142,"left_children":[1,3,-1,5,-1,7,-1,-1,-1],"loss_changes":[2.4033636E-5,2.440662E-6,0E0,6.569976E-6,0E0,2.4542069E-6,0E0,0E0,0E0],"parents":[2147483647,0,0,1,1,3,3,5,5],"right_children":[2,4,-1,6,-1,8,-1,-1,-1],"split_conditions":[1.28E1,1.57E1,3.113034E-5,1.3114753E-1,