{"learner":{"attributes":{"scikit_learn":"{\"_estimator_type\": \"regressor\"}"},"feature_names":["barrel_pct","barrel_pa","exit_velocity","hard_hit_pct","launch_angle","sweet_spot_pct","xwoba","iso","k_pct","bb_pct"],"feature_types":["float","float","float","float","float","float","float","float","float","float"],"gradient_booster":{"model":{"cats":{"enc":[],"feature_segments":[],"sorted_idx":[]},"gbtree_model_param":{"num_parallel_tree":"1","num_trees":"300"},"iteration_indptr":[0,1,2,3,4,5,6,7,8,9,10,11,12,13,14,15,16,17,18,19,20,21,22,23,24,25,26,27,28,29,30,31,32,33,34,35,36,37,38,39,40,41,42,43,44,45,46,47,48,49,50,51,52,53,54,55,56,57,58,59,60,61,62,63,64,65,66,67,68,69,70,71,72,73,74,75,76,77,78,79,80,81,82,83,84,85,86,87,88,89,90,91,92,93,94,95,96,97,98,99,100,101,102,103,104,105,106,107,108,109,110,111,112,113,114,115,116,117,118,119,120,121,122,123,124,125,126,127,128,129,130,131,132,133,134,135,136,137,138,139,140,141,142,143,144,145,146,147,148,149,150,151,152,153,154,155,156,157,158,159,160,161,162,163,164,165,166,167,168,169,170,171,172,173,174,175,176,177,178,179,180,181,182,183,184,185,186,187,188,189,190,191,192,193,194,195,196,197,198,199,200,201,202,203,204,205,206,207,208,209,210,211,212,213,214,215,216,217,218,219,220,221,222,223,224,225,226,227,228,229,230,231,232,233,234,235,236,237,238,239,240,241,242,243,244,245,246,247,248,249,250,251,252,253,254,255,256,257,258,259,260,261,262,263,264,265,266,267,268,269,270,271,272,273,274,275,276,277,278,279,280,281,282,283,284,285,286,287,288,289,290,291,292,293,294,295,296,297,298,299,300],"tree_info":[0,0,0,0,0,0,0,0,0,0,0,0,0,0,0,0,0,0,0,0,0,0,0,0,0,0,0,0,0,0,0,0,0,0,0,0,0,0,0,0,0,0,0,0,0,0,0,0,0,0,0,0,0,0,0,0,0,0,0,0,0,0,0,0,0,0,0,0,0,0,0,0,0,0,0,0,0,0,0,0,0,0,0,0,0,0,0,0,0,0,0,0,0,0,0,0,0,0,0,0,0,0,0,0,0,0,0,0,0,0,0,0,0,0,0,0,0,0,0,0,0,0,0,0,0,0,0,0,0,0,0,0,0,0,0,0,0,0,0,0,0,0,0,0,0,0,0,0,0,0,0,0,0,0,0,0,0,0,0,0,0,0,0,0,0,0,0,0,0,0,0,0,0,0,0,0,0,0,0,0,0,0,0,0,0,0,0,0,0,0,0,0,0,0,0,0,0,0,0,0,0,0,0,0,0,0,0,0,0,0,0,0,0,0,0,0,0,0,0,0,0,0,0,0,0,0,0,0,0,0,0,0,0,0,0,0,0,0,0,0,0,0,0,0,0,0,0,0,0,0,0,0,0,0,0,0,0,0,0,0,0,0,0,0,0,0,0,0,0,0,0,0,0,0,0,0,0,0,0,0,0,0,0,0,0,0,0,0,0,0,0,0,0,0,0,0,0,0,0,0],"trees":[{"base_weights":[-0E0,-3.3279792E-3,5.421876E-3,-4.0504257E-3,-0E0,-0E0,6.2450566E-3,-4.167586E-3,-0E0,-0E0,6.6478252E-3,-2.2473243E-4,-0E0,-0E0,3.450237E-4],"categories":[],"categories_nodes":[],"categories_segments":[],"categories_sizes":[],"default_left":[0,0,0,0,0,0,0,0,0,0,0,0,0,0,0],"id":0,"left_children":[1,3,5,7,-1,-1,9,11,-1,-1,13,-1,-1,-1,-1],"loss_changes":[5.1466906E-3,5.3210696E-4,5.0140964E-4,6.5282686E-5,0E0,0E0,2.5677448E-4,1.102332E-4,0E0,0E0,1.209788E-5,0E0,0E0,0E0,0E0],"parents":[2147483647,0,0,1,1,2,2,3,3,6,6,7,7,10,10],"right_children":[2,4,6,8,-1,-1,10,12,-1,-1,14,-1,-1,-1,-1],"split_conditions":[1.1E1,1.66E1,1E1,-2.3E-1,-0E0,-0E0,5.8267716E-2,1E1,-0E0,-0E0,1.6608997E-1,-2.2473243E-4,-0E0,-0E0,3.450237E-4],"split_indices":[0,4,4,7,0,0,9,0,0,0,8,0,0,0,0],"split_type":[0,0,0,0,0,0,0,0,0,0,0,0,0,0,0],"sum_hessian":[2.87E2,1.84E2,1.03E2,1.56E2,2.8E1,1.3E1,9E1,1.51E2,5E0,5E0,8.5E1,1.35E2,1.6E1,6E0,7.9E1],"tree_param":{"num_deleted":"0","num_feature":"10","num_nodes":"15","size_leaf_vector":"1"}},{"base_weights":[-0E0,-3.036254E-3,4.5966273E-3,-2.7085523E-4,-0E0,-0E0,5.6804414E-3,-0E0,3.033945E-4],"categories":[],"categories_nodes":[],"categories_segments":[],"categories_sizes":[],"default_left":[0,0,0,0,0,0,0,0,0],"id":1,"left_children":[1,3,5,-1,-1,-1,7,-1,-1],"loss_changes":[4.113446E-3,2.6724907E-4,6.390149E-4,0E0,0E0,0E0,2.3882417E-4,0E0,0E0],"parents":[2147483647,0,0,1,1,2,2,6,6],"right_children":[2,4,6,-1,-1,-1,8,-1,-1],"split_conditions":[1.02E1,6.3E0,4.38E1,-2.7085523E-4,-0E0,-0E0,1.576507E-1,-0E0,3.033945E-4],"split_indices":[0,0,3,0,0,0,8,0,0],"split_type":[0,0,0,0,0,0,0,0,0],"sum_hessian":[2.82E2,1.6E2,1.22E2,5.8E1,1.02E2,2.3E1,9.9E1,6E0,9.3E1],"tree_param":{"num_deleted":"0","num_feature":"10","num_nodes":"9","size_leaf_vector":"1"}},{"base_weights":[-0E0,-3.1497153E-3,4.305955E-3,-2.6093048E-4,-0E0,-0E0,4.6445574E-3,-0E0,2.4654993E-4],"categories":[],"categories_nodes":[],"categories_segments":[],"categories_sizes":[],"default_left":[0,0,0,0,0,0,0,0,0],"id":2,"left_children":[1,3,5,-1,-1,-1,7,-1,-1],"loss_changes":[3.488102E-3,4.3986656E-4,1.3423653E-4,0E0,0E0,0E0,7.6280674E-5,0E0,0E0],"parents":[2147483647,0,0,1,1,2,2,6,6],"right_children":[2,4,6,-1,-1,-1,8,-1,-1],"split_conditions":[7.8E0,7E0,5.8267716E-2,-2.6093048E-4,-0E0,-0E0,1.576507E-1,-0E0,2.4654993E-4],"split_indices":[1,0,9,0,0,0,8,0,0],"split_type":[0,0,0,0,0,0,0,0,0],"sum_hessian":[2.72E2,1.87E2,8.5E1,8.3E1,1.04E2,6E0,7.9E1,6E0,7.3E1],"tree_param":{"num_deleted":"0","num_feature":"10","num_nodes":"9","size_leaf_vector":"1"}},{"base_weights":[-0E0,-2.7852112E-3,5.3381347E-3,-4.107179E-3,-0E0,-0E0,5.757572E-3,-4.3051355E-3,-0E0,-0E0,3.0787647E-4,-2.3032476E-4,-0E0],"categories":[],"categories_nodes":[],"categories_segments":[],"categories_sizes":[],"default_left":[0,0,0,0,0,0,0,0,0,0,0,0,0],"id":3,"left_children":[1,3,5,7,-1,-1,9,11,-1,-1,-1,-1,-1],"loss_changes":[4.0719258E-3,7.403521E-4,2.3449166E-4,1.4046673E-4,0E0,0E0,1.5851669E-4,4.4260174E-5,0E0,0E0,0E0,0E0,0E0],"parents":[2147483647,0,0,1,1,2,2,3,3,6,6,7,7],"right_children":[2,4,6,8,-1,-1,10,12,-1,-1,-1,-1,-1],"split_conditions":[7.8E0,6.3E0,1.576507E-1,3.57E-1,-0E0,-0E0,4.36E1,8.3E0,-0E0,-0E0,3.0787647E-4,-2.3032476E-4,-0E0],"split_indices":[1,1,8,6,0,0,3,0,0,0,0,0,0],"split_type":[0,0,0,0,0,0,0,0,0,0,0,0,0],"sum_hessian":[2.91E2,2.07E2,8.4E1,1.38E2,6.9E1,5E0,7.9E1,1.33E2,5E0,6E0,7.3E1,1.18E2,1.5E1],"tree_param":{"num_deleted":"0","num_feature":"10","num_nodes":"13","size_leaf_vector":"1"}},{"base_weights":[-0E0,-4.077809E-3,3.2895904E-3,-2.116316E-4,-0E0,-0E0,5.494E-3,-0E0,2.9897338E-4],"categories":[],"categories_nodes":[],"categories_segments":[],"categories_sizes":[],"default_left":[0,0,0,0,0,0,0,0,0],"id":4,"left_children":[1,3,5,-1,-1,-1,7,-1,-1],"loss_changes":[3.9781183E-3,7.254211E-5,9.543749E-4,0E0,0E0,0E0,3.0905497E-4,0E0,0E0],"parents":[2147483647,0,0,1,1,2,2,6,6],"right_children":[2,4,6,-1,-1,-1,8,-1,-1],"split_conditions":[8.2E0,1.95E1,7.8E0,-2.116316E-4,-0E0,-0E0,1.5297906E-1,-0E0,2.9897338E-4],"split_indices":[0,4,1,0,0,0,8,0,0],"split_type":[0,0,0,0,0,0,0,0,0],"sum_hessian":[2.96E2,1.24E2,1.72E2,1.19E2,5E0,8E1,9.2E1,6E0,8.6E1],"tree_param":{"num_deleted":"0","num_feature":"10","num_nodes":"9","size_leaf_vector":"1"}},{"base_weights":[-0E0,-3.4408274E-3,2.5758746E-3,-1.779687E-4,-0E0,-0E0,4.7406605E-3,-0E0,2.6905167E-4],"categories":[],"categories_nodes":[],"categories_segments":[],"categories_sizes":[],"default_left":[0,0,0,0,0,0,0,0,0],"id":5,"left_children":[1,3,5,-1,-1,-1,7,-1,-1],"loss_changes":[2.6543299E-3,2.7716393E-5,6.0101703E-4,0E0,0E0,0E0,2.514514E-4,0E0,0E0],"parents":[2147483647,0,0,1,1,2,2,6,6],"right_children":[2,4,6,-1,-1,-1,8,-1,-1],"split_conditions":[8.2E0,1.95E1,1.23E1,-1.779687E-4,-0E0,-0E0,4.38E1,-0E0,2.6905167E-4],"split_indices":[0,4,0,0,0,0,3,0,0],"split_type":[0,0,0,0,0,0,0,0,0],"sum_hessian":[2.98E2,1.23E2,1.75E2,1.17E2,6E0,9.8E1,7.7E1,9E0,6.8E1],"tree_param":{"num_deleted":"0","num_feature":"10","num_nodes":"9","size_leaf_vector":"1"}},{"base_weights":[-0E0,-4.203646E-3,2.2396124E-3,-2.261642E-4,-0E0,-0E0,3.5204666E-3,-0E0,4.20758E-3,-0E0,2.2124246E-4],"categories":[],"categories_nodes":[],"categories_segments":[],"categories_sizes":[],"default_left":[0,0,0,0,0,0,0,0,0,0,0],"id":6,"left_children":[1,3,5,-1,-1,-1,7,-1,9,-1,-1],"loss_changes":[2.4774747E-3,1.320137E-4,9.278802E-4,0E0,0E0,0E0,6.2831584E-4,0E0,1.5260489E-4,0E0,0E0],"parents":[2147483647,0,0,1,1,2,2,6,6,8,8],"right_children":[2,4,6,-1,-1,-1,8,-1,10,-1,-1],"split_conditions":[7E0,2.2543353E-1,1.05E1,-2.261642E-4,-0E0,-0E0,3.09E-1,-0E0,3.87E1,-0E0,2.2124246E-4],"split_indices":[0,8,4,0,0,0,6,0,3,0,0],"split_type":[0,0,0,0,0,0,0,0,0,0,0],"sum_hessian":[2.78E2,8.2E1,1.96E2,7.7E1,5E0,4.3E1,1.53E2,1.1E1,1.42E2,6E0,1.36E2],"tree_param":{"num_deleted":"0","num_feature":"10","num_nodes":"11","size_leaf_vector":"1"}},{"base_weights":[-0E0,-1.1134164E-3,4.1230298E-3,-2.850187E-3,-0E0,-0E0,5.1409453E-3,-1.5378013E-4,-0E0,-0E0,2.9299883E-4],"categories":[],"categories_nodes":[],"categories_segments":[],"categories_sizes":[],"default_left":[0,0,0,0,0,0,0,0,0,0,0],"id":7,"left_children":[1,3,5,7,-1,-1,9,-1,-1,-1,-1],"loss_changes":[1.7878007E-3,4.488934E-4,3.729671E-4,6.891496E-5,0E0,0E0,3.291451E-4,0E0,0E0,0E0,0E0],"parents":[2147483647,0,0,1,1,2,2,3,3,6,6],"right_children":[2,4,6,8,-1,-1,10,-1,-1,-1,-1],"split_conditions":[7.8E0,7E0,9.06E1,2.2141823E-1,-0E0,-0E0,1.5448505E-1,-1.5378013E-4,-0E0,-0E0,2.9299883E-4],"split_indices":[1,0,2,8,0,0,8,0,0,0,0],"split_type":[0,0,0,0,0,0,0,0,0,0,0],"sum_hessian":[2.94E2,2.06E2,8.8E1,8.5E1,1.21E2,1.8E1,7E1,8E1,5E0,7E0,6.3E1],"tree_param":{"num_deleted":"0","num_feature":"10","num_nodes":"11","size_leaf_vector":"1"}},{"base_weights":[-0E0,-2.6735247E-3,3.4168467E-3,-3.5809234E-3,-0E0,-0E0,4.2079515E-3,-0E0,-1.8286935E-4,-0E0,4.471425E-3,-0E0,2.3510726E-4],"categories":[],"categories_nodes":[],"categories_segments":[],"categories_sizes":[],"default_left":[0,0,0,0,0,0,0,0,0,0,0,0,0],"id":8,"left_children":[1,3,5,7,-1,-1,9,-1,-1,-1,11,-1,-1],"loss_changes":[2.6756623E-3,5.988197E-4,4.300247E-4,8.942559E-6,0E0,0E0,9.1597205E-5,0E0,0E0,0E0,1.05335144E-4,0E0,0E0],"parents":[2147483647,0,0,1,1,2,2,3,3,6,6,10,10],"right_children":[2,4,6,8,-1,-1,10,-1,-1,-1,12,-1,-1],"split_conditions":[1.01E1,1.66E1,1.05E1,5.2E0,-0E0,-0E0,8.91E1,-0E0,-1.8286935E-4,-0E0,4.17E1,-0E0,2.3510726E-4],"split_indices":[0,4,4,4,0,0,2,0,0,0,3,0,0],"split_type":[0,0,0,0,0,0,0,0,0,0,0,0,0],"sum_hessian":[2.88E2,1.6E2,1.28E2,1.35E2,2.5E1,2E1,1.08E2,5E0,1.3E2,8E0,1E2,5E0,9.5E1],"tree_param":{"num_deleted":"0","num_feature":"10","num_nodes":"13","size_leaf_vector":"1"}},{"base_weights":[-0E0,-2.7607002E-3,2.6451093E-3,-4.099058E-3,-0E0,-0E0,2.97915E-3,-2.2400932E-4,-0E0,-0E0,3.2974815E-3,-0E0,1.8150374E-4],"categories":[],"categories_nodes":[],"categories_segments":[],"categories_sizes":[],"default_left":[0,0,0,0,0,0,0,0,0,0,0,0,0],"id":9,"left_children":[1,3,5,7,-1,-1,9,-1,-1,-1,11,-1,-1],"loss_changes":[2.198211E-3,3.845787E-4,1.5360309E-4,1.6640278E-4,0E0,0E0,1.725275E-4,0E0,0E0,0E0,1.9447133E-4,0E0,0E0],"parents":[2147483647,0,0,1,1,2,2,3,3,6,6,10,10],"right_children":[2,4,6,8,-1,-1,10,-1,-1,-1,12,-1,-1],"split_conditions":[6.9E0,5.3E0,1.5448505E-1,2.2543353E-1,-0E0,-0E0,8.91E1,-2.2400932E-4,-0E0,-0E0,5.162524E-2,-0E0,1.8150374E-4],"split_indices":[1,1,8,8,0,0,2,0,0,0,9,0,0],"split_type":[0,0,0,0,0,0,0,0,0,0,0,0,0],"sum_hessian":[2.95E2,1.68E2,1.27E2,9.8E1,7E1,1E1,1.17E2,9E1,8E0,6E0,1.11E2,5E0,1.06E2],"tree_param":{"num_deleted":"0","num_feature":"10","num_nodes":"13","size_leaf_vector":"1"}},{"base_weights":[-0E0,-1.6272479E-3,5.039713E-3,-2.0262704E-4,-0E0,-0E0,5.564996E-3,-0E0,6.141641E-3,-0E0,3.1772137E-4],"categories":[],"categories_nodes":[],"categories_segments":[],"categories_sizes":[],"default_left":[0,0,0,0,0,0,0,0,0,0,0],"id":10,"left_children":[1,3,5,-1,-1,-1,7,-1,9,-1,-1],"loss_changes":[2.928738E-3,5.008423E-4,3.6320835E-4,0E0,0E0,0E0,2.5457307E-4,0E0,8.166302E-6,0E0,0E0],"parents":[2147483647,0,0,1,1,2,2,6,6,8,8],"right_children":[2,4,6,-1,-1,-1,8,-1,10,-1,-1],"split_conditions":[7.8E0,6.5E0,5.6726094E-2,-2.0262704E-4,-0E0,-0E0,4.38E1,-0E0,1.576507E-1,-0E0,3.1772137E-4],"split_indices":[1,0,9,0,0,0,3,0,8,0,0],"split_type":[0,0,0,0,0,0,0,0,0,0,0],"sum_hessian":[3.03E2,2.12E2,9.1E1,6.3E1,1.49E2,5E0,8.6E1,9E0,7.7E1,5E0,7.2E1],"tree_param":{"num_deleted":"0","num_feature":"10","num_nodes":"11","size_leaf_vector":"1"}},{"base_weights":[-0E0,-2.6522442E-3,2.6748343E-3,-1.6630685E-4,-0E0,-0E0,4.0149405E-3,-0E0,2.2064311E-4],"categories":[],"categories_nodes":[],"categories_segments":[],"categories_sizes":[],"default_left":[0,0,0,0,0,0,0,0,0],"id":11,"left_children":[1,3,5,-1,-1,-1,7,-1,-1],"loss_changes":[1.9873218E-3,8.223817E-5,8.665031E-4,0E0,0E0,0E0,2.432923E-4,0E0,0E0],"parents":[2147483647,0,0,1,1,2,2,6,6],"right_children":[2,4,6,-1,-1,-1,8,-1,-1],"split_conditions":[6.4E0,7.6E0,1.05E1,-1.6630685E-4,-0E0,-0E0,1.5448505E-1,-0E0,2.2064311E-4],"split_indices":[1,0,4,0,0,0,8,0,0],"split_type":[0,0,0,0,0,0,0,0,0],"sum_hessian":[2.76E2,1.31E2,1.45E2,9E1,4.1E1,2.8E1,1.17E2,8E0,1.09E2],"tree_param":{"num_deleted":"0","num_feature":"10","num_nodes":"9","size_leaf_vector":"1"}},{"base_weights":[-0E0,-1.9994765E-3,2.1168725E-4,-2.9546304E-3,-0E0,-1.5088847E-4,-0E0],"categories":[],"categories_nodes":[],"categories_segments":[],"categories_sizes":[],"default_left":[0,0,0,0,0,0,0],"id":12,"left_children":[1,3,-1,5,-1,-1,-1],"loss_changes":[2.3471592E-3,6.343146E-4,0E0,8.332892E-6,0E0,0E0,0E0],"parents":[2147483647,0,0,1,1,3,3],"right_children":[2,4,-1,6,-1,-1,-1],"split_conditions":[7.8E0,1.66E1,2.1168725E-4,4E1,-0E0,-1.5088847E-4,-0E0],"split_indices":[1,4,0,5,0,0,0],"split_type":[0,0,0,0,0,0,0],"sum_hessian":[2.87E2,2.04E2,8.3E1,1.65E2,3.9E1,1.59E2,6E0],"tree_param":{"num_deleted":"0","num_feature":"10","num_nodes":"7","size_leaf_vector":"1"}},{"base_weights":[-0E0,-2.3636315E-3,2.849669E-3,-2.7186435E-3,-0E0,-0E0,3.655135E-3,-2.9189137E-3,-0E0,-0E0,4.0750704E-3,-1.5175484E-4,-0E0,-0E0,2.1264472E-4],"categories":[],"categories_nodes":[],"categories_segments":[],"categories_sizes":[],"default_left":[0,0,0,0,0,0,0,0,0,0,0,0,0,0,0],"id":13,"left_children":[1,3,5,7,-1,-1,9,11,-1,-1,13,-1,-1,-1,-1],"loss_changes":[1.9044087E-3,1.7944793E-4,3.9348693E-4,1.00065605E-4,0E0,0E0,2.0150794E-4,3.305485E-5,0E0,0E0,1.40765915E-5,0E0,0E0,0E0,0E0],"parents":[2147483647,0,0,1,1,2,2,3,3,6,6,7,7,10,10],"right_children":[2,4,6,8,-1,-1,10,12,-1,-1,14,-1,-1,-1,-1],"split_conditions":[6.9E0,1.8E1,1E1,1.02E1,-0E0,-0E0,1.5448505E-1,4.9E1,-0E0,-0E0,7.1E0,-1.5175484E-4,-0E0,-0E0,2.1264472E-4],"split_indices":[1,4,4,0,0,0,8,3,0,0,1,0,0,0,0],"split_type":[0,0,0,0,0,0,0,0,0,0,0,0,0,0,0],"sum_hessian":[2.82E2,1.63E2,1.19E2,1.47E2,1.6E1,1.8E1,1.01E2,1.39E2,8E0,8E0,9.3E1,1.32E2,7E0,7E0,8.6E1],"tree_param":{"num_deleted":"0","num_feature":"10","num_nodes":"15","size_leaf_vector":"1"}},{"base_weights":[-0E0,-1.4136477E-3,2.8817926E-3,-1.2368894E-4,-0E0,-0E0,3.2650707E-3,3.4526696E-3,-0E0,-0E0,1.822962E-4],"categories":[],"categories_nodes":[],"categories_segments":[],"categories_sizes":[],"default_left":[0,0,0,0,0,0,0,0,0,0,0],"id":14,"left_children":[1,3,5,-1,-1,-1,7,9,-1,-1,-1],"loss_changes":[1.1523468E-3,5.951914E-4,1.4683529E-4,0E0,0E0,0E0,2.352579E-6,2.7246482E-5,0E0,0E0,0E0],"parents":[2147483647,0,0,1,1,2,2,6,6,7,7],"right_children":[2,4,6,-1,-1,-1,8,10,-1,-1,-1],"split_conditions":[1.1E1,1.66E1,1.5448505E-1,-1.2368894E-4,-0E0,-0E0,3.0217028E-1,9.3E0,-0E0,-0E0,1.822962E-4],"split_indices":[0,4,8,0,0,0,8,4,0,0,0],"split_type":[0,0,0,0,0,0,0,0,0,0,0],"sum_hessian":[2.76E2,1.84E2,9.2E1,1.56E2,2.8E1,7E0,8.5E1,7.6E1,9E0,6E0,7E1],"tree_param":{"num_deleted":"0","num_feature":"10","num_nodes":"11","size_leaf_vector":"1"}},{"base_weights":[-0E0,-2.5348573E-3,2.4196105E-3,-1.851642E-4,-0E0,-0E0,3.001403E-3,-0E0,3.4803865E-3,1.8196383E-4,-0E0],"categories":[],"categories_nodes":[],"categories_segments":[],"categories_sizes":[],"default_left":[0,0,0,0,0,0,0,0,0,0,0],"id":15,"left_children":[1,3,5,-1,-1,-1,7,-1,9,-1,-1],"loss_changes":[1.7664649E-3,2.5032315E-4,3.8388884E-4,0E0,0E0,0E0,1.2811075E-4,0E0,2.9464136E-5,0E0,0E0],"parents":[2147483647,0,0,1,1,2,2,6,6,8,8],"right_children":[2,4,6,-1,-1,-1,8,-1,10,-1,-1],"split_conditions":[6.5E0,5.1E0,3.12E-1,-1.851642E-4,-0E0,-0E0,1.05E1,-0E0,4.05E1,1.8196383E-4,-0E0],"split_indices":[1,1,6,0,0,0,4,0,5,0,0],"split_type":[0,0,0,0,0,0,0,0,0,0,0],"sum_hessian":[2.83E2,1.49E2,1.34E2,8.7E1,6.2E1,5E0,1.29E2,2.3E1,1.06E2,9.9E1,7E0],"tree_param":{"num_deleted":"0","num_feature":"10","num_nodes":"11","size_leaf_vector":"1"}},{"base_weights":[-0E0,-1.3343255E-4,1.4615821E-3,-0E0,2.157026E-3,-0E0,1.6403486E-4],"categories":[],"categories_nodes":[],"categories_segments":[],"categories_sizes":[],"default_left":[0,0,0,0,0,0,0],"id":16,"left_children":[1,-1,3,-1,5,-1,-1],"loss_changes":[1.0931303E-3,0E0,2.9150594E-4,0E0,2.602709E-4,0E0,0E0],"parents":[2147483647,0,0,2,2,4,4],"right_children":[2,-1,4,-1,6,-1,-1],"split_conditions":[5.5E0,-1.3343255E-4,1.01E1,-0E0,9.03E1,-0E0,1.6403486E-4],"split_indices":[1,0,4,0,2,0,0],"split_type":[0,0,0,0,0,0,0],"sum_hessian":[2.72E2,9.9E1,1.73E2,3.2E1,1.41E2,5.7E1,8.4E1],"tree_param":{"num_deleted":"0","num_feature":"10","num_nodes":"7","size_leaf_vector":"1"}},{"base_weights":[-0E0,-5.924744E-4,3.3598328E-3,-1.7504806E-3,-0E0,-0E0,1.7986304E-4,-2.0443965E-3,-0E0,-1.130934E-4,-0E0],"categories":[],"categories_nodes":[],"categories_segments":[],"categories_sizes":[],"default_left":[0,0,0,0,0,0,0,0,0,0,0],"id":17,"left_children":[1,3,5,7,-1,-1,-1,9,-1,-1,-1],"loss_changes":[9.602397E-4,4.0649818E-4,6.579154E-5,1.0601015E-4,0E0,0E0,0E0,9.9475845E-5,0E0,0E0,0E0],"parents":[2147483647,0,0,1,1,2,2,3,3,7,7],"right_children":[2,4,6,8,-1,-1,-1,10,-1,-1,-1],"split_conditions":[1.22E1,1.57E1,1.5448505E-1,2.4420401E-1,-0E0,-0E0,1.7986304E-4,3.71E-1,-0E0,-1.130934E-4,-0E0],"split_indices":[0,4,8,8,0,0,0,6,0,0,0],"split_type":[0,0,0,0,0,0,0,0,0,0,0],"sum_hessian":[2.7E2,1.93E2,7.7E1,1.53E2,4E1,5E0,7.2E1,1.37E2,1.6E1,1.31E2,6E0],"tree_param":{"num_deleted":"0","num_feature":"10","num_nodes":"11","size_leaf_vector":"1"}},{"base_weights":[-0E0,-2.109562E-3,2.6126062E-3,-2.490882E-3,-0E0,-0E0,3.0311844E-3,-2.8162731E-3,-0E0,-0E0,3.222189E-3,-0E0,-1.5356285E-4,-0E0,1.6918051E-4],"categories":[],"categories_nodes":[],"categories_segments":[],"categories_sizes":[],"default_left":[0,0,0,0,0,0,0,0,0,0,0,0,0,0,0],"id":18,"left_children":[1,3,5,7,-1,-1,9,11,-1,-1,13,-1,-1,-1,-1],"loss_changes":[1.613034E-3,2.1863385E-4,1.1888298E-4,2.0351534E-4,0E0,0E0,8.066825E-5,1.01483776E-4,0E0,0E0,4.433666E-5,0E0,0E0,0E0,0E0],"parents":[2147483647,0,0,1,1,2,2,3,3,6,6,7,7,10,10],"right_children":[2,4,6,8,-1,-1,10,12,-1,-1,14,-1,-1,-1,-1],"split_conditions":[6.9E0,1.86E1,1.05E1,1.02E1,-0E0,-0E0,8.91E1,2.94E1,-0E0,-0E0,6.009245E-2,-0E0,-1.5356285E-4,-0E0,1.6918051E-4],"split_indices":[1,4,4,0,0,0,2,5,0,0,9,0,0,0,0],"split_type":[0,0,0,0,0,0,0,0,0,0,0,0,0,0,0],"sum_hessian":[2.88E2,1.58E2,1.3E2,1.48E2,1E1,2.1E1,1.09E2,1.41E2,7E0,5E0,1.04E2,1.2E1,1.29E2,6E0,9.8E1],"tree_param":{"num_deleted":"0","num_feature":"10","num_nodes":"15","size_leaf_vector":"1"}},{"base_weights":[-0E0,-1.4379198E-3,2.2278319E-3,-2.4870196E-3,-0E0,-0E0,2.665712E-3,-0E0,-2.7588094E-3,1.4635993E-4,-0E0,-1.5236801E-4,-0E0],"categories":[],"categories_nodes":[],"categories_segments":[],"categories_sizes":[],"default_left":[0,0,0,0,0,0,0,0,0,0,0,0,0],"id":19,"left_children":[1,3,5,7,-1,-1,9,-1,11,-1,-1,-1,-1],"loss_changes":[8.047854E-4,6.7706406E-4,8.5363135E-5,1.2106437E-4,0E0,0E0,4.9293158E-5,0E0,1.2450363E-4,0E0,0E0,0E0,0E0],"parents":[2147483647,0,0,1,1,2,2,3,3,6,6,8,8],"right_children":[2,4,6,8,-1,-1,10,-1,12,-1,-1,-1,-1],"split_conditions":[1.23E1,1.64E1,9.03E1,2.95E1,-0E0,-0E0,4E1,-0E0,3.6E-1,1.4635993E-4,-0E0,-1.5236801E-4,-0E0],"split_indices":[0,4,2,5,0,0,5,0,6,0,0,0,0],"split_type":[0,0,0,0,0,0,0,0,0,0,0,0,0],"sum_hessian":[2.83E2,2.12E2,7.1E1,1.79E2,3.3E1,1E1,6.1E1,1.8E1,1.61E2,5.6E1,5E0,1.45E2,1.6E1],"tree_param":{"num_deleted":"0","num_feature":"10","num_nodes":"13","size_leaf_vector":"1"}},{"base_weights":[-0E0,-1.8965772E-4,1.7489333E-4,-0E0,1.3099789E-3,-0E0,1.7503147E-3,-0E0,1.0819157E-4],"categories":[],"categories_nodes":[],"categories_segments":[],"categories_sizes":[],"default_left":[0,0,0,0,0,0,0,0,0],"id":20,"left_children":[1,-1,3,-1,5,-1,7,-1,-1],"loss_changes":[1.0283703E-3,0E0,1.6993153E-4,0E0,1.1428956E-4,0E0,1.3035286E-4,0E0,0E0],"parents":[2147483647,0,0,2,2,4,4,6,6],"right_children":[2,-1,4,-1,6,-1,8,-1,-1],"split_conditions":[6.3E0,-1.8965772E-4,1.1E1,-0E0,1.6608997E-1,-0E0,5.928854E-2,-0E0,1.0819157E-4],"split_indices":[0,0,0,0,8,0,9,0,0],"split_type":[0,0,0,0,0,0,0,0,0],"sum_hessian":[2.9E2,6.9E1,2.21E2,1.2E2,1.01E2,8E0,9.3E1,5E0,8.8E1],"tree_param":{"num_deleted":"0","num_feature":"10","num_nodes":"9","size_leaf_vector":"1"}},{"base_weights":[-0E0,-1.2278593E-3,2.1305901E-3,-1.8633273E-3,-0E0,-0E0,3.0924845E-3,-1.9211561E-3,-0E0,-0E0,1.937273E-4,-1.0106423E-4,-0E0],"categories":[],"categories_nodes":[],"categories_segments":[],"categories_sizes":[],"default_left":[0,0,0,0,0,0,0,0,0,0,0,0,0],"id":21,"left_children":[1,3,5,7,-1,-1,9,11,-1,-1,-1,-1,-1],"loss_changes":[6.873779E-4,3.0954235E-4,2.8359212E-4,1.6372884E-5,0E0,0E0,2.763205E-4,4.2594096E-5,0E0,0E0,0E0,0E0,0E0],"parents":[2147483647,0,0,1,1,2,2,3,3,6,6,7,7],"right_children":[2,4,6,8,-1,-1,10,12,-1,-1,-1,-1,-1],"split_conditions":[7.9E0,1.8E1,9.05E1,-2.2E-1,-0E0,-0E0,1.576507E-1,2.699187E-1,-0E0,-0E0,1.937273E-4,-1.0106423E-4,-0E0],"split_indices":[1,4,2,7,0,0,8,8,0,0,0,0,0],"split_type":[0,0,0,0,0,0,0,0,0,0,0,0,0],"sum_hessian":[2.81E2,1.98E2,8.3E1,1.74E2,2.4E1,1.5E1,6.8E1,1.68E2,6E0,7E0,6.1E1,1.62E2,6E0],"tree_param":{"num_deleted":"0","num_feature":"10","num_nodes":"13","size_leaf_vector":"1"}},{"base_weights":[-0E0,-1.8049147E-3,1.2911106E-3,-1.0402651E-4,-0E0,-0E0,2.4719336E-3,-0E0,2.9642985E-3,-0E0,1.5865639E-4],"categories":[],"categories_nodes":[],"categories_segments":[],"categories_sizes":[],"default_left":[0,0,0,0,0,0,0,0,0,0,0],"id":22,"left_children":[1,3,5,-1,-1,-1,7,-1,9,-1,-1],"loss_changes":[6.534782E-4,3.015477E-5,5.509663E-4,0E0,0E0,0E0,2.9296527E-4,0E0,1.1627388E-4,0E0,0E0],"parents":[2147483647,0,0,1,1,2,2,6,6,8,8],"right_children":[2,4,6,-1,-1,-1,8,-1,10,-1,-1],"split_conditions":[5.5E0,7E0,1.05E1,-1.0402651E-4,-0E0,-0E0,3.12E-1,-0E0,3.87E1,-0E0,1.5865639E-4],"split_indices":[1,0,4,0,0,0,6,0,3,0,0],"split_type":[0,0,0,0,0,0,0,0,0,0,0],"sum_hessian":[2.84E2,1.07E2,1.77E2,8.7E1,2E1,4E1,1.37E2,9E0,1.28E2,5E0,1.23E2],"tree_param":{"num_deleted":"0","num_feature":"10","num_nodes":"11","size_leaf_vector":"1"}},{"base_weights":[-0E0,-2.1239694E-3,5.2461465E-4,-1.1802748E-4,-0E0,-0E0,9.5008756E-4,-0E0,1.506582E-3,-0E0,9.8470206E-5],"categories":[],"categories_nodes":[],"categories_segments":[],"categories_sizes":[],"default_left":[0,0,0,0,0,0,0,0,0,0,0],"id":23,"left_children":[1,3,5,-1,-1,-1,7,-1,9,-1,-1],"loss_changes":[4.3756666E-4,5.5686483E-5,9.663665E-5,0E0,0E0,0E0,1.6024213E-4,0E0,2.0034667E-4,0E0,0E0],"parents":[2147483647,0,0,1,1,2,2,6,6,8,8],"right_children":[2,4,6,-1,-1,-1,8,-1,10,-1,-1],"split_conditions":[6.9E0,2.0471281E-1,1.05E1,-1.1802748E-4,-0E0,-0E0,8.91E1,-0E0,5.3651266E-2,-0E0,9.8470206E-5],"split_indices":[0,8,4,0,0,0,2,0,9,0,0],"split_type":[0,0,0,0,0,0,0,0,0,0,0],"sum_hessian":[2.93E2,8.2E1,2.11E2,7.6E1,6E0,4.1E1,1.7E2,3.3E1,1.37E2,6E0,1.31E2],"tree_param":{"num_deleted":"0","num_feature":"10","num_nodes":"11","size_leaf_vector":"1"}},{"base_weights":[-0E0,-1.3031786E-3,1.6214356E-3,-2.0808782E-3,-0E0,-0E0,1.9919935E-3,-0E0,-1.0692159E-4,-0E0,2.2470711E-3,-0E0,1.2227877E-4],"categories":[],"categories_nodes":[],"categories_segments":[],"categories_sizes":[],"default_left":[0,0,0,0,0,0,0,0,0,0,0,0,0],"id":24,"left_children":[1,3,5,7,-1,-1,9,-1,-1,-1,11,-1,-1],"loss_changes":[6.2725035E-4,3.2166223E-4,1.5690585E-4,1.088978E-5,0E0,0E0,1.0197854E-4,0E0,0E0,0E0,2.8049399E-5,0E0,0E0],"parents":[2147483647,0,0,1,1,2,2,3,3,6,6,10,10],"right_children":[2,4,6,8,-1,-1,10,-1,-1,-1,12,-1,-1],"split_conditions":[1.02E1,1.64E1,5.4158606E-2,5.2E0,-0E0,-0E0,1.5448505E-1,-0E0,-1.0692159E-4,-0E0,1.05E1,-0E0,1.2227877E-4],"split_indices":[0,4,9,4,0,0,8,0,0,0,4,0,0],"split_type":[0,0,0,0,0,0,0,0,0,0,0,0,0],"sum_hessian":[2.93E2,1.63E2,1.3E2,1.37E2,2.6E1,5E0,1.25E2,5E0,1.32E2,7E0,1.18E2,1.4E1,1.04E2],"tree_param":{"num_deleted":"0","num_feature":"10","num_nodes":"13","size_leaf_vector":"1"}},{"base_weights":[-0E0,-1.0579723E-3,3.0452441E-3,-1.8989531E-3,-0E0,-0E0,3.971658E-3,-0E0,-2.1283564E-3,-0E0,4.6664546E-3,-1.1726928E-4,-0E0,-0E0,2.6230534E-4],"categories":[],"categories_nodes":[],"categories_segments":[],"categories_sizes":[],"default_left":[0,0,0,0,0,0,0,0,0,0,0,0,0,0,0],"id":25,"left_children":[1,3,5,7,-1,-1,9,-1,11,-1,13,-1,-1,-1,-1],"loss_changes":[1.0455267E-3,3.763542E-4,3.0388992E-4,6.914331E-5,0E0,0E0,2.7369207E-4,0E0,1.1716486E-4,0E0,2.3012573E-4,0E0,0E0,0E0,0E0],"parents":[2147483647,0,0,1,1,2,2,3,3,6,6,8,8,10,10],"right_children":[2,4,6,8,-1,-1,10,-1,12,-1,14,-1,-1,-1,-1],"split_conditions":[7.9E0,1.66E1,9.05E1,2.97E1,-0E0,-0E0,1.5448505E-1,-0E0,9.2E1,-0E0,8.2E0,-1.1726928E-4,-0E0,-0E0,2.6230534E-4],"split_indices":[1,4,2,5,0,0,8,0,2,0,1,0,0,0,0],"split_type":[0,0,0,0,0,0,0,0,0,0,0,0,0,0,0],"sum_hessian":[2.89E2,2.03E2,8.6E1,1.66E2,3.7E1,1.7E1,6.9E1,1.9E1,1.47E2,7E0,6.2E1,1.42E2,5E0,5E0,5.7E1],"tree_param":{"num_deleted":"0","num_feature":"10","num_nodes":"15","size_leaf_vector":"1"}},{"base_weights":[-0E0,-1.4182185E-3,8.515088E-4,-1.8896967E-3,-0E0,-0E0,1.1671813E-3,-9.697093E-5,-0E0,-0E0,1.3823324E-3,-0E0,7.609986E-5],"categories":[],"categories_nodes":[],"categories_segments":[],"categories_sizes":[],"default_left":[0,0,0,0,0,0,0,0,0,0,0,0,0],"id":26,"left_children":[1,3,5,7,-1,-1,9,-1,-1,-1,11,-1,-1],"loss_changes":[4.0199433E-4,1.9933982E-4,5.69579E-5,8.228759E-6,0E0,0E0,4.942187E-5,0E0,0E0,0E0,2.6376074E-5,0E0,0E0],"parents":[2147483647,0,0,1,1,2,2,3,3,6,6,10,10],"right_children":[2,4,6,8,-1,-1,10,-1,-1,-1,12,-1,-1],"split_conditions":[6.9E0,1.8E1,4.34E1,1.02E1,-0E0,-0E0,1.5448505E-1,-9.697093E-5,-0E0,-0E0,5.8267716E-2,-0E0,7.609986E-5],"split_indices":[1,4,3,0,0,0,8,0,0,0,9,0,0],"split_type":[0,0,0,0,0,0,0,0,0,0,0,0,0],"sum_hessian":[2.79E2,1.51E2,1.28E2,1.4E2,1.1E1,1.9E1,1.09E2,1.35E2,5E0,6E0,1.03E2,7E0,9.6E1],"tree_param":{"num_deleted":"0","num_feature":"10","num_nodes":"13","size_leaf_vector":"1"}},{"base_weights":[-0E0,-2.9522585E-4,1.3011846E-3,-5.616871E-4,-0E0,-0E0,1.7063161E-3,-6.695706E-4,-0E0,-0E0,9.8235614E-5,-0E0,-3.9665912E-5],"categories":[],"categories_nodes":[],"categories_segments":[],"categories_sizes":[],"default_left":[0,0,0,0,0,0,0,0,0,0,0,0,0],"id":27,"left_children":[1,3,5,7,-1,-1,9,11,-1,-1,-1,-1,-1],"loss_changes":[1.9620104E-4,3.469087E-5,1.1459636E-4,1.941005E-5,0E0,0E0,6.4925756E-5,1.7903563E-5,0E0,0E0,0E0,0E0,0E0],"parents":[2147483647,0,0,1,1,2,2,3,3,6,6,7,7],"right_children":[2,4,6,8,-1,-1,10,12,-1,-1,-1,-1,-1],"split_conditions":[1.11E1,1.64E1,5.8267716E-2,1.3114753E-1,-0E0,-0E0,1.6608997E-1,2.97E1,-0E0,-0E0,9.8235614E-5,-0E0,-3.9665912E-5],"split_indices":[0,4,9,9,0,0,8,5,0,0,0,0,0],"split_type":[0,0,0,0,0,0,0,0,0,0,0,0,0],"sum_hessian":[2.94E2,1.9E2,1.04E2,1.61E2,2.9E1,5E0,9.9E1,1.56E2,5E0,8E0,9.1E1,1.7E1,1.39E2],"tree_param":{"num_deleted":"0","num_feature":"10","num_nodes":"13","size_leaf_vector":"1"}},{"base_weights":[-0E0,-8.23034E-4,9.520802E-4,-9.089106E-4,-0E0,-0E0,1.6636855E-3,-5.4012555E-5,-0E0,-0E0,2.070035E-3,-0E0,1.1043794E-4],"categories":[],"categories_nodes":[],"categories_segments":[],"categories_sizes":[],"default_left":[0,0,0,0,0,0,0,0,0,0,0,0,0],"id":28,"left_children":[1,3,5,7,-1,-1,9,-1,-1,-1,11,-1,-1],"loss_changes":[2.136515E-4,2.3583969E-5,1.3144636E-4,5.8292077E-5,0E0,0E0,8.807937E-5,0E0,0E0,0E0,1.1684693E-5,0E0,0E0],"parents":[2147483647,0,0,1,1,2,2,3,3,6,6,10,10],"right_children":[2,4,6,8,-1,-1,10,-1,-1,-1,12,-1,-1],"split_conditions":[7.8E0,-2.24E-1,4.38E1,2.699187E-1,-0E0,-0E0,6.009245E-2,-5.4012555E-5,-0E0,-0E0,1.5448505E-1,-0E0,1.1043794E-4],"split_indices":[1,7,3,8,0,0,9,0,0,0,8,0,0],"split_type":[0,0,0,0,0,0,0,0,0,0,0,0,0],"sum_hessian":[2.83E2,2.01E2,8.2E1,1.93E2,8E0,9E0,7.3E1,1.86E2,7E0,6E0,6.7E1,6E0,6.1E1],"tree_param":{"num_deleted":"0","num_feature":"10","num_nodes":"13","size_leaf_vector":"1"}},{"base_weights":[-0E0,-1.0325152E-3,2.0600937E-4,-8.773879E-5,-0E0,-0E0,1.1195621E-3,-0E0,1.6359623E-3,-0E0,9.338688E-5],"categories":[],"categories_nodes":[],"categories_segments":[],"categories_sizes":[],"default_left":[0,0,0,0,0,0,0,0,0,0,0],"id":29,"left_children":[1,3,5,-1,-1,-1,7,-1,9,-1,-1],"loss_changes":[1.0481782E-4,1.1036102E-4,1.8415663E-4,0E0,0E0,0E0,2.0307658E-4,0E0,9.227899E-5,0E0,0E0],"parents":[2147483647,0,0,1,1,2,2,6,6,8,8],"right_children":[2,4,6,-1,-1,-1,8,-1,10,-1,-1],"split_conditions":[3.97E1,1.66E1,1.05E1,-8.773879E-5,-0E0,-0E0,3.12E-1,-0E0,5.6047197E-2,-0E0,9.338688E-5],"split_indices":[3,4,4,0,0,0,6,0,9,0,0],"split_type":[0,0,0,0,0,0,0,0,0,0,0],"sum_hessian":[2.95E2,8.8E1,2.07E2,6.5E1,2.3E1,5.5E1,1.52E2,6E0,1.46E2,8E0,1.38E2],"tree_param":{"num_deleted":"0","num_feature":"10","num_nodes":"11","size_leaf_vector":"1"}},{"base_weights":[-0E0,-1.0489257E-3,2.6476486E-3,-1.3023717E-4,-0E0,-0E0,3.147922E-3,-0E0,3.5963105E-3,-0E0,1.9465708E-4],"categories":[],"categories_nodes":[],"categories_segments":[],"categories_sizes":[],"default_left":[0,0,0,0,0,0,0,0,0,0,0],"id":30,"left_children":[1,3,5,-1,-1,-1,7,-1,9,-1,-1],"loss_changes":[9.514194E-4,2.600139E-4,2.4086685E-4,0E0,0E0,0E0,2.2480288E-4,0E0,1.18032214E-4,0E0,0E0],"parents":[2147483647,0,0,1,1,2,2,6,6,8,8],"right_children":[2,4,6,-1,-1,-1,8,-1,10,-1,-1],"split_conditions":[1.12E1,6.5E0,5.8267716E-2,-1.3023717E-4,-0E0,-0E0,1.5448505E-1,-0E0,8.91E1,-0E0,1.9465708E-4],"split_indices":[0,0,9,0,0,0,8,0,2,0,0],"split_type":[0,0,0,0,0,0,0,0,0,0,0],"sum_hessian":[2.86E2,1.81E2,1.05E2,6.6E1,1.15E2,7E0,9.8E1,6E0,9.2E1,6E0,8.6E1],"tree_param":{"num_deleted":"0","num_feature":"10","num_nodes":"11","size_leaf_vector":"1"}},{"base_weights":[-0E0,-8.22492E-4,1.950996E-3,-1.1545852E-3,-0E0,-0E0,2.4769858E-3,-6.50487E-5,-0E0,-0E0,2.703392E-3,1.4329489E-4,-0E0],"categories":[],"categories_nodes":[],"categories_segments":[],"categories_sizes":[],"default_left":[0,0,0,0,0,0,0,0,0,0,0,0,0],"id":31,"left_children":[1,3,5,7,-1,-1,9,-1,-1,-1,11,-1,-1],"loss_changes":[7.557572E-4,4.6894835E-5,3.61685E-4,2.0863721E-5,0E0,0E0,1.5553774E-4,0E0,0E0,0E0,9.0933405E-5,0E0,0E0],"parents":[2147483647,0,0,1,1,2,2,3,3,6,6,10,10],"right_children":[2,4,6,8,-1,-1,10,-1,-1,-1,12,-1,-1],"split_conditions":[8E0,1.0500808E-1,3.12E-1,2.1794872E-1,-0E0,-0E0,6.3E0,-6.50487E-5,-0E0,-0E0,4.09E1,1.4329489E-4,-0E0],"split_indices":[0,9,6,8,0,0,4,0,0,0,5,0,0],"split_type":[0,0,0,0,0,0,0,0,0,0,0,0,0],"sum_hessian":[2.85E2,1.08E2,1.77E2,8.9E1,1.9E1,9E0,1.68E2,8.2E1,7E0,6E0,1.62E2,1.55E2,7E0],"tree_param":{"num_deleted":"0","num_feature":"10","num_nodes":"13","size_leaf_vector":"1"}},{"base_weights":[-0E0,-8.231831E-4,1.5032513E-3,-5.420719E-5,-0E0,-0E0,2.2838896E-3,-0E0,2.8641694E-3,-0E0,1.602806E-4],"categories":[],"categories_nodes":[],"categories_segments":[],"categories_sizes":[],"default_left":[0,0,0,0,0,0,0,0,0,0,0],"id":32,"left_children":[1,3,5,-1,-1,-1,7,-1,9,-1,-1],"loss_changes":[4.7926104E-4,3.590327E-5,2.7290525E-4,0E0,0E0,0E0,3.2793946E-4,0E0,1.7063518E-4,0E0,0E0],"parents":[2147483647,0,0,1,1,2,2,6,6,8,8],"right_children":[2,4,6,-1,-1,-1,8,-1,10,-1,-1],"split_conditions":[8.2E0,1.72E1,1.14E1,-5.420719E-5,-0E0,-0E0,3.12E-1,-0E0,1.5448505E-1,-0E0,1.602806E-4],"split_indices":[0,4,4,0,0,0,6,0,8,0,0],"split_type":[0,0,0,0,0,0,0,0,0,0,0],"sum_hessian":[2.9E2,1.15E2,1.75E2,9.6E1,1.9E1,4.8E1,1.27E2,7E0,1.2E2,8E0,1.12E2],"tree_param":{"num_deleted":"0","num_feature":"10","num_nodes":"11","size_leaf_vector":"1"}},{"base_weights":[-0E0,-4.5549817E-4,2.484764E-4,-1.3960267E-3,-0E0,-0E0,8.778394E-4,-0E0,-1.5735017E-3,-0E0,7.145652E-5,-8.176287E-5,-0E0],"categories":[],"categories_nodes":[],"categories_segments":[],"categories_sizes":[],"default_left":[0,0,0,0,0,0,0,0,0,0,0,0,0],"id":33,"left_children":[1,3,5,7,-1,-1,9,-1,11,-1,-1,-1,-1],"loss_changes":[4.715862E-5,2.738096E-4,5.640021E-5,4.081044E-5,0E0,0E0,8.540563E-5,0E0,1.5164522E-5,0E0,0E0,0E0,0E0],"parents":[2147483647,0,0,1,1,2,2,3,3,6,6,8,8],"right_children":[2,4,6,8,-1,-1,10,-1,12,-1,-1,-1,-1],"split_conditions":[7.8E0,1.61E1,5.8267716E-2,2.95E1,-0E0,-0E0,1.6608997E-1,-0E0,1.2855007E-1,-0E0,7.145652E-5,-8.176287E-5,-0E0],"split_indices":[1,4,9,5,0,0,8,0,9,0,0,0,0],"split_type":[0,0,0,0,0,0,0,0,0,0,0,0,0],"sum_hessian":[2.83E2,2E2,8.3E1,1.6E2,4E1,5E0,7.8E1,1.8E1,1.42E2,8E0,7E1,1.37E2,5E0],"tree_param":{"num_deleted":"0","num_feature":"10","num_nodes":"13","size_leaf_vector":"1"}},{"base_weights":[-0E0,-4.567329E-4,1.2087858E-3,-3.2260647E-5,-0E0,-0E0,1.4141944E-3,-0E0,1.6117657E-3,-0E0,8.874541E-5],"categories":[],"categories_nodes":[],"categories_segments":[],"categories_sizes":[],"default_left":[0,0,0,0,0,0,0,0,0,0,0],"id":34,"left_children":[1,3,5,-1,-1,-1,7,-1,9,-1,-1],"loss_changes":[2.0266123E-4,2.0528107E-5,5.142149E-5,0E0,0E0,0E0,4.9578157E-5,0E0,4.1157065E-5,0E0,0E0],"parents":[2147483647,0,0,1,1,2,2,6,6,8,8],"right_children":[2,4,6,-1,-1,-1,8,-1,10,-1,-1],"split_conditions":[7.1E0,3.41E-1,8.9E1,-3.2260647E-5,-0E0,-0E0,1.5448505E-1,-0E0,3.22E-1,-0E0,8.874541E-5],"split_indices":[1,6,2,0,0,0,8,0,6,0,0],"split_type":[0,0,0,0,0,0,0,0,0,0,0],"sum_hessian":[2.83E2,1.71E2,1.12E2,1.34E2,3.7E1,5E0,1.07E2,6E0,1.01E2,5E0,9.6E1],"tree_param":{"num_deleted":"0","num_feature":"10","num_nodes":"11","size_leaf_vector":"1"}},{"base_weights":[-0E0,-1.7456743E-3,1.0070739E-3,-1.0710246E-4,-0E0,-0E0,1.5510644E-3,-0E0,2.1045534E-3,1.1402271E-4,-0E0],"categories":[],"categories_nodes":[],"categories_segments":[],"categories_sizes":[],"default_left":[0,0,0,0,0,0,0,0,0,0,0],"id":35,"left_children":[1,3,5,-1,-1,-1,7,-1,9,-1,-1],"loss_changes":[5.380943E-4,1.0537612E-4,1.6616748E-4,0E0,0E0,0E0,2.120194E-4,0E0,7.041346E-5,0E0,0E0],"parents":[2147483647,0,0,1,1,2,2,6,6,8,8],"right_children":[2,4,6,-1,-1,-1,8,-1,10,-1,-1],"split_conditions":[8E0,1.72E1,1.05E1,-1.0710246E-4,-0E0,-0E0,8.91E1,-0E0,4.09E1,1.1402271E-4,-0E0],"split_indices":[0,4,4,0,0,0,2,0,5,0,0],"split_type":[0,0,0,0,0,0,0,0,0,0,0],"sum_hessian":[2.88E2,1.17E2,1.71E2,1E2,1.7E1,3.1E1,1.4E2,1.7E1,1.23E2,1.18E2,5E0],"tree_param":{"num_deleted":"0","num_feature":"10","num_nodes":"11","size_leaf_vector":"1"}},{"base_weights":[-0E0,-5.749415E-4,1.6521807E-3,-1.5808212E-3,-0E0,-0E0,2.0878927E-3,-0E0,-8.370281E-5,2.3316713E-3,-0E0,-0E0,1.3280546E-4],"categories":[],"categories_nodes":[],"categories_segments":[],"categories_sizes":[],"default_left":[0,0,0,0,0,0,0,0,0,0,0,0,0],"id":36,"left_children":[1,3,5,7,-1,-1,9,-1,-1,11,-1,-1,-1],"loss_changes":[3.1724406E-4,3.2623077E-4,1.2812624E-4,2.5224901E-5,0E0,0E0,6.111321E-5,0E0,0E0,8.1691804E-5,0E0,0E0,0E0],"parents":[2147483647,0,0,1,1,2,2,3,3,6,6,9,9],"right_children":[2,4,6,8,-1,-1,10,-1,-1,12,-1,-1,-1],"split_conditions":[7.8E0,1.58E1,3.24E-1,2.85E1,-0E0,-0E0,4.04E1,-0E0,-8.370281E-5,4.38E1,-0E0,-0E0,1.3280546E-4],"split_indices":[1,4,6,5,0,0,5,0,0,3,0,0,0],"split_type":[0,0,0,0,0,0,0,0,0,0,0,0,0],"sum_hessian":[2.88E2,1.98E2,9E1,1.55E2,4.3E1,5E0,8.5E1,8E0,1.47E2,7.9E1,6E0,7E0,7.2E1],"tree_param":{"num_deleted":"0","num_feature":"10","num_nodes":"13","size_leaf_vector":"1"}},{"base_weights":[-0E0,-1.6505687E-3,9.5225194E-5,-8.750318E-5,-0E0,-0E0,6.5515866E-4,-0E0,1.2258221E-3,-0E0,7.536819E-5],"categories":[],"categories_nodes":[],"categories_segments":[],"categories_sizes":[],"default_left":[0,0,0,0,0,0,0,0,0,0,0],"id":37,"left_children":[1,3,5,-1,-1,-1,7,-1,9,-1,-1],"loss_changes":[3.8273667E-4,1.9803876E-5,4.8896345E-5,0E0,0E0,0E0,1.1657279E-4,0E0,6.7237954E-5,0E0,0E0],"parents":[2147483647,0,0,1,1,2,2,6,6,8,8],"right_children":[2,4,6,-1,-1,-1,8,-1,10,-1,-1],"split_conditions":[6.4E0,1.8E1,1.05E1,-8.750318E-5,-0E0,-0E0,5.6047197E-2,-0E0,8.91E1,-0E0,7.536819E-5],"split_indices":[1,4,4,0,0,0,9,0,2,0,0],"split_type":[0,0,0,0,0,0,0,0,0,0,0],"sum_hessian":[2.82E2,1.38E2,1.44E2,1.29E2,9E0,2.9E1,1.15E2,6E0,1.09E2,8E0,1.01E2],"tree_param":{"num_deleted":"0","num_feature":"10","num_nodes":"11","size_leaf_vector":"1"}},{"base_weights":[-0E0,-9.3817805E-5,-0E0,-0E0,5.379464E-4,-0E0,8.1374106E-4,-0E0,6.3307874E-5],"categories":[],"categories_nodes":[],"categories_segments":[],"categories_sizes":[],"default_left":[0,0,0,0,0,0,0,0,0],"id":38,"left_children":[1,-1,3,-1,5,-1,7,-1,-1],"loss_changes":[2.358877E-4,0E0,5.2089545E-5,0E0,4.5250115E-5,0E0,1.2710202E-4,0E0,0E0],"parents":[2147483647,0,0,2,2,4,4,6,6],"right_children":[2,-1,4,-1,6,-1,8,-1,-1],"split_conditions":[6.3E0,-9.3817805E-5,1.05E1,-0E0,3.88E1,-0E0,3.12E-1,-0E0,6.3307874E-5],"split_indices":[0,0,4,0,3,0,6,0,0],"split_type":[0,0,0,0,0,0,0,0,0],"sum_hessian":[2.87E2,6.5E1,2.22E2,4.4E1,1.78E2,3.3E1,1.45E2,7E0,1.38E2],"tree_param":{"num_deleted":"0","num_feature":"10","num_nodes":"9","size_leaf_vector":"1"}},{"base_weights":[-0E0,-7.787074E-4,9.412836E-4,-6.967578E-5,-0E0,-0E0,1.4648028E-3,8.3102954E-5,-0E0],"categories":[],"categories_nodes":[],"categories_segments":[],"categories_sizes":[],"default_left":[0,0,0,0,0,0,0,0,0],"id":39,"left_children":[1,3,5,-1,-1,-1,7,-1,-1],"loss_changes":[1.9266723E-4,1.748496E-4,8.785399E-5,0E0,0E0,0E0,2.9987568E-6,0E0,0E0],"parents":[2147483647,0,0,1,1,2,2,6,6],"right_children":[2,4,6,-1,-1,-1,8,-1,-1],"split_conditions":[1.12E1,1.66E1,1.05E1,-6.967578E-5,-0E0,-0E0,-2.39E-1,8.3102954E-5,-0E0],"split_indices":[0,4,4,0,0,0,7,0,0],"split_type":[0,0,0,0,0,0,0,0,0],"sum_hessian":[2.69E2,1.74E2,9.5E1,1.43E2,3.1E1,1.6E1,7.9E1,6.2E1,1.7E1],"tree_param":{"num_deleted":"0","num_feature":"10","num_nodes":"9","size_leaf_vector":"1"}},{"base_weights":[-0E0,-7.564791E-5,4.866741E-4,-0E0,8.2125224E-4,-0E0,1.1615411E-3,6.19116E-5,-0E0],"categories":[],"categories_nodes":[],"categories_segments":[],"categories_sizes":[],"default_left":[0,0,0,0,0,0,0,0,0],"id":40,"left_children":[1,-1,3,-1,5,-1,7,-1,-1],"loss_changes":[1.960802E-4,0E0,7.762488E-5,0E0,1.0795987E-4,0E0,2.0125415E-5,0E0,0E0],"parents":[2147483647,0,0,2,2,4,4,6,6],"right_children":[2,-1,4,-1,6,-1,8,-1,-1],"split_conditions":[4.7E0,-7.564791E-5,1.5297906E-1,-0E0,3.09E-1,-0E0,3.0217028E-1,6.19116E-5,-0E0],"split_indices":[1,0,8,0,6,0,8,0,0],"split_type":[0,0,0,0,0,0,0,0,0],"sum_hessian":[2.78E2,6.1E1,2.17E2,2.7E1,1.9E2,1.6E1,1.74E2,1.66E2,8E0],"tree_param":{"num_deleted":"0","num_feature":"10","num_nodes":"9","size_leaf_vector":"1"}},{"base_weights":[-0E0,-5.7449255E-5,-0E0],"categories":[],"categories_nodes":[],"categories_segments":[],"categories_sizes":[],"default_left":[0,0,0],"id":41,"left_children":[1,-1,-1],"loss_changes":[8.8451176E-5,0E0,0E0],"parents":[2147483647,0,0],"right_children":[2,-1,-1],"split_conditions":[6.5E0,-5.7449255E-5,-0E0],"split_indices":[0,0,0],"split_type":[0,0,0],"sum_hessian":[2.91E2,6.5E1,2.26E2],"tree_param":{"num_deleted":"0","num_feature":"10","num_nodes":"3","size_leaf_vector":"1"}},{"base_weights":[-0E0,-3.7460233E-4,1.3845809E-3,-2.7165777E-5,-0E0,-0E0,1.9249455E-3,-0E0,2.224775E-3,-0E0,1.242796E-4],"categories":[],"categories_nodes":[],"categories_segments":[],"categories_sizes":[],"default_left":[0,0,0,0,0,0,0,0,0,0,0],"id":42,"left_children":[1,3,5,-1,-1,-1,7,-1,9,-1,-1],"loss_changes":[3.1585596E-4,1.833726E-5,2.4576273E-4,0E0,0E0,0E0,1.2720871E-4,0E0,2.3755303E-5,0E0,0E0],"parents":[2147483647,0,0,1,1,2,2,6,6,8,8],"right_children":[2,4,6,-1,-1,-1,8,-1,10,-1,-1],"split_conditions":[6.4E0,1.8E1,5.162524E-2,-2.7165777E-5,-0E0,-0E0,1.5448505E-1,-0E0,1.05E1,-0E0,1.242796E-4],"split_indices":[1,4,9,0,0,0,8,0,4,0,0],"split_type":[0,0,0,0,0,0,0,0,0,0,0],"sum_hessian":[2.97E2,1.45E2,1.52E2,1.3E2,1.5E1,8E0,1.44E2,1.1E1,1.33E2,2.3E1,1.1E2],"tree_param":{"num_deleted":"0","num_feature":"10","num_nodes":"11","size_leaf_vector":"1"}},{"base_weights":[-0E0,-7.421331E-4,9.7653E-4,-1.323521E-3,-0E0,-0E0,1.369133E-3,-1.3602376E-3,-0E0,-0E0,1.7929409E-3,-7.3275274E-5,-0E0,1.091604E-4,-0E0],"categories":[],"categories_nodes":[],"categories_segments":[],"categories_sizes":[],"default_left":[0,0,0,0,0,0,0,0,0,0,0,0,0,0,0],"id":43,"left_children":[1,3,5,7,-1,-1,9,11,-1,-1,13,-1,-1,-1,-1],"loss_changes":[1.9314169E-4,1.9109566E-4,7.9002464E-5,5.255948E-6,0E0,0E0,1.07217114E-4,2.1821063E-5,0E0,0E0,1.1117113E-4,0E0,0E0,0E0,0E0],"parents":[2147483647,0,0,1,1,2,2,3,3,6,6,7,7,10,10],"right_children":[2,4,6,8,-1,-1,10,12,-1,-1,14,-1,-1,-1,-1],"split_conditions":[1.11E1,1.86E1,8.91E1,7.5E0,-0E0,-0E0,5.6726094E-2,1.66E1,-0E0,-0E0,4.05E1,-7.3275274E-5,-0E0,1.091604E-4,-0E0],"split_indices":[0,4,2,1,0,0,9,4,0,0,5,0,0,0,0],"split_type":[0,0,0,0,0,0,0,0,0,0,0,0,0,0,0],"sum_hessian":[2.75E2,1.79E2,9.6E1,1.64E2,1.5E1,6E0,9E1,1.58E2,6E0,5E0,8.5E1,1.46E2,1.2E1,8E1,5E0],"tree_param":{"num_deleted":"0","num_feature":"10","num_nodes":"15","size_leaf_vector":"1"}},{"base_weights":[-0E0,-2.0975816E-5,4.3872875E-5,-0E0,3.1196963E-4,-0E0,2.7248145E-5],"categories":[],"categories_nodes":[],"categories_segments":[],"categories_sizes":[],"default_left":[0,0,0,0,0,0,0],"id":44,"left_children":[1,-1,3,-1,5,-1,-1],"loss_changes":[1.0621487E-5,0E0,1.6228747E-5,0E0,3.0577958E-5,0E0,0E0],"parents":[2147483647,0,0,2,2,4,4],"right_children":[2,-1,4,-1,6,-1,-1],"split_conditions":[4.7E0,-2.0975816E-5,8.91E1,-0E0,5.6047197E-2,-0E0,2.7248145E-5],"split_indices":[1,0,2,0,9,0,0],"split_type":[0,0,0,0,0,0,0],"sum_hessian":[2.69E2,5.6E1,2.13E2,4.4E1,1.69E2,1.2E1,1.57E2],"tree_param":{"num_deleted":"0","num_feature":"10","num_nodes":"7","size_leaf_vector":"1"}},{"base_weights":[-0E0,-4.717949E-5,-0E0],"categories":[],"categories_nodes":[],"categories_segments":[],"categories_sizes":[],"default_left":[0,0,0],"id":45,"left_children":[1,-1,-1],"loss_changes":[5.6983143E-5,0E0,0E0],"parents":[2147483647,0,0],"right_children":[2,-1,-1],"split_conditions":[6.3E0,-4.717949E-5,-0E0],"split_indices":[0,0,0],"split_type":[0,0,0],"sum_hessian":[2.76E2,6.2E1,2.14E2],"tree_param":{"num_deleted":"0","num_feature":"10","num_nodes":"3","size_leaf_vector":"1"}},{"base_weights":[-0E0,-8.684709E-4,-0E0,-9.72604E-4,-0E0,-0E0,2.4978825E-4,-5.4608052E-5,-0E0,-0E0,7.112851E-4,-0E0,3.90273E-5],"categories":[],"categories_nodes":[],"categories_segments":[],"categories_sizes":[],"default_left":[0,0,0,0,0,0,0,0,0,0,0,0,0],"id":46,"left_children":[1,3,5,7,-1,-1,9,-1,-1,-1,11,-1,-1],"loss_changes":[4.9025704E-5,5.839891E-6,1.0357432E-5,5.9680024E-6,0E0,0E0,6.6037464E-5,0E0,0E0,0E0,8.900388E-6,0E0,0E0],"parents":[2147483647,0,0,1,1,2,2,3,3,6,6,10,10],"right_children":[2,4,6,8,-1,-1,10,-1,-1,-1,12,-1,-1],"split_conditions":[6.5E0,1.1262136E-1,7.564576E-2,6.1E0,-0E0,-0E0,3.87E1,-5.4608052E-5,-0E0,-0E0,8.91E1,-0E0,3.90273E-5],"split_indices":[0,9,9,0,0,0,3,0,0,0,2,0,0],"split_type":[0,0,0,0,0,0,0,0,0,0,0,0,0],"sum_hessian":[2.92E2,6.3E1,2.29E2,5.6E1,7E0,6.5E1,1.64E2,4.9E1,7E0,1.5E1,1.49E2,1.1E1,1.38E2],"tree_param":{"num_deleted":"0","num_feature":"10","num_nodes":"13","size_leaf_vector":"1"}},{"base_weights":[-0E0,-7.463102E-4,-0E0,-6.8127316E-5,-0E0,-0E0,4.16679E-4,-0E0,9.203165E-4,-0E0,6.0360468E-5],"categories":[],"categories_nodes":[],"categories_segments":[],"categories_sizes":[],"default_left":[0,0,0,0,0,0,0,0,0,0,0],"id":47,"left_children":[1,3,5,-1,-1,-1,7,-1,9,-1,-1],"loss_changes":[5.4583932E-5,8.4656014E-5,2.4306995E-5,0E0,0E0,0E0,8.749468E-5,0E0,6.599555E-5,0E0,0E0],"parents":[2147483647,0,0,1,1,2,2,6,6,8,8],"right_children":[2,4,6,-1,-1,-1,8,-1,10,-1,-1],"split_conditions":[3.98E1,1.66E1,1.05E1,-6.8127316E-5,-0E0,-0E0,5.6047197E-2,-0E0,8.91E1,-0E0,6.0360468E-5],"split_indices":[3,4,4,0,0,0,9,0,2,0,0],"split_type":[0,0,0,0,0,0,0,0,0,0,0],"sum_hessian":[2.86E2,9.6E1,1.9E2,7.3E1,2.3E1,5.2E1,1.38E2,8E0,1.3E2,1E1,1.2E2],"tree_param":{"num_deleted":"0","num_feature":"10","num_nodes":"11","size_leaf_vector":"1"}},{"base_weights":[-0E0,-1.8478805E-4,-0E0,-1.0143042E-3,-0E0,-0E0,-1.3668955E-3,-7.745871E-5,-0E0],"categories":[],"categories_nodes":[],"categories_segments":[],"categories_sizes":[],"default_left":[0,0,0,0,0,0,0,0,0],"id":48,"left_children":[1,3,-1,5,-1,-1,7,-1,-1],"loss_changes":[7.102497E-6,1.8219912E-4,0E0,1.0964292E-4,0E0,0E0,7.304628E-5,0E0,0E0],"parents":[2147483647,0,0,1,1,3,3,6,6],"right_children":[2,4,-1,6,-1,-1,8,-1,-1],"split_conditions":[1.6E1,3.68E-1,-0E0,3.06E1,-0E0,-0E0,3.1120944E-1,-7.745871E-5,-0E0],"split_indices":[4,6,0,5,0,0,8,0,0],"split_type":[0,0,0,0,0,0,0,0,0],"sum_hessian":[2.85E2,2.06E2,7.9E1,1.82E2,2.4E1,2.4E1,1.58E2,1.53E2,5E0],"tree_param":{"num_deleted":"0","num_feature":"10","num_nodes":"9","size_leaf_vector":"1"}},{"base_weights":[-0E0,-2.292805E-4,1.1766055E-3,-1.0954677E-3,-0E0,-0E0,8.3672814E-5,-0E0,-1.3234818E-3,-8.0702914E-5,-0E0],"categories":[],"categories_nodes":[],"categories_segments":[],"categories_sizes":[],"default_left":[0,0,0,0,0,0,0,0,0,0,0],"id":49,"left_children":[1,3,5,7,-1,-1,-1,-1,9,-1,-1],"loss_changes":[1.1939081E-4,2.0460131E-4,8.24478E-5,6.775094E-5,0E0,0E0,0E0,0E0,1.0962295E-4,0E0,0E0],"parents":[2147483647,0,0,1,1,2,2,3,3,8,8],"right_children":[2,4,6,8,-1,-1,-1,-1,10,-1,-1],"split_conditions":[1.23E1,1.64E1,4.38E1,2.97E1,-0E0,-0E0,8.3672814E-5,-0E0,3.6E-1,-8.0702914E-5,-0E0],"split_indices":[0,4,3,5,0,0,0,0,6,0,0],"split_type":[0,0,0,0,0,0,0,0,0,0,0],"sum_hessian":[2.91E2,2.15E2,7.6E1,1.78E2,3.7E1,1E1,6.6E1,1.8E1,1.6E2,1.49E2,1.1E1],"tree_param":{"num_deleted":"0","num_feature":"10","num_nodes":"11","size_leaf_vector":"1"}},{"base_weights":[-0E0,-5.316108E-4,1.3427831E-3,-1.2868878E-3,-0E0,-0E0,1.8131059E-3,-6.704404E-5,-0E0,-0E0,2.2546975E-3,-0E0,1.2969573E-4],"categories":[],"categories_nodes":[],"categories_segments":[],"categories_sizes":[],"default_left":[0,0,0,0,0,0,0,0,0,0,0,0,0],"id":50,"left_children":[1,3,5,7,-1,-1,9,-1,-1,-1,11,-1,-1],"loss_changes":[2.2042586E-4,2.0711696E-4,1.13542876E-4,1.3427343E-5,0E0,0E0,1.2726788E-4,0E0,0E0,0E0,7.102298E-5,0E0,0E0],"parents":[2147483647,0,0,1,1,2,2,3,3,6,6,10,10],"right_children":[2,4,6,8,-1,-1,10,-1,-1,-1,12,-1,-1],"split_conditions":[7.8E0,1.61E1,4.38E1,1.3114753E-1,-0E0,-0E0,1.5297906E-1,-6.704404E-5,-0E0,-0E0,6.009245E-2,-0E0,1.2969573E-4],"split_indices":[1,4,3,9,0,0,8,0,0,0,9,0,0],"split_type":[0,0,0,0,0,0,0,0,0,0,0,0,0],"sum_hessian":[2.81E2,1.91E2,9E1,1.56E2,3.5E1,7E0,8.3E1,1.51E2,5E0,5E0,7.8E1,9E0,6.9E1],"tree_param":{"num_deleted":"0","num_feature":"10","num_nodes":"13","size_leaf_vector":"1"}},{"base_weights":[-0E0,-4.9262046E-4,-0E0,-5.7614303E-5,-0E0],"categories":[],"categories_nodes":[],"categories_segments":[],"categories_sizes":[],"default_left":[0,0,0,0,0],"id":51,"left_children":[1,3,-1,-1,-1],"loss_changes":[5.120441E-5,1.9974282E-4,0E0,0E0,0E0],"parents":[2147483647,0,0,1,1],"right_children":[2,4,-1,-1,-1],"split_conditions":[7.8E0,1.86E1,-0E0,-5.7614303E-5,-0E0],"split_indices":[1,4,0,0,0],"split_type":[0,0,0,0,0],"sum_hessian":[2.88E2,2.09E2,7.9E1,1.87E2,2.2E1],"tree_param":{"num_deleted":"0","num_feature":"10","num_nodes":"5","size_leaf_vector":"1"}},{"base_weights":[-0E0,-2.6079946E-5,7.8501225E-6,-0E0,3.366934E-4,-0E0,5.8435154E-4,-0E0,3.741169E-5],"categories":[],"categories_nodes":[],"categories_segments":[],"categories_sizes":[],"default_left":[0,0,0,0,0,0,0,0,0],"id":52,"left_children":[1,-1,3,-1,5,-1,7,-1,-1],"loss_changes":[1.8785888E-5,0E0,2.0731954E-5,0E0,3.696255E-5,0E0,2.067165E-5,0E0,0E0],"parents":[2147483647,0,0,2,2,4,4,6,6],"right_children":[2,-1,4,-1,6,-1,8,-1,-1],"split_conditions":[6.5E0,-2.6079946E-5,1.6666667E-1,-0E0,5.162524E-2,-0E0,8.91E1,-0E0,3.741169E-5],"split_indices":[0,0,8,0,9,0,2,0,0],"split_type":[0,0,0,0,0,0,0,0,0],"sum_hessian":[2.82E2,6.7E1,2.15E2,3.4E1,1.81E2,1.4E1,1.67E2,2.9E1,1.38E2],"tree_param":{"num_deleted":"0","num_feature":"10","num_nodes":"9","size_leaf_vector":"1"}},{"base_weights":[-0E0,-2.804167E-5,8.922862E-4,-0E0,1.3479653E-3,1.9574254E-3,-0E0,-0E0,1.10535024E-4],"categories":[],"categories_nodes":[],"categories_segments":[],"categories_sizes":[],"default_left":[0,0,0,0,0,0,0,0,0],"id":53,"left_children":[1,-1,3,-1,5,7,-1,-1,-1],"loss_changes":[1.9782456E-4,0E0,1.4304307E-4,0E0,2.472702E-4,7.315865E-5,0E0,0E0,0E0],"parents":[2147483647,0,0,2,2,4,4,5,5],"right_children":[2,-1,4,-1,6,8,-1,-1,-1],"split_conditions":[6.3E0,-2.804167E-5,1.05E1,-0E0,-2.37E-1,1.5448505E-1,-0E0,-0E0,1.10535024E-4],"split_indices":[0,0,4,0,7,8,0,0,0],"split_type":[0,0,0,0,0,0,0,0,0],"sum_hessian":[2.85E2,6.5E1,2.2E2,4.6E1,1.74E2,1.46E2,2.8E1,1.7E1,1.29E2],"tree_param":{"num_deleted":"0","num_feature":"10","num_nodes":"9","size_leaf_vector":"1"}},{"base_weights":[-0E0,-9.7260124E-4,3.2370308E-4,-6.660642E-5,-0E0,-0E0,1.3684658E-3,-0E0,1.8238358E-3,-0E0,9.894648E-5],"categories":[],"categories_nodes":[],"categories_segments":[],"categories_sizes":[],"default_left":[0,0,0,0,0,0,0,0,0,0,0],"id":54,"left_children":[1,3,5,-1,-1,-1,7,-1,9,-1,-1],"loss_changes":[9.97823E-5,3.955321E-5,2.6243608E-4,0E0,0E0,0E0,1.9767441E-4,0E0,3.460876E-5,0E0,0E0],"parents":[2147483647,0,0,1,1,2,2,6,6,8,8],"right_children":[2,4,6,-1,-1,-1,8,-1,10,-1,-1],"split_conditions":[3.88E1,1.62E1,1.05E1,-6.660642E-5,-0E0,-0E0,3.12E-1,-0E0,1.5448505E-1,-0E0,9.894648E-5],"split_indices":[3,4,4,0,0,0,6,0,8,0,0],"split_type":[0,0,0,0,0,0,0,0,0,0,0],"sum_hessian":[2.9E2,8E1,2.1E2,6.4E1,1.6E1,6E1,1.5E2,7E0,1.43E2,1.3E1,1.3E2],"tree_param":{"num_deleted":"0","num_feature":"10","num_nodes":"11","size_leaf_vector":"1"}},{"base_weights":[-0E0,-1.0499108E-4,4.0282533E-4,-0E0,-2.2766067E-4,-0E0,5.8302376E-4,-3.3481012E-4,-0E0,-0E0,7.683345E-4,-1.989294E-5,-0E0,4.672931E-5,-0E0],"categories":[],"categories_nodes":[],"categories_segments":[],"categories_sizes":[],"default_left":[0,0,0,0,0,0,0,0,0,0,0,0,0,0,0],"id":55,"left_children":[1,3,5,-1,7,-1,9,11,-1,-1,13,-1,-1,-1,-1],"loss_changes":[2.1582471E-5,5.7295138E-6,1.9633613E-5,0E0,7.954239E-6,0E0,2.4916491E-5,5.4249904E-6,0E0,0E0,2.6492118E-5,0E0,0E0,0E0,0E0],"parents":[2147483647,0,0,1,1,2,2,4,4,6,6,7,7,10,10],"right_children":[2,4,6,-1,8,-1,10,12,-1,-1,14,-1,-1,-1,-1],"split_conditions":[6.9E0,2.95E1,8.9E1,-0E0,1.02E1,-0E0,4.17E1,3.56E-1,-0E0,-0E0,4.09E1,-1.989294E-5,-0E0,4.672931E-5,-0E0],"split_indices":[1,5,2,0,0,0,3,6,0,0,5,0,0,0,0],"split_type":[0,0,0,0,0,0,0,0,0,0,0,0,0,0,0],"sum_hessian":[2.8E2,1.6E2,1.2E2,1.7E1,1.43E2,6E0,1.14E2,1.36E2,7E0,7E0,1.07E2,1.3E2,6E0,1.02E2,5E0],"tree_param":{"num_deleted":"0","num_feature":"10","num_nodes":"15","size_leaf_vector":"1"}},{"base_weights":[-0E0,-1.0499628E-3,2.934873E-4,-1.6412159E-3,-0E0,-0E0,8.757133E-4,-8.5067244E-5,-0E0,-0E0,6.293849E-5],"categories":[],"categories_nodes":[],"categories_segments":[],"categories_sizes":[],"default_left":[0,0,0,0,0,0,0,0,0,0,0],"id":56,"left_children":[1,3,5,7,-1,-1,9,-1,-1,-1,-1],"loss_changes":[2.1567923E-4,2.0645499E-4,4.4059092E-5,1.6478793E-5,0E0,0E0,3.893603E-5,0E0,0E0,0E0,0E0],"parents":[2147483647,0,0,1,1,2,2,3,3,6,6],"right_children":[2,4,6,8,-1,-1,10,-1,-1,-1,-1],"split_conditions":[7.8E0,1.61E1,9.06E1,-2.2E-1,-0E0,-0E0,1.27E1,-8.5067244E-5,-0E0,-0E0,6.293849E-5],"split_indices":[1,4,2,7,0,0,0,0,0,0,0],"split_type":[0,0,0,0,0,0,0,0,0,0,0],"sum_hessian":[2.7E2,1.87E2,8.3E1,1.52E2,3.5E1,1.8E1,6.5E1,1.47E2,5E0,1E1,5.5E1],"tree_param":{"num_deleted":"0","num_feature":"10","num_nodes":"11","size_leaf_vector":"1"}},{"base_weights":[-0E0,-8.1352703E-4,6.108117E-6,-4.381481E-5,-0E0,-0E0,5.8407173E-4,-0E0,9.878804E-4,-0E0,5.6618424E-5],"categories":[],"categories_nodes":[],"categories_segments":[],"categories_sizes":[],"default_left":[0,0,0,0,0,0,0,0,0,0,0],"id":57,"left_children":[1,3,5,-1,-1,-1,7,-1,9,-1,-1],"loss_changes":[5.692493E-5,5.2824253E-6,5.320993E-5,0E0,0E0,0E0,8.92647E-5,0E0,3.4469136E-5,0E0,0E0],"parents":[2147483647,0,0,1,1,2,2,6,6,8,8],"right_children":[2,4,6,-1,-1,-1,8,-1,10,-1,-1],"split_conditions":[3.88E1,9.3E0,1.05E1,-4.381481E-5,-0E0,-0E0,5.6047197E-2,-0E0,4.9E0,-0E0,5.6618424E-5],"split_indices":[3,0,4,0,0,0,9,0,1,0,0],"split_type":[0,0,0,0,0,0,0,0,0,0,0],"sum_hessian":[2.93E2,8.4E1,2.09E2,7.9E1,5E0,5.5E1,1.54E2,1E1,1.44E2,8E0,1.36E2],"tree_param":{"num_deleted":"0","num_feature":"10","num_nodes":"11","size_leaf_vector":"1"}},{"base_weights":[-0E0,-0E0,1.8598847E-4,-7.0747273E-4,-0E0,-0E0,1.2198644E-3,-0E0,-5.9888687E-5,-0E0,9.4607996E-5],"categories":[],"categories_nodes":[],"categories_segments":[],"categories_sizes":[],"default_left":[0,0,0,0,0,0,0,0,0,0,0],"id":58,"left_children":[1,3,5,7,-1,-1,9,-1,-1,-1,-1],"loss_changes":[2.6981531E-6,8.558852E-5,9.700247E-5,1.1382948E-4,0E0,0E0,1.2227608E-4,0E0,0E0,0E0,0E0],"parents":[2147483647,0,0,1,1,2,2,3,3,6,6],"right_children":[2,4,6,8,-1,-1,10,-1,-1,-1,-1],"split_conditions":[8.1E0,1.66E1,9.03E1,3.09E1,-0E0,-0E0,1.576507E-1,-0E0,-5.9888687E-5,-0E0,9.4607996E-5],"split_indices":[1,4,2,5,0,0,8,0,0,0,0],"split_type":[0,0,0,0,0,0,0,0,0,0,0],"sum_hessian":[2.7E2,1.94E2,7.6E1,1.69E2,2.5E1,1.1E1,6.5E1,3.2E1,1.37E2,5E0,6E1],"tree_param":{"num_deleted":"0","num_feature":"10","num_nodes":"11","size_leaf_vector":"1"}},{"base_weights":[-0E0,-2.5779076E-4,1.0746378E-3,-2.8704477E-5,-0E0,-0E0,1.3656969E-3,1.4763863E-3,-0E0,-0E0,7.943066E-5],"categories":[],"categories_nodes":[],"categories_segments":[],"categories_sizes":[],"default_left":[0,0,0,0,0,0,0,0,0,0,0],"id":59,"left_children":[1,3,5,-1,-1,-1,7,9,-1,-1,-1],"loss_changes":[1.853057E-4,3.076915E-5,9.8637174E-5,0E0,0E0,0E0,3.31662E-5,3.5882083E-5,0E0,0E0,0E0],"parents":[2147483647,0,0,1,1,2,2,6,6,7,7],"right_children":[2,4,6,-1,-1,-1,8,10,-1,-1,-1],"split_conditions":[6.4E0,1.66E1,3.15E-1,-2.8704477E-5,-0E0,-0E0,4.09E1,6.4E0,-0E0,-0E0,7.943066E-5],"split_indices":[1,4,6,0,0,0,5,4,0,0,0],"split_type":[0,0,0,0,0,0,0,0,0,0,0],"sum_hessian":[2.95E2,1.45E2,1.5E2,1.21E2,2.4E1,5E0,1.45E2,1.39E2,6E0,5E0,1.34E2],"tree_param":{"num_deleted":"0","num_feature":"10","num_nodes":"11","size_leaf_vector":"1"}},{"base_weights":[-0E0,-7.870093E-6,7.318886E-5,-0E0,3.777444E-4,4.425357E-4,-0E0,2.5726864E-5,-0E0],"categories":[],"categories_nodes":[],"categories_segments":[],"categories_sizes":[],"default_left":[0,0,0,0,0,0,0,0,0],"id":60,"left_children":[1,-1,3,-1,5,7,-1,-1,-1],"loss_changes":[2.8350532E-6,0E0,2.4056399E-5,0E0,7.644478E-6,9.723772E-6,0E0,0E0,0E0],"parents":[2147483647,0,0,2,2,4,4,5,5],"right_children":[2,-1,4,-1,6,8,-1,-1,-1],"split_conditions":[6.3E0,-7.870093E-6,1.05E1,-0E0,4.04E1,2.8625953E-1,-0E0,2.5726864E-5,-0E0],"split_indices":[0,0,4,0,5,8,0,0,0],"split_type":[0,0,0,0,0,0,0,0,0],"sum_hessian":[2.86E2,6.4E1,2.22E2,4.7E1,1.75E2,1.66E2,9E0,1.59E2,7E0],"tree_param":{"num_deleted":"0","num_feature":"10","num_nodes":"9","size_leaf_vector":"1"}},{"base_weights":[-0E0,-3.1432943E-4,9.79896E-4,-4.8862083E-5,-0E0,-0E0,1.3777413E-3,-0E0,1.6690029E-3,-0E0,9.0881425E-5],"categories":[],"categories_nodes":[],"categories_segments":[],"categories_sizes":[],"default_left":[0,0,0,0,0,0,0,0,0,0,0],"id":61,"left_children":[1,3,5,-1,-1,-1,7,-1,9,-1,-1],"loss_changes":[1.1376104E-4,1.2931839E-4,8.2430684E-5,0E0,0E0,0E0,4.6315734E-5,0E0,2.1633561E-5,0E0,0E0],"parents":[2147483647,0,0,1,1,2,2,6,6,8,8],"right_children":[2,4,6,-1,-1,-1,8,-1,10,-1,-1],"split_conditions":[7.8E0,1.58E1,3.24E-1,-4.8862083E-5,-0E0,-0E0,4.48E1,-0E0,8.6E0,-0E0,9.0881425E-5],"split_indices":[1,4,6,0,0,0,3,0,4,0,0],"split_type":[0,0,0,0,0,0,0,0,0,0,0],"sum_hessian":[2.93E2,1.97E2,9.6E1,1.54E2,4.3E1,5E0,9.1E1,1.3E1,7.8E1,6E0,7.2E1],"tree_param":{"num_deleted":"0","num_feature":"10","num_nodes":"11","size_leaf_vector":"1"}},{"base_weights":[-0E0,-2.6538613E-4,-0E0,-1.49747275E-5,-0E0],"categories":[],"categories_nodes":[],"categories_segments":[],"categories_sizes":[],"default_left":[0,0,0,0,0],"id":62,"left_children":[1,3,-1,-1,-1],"loss_changes":[6.8316904E-6,1.4204325E-6,0E0,0E0,0E0],"parents":[2147483647,0,0,1,1],"right_children":[2,4,-1,-1,-1],"split_conditions":[5.5E0,1.96E1,-0E0,-1.49747275E-5,-0E0],"split_indices":[1,4,0,0,0],"split_type":[0,0,0,0,0],"sum_hessian":[2.78E2,9.5E1,1.83E2,9E1,5E0],"tree_param":{"num_deleted":"0","num_feature":"10","num_nodes":"5","size_leaf_vector":"1"}},{"base_weights":[-0E0],"categories":[],"categories_nodes":[],"categories_segments":[],"categories_sizes":[],"default_left":[0],"id":63,"left_children":[-1],"loss_changes":[0E0],"parents":[2147483647],"right_children":[-1],"split_conditions":[-0E0],"split_indices":[0],"split_type":[0],"sum_hessian":[2.82E2],"tree_param":{"num_deleted":"0","num_feature":"10","num_nodes":"1","size_leaf_vector":"1"}},{"base_weights":[-0E0],"categories":[],"categories_nodes":[],"categories_segments":[],"categories_sizes":[],"default_left":[0],"id":64,"left_children":[-1],"loss_changes":[0E0],"parents":[2147483647],"right_children":[-1],"split_conditions":[-0E0],"split_indices":[0],"split_type":[0],"sum_hessian":[2.84E2],"tree_param":{"num_deleted":"0","num_feature":"10","num_nodes":"1","size_leaf_vector":"1"}},{"base_weights":[-0E0,-2.5632448E-4,-0E0,-2.0218904E-5,-0E0],"categories":[],"categories_nodes":[],"categories_segments":[],"categories_sizes":[],"default_left":[0,0,0,0,0],"id":65,"left_children":[1,3,-1,-1,-1],"loss_changes":[1.3140449E-5,1.8092182E-5,0E0,0E0,0E0],"parents":[2147483647,0,0,1,1],"right_children":[2,4,-1,-1,-1],"split_conditions":[7.8E0,2.699187E-1,-0E0,-2.0218904E-5,-0E0],"split_indices":[1,8,0,0,0],"split_type":[0,0,0,0,0],"sum_hessian":[2.84E2,1.98E2,8.6E1,1.89E2,9E0],"tree_param":{"num_deleted":"0","num_feature":"10","num_nodes":"5","size_leaf_vector":"1"}},{"base_weights":[-0E0],"categories":[],"categories_nodes":[],"categories_segments":[],"categories_sizes":[],"default_left":[0],"id":66,"left_children":[-1],"loss_changes":[0E0],"parents":[2147483647],"right_children":[-1],"split_conditions":[-0E0],"split_indices":[0],"split_type":[0],"sum_hessian":[2.92E2],"tree_param":{"num_deleted":"0","num_feature":"10","num_nodes":"1","size_leaf_vector":"1"}},{"base_weights":[-0E0,-2.2770143E-4,1.2427208E-3,-3.4867256E-4,-0E0,-0E0,1.584484E-3,-2.0930487E-5,-0E0,-0E0,1.8746991E-3,-0E0,1.0287925E-4],"categories":[],"categories_nodes":[],"categories_segments":[],"categories_sizes":[],"default_left":[0,0,0,0,0,0,0,0,0,0,0,0,0],"id":67,"left_children":[1,3,5,7,-1,-1,9,-1,-1,-1,11,-1,-1],"loss_changes":[3.2568476E-4,5.1453094E-6,1.3821205E-4,1.0850481E-6,0E0,0E0,1.3099756E-4,0E0,0E0,0E0,9.965041E-5,0E0,0E0],"parents":[2147483647,0,0,1,1,2,2,3,3,6,6,10,10],"right_children":[2,4,6,8,-1,-1,10,-1,-1,-1,12,-1,-1],"split_conditions":[7E0,2.0451128E-1,8.8E0,6.5E0,-0E0,-0E0,5.6047197E-2,-2.0930487E-5,-0E0,-0E0,3.71E1,-0E0,1.0287925E-4],"split_indices":[0,8,4,0,0,0,9,0,0,0,3,0,0],"split_type":[0,0,0,0,0,0,0,0,0,0,0,0,0],"sum_hessian":[2.9E2,8.4E1,2.06E2,7.7E1,7E0,2.5E1,1.81E2,5.9E1,1.8E1,1.5E1,1.66E2,5E0,1.61E2],"tree_param":{"num_deleted":"0","num_feature":"10","num_nodes":"13","size_leaf_vector":"1"}},{"base_weights":[-0E0,-5.0680095E-4,2.0927763E-4,-5.9174775E-4,-0E0,-0E0,6.526965E-4,-6.649171E-4,-0E0,1.0795264E-3,-0E0,-3.6919617E-5,-0E0,6.05601E-5,-0E0],"categories":[],"categories_nodes":[],"categories_segments":[],"categories_sizes":[],"default_left":[0,0,0,0,0,0,0,0,0,0,0,0,0,0,0],"id":68,"left_children":[1,3,5,7,-1,-1,9,11,-1,13,-1,-1,-1,-1,-1],"loss_changes":[3.5328267E-5,5.689748E-6,5.5799435E-5,2.0115185E-6,0E0,0E0,8.1770246E-5,5.419457E-6,0E0,3.036909E-5,0E0,0E0,0E0,0E0,0E0],"parents":[2147483647,0,0,1,1,2,2,3,3,6,6,7,7,9,9],"right_children":[2,4,6,8,-1,-1,10,12,-1,14,-1,-1,-1,-1,-1],"split_conditions":[5.5E0,2.2543353E-1,1.01E1,6.9E0,-0E0,-0E0,-2.39E-1,3.46E-1,-0E0,4.09E1,-0E0,-3.6919617E-5,-0E0,6.05601E-5,-0E0],"split_indices":[1,8,4,0,0,0,7,6,0,5,0,0,0,0,0],"split_type":[0,0,0,0,0,0,0,0,0,0,0,0,0,0,0],"sum_hessian":[2.87E2,1.04E2,1.83E2,9.2E1,1.2E1,3.5E1,1.48E2,7.7E1,1.5E1,1.23E2,2.5E1,7.2E1,5E0,1.18E2,5E0],"tree_param":{"num_deleted":"0","num_feature":"10","num_nodes":"15","size_leaf_vector":"1"}},{"base_weights":[-0E0],"categories":[],"categories_nodes":[],"categories_segments":[],"categories_sizes":[],"default_left":[0],"id":69,"left_children":[-1],"loss_changes":[0E0],"parents":[2147483647],"right_children":[-1],"split_conditions":[-0E0],"split_indices":[0],"split_type":[0],"sum_hessian":[2.74E2],"tree_param":{"num_deleted":"0","num_feature":"10","num_nodes":"1","size_leaf_vector":"1"}},{"base_weights":[-0E0,-3.403763E-5,3.15081E-4,-0E0,9.346912E-4,-0E0,1.1304248E-3,-0E0,7.040476E-5],"categories":[],"categories_nodes":[],"categories_segments":[],"categories_sizes":[],"default_left":[0,0,0,0,0,0,0,0,0],"id":70,"left_children":[1,-1,3,-1,5,-1,7,-1,-1],"loss_changes":[5.411481E-5,0E0,1.3074979E-4,0E0,5.795859E-5,0E0,8.0614685E-5,0E0,0E0],"parents":[2147483647,0,0,2,2,4,4,6,6],"right_children":[2,-1,4,-1,6,-1,8,-1,-1],"split_conditions":[6.5E0,-3.403763E-5,1.05E1,-0E0,3.09E-1,-0E0,3.87E1,-0E0,7.040476E-5],"split_indices":[0,0,4,0,6,0,3,0,0],"split_type":[0,0,0,0,0,0,0,0,0],"sum_hessian":[2.88E2,6.7E1,2.21E2,4.8E1,1.73E2,1E1,1.63E2,1.8E1,1.45E2],"tree_param":{"num_deleted":"0","num_feature":"10","num_nodes":"9","size_leaf_vector":"1"}},{"base_weights":[-0E0,-1.54797E-4,-0E0,-1.2264248E-5,-0E0,-0E0,7.376876E-4,-0E0,9.027914E-4,5.933664E-5,-0E0],"categories":[],"categories_nodes":[],"categories_segments":[],"categories_sizes":[],"default_left":[0,0,0,0,0,0,0,0,0,0,0],"id":71,"left_children":[1,3,5,-1,-1,-1,7,-1,9,-1,-1],"loss_changes":[1.5335752E-6,2.016143E-6,9.359947E-5,0E0,0E0,0E0,3.68057E-5,0E0,4.2820015E-5,0E0,0E0],"parents":[2147483647,0,0,1,1,2,2,6,6,8,8],"right_children":[2,4,6,-1,-1,-1,8,-1,10,-1,-1],"split_conditions":[4.7E0,2.0451128E-1,1.05E1,-1.2264248E-5,-0E0,-0E0,3.06E-1,-0E0,1.1149228E-1,5.933664E-5,-0E0],"split_indices":[1,8,4,0,0,0,6,0,9,0,0],"split_type":[0,0,0,0,0,0,0,0,0,0,0],"sum_hessian":[2.79E2,6.2E1,2.17E2,5.7E1,5E0,4.7E1,1.7E2,1.2E1,1.58E2,1.21E2,3.7E1],"tree_param":{"num_deleted":"0","num_feature":"10","num_nodes":"11","size_leaf_vector":"1"}},{"base_weights":[-0E0,-3.4057428E-4,-0E0,-0E0,-5.935114E-4,-4.6834524E-5,-0E0],"categories":[],"categories_nodes":[],"categories_segments":[],"categories_sizes":[],"default_left":[0,0,0,0,0,0,0],"id":72,"left_children":[1,3,-1,-1,5,-1,-1],"loss_changes":[1.9254478E-5,3.42884E-5,0E0,0E0,5.8762915E-5,0E0,0E0],"parents":[2147483647,0,0,1,1,4,4],"right_children":[2,4,-1,-1,6,-1,-1],"split_conditions":[6.9E0,2.95E1,-0E0,-0E0,1.61E1,-4.6834524E-5,-0E0],"split_indices":[1,5,0,0,4,0,0],"split_type":[0,0,0,0,0,0,0],"sum_hessian":[2.92E2,1.64E2,1.28E2,1.4E1,1.5E2,1.26E2,2.4E1],"tree_param":{"num_deleted":"0","num_feature":"10","num_nodes":"7","size_leaf_vector":"1"}},{"base_weights":[-0E0,-1.3355592E-4,-0E0,-8.249804E-4,-0E0,-0E0,-8.836943E-4,-4.643835E-5,-0E0],"categories":[],"categories_nodes":[],"categories_segments":[],"categories_sizes":[],"default_left":[0,0,0,0,0,0,0,0,0],"id":73,"left_children":[1,3,-1,5,-1,-1,7,-1,-1],"loss_changes":[3.7279715E-6,1.07889224E-4,0E0,1.2548393E-5,0E0,0E0,8.67607E-6,0E0,0E0],"parents":[2147483647,0,0,1,1,3,3,6,6],"right_children":[2,4,-1,6,-1,-1,8,-1,-1],"split_conditions":[7.8E0,1.61E1,-0E0,3.9426524E-2,-0E0,-0E0,1.3391557E-1,-4.643835E-5,-0E0],"split_indices":[1,4,0,9,0,0,9,0,0],"split_type":[0,0,0,0,0,0,0,0,0],"sum_hessian":[2.84E2,2.07E2,7.7E1,1.62E2,4.5E1,5E0,1.57E2,1.52E2,5E0],"tree_param":{"num_deleted":"0","num_feature":"10","num_nodes":"9","size_leaf_vector":"1"}},{"base_weights":[-0E0,-2.3823195E-4,-0E0,-1.070143E-3,-0E0,-0E0,-1.1049443E-3,-0E0,-5.708575E-5],"categories":[],"categories_nodes":[],"categories_segments":[],"categories_sizes":[],"default_left":[0,0,0,0,0,0,0,0,0],"id":74,"left_children":[1,3,-1,5,-1,-1,7,-1,-1],"loss_changes":[1.1975192E-5,1.8729063E-4,0E0,7.0665847E-6,0E0,0E0,7.443741E-6,0E0,0E0],"parents":[2147483647,0,0,1,1,3,3,6,6],"right_children":[2,4,-1,6,-1,-1,8,-1,-1],"split_conditions":[1.23E1,1.64E1,-0E0,5.5E0,-0E0,-0E0,3.9426524E-2,-0E0,-5.708575E-5],"split_indices":[0,4,0,4,0,0,9,0,0],"split_type":[0,0,0,0,0,0,0,0,0],"sum_hessian":[2.85E2,2.09E2,7.6E1,1.72E2,3.7E1,5E0,1.67E2,5E0,1.62E2],"tree_param":{"num_deleted":"0","num_feature":"10","num_nodes":"9","size_leaf_vector":"1"}},{"base_weights":[-0E0,-5.989152E-5,-0E0,-0E0,7.308538E-4,-0E0,1.0219843E-3,-0E0,6.487499E-5],"categories":[],"categories_nodes":[],"categories_segments":[],"categories_sizes":[],"default_left":[0,0,0,0,0,0,0,0,0],"id":75,"left_children":[1,-1,3,-1,5,-1,7,-1,-1],"loss_changes":[1.0187064E-4,0E0,9.774896E-5,0E0,7.563005E-5,0E0,8.756439E-5,0E0,0E0],"parents":[2147483647,0,0,2,2,4,4,6,6],"right_children":[2,-1,4,-1,6,-1,8,-1,-1],"split_conditions":[6.3E0,-5.989152E-5,1.05E1,-0E0,1.5448505E-1,-0E0,5.162524E-2,-0E0,6.487499E-5],"split_indices":[0,0,4,0,8,0,9,0,0],"split_type":[0,0,0,0,0,0,0,0,0],"sum_hessian":[3.04E2,6.9E1,2.35E2,5.4E1,1.81E2,1.7E1,1.64E2,1.1E1,1.53E2],"tree_param":{"num_deleted":"0","num_feature":"10","num_nodes":"9","size_leaf_vector":"1"}},{"base_weights":[-0E0],"categories":[],"categories_nodes":[],"categories_segments":[],"categories_sizes":[],"default_left":[0],"id":76,"left_children":[-1],"loss_changes":[0E0],"parents":[2147483647],"right_children":[-1],"split_conditions":[-0E0],"split_indices":[0],"split_type":[0],"sum_hessian":[2.87E2],"tree_param":{"num_deleted":"0","num_feature":"10","num_nodes":"1","size_leaf_vector":"1"}},{"base_weights":[-0E0,-0E0,2.5384725E-4,-0E0,6.503752E-4,-0E0,4.6725683E-5],"categories":[],"categories_nodes":[],"categories_segments":[],"categories_sizes":[],"default_left":[0,0,0,0,0,0,0],"id":77,"left_children":[1,-1,3,-1,5,-1,-1],"loss_changes":[1.2178863E-5,0E0,6.269E-5,0E0,5.3508542E-5,0E0,0E0],"parents":[2147483647,0,0,2,2,4,4],"right_children":[2,-1,4,-1,6,-1,-1],"split_conditions":[5.3E0,-0E0,3.12E-1,-0E0,1.6608997E-1,-0E0,4.6725683E-5],"split_indices":[1,0,6,0,8,0,0],"split_type":[0,0,0,0,0,0,0],"sum_hessian":[2.88E2,1.01E2,1.87E2,1.2E1,1.75E2,3E1,1.45E2],"tree_param":{"num_deleted":"0","num_feature":"10","num_nodes":"7","size_leaf_vector":"1"}},{"base_weights":[-0E0],"categories":[],"categories_nodes":[],"categories_segments":[],"categories_sizes":[],"default_left":[0],"id":78,"left_children":[-1],"loss_changes":[0E0],"parents":[2147483647],"right_children":[-1],"split_conditions":[-0E0],"split_indices":[0],"split_type":[0],"sum_hessian":[2.8E2],"tree_param":{"num_deleted":"0","num_feature":"10","num_nodes":"1","size_leaf_vector":"1"}},{"base_weights":[-0E0,-0E0,8.116898E-4,-4.776605E-4,-0E0,-0E0,1.1175264E-3,-2.5322073E-5,-0E0,-0E0,1.355208E-3,-0E0,7.9736485E-5],"categories":[],"categories_nodes":[],"categories_segments":[],"categories_sizes":[],"default_left":[0,0,0,0,0,0,0,0,0,0,0,0,0],"id":79,"left_children":[1,3,5,7,-1,-1,9,-1,-1,-1,11,-1,-1],"loss_changes":[5.336607E-5,4.0156083E-5,3.9049963E-5,3.7025056E-6,0E0,0E0,3.4308578E-5,0E0,0E0,0E0,3.603779E-5,0E0,0E0],"parents":[2147483647,0,0,1,1,2,2,3,3,6,6,10,10],"right_children":[2,4,6,8,-1,-1,10,-1,-1,-1,12,-1,-1],"split_conditions":[1.23E1,1.64E1,4.36E1,1.3391557E-1,-0E0,-0E0,8E0,-2.5322073E-5,-0E0,-0E0,1.5448505E-1,-0E0,7.9736485E-5],"split_indices":[0,4,3,9,0,0,1,0,0,0,8,0,0],"split_type":[0,0,0,0,0,0,0,0,0,0,0,0,0],"sum_hessian":[2.87E2,2.08E2,7.9E1,1.74E2,3.4E1,7E0,7.2E1,1.69E2,5E0,5E0,6.7E1,5E0,6.2E1],"tree_param":{"num_deleted":"0","num_feature":"10","num_nodes":"13","size_leaf_vector":"1"}},{"base_weights":[-0E0,-0E0,6.6602934E-4,-0E0,5.8042526E-5],"categories":[],"categories_nodes":[],"categories_segments":[],"categories_sizes":[],"default_left":[0,0,0,0,0],"id":80,"left_children":[1,-1,3,-1,-1],"loss_changes":[3.1495252E-5,0E0,5.7444628E-5,0E0,0E0],"parents":[2147483647,0,0,2,2],"right_children":[2,-1,4,-1,-1],"split_conditions":[1.23E1,-0E0,6.009245E-2,-0E0,5.8042526E-5],"split_indices":[0,0,9,0,0],"split_type":[0,0,0,0,0],"sum_hessian":[2.84E2,2.15E2,6.9E1,5E0,6.4E1],"tree_param":{"num_deleted":"0","num_feature":"10","num_nodes":"5","size_leaf_vector":"1"}},{"base_weights":[-0E0,-7.870273E-4,-0E0,-8.852464E-4,-0E0,-0E0,-9.526205E-4,-4.9068884E-5,-0E0],"categories":[],"categories_nodes":[],"categories_segments":[],"categories_sizes":[],"default_left":[0,0,0,0,0,0,0,0,0],"id":81,"left_children":[1,3,-1,5,-1,-1,7,-1,-1],"loss_changes":[1.3255415E-4,2.96637E-5,0E0,2.0186795E-5,0E0,0E0,3.4740515E-6,0E0,0E0],"parents":[2147483647,0,0,1,1,3,3,6,6],"right_children":[2,4,-1,6,-1,-1,8,-1,-1],"split_conditions":[1.23E1,8.2E0,-0E0,3.9426524E-2,-0E0,-0E0,2.699187E-1,-4.9068884E-5,-0E0],"split_indices":[0,1,0,9,0,0,8,0,0],"split_type":[0,0,0,0,0,0,0,0,0],"sum_hessian":[2.86E2,2.12E2,7.4E1,2.05E2,7E0,6E0,1.99E2,1.91E2,8E0],"tree_param":{"num_deleted":"0","num_feature":"10","num_nodes":"9","size_leaf_vector":"1"}},{"base_weights":[-0E0,-2.1722155E-4,-0E0,-3.7625892E-4,-0E0,-0E0,-5.421162E-4,-3.2017248E-5,-0E0],"categories":[],"categories_nodes":[],"categories_segments":[],"categories_sizes":[],"default_left":[0,0,0,0,0,0,0,0,0],"id":82,"left_children":[1,3,-1,5,-1,-1,7,-1,-1],"loss_changes":[1.0097632E-5,1.8782806E-5,0E0,2.6958647E-5,0E0,0E0,1.509811E-5,0E0,0E0],"parents":[2147483647,0,0,1,1,3,3,6,6],"right_children":[2,4,-1,6,-1,-1,8,-1,-1],"split_conditions":[1.23E1,2.699187E-1,-0E0,2.95E1,-0E0,-0E0,3.6E-1,-3.2017248E-5,-0E0],"split_indices":[0,8,0,5,0,0,6,0,0],"split_type":[0,0,0,0,0,0,0,0,0],"sum_hessian":[2.87E2,2.12E2,7.5E1,2.02E2,1E1,1.4E1,1.88E2,1.71E2,1.7E1],"tree_param":{"num_deleted":"0","num_feature":"10","num_nodes":"9","size_leaf_vector":"1"}},{"base_weights":[-0E0,-1.8867124E-5,-0E0],"categories":[],"categories_nodes":[],"categories_segments":[],"categories_sizes":[],"default_left":[0,0,0],"id":83,"left_children":[1,-1,-1],"loss_changes":[1.2672473E-5,0E0,0E0],"parents":[2147483647,0,0],"right_children":[2,-1,-1],"split_conditions":[7E0,-1.8867124E-5,-0E0],"split_indices":[0,0,0],"split_type":[0,0,0],"sum_hessian":[2.97E2,8.7E1,2.1E2],"tree_param":{"num_deleted":"0","num_feature":"10","num_nodes":"3","size_leaf_vector":"1"}},{"base_weights":[-0E0,-2.109241E-5,3.5350327E-5,-0E0,4.1356278E-4,-0E0,6.228331E-4,-0E0,3.901422E-5],"categories":[],"categories_nodes":[],"categories_segments":[],"categories_sizes":[],"default_left":[0,0,0,0,0,0,0,0,0],"id":84,"left_children":[1,-1,3,-1,5,-1,7,-1,-1],"loss_changes":[1.2736835E-5,0E0,3.0506231E-5,0E0,3.2444983E-5,0E0,2.9921961E-5,0E0,0E0],"parents":[2147483647,0,0,2,2,4,4,6,6],"right_children":[2,-1,4,-1,6,-1,8,-1,-1],"split_conditions":[6.5E0,-2.109241E-5,8.91E1,-0E0,1.5297906E-1,-0E0,5.6047197E-2,-0E0,3.901422E-5],"split_indices":[0,0,2,0,8,0,9,0,0],"split_type":[0,0,0,0,0,0,0,0,0],"sum_hessian":[2.9E2,6.8E1,2.22E2,4.4E1,1.78E2,1.7E1,1.61E2,1E1,1.51E2],"tree_param":{"num_deleted":"0","num_feature":"10","num_nodes":"9","size_leaf_vector":"1"}},{"base_weights":[-0E0,-0E0,1.932351E-4,2.4383093E-4,-0E0,-0E0,2.6357628E-4,-0E0,1.7493234E-5],"categories":[],"categories_nodes":[],"categories_segments":[],"categories_sizes":[],"default_left":[0,0,0,0,0,0,0,0,0],"id":85,"left_children":[1,-1,3,5,-1,-1,7,-1,-1],"loss_changes":[8.065398E-6,0E0,4.3603886E-6,1.5381765E-6,0E0,0E0,8.803419E-6,0E0,0E0],"parents":[2147483647,0,0,2,2,3,3,6,6],"right_children":[2,-1,4,6,-1,-1,8,-1,-1],"split_conditions":[6.3E0,-0E0,4.09E1,2.9E1,-0E0,-0E0,1.4885496E-1,-0E0,1.7493234E-5],"split_indices":[0,0,5,5,0,0,8,0,0],"split_type":[0,0,0,0,0,0,0,0,0],"sum_hessian":[2.75E2,6.1E1,2.14E2,2.07E2,7E0,8E0,1.99E2,1.5E1,1.84E2],"tree_param":{"num_deleted":"0","num_feature":"10","num_nodes":"9","size_leaf_vector":"1"}},{"base_weights":[-0E0,-4.0027403E-4,6.413618E-5,-9.429976E-4,-0E0,-0E0,3.562109E-4,-0E0,-1.1854754E-3,-0E0,5.135435E-4,-6.482658E-5,-0E0,-0E0,3.984636E-5],"categories":[],"categories_nodes":[],"categories_segments":[],"categories_sizes":[],"default_left":[0,0,0,0,0,0,0,0,0,0,0,0,0,0,0],"id":86,"left_children":[1,3,5,7,-1,-1,9,-1,11,-1,13,-1,-1,-1,-1],"loss_changes":[3.5733425E-5,1.4066193E-4,8.937729E-6,5.0191244E-5,0E0,0E0,8.67074E-6,0E0,2.4206485E-5,0E0,1.8901963E-5,0E0,0E0,0E0,0E0],"parents":[2147483647,0,0,1,1,2,2,3,3,6,6,8,8,10,10],"right_children":[2,4,6,8,-1,-1,10,-1,12,-1,14,-1,-1,-1,-1],"split_conditions":[1.23E1,1.8E1,6.009245E-2,3.09E1,-0E0,-0E0,1.5448505E-1,-0E0,1.66E1,-0E0,1.28E1,-6.482658E-5,-0E0,-0E0,3.984636E-5],"split_indices":[0,4,9,5,0,0,8,0,4,0,0,0,0,0,0],"split_type":[0,0,0,0,0,0,0,0,0,0,0,0,0,0,0],"sum_hessian":[2.96E2,2.19E2,7.7E1,1.96E2,2.3E1,6E0,7.1E1,3.7E1,1.59E2,5E0,6.6E1,1.47E2,1.2E1,1E1,5.6E1],"tree_param":{"num_deleted":"0","num_feature":"10","num_nodes":"15","size_leaf_vector":"1"}},{"base_weights":[-0E0],"categories":[],"categories_nodes":[],"categories_segments":[],"categories_sizes":[],"default_left":[0],"id":87,"left_children":[-1],"loss_changes":[0E0],"parents":[2147483647],"right_children":[-1],"split_conditions":[-0E0],"split_indices":[0],"split_type":[0],"sum_hessian":[3.02E2],"tree_param":{"num_deleted":"0","num_feature":"10","num_nodes":"1","size_leaf_vector":"1"}},{"base_weights":[-0E0,-5.7759276E-4,-0E0,-8.599787E-4,-0E0,-4.7316087E-5,-0E0],"categories":[],"categories_nodes":[],"categories_segments":[],"categories_sizes":[],"default_left":[0,0,0,0,0,0,0],"id":88,"left_children":[1,3,-1,5,-1,-1,-1],"loss_changes":[6.3052925E-5,7.080805E-5,0E0,2.1960339E-5,0E0,0E0,0E0],"parents":[2147483647,0,0,1,1,3,3],"right_children":[2,4,-1,6,-1,-1,-1],"split_conditions":[1.12E1,1.95E1,-0E0,7.6E0,-0E0,-4.7316087E-5,-0E0],"split_indices":[0,4,0,1,0,0,0],"split_type":[0,0,0,0,0,0,0],"sum_hessian":[2.77E2,1.87E2,9E1,1.79E2,8E0,1.72E2,7E0],"tree_param":{"num_deleted":"0","num_feature":"10","num_nodes":"7","size_leaf_vector":"1"}},{"base_weights":[-0E0,-5.819625E-4,-0E0,-3.1307456E-5,-0E0],"categories":[],"categories_nodes":[],"categories_segments":[],"categories_sizes":[],"default_left":[0,0,0,0,0],"id":89,"left_children":[1,3,-1,-1,-1],"loss_changes":[2.4723666E-5,1.9365962E-6,0E0,0E0,0E0],"parents":[2147483647,0,0,1,1],"right_children":[2,4,-1,-1,-1],"split_conditions":[6.5E0,2.043919E-1,-0E0,-3.1307456E-5,-0E0],"split_indices":[0,8,0,0,0],"split_type":[0,0,0,0,0],"sum_hessian":[2.97E2,7.1E1,2.26E2,6.6E1,5E0],"tree_param":{"num_deleted":"0","num_feature":"10","num_nodes":"5","size_leaf_vector":"1"}},{"base_weights":[-0E0,-4.0145416E-4,-0E0,-1.2800074E-3,-0E0,-0E0,-6.932687E-5],"categories":[],"categories_nodes":[],"categories_segments":[],"categories_sizes":[],"default_left":[0,0,0,0,0,0,0],"id":90,"left_children":[1,3,-1,5,-1,-1,-1],"loss_changes":[3.4005912E-5,2.576327E-4,0E0,3.1339005E-5,0E0,0E0,0E0],"parents":[2147483647,0,0,1,1,3,3],"right_children":[2,4,-1,6,-1,-1,-1],"split_conditions":[8.1E0,1.66E1,-0E0,2.86E1,-0E0,-0E0,-6.932687E-5],"split_indices":[1,4,0,5,0,0,0],"split_type":[0,0,0,0,0,0,0],"sum_hessian":[2.81E2,2.09E2,7.2E1,1.76E2,3.3E1,1E1,1.66E2],"tree_param":{"num_deleted":"0","num_feature":"10","num_nodes":"7","size_leaf_vector":"1"}},{"base_weights":[-0E0,-1.9316778E-5,-0E0],"categories":[],"categories_nodes":[],"categories_segments":[],"categories_sizes":[],"default_left":[0,0,0],"id":91,"left_children":[1,-1,-1],"loss_changes":[3.2537624E-5,0E0,0E0],"parents":[2147483647,0,0],"right_children":[2,-1,-1],"split_conditions":[1.23E1,-1.9316778E-5,-0E0],"split_indices":[0,0,0],"split_type":[0,0,0],"sum_hessian":[2.9E2,2.16E2,7.4E1],"tree_param":{"num_deleted":"0","num_feature":"10","num_nodes":"3","size_leaf_vector":"1"}},{"base_weights":[-0E0,-0E0,3.0919185E-4,-0E0,6.7894446E-4,-0E0,1.0390785E-3,5.7543202E-5,-0E0],"categories":[],"categories_nodes":[],"categories_segments":[],"categories_sizes":[],"default_left":[0,0,0,0,0,0,0,0,0],"id":92,"left_children":[1,-1,3,-1,5,-1,7,-1,-1],"loss_changes":[2.0458312E-5,0E0,5.145232E-5,0E0,9.112168E-5,0E0,2.901844E-5,0E0,0E0],"parents":[2147483647,0,0,2,2,4,4,6,6],"right_children":[2,-1,4,-1,6,-1,8,-1,-1],"split_conditions":[3.88E1,-0E0,1.05E1,-0E0,3.1E-1,-0E0,2.11E1,5.7543202E-5,-0E0],"split_indices":[3,0,4,0,6,0,4,0,0],"split_type":[0,0,0,0,0,0,0,0,0],"sum_hessian":[2.93E2,8.1E1,2.12E2,5.8E1,1.54E2,5E0,1.49E2,1.43E2,6E0],"tree_param":{"num_deleted":"0","num_feature":"10","num_nodes":"9","size_leaf_vector":"1"}},{"base_weights":[-0E0,-1.1978641E-4,-0E0,-7.600017E-4,-0E0,-0E0,-4.9837883E-5],"categories":[],"categories_nodes":[],"categories_segments":[],"categories_sizes":[],"default_left":[0,0,0,0,0,0,0],"id":93,"left_children":[1,3,-1,5,-1,-1,-1],"loss_changes":[2.9558494E-6,9.696941E-5,0E0,5.4071257E-5,0E0,0E0,0E0],"parents":[2147483647,0,0,1,1,3,3],"right_children":[2,4,-1,6,-1,-1,-1],"split_conditions":[8.1E0,1.66E1,-0E0,2.97E1,-0E0,-0E0,-4.9837883E-5],"split_indices":[1,4,0,5,0,0,0],"split_type":[0,0,0,0,0,0,0],"sum_hessian":[2.71E2,2.04E2,6.7E1,1.71E2,3.3E1,1.8E1,1.53E2],"tree_param":{"num_deleted":"0","num_feature":"10","num_nodes":"7","size_leaf_vector":"1"}},{"base_weights":[-0E0,-0E0,7.0221233E-4,-0E0,9.355162E-4,-0E0,1.1682846E-3,6.364919E-5,-0E0],"categories":[],"categories_nodes":[],"categories_segments":[],"categories_sizes":[],"default_left":[0,0,0,0,0,0,0,0,0],"id":94,"left_children":[1,-1,3,-1,5,-1,7,-1,-1],"loss_changes":[1.11441084E-4,0E0,7.0598544E-5,0E0,8.957327E-5,0E0,3.9520703E-5,0E0,0E0],"parents":[2147483647,0,0,2,2,4,4,6,6],"right_children":[2,-1,4,-1,6,-1,8,-1,-1],"split_conditions":[6.5E0,-0E0,3.12E-1,-0E0,3.71E1,-0E0,4.09E1,6.364919E-5,-0E0],"split_indices":[0,0,6,0,3,0,5,0,0],"split_type":[0,0,0,0,0,0,0,0,0],"sum_hessian":[2.93E2,6.9E1,2.24E2,1.8E1,2.06E2,9E0,1.97E2,1.9E2,7E0],"tree_param":{"num_deleted":"0","num_feature":"10","num_nodes":"9","size_leaf_vector":"1"}},{"base_weights":[-0E0],"categories":[],"categories_nodes":[],"categories_segments":[],"categories_sizes":[],"default_left":[0],"id":95,"left_children":[-1],"loss_changes":[0E0],"parents":[2147483647],"right_children":[-1],"split_conditions":[-0E0],"split_indices":[0],"split_type":[0],"sum_hessian":[2.85E2],"tree_param":{"num_deleted":"0","num_feature":"10","num_nodes":"1","size_leaf_vector":"1"}},{"base_weights":[-0E0,-7.7401004E-5,7.729734E-4,-5.398945E-4,-0E0,-0E0,5.1299856E-5,-0E0,-4.512082E-5],"categories":[],"categories_nodes":[],"categories_segments":[],"categories_sizes":[],"default_left":[0,0,0,0,0,0,0,0,0],"id":96,"left_children":[1,3,5,7,-1,-1,-1,-1,-1],"loss_changes":[5.7391997E-5,4.745004E-5,2.4891735E-5,7.2660776E-5,0E0,0E0,0E0,0E0,0E0],"parents":[2147483647,0,0,1,1,2,2,3,3],"right_children":[2,4,6,8,-1,-1,-1,-1,-1],"split_conditions":[7.8E0,1.61E1,9.03E1,2.97E1,-0E0,-0E0,5.1299856E-5,-0E0,-4.512082E-5],"split_indices":[1,4,2,5,0,0,0,0,0],"split_type":[0,0,0,0,0,0,0,0,0],"sum_hessian":[2.95E2,2.03E2,9.2E1,1.65E2,3.8E1,1.7E1,7.5E1,1.8E1,1.47E2],"tree_param":{"num_deleted":"0","num_feature":"10","num_nodes":"9","size_leaf_vector":"1"}},{"base_weights":[-0E0],"categories":[],"categories_nodes":[],"categories_segments":[],"categories_sizes":[],"default_left":[0],"id":97,"left_children":[-1],"loss_changes":[0E0],"parents":[2147483647],"right_children":[-1],"split_conditions":[-0E0],"split_indices":[0],"split_type":[0],"sum_hessian":[3.03E2],"tree_param":{"num_deleted":"0","num_feature":"10","num_nodes":"1","size_leaf_vector":"1"}},{"base_weights":[-0E0,-3.814458E-5,-0E0,-0E0,7.649251E-5,-0E0,1.9270479E-4,-0E0,1.5501884E-5],"categories":[],"categories_nodes":[],"categories_segments":[],"categories_sizes":[],"default_left":[0,0,0,0,0,0,0,0,0],"id":98,"left_children":[1,-1,3,-1,5,-1,7,-1,-1],"loss_changes":[3.957624E-5,0E0,1.0122411E-6,0E0,5.2264613E-6,0E0,8.179803E-6,0E0,0E0],"parents":[2147483647,0,0,2,2,4,4,6,6],"right_children":[2,-1,4,-1,6,-1,8,-1,-1],"split_conditions":[6.3E0,-3.814458E-5,8.91E1,-0E0,3.13E-1,-0E0,1.625E-1,-0E0,1.5501884E-5],"split_indices":[0,0,2,0,6,0,8,0,0],"split_type":[0,0,0,0,0,0,0,0,0],"sum_hessian":[2.77E2,6.6E1,2.11E2,4E1,1.71E2,5E0,1.66E2,1.8E1,1.48E2],"tree_param":{"num_deleted":"0","num_feature":"10","num_nodes":"9","size_leaf_vector":"1"}},{"base_weights":[-0E0],"categories":[],"categories_nodes":[],"categories_segments":[],"categories_sizes":[],"default_left":[0],"id":99,"left_children":[-1],"loss_changes":[0E0],"parents":[2147483647],"right_children":[-1],"split_conditions":[-0E0],"split_indices":[0],"split_type":[0],"sum_hessian":[2.86E2],"tree_param":{"num_deleted":"0","num_feature":"10","num_nodes":"1","size_leaf_vector":"1"}},{"base_weights":[-0E0],"categories":[],"categories_nodes":[],"categories_segments":[],"categories_sizes":[],"default_left":[0],"id":100,"left_children":[-1],"loss_changes":[0E0],"parents":[2147483647],"right_children":[-1],"split_conditions":[-0E0],"split_indices":[0],"split_type":[0],"sum_hessian":[2.85E2],"tree_param":{"num_deleted":"0","num_feature":"10","num_nodes":"1","size_leaf_vector":"1"}},{"base_weights":[-0E0,-2.3834937E-5,-0E0,-0E0,1.3342591E-4,-0E0,3.9596806E-4,-0E0,2.8479766E-5],"categories":[],"categories_nodes":[],"categories_segments":[],"categories_sizes":[],"default_left":[0,0,0,0,0,0,0,0,0],"id":101,"left_children":[1,-1,3,-1,5,-1,7,-1,-1],"loss_changes":[1.5225193E-5,0E0,2.919606E-6,0E0,2.075579E-5,0E0,2.3043798E-5,0E0,0E0],"parents":[2147483647,0,0,2,2,4,4,6,6],"right_children":[2,-1,4,-1,6,-1,8,-1,-1],"split_conditions":[6.5E0,-2.3834937E-5,1.05E1,-0E0,3.12E-1,-0E0,3.7E1,-0E0,2.8479766E-5],"split_indices":[0,0,4,0,6,0,3,0,0],"split_type":[0,0,0,0,0,0,0,0,0],"sum_hessian":[2.73E2,6.5E1,2.08E2,4.6E1,1.62E2,1.3E1,1.49E2,7E0,1.42E2],"tree_param":{"num_deleted":"0","num_feature":"10","num_nodes":"9","size_leaf_vector":"1"}},{"base_weights":[-0E0],"categories":[],"categories_nodes":[],"categories_segments":[],"categories_sizes":[],"default_left":[0],"id":102,"left_children":[-1],"loss_changes":[0E0],"parents":[2147483647],"right_children":[-1],"split_conditions":[-0E0],"split_indices":[0],"split_type":[0],"sum_hessian":[2.99E2],"tree_param":{"num_deleted":"0","num_feature":"10","num_nodes":"1","size_leaf_vector":"1"}},{"base_weights":[-0E0],"categories":[],"categories_nodes":[],"categories_segments":[],"categories_sizes":[],"default_left":[0],"id":103,"left_children":[-1],"loss_changes":[0E0],"parents":[2147483647],"right_children":[-1],"split_conditions":[-0E0],"split_indices":[0],"split_type":[0],"sum_hessian":[2.82E2],"tree_param":{"num_deleted":"0","num_feature":"10","num_nodes":"1","size_leaf_vector":"1"}},{"base_weights":[-0E0],"categories":[],"categories_nodes":[],"categories_segments":[],"categories_sizes":[],"default_left":[0],"id":104,"left_children":[-1],"loss_changes":[0E0],"parents":[2147483647],"right_children":[-1],"split_conditions":[-0E0],"split_indices":[0],"split_type":[0],"sum_hessian":[2.7E2],"tree_param":{"num_deleted":"0","num_feature":"10","num_nodes":"1","size_leaf_vector":"1"}},{"base_weights":[-0E0,-3.4680773E-4,-0E0,-1.0458971E-3,-0E0,-1.1695538E-3,-0E0,-0E0,-6.431689E-5],"categories":[],"categories_nodes":[],"categories_segments":[],"categories_sizes":[],"default_left":[0,0,0,0,0,0,0,0,0],"id":105,"left_children":[1,3,-1,5,-1,7,-1,-1,-1],"loss_changes":[2.7783664E-5,1.8443308E-4,0E0,2.9893781E-5,0E0,2.5945148E-5,0E0,0E0,0E0],"parents":[2147483647,0,0,1,1,3,3,5,5],"right_children":[2,4,-1,6,-1,8,-1,-1,-1],"split_conditions":[1.28E1,1.64E1,-0E0,3.64E-1,-0E0,2.97E1,-0E0,-0E0,-6.431689E-5],"split_indices":[0,4,0,6,0,5,0,0,0],"split_type":[0,0,0,0,0,0,0,0,0],"sum_hessian":[2.95E2,2.29E2,6.6E1,1.92E2,3.7E1,1.75E2,1.7E1,1.5E1,1.6E2],"tree_param":{"num_deleted":"0","num_feature":"10","num_nodes":"9","size_leaf_vector":"1"}},{"base_weights":[-0E0,-0E0,3.9148825E-4,-0E0,7.193248E-4,-0E0,9.4490324E-4,5.7146186E-5,-0E0],"categories":[],"categories_nodes":[],"categories_segments":[],"categories_sizes":[],"default_left":[0,0,0,0,0,0,0,0,0],"id":106,"left_children":[1,-1,3,-1,5,-1,7,-1,-1],"loss_changes":[3.4024397E-5,0E0,6.790894E-5,0E0,6.502814E-5,0E0,6.294284E-5,0E0,0E0],"parents":[2147483647,0,0,2,2,4,4,6,6],"right_children":[2,-1,4,-1,6,-1,8,-1,-1],"split_conditions":[6.3E0,-0E0,8.8E0,-0E0,5.162524E-2,-0E0,2.8625953E-1,5.7146186E-5,-0E0],"split_indices":[0,0,4,0,9,0,8,0,0],"split_type":[0,0,0,0,0,0,0,0,0],"sum_hessian":[2.76E2,5.6E1,2.2E2,2.5E1,1.95E2,1E1,1.85E2,1.74E2,1.1E1],"tree_param":{"num_deleted":"0","num_feature":"10","num_nodes":"9","size_leaf_vector":"1"}},{"base_weights":[-0E0],"categories":[],"categories_nodes":[],"categories_segments":[],"categories_sizes":[],"default_left":[0],"id":107,"left_children":[-1],"loss_changes":[0E0],"parents":[2147483647],"right_children":[-1],"split_conditions":[-0E0],"split_indices":[0],"split_type":[0],"sum_hessian":[2.85E2],"tree_param":{"num_deleted":"0","num_feature":"10","num_nodes":"1","size_leaf_vector":"1"}},{"base_weights":[-0E0,-0E0,7.0066126E-5,-0E0,4.6675777E-4,-0E0,5.941617E-4,-0E0,3.626526E-5],"categories":[],"categories_nodes":[],"categories_segments":[],"categories_sizes":[],"default_left":[0,0,0,0,0,0,0,0,0],"id":108,"left_children":[1,-1,3,-1,5,-1,7,-1,-1],"loss_changes":[1.1193117E-6,0E0,3.678882E-5,0E0,1.7517283E-5,0E0,2.1906533E-5,0E0,0E0],"parents":[2147483647,0,0,2,2,4,4,6,6],"right_children":[2,-1,4,-1,6,-1,8,-1,-1],"split_conditions":[6.3E0,-0E0,1.05E1,-0E0,1.5448505E-1,-0E0,5.162524E-2,-0E0,3.626526E-5],"split_indices":[0,0,4,0,8,0,9,0,0],"split_type":[0,0,0,0,0,0,0,0,0],"sum_hessian":[2.85E2,5.9E1,2.26E2,5.4E1,1.72E2,1.7E1,1.55E2,1E1,1.45E2],"tree_param":{"num_deleted":"0","num_feature":"10","num_nodes":"9","size_leaf_vector":"1"}},{"base_weights":[-0E0],"categories":[],"categories_nodes":[],"categories_segments":[],"categories_sizes":[],"default_left":[0],"id":109,"left_children":[-1],"loss_changes":[0E0],"parents":[2147483647],"right_children":[-1],"split_conditions":[-0E0],"split_indices":[0],"split_type":[0],"sum_hessian":[3.03E2],"tree_param":{"num_deleted":"0","num_feature":"10","num_nodes":"1","size_leaf_vector":"1"}},{"base_weights":[-0E0,-1.344667E-5,1.9640305E-4,-0E0,4.2155894E-4,-0E0,6.3386414E-4,3.4124772E-5,-0E0],"categories":[],"categories_nodes":[],"categories_segments":[],"categories_sizes":[],"default_left":[0,0,0,0,0,0,0,0,0],"id":110,"left_children":[1,-1,3,-1,5,-1,7,-1,-1],"loss_changes":[1.3462293E-5,0E0,2.333238E-5,0E0,3.7744514E-5,0E0,7.878225E-6,0E0,0E0],"parents":[2147483647,0,0,2,2,4,4,6,6],"right_children":[2,-1,4,-1,6,-1,8,-1,-1],"split_conditions":[6.3E0,-1.344667E-5,1.05E1,-0E0,5.162524E-2,-0E0,4.09E1,3.4124772E-5,-0E0],"split_indices":[0,0,4,0,9,0,5,0,0],"split_type":[0,0,0,0,0,0,0,0,0],"sum_hessian":[2.89E2,6.2E1,2.27E2,4.8E1,1.79E2,7E0,1.72E2,1.65E2,7E0],"tree_param":{"num_deleted":"0","num_feature":"10","num_nodes":"9","size_leaf_vector":"1"}},{"base_weights":[-0E0],"categories":[],"categories_nodes":[],"categories_segments":[],"categories_sizes":[],"default_left":[0],"id":111,"left_children":[-1],"loss_changes":[0E0],"parents":[2147483647],"right_children":[-1],"split_conditions":[-0E0],"split_indices":[0],"split_type":[0],"sum_hessian":[2.88E2],"tree_param":{"num_deleted":"0","num_feature":"10","num_nodes":"1","size_leaf_vector":"1"}},{"base_weights":[-0E0,-1.5450187E-5,-0E0],"categories":[],"categories_nodes":[],"categories_segments":[],"categories_sizes":[],"default_left":[0,0,0],"id":112,"left_children":[1,-1,-1],"loss_changes":[6.588348E-6,0E0,0E0],"parents":[2147483647,0,0],"right_children":[2,-1,-1],"split_conditions":[6.3E0,-1.5450187E-5,-0E0],"split_indices":[0,0,0],"split_type":[0,0,0],"sum_hessian":[3E2,6.7E1,2.33E2],"tree_param":{"num_deleted":"0","num_feature":"10","num_nodes":"3","size_leaf_vector":"1"}},{"base_weights":[-0E0],"categories":[],"categories_nodes":[],"categories_segments":[],"categories_sizes":[],"default_left":[0],"id":113,"left_children":[-1],"loss_changes":[0E0],"parents":[2147483647],"right_children":[-1],"split_conditions":[-0E0],"split_indices":[0],"split_type":[0],"sum_hessian":[2.8E2],"tree_param":{"num_deleted":"0","num_feature":"10","num_nodes":"1","size_leaf_vector":"1"}},{"base_weights":[-0E0,-1.7760096E-4,-0E0,-4.3636315E-5,-0E0],"categories":[],"categories_nodes":[],"categories_segments":[],"categories_sizes":[],"default_left":[0,0,0,0,0],"id":114,"left_children":[1,3,-1,-1,-1],"loss_changes":[7.033889E-6,1.3006333E-4,0E0,0E0,0E0],"parents":[2147483647,0,0,1,1],"right_children":[2,4,-1,-1,-1],"split_conditions":[1.23E1,1.58E1,-0E0,-4.3636315E-5,-0E0],"split_indices":[0,4,0,0,0],"split_type":[0,0,0,0,0],"sum_hessian":[2.96E2,2.21E2,7.5E1,1.78E2,4.3E1],"tree_param":{"num_deleted":"0","num_feature":"10","num_nodes":"5","size_leaf_vector":"1"}},{"base_weights":[-0E0],"categories":[],"categories_nodes":[],"categories_segments":[],"categories_sizes":[],"default_left":[0],"id":115,"left_children":[-1],"loss_changes":[0E0],"parents":[2147483647],"right_children":[-1],"split_conditions":[-0E0],"split_indices":[0],"split_type":[0],"sum_hessian":[3.01E2],"tree_param":{"num_deleted":"0","num_feature":"10","num_nodes":"1","size_leaf_vector":"1"}},{"base_weights":[-0E0],"categories":[],"categories_nodes":[],"categories_segments":[],"categories_sizes":[],"default_left":[0],"id":116,"left_children":[-1],"loss_changes":[0E0],"parents":[2147483647],"right_children":[-1],"split_conditions":[-0E0],"split_indices":[0],"split_type":[0],"sum_hessian":[2.98E2],"tree_param":{"num_deleted":"0","num_feature":"10","num_nodes":"1","size_leaf_vector":"1"}},{"base_weights":[-0E0,-2.6641705E-4,-0E0,-1.7238319E-5,-0E0],"categories":[],"categories_nodes":[],"categories_segments":[],"categories_sizes":[],"default_left":[0,0,0,0,0],"id":117,"left_children":[1,3,-1,-1,-1],"loss_changes":[5.3233534E-6,2.5216605E-6,0E0,0E0,0E0],"parents":[2147483647,0,0,1,1],"right_children":[2,4,-1,-1,-1],"split_conditions":[4.7E0,2.0471281E-1,-0E0,-1.7238319E-5,-0E0],"split_indices":[1,8,0,0,0],"split_type":[0,0,0,0,0],"sum_hessian":[2.99E2,7.3E1,2.26E2,6.4E1,9E0],"tree_param":{"num_deleted":"0","num_feature":"10","num_nodes":"5","size_leaf_vector":"1"}},{"base_weights":[-0E0],"categories":[],"categories_nodes":[],"categories_segments":[],"categories_sizes":[],"default_left":[0],"id":118,"left_children":[-1],"loss_changes":[0E0],"parents":[2147483647],"right_children":[-1],"split_conditions":[-0E0],"split_indices":[0],"split_type":[0],"sum_hessian":[2.81E2],"tree_param":{"num_deleted":"0","num_feature":"10","num_nodes":"1","size_leaf_vector":"1"}},{"base_weights":[-0E0,-2.3972243E-5,-0E0],"categories":[],"categories_nodes":[],"categories_segments":[],"categories_sizes":[],"default_left":[0,0,0],"id":119,"left_children":[1,-1,-1],"loss_changes":[1.9308858E-5,0E0,0E0],"parents":[2147483647,0,0],"right_children":[2,-1,-1],"split_conditions":[5.1E0,-2.3972243E-5,-0E0],"split_indices":[1,0,0],"split_type":[0,0,0],"sum_hessian":[2.96E2,8.2E1,2.14E2],"tree_param":{"num_deleted":"0","num_feature":"10","num_nodes":"3","size_leaf_vector":"1"}},{"base_weights":[-0E0],"categories":[],"categories_nodes":[],"categories_segments":[],"categories_sizes":[],"default_left":[0],"id":120,"left_children":[-1],"loss_changes":[0E0],"parents":[2147483647],"right_children":[-1],"split_conditions":[-0E0],"split_indices":[0],"split_type":[0],"sum_hessian":[2.88E2],"tree_param":{"num_deleted":"0","num_feature":"10","num_nodes":"1","size_leaf_vector":"1"}},{"base_weights":[-0E0,-5.7597053E-6,-0E0],"categories":[],"categories_nodes":[],"categories_segments":[],"categories_sizes":[],"default_left":[0,0,0],"id":121,"left_children":[1,-1,-1],"loss_changes":[1.4596649E-6,0E0,0E0],"parents":[2147483647,0,0],"right_children":[2,-1,-1],"split_conditions":[8E0,-5.7597053E-6,-0E0],"split_indices":[0,0,0],"split_type":[0,0,0],"sum_hessian":[2.9E2,1.08E2,1.82E2],"tree_param":{"num_deleted":"0","num_feature":"10","num_nodes":"3","size_leaf_vector":"1"}},{"base_weights":[-0E0],"categories":[],"categories_nodes":[],"categories_segments":[],"categories_sizes":[],"default_left":[0],"id":122,"left_children":[-1],"loss_changes":[0E0],"parents":[2147483647],"right_children":[-1],"split_conditions":[-0E0],"split_indices":[0],"split_type":[0],"sum_hessian":[3.02E2],"tree_param":{"num_deleted":"0","num_feature":"10","num_nodes":"1","size_leaf_vector":"1"}},{"base_weights":[-0E0],"categories":[],"categories_nodes":[],"categories_segments":[],"categories_sizes":[],"default_left":[0],"id":123,"left_children":[-1],"loss_changes":[0E0],"parents":[2147483647],"right_children":[-1],"split_conditions":[-0E0],"split_indices":[0],"split_type":[0],"sum_hessian":[2.8E2],"tree_param":{"num_deleted":"0","num_feature":"10","num_nodes":"1","size_leaf_vector":"1"}},{"base_weights":[-0E0,-2.0190822E-4,-0E0,-1.2590048E-3,-0E0,-0E0,4.9945497E-4,-1.3141782E-3,-0E0,-0E0,4.3426793E-5,-0E0,-6.85619E-5],"categories":[],"categories_nodes":[],"categories_segments":[],"categories_sizes":[],"default_left":[0,0,0,0,0,0,0,0,0,0,0,0,0],"id":124,"left_children":[1,3,5,7,-1,-1,9,11,-1,-1,-1,-1,-1],"loss_changes":[9.213326E-6,2.840289E-4,1.6214592E-5,1.7629354E-5,0E0,0E0,2.8292325E-5,1.2538949E-5,0E0,0E0,0E0,0E0,0E0],"parents":[2147483647,0,0,1,1,2,2,3,3,6,6,7,7],"right_children":[2,4,6,8,-1,-1,10,12,-1,-1,-1,-1,-1],"split_conditions":[1.23E1,1.64E1,9.03E1,1.3391557E-1,-0E0,-0E0,1.26E1,4.368175E-2,-0E0,-0E0,4.3426793E-5,-0E0,-6.85619E-5],"split_indices":[0,4,2,9,0,0,0,9,0,0,0,0,0],"split_type":[0,0,0,0,0,0,0,0,0,0,0,0,0],"sum_hessian":[3.01E2,2.24E2,7.7E1,1.83E2,4.1E1,1.4E1,6.3E1,1.78E2,5E0,6E0,5.7E1,8E0,1.7E2],"tree_param":{"num_deleted":"0","num_feature":"10","num_nodes":"13","size_leaf_vector":"1"}},{"base_weights":[-0E0,-0E0,6.3366385E-4,-0E0,8.322663E-4,-0E0,9.2857267E-4,-0E0,4.952656E-5],"categories":[],"categories_nodes":[],"categories_segments":[],"categories_sizes":[],"default_left":[0,0,0,0,0,0,0,0,0],"id":125,"left_children":[1,-1,3,-1,5,-1,7,-1,-1],"loss_changes":[8.833657E-5,0E0,5.2967545E-5,0E0,1.993611E-5,0E0,8.499075E-6,0E0,0E0],"parents":[2147483647,0,0,2,2,4,4,6,6],"right_children":[2,-1,4,-1,6,-1,8,-1,-1],"split_conditions":[6.5E0,-0E0,5.162524E-2,-0E0,8.4E0,-0E0,3.68E1,-0E0,4.952656E-5],"split_indices":[0,0,9,0,4,0,3,0,0],"split_type":[0,0,0,0,0,0,0,0,0],"sum_hessian":[2.83E2,6.5E1,2.18E2,1.6E1,2.02E2,1.7E1,1.85E2,1.4E1,1.71E2],"tree_param":{"num_deleted":"0","num_feature":"10","num_nodes":"9","size_leaf_vector":"1"}},{"base_weights":[-0E0],"categories":[],"categories_nodes":[],"categories_segments":[],"categories_sizes":[],"default_left":[0],"id":126,"left_children":[-1],"loss_changes":[0E0],"parents":[2147483647],"right_children":[-1],"split_conditions":[-0E0],"split_indices":[0],"split_type":[0],"sum_hessian":[2.95E2],"tree_param":{"num_deleted":"0","num_feature":"10","num_nodes":"1","size_leaf_vector":"1"}},{"base_weights":[-0E0],"categories":[],"categories_nodes":[],"categories_segments":[],"categories_sizes":[],"default_left":[0],"id":127,"left_children":[-1],"loss_changes":[0E0],"parents":[2147483647],"right_children":[-1],"split_conditions":[-0E0],"split_indices":[0],"split_type":[0],"sum_hessian":[2.99E2],"tree_param":{"num_deleted":"0","num_feature":"10","num_nodes":"1","size_leaf_vector":"1"}},{"base_weights":[-0E0,-0E0,2.015742E-4,-0E0,5.569302E-4,-0E0,6.613694E-4,-0E0,4.2116353E-5],"categories":[],"categories_nodes":[],"categories_segments":[],"categories_sizes":[],"default_left":[0,0,0,0,0,0,0,0,0],"id":128,"left_children":[1,-1,3,-1,5,-1,7,-1,-1],"loss_changes":[9.264132E-6,0E0,4.5326004E-5,0E0,1.8457256E-5,0E0,2.7703725E-5,0E0,0E0],"parents":[2147483647,0,0,2,2,4,4,6,6],"right_children":[2,-1,4,-1,6,-1,8,-1,-1],"split_conditions":[6.3E0,-0E0,1.05E1,-0E0,5.162524E-2,-0E0,3.87E1,-0E0,4.2116353E-5],"split_indices":[0,0,4,0,9,0,3,0,0],"split_type":[0,0,0,0,0,0,0,0,0],"sum_hessian":[2.86E2,6E1,2.26E2,5.2E1,1.74E2,9E0,1.65E2,2.5E1,1.4E2],"tree_param":{"num_deleted":"0","num_feature":"10","num_nodes":"9","size_leaf_vector":"1"}},{"base_weights":[-0E0],"categories":[],"categories_nodes":[],"categories_segments":[],"categories_sizes":[],"default_left":[0],"id":129,"left_children":[-1],"loss_changes":[0E0],"parents":[2147483647],"right_children":[-1],"split_conditions":[-0E0],"split_indices":[0],"split_type":[0],"sum_hessian":[2.83E2],"tree_param":{"num_deleted":"0","num_feature":"10","num_nodes":"1","size_leaf_vector":"1"}},{"base_weights":[-0E0,-3.1791863E-4,-0E0,-6.066202E-4,-0E0,-0E0,-3.5540226E-5],"categories":[],"categories_nodes":[],"categories_segments":[],"categories_sizes":[],"default_left":[0,0,0,0,0,0,0],"id":130,"left_children":[1,3,-1,5,-1,-1,-1],"loss_changes":[2.0416597E-5,3.9197475E-5,0E0,1.2635675E-5,0E0,0E0,0E0],"parents":[2147483647,0,0,1,1,3,3],"right_children":[2,4,-1,6,-1,-1,-1],"split_conditions":[7.8E0,1.58E1,-0E0,2.97E1,-0E0,-0E0,-3.5540226E-5],"split_indices":[1,4,0,5,0,0,0],"split_type":[0,0,0,0,0,0,0],"sum_hessian":[2.93E2,2E2,9.3E1,1.6E2,4E1,1.9E1,1.41E2],"tree_param":{"num_deleted":"0","num_feature":"10","num_nodes":"7","size_leaf_vector":"1"}},{"base_weights":[-0E0],"categories":[],"categories_nodes":[],"categories_segments":[],"categories_sizes":[],"default_left":[0],"id":131,"left_children":[-1],"loss_changes":[0E0],"parents":[2147483647],"right_children":[-1],"split_conditions":[-0E0],"split_indices":[0],"split_type":[0],"sum_hessian":[2.84E2],"tree_param":{"num_deleted":"0","num_feature":"10","num_nodes":"1","size_leaf_vector":"1"}},{"base_weights":[-0E0,-0E0,4.4062268E-4,-6.809134E-4,-0E0,-0E0,1.1150104E-3,-0E0,-1.034392E-3,-0E0,6.273598E-5,-5.675768E-5,-0E0],"categories":[],"categories_nodes":[],"categories_segments":[],"categories_sizes":[],"default_left":[0,0,0,0,0,0,0,0,0,0,0,0,0],"id":132,"left_children":[1,3,5,7,-1,-1,9,-1,11,-1,-1,-1,-1],"loss_changes":[1.5726015E-5,8.438303E-5,7.25446E-5,9.216151E-5,0E0,0E0,1.406025E-5,0E0,2.189583E-5,0E0,0E0,0E0,0E0],"parents":[2147483647,0,0,1,1,2,2,3,3,6,6,8,8],"right_children":[2,4,6,8,-1,-1,10,-1,12,-1,-1,-1,-1],"split_conditions":[1.23E1,1.64E1,4.36E1,2.97E1,-0E0,-0E0,8.1E0,-0E0,3.64E-1,-0E0,6.273598E-5,-5.675768E-5,-0E0],"split_indices":[0,4,3,5,0,0,1,0,6,0,0,0,0],"split_type":[0,0,0,0,0,0,0,0,0,0,0,0,0],"sum_hessian":[2.96E2,2.17E2,7.9E1,1.8E2,3.7E1,1E1,6.9E1,1.7E1,1.63E2,6E0,6.3E1,1.52E2,1.1E1],"tree_param":{"num_deleted":"0","num_feature":"10","num_nodes":"13","size_leaf_vector":"1"}},{"base_weights":[-0E0,-4.505602E-4,-0E0,-2.919313E-5,-0E0],"categories":[],"categories_nodes":[],"categories_segments":[],"categories_sizes":[],"default_left":[0,0,0,0,0],"id":133,"left_children":[1,3,-1,-1,-1],"loss_changes":[3.8367853E-5,2.3334233E-5,0E0,0E0,0E0],"parents":[2147483647,0,0,1,1],"right_children":[2,4,-1,-1,-1],"split_conditions":[7.8E0,-2.2E-1,-0E0,-2.919313E-5,-0E0],"split_indices":[1,7,0,0,0],"split_type":[0,0,0,0,0],"sum_hessian":[2.72E2,1.87E2,8.5E1,1.79E2,8E0],"tree_param":{"num_deleted":"0","num_feature":"10","num_nodes":"5","size_leaf_vector":"1"}},{"base_weights":[-0E0],"categories":[],"categories_nodes":[],"categories_segments":[],"categories_sizes":[],"default_left":[0],"id":134,"left_children":[-1],"loss_changes":[0E0],"parents":[2147483647],"right_children":[-1],"split_conditions":[-0E0],"split_indices":[0],"split_type":[0],"sum_hessian":[2.87E2],"tree_param":{"num_deleted":"0","num_feature":"10","num_nodes":"1","size_leaf_vector":"1"}},{"base_weights":[-0E0],"categories":[],"categories_nodes":[],"categories_segments":[],"categories_sizes":[],"default_left":[0],"id":135,"left_children":[-1],"loss_changes":[0E0],"parents":[2147483647],"right_children":[-1],"split_conditions":[-0E0],"split_indices":[0],"split_type":[0],"sum_hessian":[3E2],"tree_param":{"num_deleted":"0","num_feature":"10","num_nodes":"1","size_leaf_vector":"1"}},{"base_weights":[-0E0],"categories":[],"categories_nodes":[],"categories_segments":[],"categories_sizes":[],"default_left":[0],"id":136,"left_children":[-1],"loss_changes":[0E0],"parents":[2147483647],"right_children":[-1],"split_conditions":[-0E0],"split_indices":[0],"split_type":[0],"sum_hessian":[2.94E2],"tree_param":{"num_deleted":"0","num_feature":"10","num_nodes":"1","size_leaf_vector":"1"}},{"base_weights":[-0E0],"categories":[],"categories_nodes":[],"categories_segments":[],"categories_sizes":[],"default_left":[0],"id":137,"left_children":[-1],"loss_changes":[0E0],"parents":[2147483647],"right_children":[-1],"split_conditions":[-0E0],"split_indices":[0],"split_type":[0],"sum_hessian":[2.99E2],"tree_param":{"num_deleted":"0","num_feature":"10","num_nodes":"1","size_leaf_vector":"1"}},{"base_weights":[-0E0,-0E0,7.21119E-5,-0E0,5.688242E-4,-0E0,7.80567E-4,-0E0,4.3298944E-5],"categories":[],"categories_nodes":[],"categories_segments":[],"categories_sizes":[],"default_left":[0,0,0,0,0,0,0,0,0],"id":138,"left_children":[1,-1,3,-1,5,-1,7,-1,-1],"loss_changes":[1.0192248E-6,0E0,4.492643E-5,0E0,3.7526366E-5,0E0,1.4017496E-5,0E0,0E0],"parents":[2147483647,0,0,2,2,4,4,6,6],"right_children":[2,-1,4,-1,6,-1,8,-1,-1],"split_conditions":[8.91E1,-0E0,1.05E1,-0E0,5.6726094E-2,-0E0,3.98E1,-0E0,4.3298944E-5],"split_indices":[2,0,4,0,9,0,3,0,0],"split_type":[0,0,0,0,0,0,0,0,0],"sum_hessian":[2.88E2,9.4E1,1.94E2,5.4E1,1.4E2,5E0,1.35E2,7E0,1.28E2],"tree_param":{"num_deleted":"0","num_feature":"10","num_nodes":"9","size_leaf_vector":"1"}},{"base_weights":[-0E0],"categories":[],"categories_nodes":[],"categories_segments":[],"categories_sizes":[],"default_left":[0],"id":139,"left_children":[-1],