{"learner":{"attributes":{"scikit_learn":"{\"_estimator_type\": \"regressor\"}"},"feature_names":["xwoba","bb_pct","iso","hard_hit_pct","barrel_pct","k_pct"],"feature_types":["float","float","float","float","float","float"],"gradient_booster":{"model":{"cats":{"enc":[],"feature_segments":[],"sorted_idx":[]},"gbtree_model_param":{"num_parallel_tree":"1","num_trees":"300"},"iteration_indptr":[0,1,2,3,4,5,6,7,8,9,10,11,12,13,14,15,16,17,18,19,20,21,22,23,24,25,26,27,28,29,30,31,32,33,34,35,36,37,38,39,40,41,42,43,44,45,46,47,48,49,50,51,52,53,54,55,56,57,58,59,60,61,62,63,64,65,66,67,68,69,70,71,72,73,74,75,76,77,78,79,80,81,82,83,84,85,86,87,88,89,90,91,92,93,94,95,96,97,98,99,100,101,102,103,104,105,106,107,108,109,110,111,112,113,114,115,116,117,118,119,120,121,122,123,124,125,126,127,128,129,130,131,132,133,134,135,136,137,138,139,140,141,142,143,144,145,146,147,148,149,150,151,152,153,154,155,156,157,158,159,160,161,162,163,164,165,166,167,168,169,170,171,172,173,174,175,176,177,178,179,180,181,182,183,184,185,186,187,188,189,190,191,192,193,194,195,196,197,198,199,200,201,202,203,204,205,206,207,208,209,210,211,212,213,214,215,216,217,218,219,220,221,222,223,224,225,226,227,228,229,230,231,232,233,234,235,236,237,238,239,240,241,242,243,244,245,246,247,248,249,250,251,252,253,254,255,256,257,258,259,260,261,262,263,264,265,266,267,268,269,270,271,272,273,274,275,276,277,278,279,280,281,282,283,284,285,286,287,288,289,290,291,292,293,294,295,296,297,298,299,300],"tree_info":[0,0,0,0,0,0,0,0,0,0,0,0,0,0,0,0,0,0,0,0,0,0,0,0,0,0,0,0,0,0,0,0,0,0,0,0,0,0,0,0,0,0,0,0,0,0,0,0,0,0,0,0,0,0,0,0,0,0,0,0,0,0,0,0,0,0,0,0,0,0,0,0,0,0,0,0,0,0,0,0,0,0,0,0,0,0,0,0,0,0,0,0,0,0,0,0,0,0,0,0,0,0,0,0,0,0,0,0,0,0,0,0,0,0,0,0,0,0,0,0,0,0,0,0,0,0,0,0,0,0,0,0,0,0,0,0,0,0,0,0,0,0,0,0,0,0,0,0,0,0,0,0,0,0,0,0,0,0,0,0,0,0,0,0,0,0,0,0,0,0,0,0,0,0,0,0,0,0,0,0,0,0,0,0,0,0,0,0,0,0,0,0,0,0,0,0,0,0,0,0,0,0,0,0,0,0,0,0,0,0,0,0,0,0,0,0,0,0,0,0,0,0,0,0,0,0,0,0,0,0,0,0,0,0,0,0,0,0,0,0,0,0,0,0,0,0,0,0,0,0,0,0,0,0,0,0,0,0,0,0,0,0,0,0,0,0,0,0,0,0,0,0,0,0,0,0,0,0,0,0,0,0,0,0,0,0,0,0,0,0,0,0,0,0,0,0,0,0,0,0],"trees":[{"base_weights":[-0E0,-1.5182801E-2,4.551524E-2,-3.6580108E-2,-0E0,8.843938E-2,5.480264E-3,-0E0,-4.089802E-2,1.2923968E-2,-8.486563E-3,1.07531086E-1,-0E0,-0E0,1.95344E-3,-0E0,-2.467898E-3,1.2023667E-3,-0E0,-0E0,-8.495445E-4,-0E0,6.144734E-3,-0E0,-4.3550908E-4],"categories":[],"categories_nodes":[],"categories_segments":[],"categories_sizes":[],"default_left":[0,0,0,0,0,0,0,0,0,0,0,0,0,0,0,0,0,0,0,0,0,0,0,0,0],"id":0,"left_children":[1,3,5,7,9,11,13,-1,15,17,19,21,-1,23,-1,-1,-1,-1,-1,-1,-1,-1,-1,-1,-1],"loss_changes":[2.076942E-1,7.0913136E-2,8.4392786E-2,1.4720567E-2,1.396608E-2,2.3480222E-2,2.298034E-2,0E0,2.6977882E-2,1.774808E-2,1.0187041E-2,5.9084E-3,0E0,1.5932125E-3,0E0,0E0,0E0,0E0,0E0,0E0,0E0,0E0,0E0,0E0,0E0],"parents":[2147483647,0,0,1,1,2,2,3,3,4,4,5,5,6,6,8,8,9,9,10,10,11,11,13,13],"right_children":[2,4,6,8,10,12,14,-1,16,18,20,22,-1,24,-1,-1,-1,-1,-1,-1,-1,-1,-1,-1,-1],"split_conditions":[1.23E1,7E0,-2.63E-1,2.3E0,1.9785276E-1,2.447665E-1,1.1094225E-1,-0E0,-2.88E-1,1.2044374E-1,-2.72E-1,1.821366E-1,-0E0,1.33E1,1.95344E-3,-0E0,-2.467898E-3,1.2023667E-3,-0E0,-0E0,-8.495445E-4,-0E0,6.144734E-3,-0E0,-4.3550908E-4],"split_indices":[4,4,2,4,5,5,1,0,2,1,2,5,0,4,0,0,0,0,0,0,0,0,0,0,0],"split_type":[0,0,0,0,0,0,0,0,0,0,0,0,0,0,0,0,0,0,0,0,0,0,0,0,0],"sum_hessian":[2.82E2,2.07E2,7.5E1,8.7E1,1.2E2,2.9E1,4.6E1,9E0,7.8E1,5.1E1,6.9E1,2.1E1,8E0,3.2E1,1.4E1,1.4E1,6.4E1,4.4E1,7E0,1.8E1,5.1E1,5E0,1.6E1,1.3E1,1.9E1],"tree_param":{"num_deleted":"0","num_feature":"6","num_nodes":"25","size_leaf_vector":"1"}},{"base_weights":[-0E0,-1.8553989E-2,4.3531153E-2,-2.2181006E-2,-0E0,-0E0,5.7567712E-2,-2.618675E-2,-0E0,-0E0,6.363867E-2,-1.8327594E-3,-3.1167088E-4,-0E0,1.5716876E-4,1.4224717E-4,4.047518E-3],"categories":[],"categories_nodes":[],"categories_segments":[],"categories_sizes":[],"default_left":[0,0,0,0,0,0,0,0,0,0,0,0,0,0,0,0,0],"id":1,"left_children":[1,3,5,7,-1,-1,9,11,13,-1,15,-1,-1,-1,-1,-1,-1],"loss_changes":[2.247549E-1,2.3546353E-2,4.4874743E-2,2.4871595E-2,0E0,0E0,8.437261E-3,1.3399482E-2,1.1856968E-4,0E0,1.2368724E-2,0E0,0E0,0E0,0E0,0E0,0E0],"parents":[2147483647,0,0,1,1,2,2,3,3,6,6,7,7,8,8,10,10],"right_children":[2,4,6,8,-1,-1,10,12,14,-1,16,-1,-1,-1,-1,-1,-1],"split_conditions":[4.74E1,3.62E-1,3.45E-1,-2.31E-1,-0E0,-0E0,1.6451016E-1,1.9941776E-1,3.22E-1,-0E0,4.93E1,-1.8327594E-3,-3.1167088E-4,-0E0,1.5716876E-4,1.4224717E-4,4.047518E-3],"split_indices":[3,0,0,2,0,0,5,5,0,0,3,0,0,0,0,0,0],"split_type":[0,0,0,0,0,0,0,0,0,0,0,0,0,0,0,0,0],"sum_hessian":[2.75E2,1.94E2,8.1E1,1.83E2,1.1E1,2.2E1,5.9E1,1.67E2,1.6E1,9E0,5E1,9.2E1,7.5E1,6E0,1E1,1.8E1,3.2E1],"tree_param":{"num_deleted":"0","num_feature":"6","num_nodes":"17","size_leaf_vector":"1"}},{"base_weights":[-0E0,-1.4242992E-2,3.4725733E-2,-0E0,-2.4151532E-2,7.890728E-3,4.5454553E-3,-1.1063325E-2,1.38153555E-2,-3.6621906E-2,-0E0,4.1726366E-2,-2.7986781E-3,-9.2770177E-4,-0E0,-0E0,1.3033262E-3,-0E0,-2.0425909E-3,3.9144745E-4,-5.815956E-4,2.6653134E-3,-0E0,-3.511562E-4,-0E0],"categories":[],"categories_nodes":[],"categories_segments":[],"categories_sizes":[],"default_left":[0,0,0,0,0,0,0,0,0,0,0,0,0,0,0,0,0,0,0,0,0,0,0,0,0],"id":2,"left_children":[1,3,5,7,9,11,-1,13,15,17,19,21,23,-1,-1,-1,-1,-1,-1,-1,-1,-1,-1,-1,-1],"loss_changes":[1.3300803E-1,3.3962406E-2,6.676452E-2,1.1634274E-2,2.6334077E-2,4.176006E-2,0E0,4.49068E-3,1.08178295E-2,1.2568213E-2,6.1834236E-3,8.72127E-3,1.2392462E-3,0E0,0E0,0E0,0E0,0E0,0E0,0E0,0E0,0E0,0E0,0E0,0E0],"parents":[2147483647,0,0,1,1,2,2,3,3,4,4,5,5,7,7,8,8,9,9,10,10,11,11,12,12],"right_children":[2,4,6,8,10,12,-1,14,16,18,20,22,24,-1,-1,-1,-1,-1,-1,-1,-1,-1,-1,-1,-1],"split_conditions":[1.23E1,-2.72E-1,1.1821705E-1,6.9E0,8.3E0,2.447665E-1,4.5454553E-3,8.301887E-2,1.7297298E-1,2.6E0,1.8867925E-1,-2.63E-1,1.63E1,-9.2770177E-4,-0E0,-0E0,1.3033262E-3,-0E0,-2.0425909E-3,3.9144745E-4,-5.815956E-4,2.6653134E-3,-0E0,-3.511562E-4,-0E0],"split_indices":[4,2,1,4,4,5,0,1,5,4,5,2,4,0,0,0,0,0,0,0,0,0,0,0,0],"split_type":[0,0,0,0,0,0,0,0,0,0,0,0,0,0,0,0,0,0,0,0,0,0,0,0,0],"sum_hessian":[2.66E2,1.9E2,7.6E1,6.7E1,1.23E2,5.9E1,1.7E1,2.6E1,4.1E1,7.2E1,5.1E1,2.4E1,3.5E1,2.1E1,5E0,1.5E1,2.6E1,7E0,6.5E1,1.5E1,3.6E1,1.7E1,7E0,2.9E1,6E0],"tree_param":{"num_deleted":"0","num_feature":"6","num_nodes":"25","size_leaf_vector":"1"}},{"base_weights":[9.755096E-4,-1.9328699E-2,3.9786782E-2,-2.617725E-3,-4.1974895E-3,-0E0,5.2064598E-2,2.2584978E-3,-1.0908467E-2,-0E0,5.545862E-2,5.044467E-4,-0E0,-8.0445374E-4,-0E0,-0E0,3.0678478E-3],"categories":[],"categories_nodes":[],"categories_segments":[],"categories_sizes":[],"default_left":[0,0,0,0,0,0,0,0,0,0,0,0,0,0,0,0,0],"id":3,"left_children":[1,3,5,-1,7,-1,9,11,13,-1,15,-1,-1,-1,-1,-1,-1],"loss_changes":[2.3635624E-1,6.123414E-2,5.5610225E-2,0E0,1.0266593E-2,0E0,1.4911428E-2,2.579911E-3,9.767373E-3,0E0,1.2331918E-2,0E0,0E0,0E0,0E0,0E0,0E0],"parents":[2147483647,0,0,1,1,2,2,4,4,6,6,7,7,8,8,10,10],"right_children":[2,4,6,-1,8,-1,10,12,14,-1,16,-1,-1,-1,-1,-1,-1],"split_conditions":[3.45E-1,5.8E0,9.7E0,-2.617725E-3,-2.73E-1,-0E0,3.46E-1,3.41E-1,1.22E1,-0E0,4.49E1,5.044467E-4,-0E0,-8.0445374E-4,-0E0,-0E0,3.0678478E-3],"split_indices":[0,4,4,0,2,0,0,0,4,0,3,0,0,0,0,0,0],"split_type":[0,0,0,0,0,0,0,0,0,0,0,0,0,0,0,0,0],"sum_hessian":[2.83E2,1.78E2,1.05E2,4.4E1,1.34E2,2.4E1,8.1E1,3.1E1,1.03E2,5E0,7.6E1,2.5E1,6E0,8.4E1,1.9E1,1.1E1,6.5E1],"tree_param":{"num_deleted":"0","num_feature":"6","num_nodes":"17","size_leaf_vector":"1"}},{"base_weights":[-0E0,-1.5836693E-2,5.2566316E-2,-3.8106E-2,-1.3865075E-3,-0E0,6.534434E-2,-0E0,-4.3554947E-2,6.946826E-3,-9.179077E-3,-0E0,3.971311E-3,-2.3132798E-3,-0E0,1.6026556E-3,-0E0,-1.2687768E-3,-0E0],"categories":[],"categories_nodes":[],"categories_segments":[],"categories_sizes":[],"default_left":[0,0,0,0,0,0,0,0,0,0,0,0,0,0,0,0,0,0,0],"id":4,"left_children":[1,3,5,7,9,-1,11,-1,13,15,17,-1,-1,-1,-1,-1,-1,-1,-1],"loss_changes":[2.2699286E-1,5.5126455E-2,3.6398113E-2,1.1942968E-2,1.1438934E-2,0E0,2.8460994E-2,0E0,3.2261014E-3,1.935556E-2,2.3962859E-2,0E0,0E0,0E0,0E0,0E0,0E0,0E0,0E0],"parents":[2147483647,0,0,1,1,2,2,3,3,4,4,6,6,8,8,9,9,10,10],"right_children":[2,4,6,8,10,-1,12,-1,14,16,18,-1,-1,-1,-1,-1,-1,-1,-1],"split_conditions":[3.6E-1,6.8E0,4.74E1,2.3E0,-2.68E-1,-0E0,1.23E1,-0E0,4.21E1,4.51E1,-2.48E-1,-0E0,3.971311E-3,-2.3132798E-3,-0E0,1.6026556E-3,-0E0,-1.2687768E-3,-0E0],"split_indices":[0,4,3,4,2,0,4,0,3,3,2,0,0,0,0,0,0,0,0],"split_type":[0,0,0,0,0,0,0,0,0,0,0,0,0,0,0,0,0,0,0],"sum_hessian":[2.9E2,2.31E2,5.9E1,7.6E1,1.55E2,1.3E1,4.6E1,1.2E1,6.4E1,4.4E1,1.11E2,1.1E1,3.5E1,5.8E1,6E0,1.9E1,2.5E1,5E1,6.1E1],"tree_param":{"num_deleted":"0","num_feature":"6","num_nodes":"19","size_leaf_vector":"1"}},{"base_weights":[-0E0,-1.2647182E-2,5.9013475E-2,-2.6255887E-2,-0E0,-0E0,3.7411698E-3,-2.9187987E-2,-0E0,9.260317E-4,-1.202728E-3,-0E0,-1.6600052E-3,-7.1314897E-4,2.5924703E-4],"categories":[],"categories_nodes":[],"categories_segments":[],"categories_sizes":[],"default_left":[0,0,0,0,0,0,0,0,0,0,0,0,0,0,0],"id":5,"left_children":[1,3,5,7,9,-1,-1,11,-1,-1,13,-1,-1,-1,-1],"loss_changes":[2.00027E-1,4.496485E-2,3.574978E-2,1.5736043E-2,4.2868597E-3,0E0,0E0,1.410494E-2,0E0,0E0,1.4531022E-2,0E0,0E0,0E0,0E0],"parents":[2147483647,0,0,1,1,2,2,3,3,4,4,7,7,10,10],"right_children":[2,4,6,8,10,-1,-1,12,-1,-1,14,-1,-1,-1,-1],"split_conditions":[3.68E-1,8.3E0,1.13E1,3.55E-1,8.8E0,-0E0,3.7411698E-3,2.7E0,-0E0,9.260317E-4,3.45E-1,-0E0,-1.6600052E-3,-7.1314897E-4,2.5924703E-4],"split_indices":[0,4,4,0,4,0,0,4,0,0,0,0,0,0,0],"split_type":[0,0,0,0,0,0,0,0,0,0,0,0,0,0,0],"sum_hessian":[2.91E2,2.47E2,4.4E1,1.21E2,1.26E2,1.1E1,3.3E1,1.16E2,5E0,1E1,1.16E2,1.4E1,1.02E2,6.3E1,5.3E1],"tree_param":{"num_deleted":"0","num_feature":"6","num_nodes":"15","size_leaf_vector":"1"}},{"base_weights":[2.1024584E-3,-3.201655E-2,1.9882096E-2,-3.8686115E-2,-0E0,-9.699686E-4,3.703583E-2,-0E0,-4.2586867E-2,5.8652014E-3,-1.34625E-2,2.1257585E-2,4.727651E-3,-0E0,-2.2625697E-3,-0E0,1.0686831E-3,-0E0,-1.7078718E-3,2.1037029E-3,-0E0],"categories":[],"categories_nodes":[],"categories_segments":[],"categories_sizes":[],"default_left":[0,0,0,0,0,0,0,0,0,0,0,0,0,0,0,0,0,0,0,0,0],"id":6,"left_children":[1,3,5,7,-1,9,11,-1,13,15,17,19,-1,-1,-1,-1,-1,-1,-1,-1,-1],"loss_changes":[1.6142076E-1,2.6612714E-2,8.6423695E-2,7.771194E-3,0E0,1.0360713E-2,4.5162156E-2,0E0,1.3473779E-3,5.5700536E-3,3.0063171E-2,4.0648814E-2,0E0,0E0,0E0,0E0,0E0,0E0,0E0,0E0,0E0],"parents":[2147483647,0,0,1,1,2,2,3,3,5,5,6,6,8,8,9,9,10,10,11,11],"right_children":[2,4,6,8,-1,10,12,-1,14,16,18,20,-1,-1,-1,-1,-1,-1,-1,-1,-1],"split_conditions":[7E0,4.18E1,8.5346214E-2,2.3E0,-0E0,4.25E1,5.4E1,-0E0,5.244123E-2,5.2837573E-2,-2.72E-1,1.05E1,4.727651E-3,-0E0,-2.2625697E-3,-0E0,1.0686831E-3,-0E0,-1.7078718E-3,2.1037029E-3,-0E0],"split_indices":[4,3,1,4,0,3,3,0,1,1,2,4,0,0,0,0,0,0,0,0,0],"split_type":[0,0,0,0,0,0,0,0,0,0,0,0,0,0,0,0,0,0,0,0,0],"sum_hessian":[2.72E2,8.3E1,1.89E2,7.4E1,9E0,7.3E1,1.16E2,9E0,6.5E1,2.2E1,5.1E1,1E2,1.6E1,7E0,5.8E1,1E1,1.2E1,1.9E1,3.2E1,4.7E1,5.3E1],"tree_param":{"num_deleted":"0","num_feature":"6","num_nodes":"21","size_leaf_vector":"1"}},{"base_weights":[5.1165526E-3,-1.1510212E-2,4.854352E-2,-1.8605163E-2,-0E0,-0E0,3.2020786E-3,-2.3283014E-2,-0E0,1.0686864E-2,-1.6997443E-4,3.9893226E-3,-0E0,-0E0,-1.6137952E-3,-0E0,1.3413824E-3,-0E0,7.0698716E-4],"categories":[],"categories_nodes":[],"categories_segments":[],"categories_sizes":[],"default_left":[0,0,0,0,0,0,0,0,0,0,0,0,0,0,0,0,0,0,0],"id":7,"left_children":[1,3,5,7,9,11,-1,13,-1,15,-1,17,-1,-1,-1,-1,-1,-1,-1],"loss_changes":[2.2902864E-1,2.5028361E-2,4.4555888E-2,1.6923726E-2,5.3807385E-3,3.501233E-4,0E0,1.5533917E-2,0E0,1.4898615E-2,0E0,2.2489973E-3,0E0,0E0,0E0,0E0,0E0,0E0,0E0],"parents":[2147483647,0,0,1,1,2,2,3,3,4,4,5,5,7,7,9,9,11,11],"right_children":[2,4,6,8,10,12,-1,14,-1,16,-1,18,-1,-1,-1,-1,-1,-1,-1],"split_conditions":[4.74E1,3.41E-1,3.45E-1,2.5862068E-1,4.67E1,-2.45E-1,3.2020786E-3,-2.65E-1,-0E0,1.5969582E-1,-1.6997443E-4,2.2635135E-1,-0E0,-0E0,-1.6137952E-3,-0E0,1.3413824E-3,-0E0,7.0698716E-4],"split_indices":[3,0,0,5,3,2,0,2,0,5,0,5,0,0,0,0,0,0,0],"split_type":[0,0,0,0,0,0,0,0,0,0,0,0,0,0,0,0,0,0,0],"sum_hessian":[2.88E2,2.01E2,8.7E1,1.48E2,5.3E1,2.7E1,6E1,1.25E2,2.3E1,4.4E1,9E0,2E1,7E0,4.6E1,7.9E1,1.8E1,2.6E1,9E0,1.1E1],"tree_param":{"num_deleted":"0","num_feature":"6","num_nodes":"19","size_leaf_vector":"1"}},{"base_weights":[7.090783E-4,-6.5508913E-3,5.965919E-2,-2.5799818E-2,-0E0,-0E0,3.264412E-3,-3.037207E-2,-0E0,-0E0,2.4197318E-2,-2.0569454E-4,-3.0087538E-3,-5.0570356E-4,-0E0,-0E0,2.031518E-3],"categories":[],"categories_nodes":[],"categories_segments":[],"categories_sizes":[],"default_left":[0,0,0,0,0,0,0,0,0,0,0,0,0,0,0,0,0],"id":8,"left_children":[1,3,5,7,9,-1,-1,11,-1,13,15,-1,-1,-1,-1,-1,-1],"loss_changes":[1.4930896E-1,4.393899E-2,6.117314E-3,1.6447913E-2,1.1124694E-2,0E0,0E0,2.7618505E-2,0E0,4.296366E-3,8.685215E-3,0E0,0E0,0E0,0E0,0E0,0E0],"parents":[2147483647,0,0,1,1,2,2,3,3,4,4,7,7,9,9,10,10],"right_children":[2,4,6,8,10,-1,-1,12,-1,14,16,-1,-1,-1,-1,-1,-1],"split_conditions":[3.68E-1,7E0,-3.22E-1,3.48E-1,5.06E1,-0E0,3.264412E-3,3.24E-1,-0E0,3.25E-1,-2.67E-1,-2.0569454E-4,-3.0087538E-3,-5.0570356E-4,-0E0,-0E0,2.031518E-3],"split_indices":[0,4,2,0,3,0,0,0,0,0,2,0,0,0,0,0,0],"split_type":[0,0,0,0,0,0,0,0,0,0,0,0,0,0,0,0,0],"sum_hessian":[2.83E2,2.46E2,3.7E1,8E1,1.66E2,5E0,3.2E1,7.5E1,5E0,1.49E2,1.7E1,5E1,2.5E1,4E1,1.09E2,7E0,1E1],"tree_param":{"num_deleted":"0","num_feature":"6","num_nodes":"17","size_leaf_vector":"1"}},{"base_weights":[-0E0,-1.113123E-2,5.0120287E-2,-2.0807905E-2,2.2504032E-3,-0E0,3.1693657E-3,-2.3827551E-2,-0E0,-1.3390367E-3,1.8406795E-2,-0E0,-1.2436099E-3,3.9530694E-4,-8.962783E-4,1.7304523E-3,-0E0],"categories":[],"categories_nodes":[],"categories_segments":[],"categories_sizes":[],"default_left":[0,0,0,0,0,0,0,0,0,0,0,0,0,0,0,0,0],"id":9,"left_children":[1,3,5,7,9,-1,-1,11,-1,13,15,-1,-1,-1,-1,-1,-1],"loss_changes":[1.676516E-1,4.0190957E-2,4.6663404E-2,1.2481287E-2,1.3222565E-2,0E0,0E0,4.232727E-3,0E0,1.1733663E-2,1.6392246E-2,0E0,0E0,0E0,0E0,0E0,0E0],"parents":[2147483647,0,0,1,1,2,2,3,3,4,4,7,7,9,9,10,10],"right_children":[2,4,6,8,10,-1,-1,12,-1,14,16,-1,-1,-1,-1,-1,-1],"split_conditions":[3.6E-1,4.44E1,4.49E1,3.45E-1,2.413793E-1,-0E0,3.1693657E-3,2.37E1,-0E0,4.51E1,2.735043E-1,-0E0,-1.2436099E-3,3.9530694E-4,-8.962783E-4,1.7304523E-3,-0E0],"split_indices":[0,3,3,0,5,0,0,3,0,3,5,0,0,0,0,0,0],"split_type":[0,0,0,0,0,0,0,0,0,0,0,0,0,0,0,0,0],"sum_hessian":[2.89E2,2.36E2,5.3E1,1.58E2,7.8E1,9E0,4.4E1,1.42E2,1.6E1,4E1,3.8E1,5E0,1.37E2,7E0,3.3E1,2.3E1,1.5E1],"tree_param":{"num_deleted":"0","num_feature":"6","num_nodes":"17","size_leaf_vector":"1"}},{"base_weights":[9.962466E-5,-2.5138093E-2,1.7566225E-2,-0E0,-3.255426E-2,-0E0,3.1866264E-2,-5.8895834E-3,1.6071078E-4,-0E0,-1.828773E-3,3.324923E-3,-1.1049826E-2,1.7904434E-2,4.7658044E-3,-5.877909E-4,-0E0,-0E0,4.5087407E-4,-1.0127461E-3,-0E0,1.8073438E-3,-0E0],"categories":[],"categories_nodes":[],"categories_segments":[],"categories_sizes":[],"default_left":[0,0,0,0,0,0,0,0,0,0,0,0,0,0,0,0,0,0,0,0,0,0,0],"id":10,"left_children":[1,3,5,7,9,11,13,15,-1,-1,-1,17,19,21,-1,-1,-1,-1,-1,-1,-1,-1,-1],"loss_changes":[1.2846075E-1,1.7818183E-2,5.947305E-2,8.42074E-4,1.37083605E-2,5.7371594E-3,4.2738132E-2,1.4827573E-3,0E0,0E0,0E0,1.9120004E-3,4.8842058E-3,2.2844508E-2,0E0,0E0,0E0,0E0,0E0,0E0,0E0,0E0,0E0],"parents":[2147483647,0,0,1,1,2,2,3,3,4,4,5,5,6,6,7,7,11,11,12,12,13,13],"right_children":[2,4,6,8,10,12,14,16,-1,-1,-1,18,20,22,-1,-1,-1,-1,-1,-1,-1,-1,-1],"split_conditions":[7.8E0,-2.8E-1,8.5346214E-2,8.301887E-2,2.6E0,-2.63E-1,5.42E1,-2.85E-1,1.6071078E-4,-0E0,-1.828773E-3,8.3E0,1.12E1,1.0050251E-1,4.7658044E-3,-5.877909E-4,-0E0,-0E0,4.5087407E-4,-1.0127461E-3,-0E0,1.8073438E-3,-0E0],"split_indices":[4,2,1,1,4,2,3,2,0,0,0,4,4,1,0,0,0,0,0,0,0,0,0],"split_type":[0,0,0,0,0,0,0,0,0,0,0,0,0,0,0,0,0,0,0,0,0,0,0],"sum_hessian":[2.96E2,1.09E2,1.87E2,2.8E1,8.1E1,7.3E1,1.14E2,1.9E1,9E0,7E0,7.4E1,3.1E1,4.2E1,1.02E2,1.2E1,1.4E1,5E0,5E0,2.6E1,2.3E1,1.9E1,4.1E1,6.1E1],"tree_param":{"num_deleted":"0","num_feature":"6","num_nodes":"23","size_leaf_vector":"1"}},{"base_weights":[-0E0,-1.675555E-2,2.8649738E-2,-2.1302935E-2,-0E0,-0E0,4.0486135E-2,-2.4482418E-2,-0E0,-0E0,5.850529E-3,-1.2332787E-2,-0E0,-0E0,4.7825865E-2,-0E0,-1.3226959E-3,8.663957E-4,-0E0,-0E0,-1.3207623E-3,5.211866E-4,3.3304386E-3],"categories":[],"categories_nodes":[],"categories_segments":[],"categories_sizes":[],"default_left":[0,0,0,0,0,0,0,0,0,0,0,0,0,0,0,0,0,0,0,0,0,0,0],"id":11,"left_children":[1,3,5,7,9,11,13,15,-1,-1,17,19,-1,-1,21,-1,-1,-1,-1,-1,-1,-1,-1],"loss_changes":[1.2823068E-1,1.9179724E-2,4.1679576E-2,1.2682572E-2,7.8725984E-4,2.5856595E-3,2.9019095E-2,3.260523E-3,0E0,0E0,4.6173595E-3,5.7875235E-3,0E0,0E0,5.758971E-3,0E0,0E0,0E0,0E0,0E0,0E0,0E0,0E0],"parents":[2147483647,0,0,1,1,2,2,3,3,4,4,5,5,6,6,7,7,10,10,11,11,14,14],"right_children":[2,4,6,8,10,12,14,16,-1,-1,18,20,-1,-1,22,-1,-1,-1,-1,-1,-1,-1,-1],"split_conditions":[3.46E-1,4.66E1,8.5346214E-2,-2.31E-1,3.23E-1,3.62E-1,4.13E1,3.01E-1,-0E0,-0E0,3.43E-1,3.54E-1,-0E0,-0E0,1.0923077E-1,-0E0,-1.3226959E-3,8.663957E-4,-0E0,-0E0,-1.3207623E-3,5.211866E-4,3.3304386E-3],"split_indices":[0,3,1,2,0,0,3,0,0,0,0,0,0,0,1,0,0,0,0,0,0,0,0],"split_type":[0,0,0,0,0,0,0,0,0,0,0,0,0,0,0,0,0,0,0,0,0,0,0],"sum_hessian":[2.7E2,1.77E2,9.3E1,1.51E2,2.6E1,2.2E1,7.1E1,1.35E2,1.6E1,5E0,2.1E1,1.5E1,7E0,8E0,6.3E1,1.5E1,1.2E2,1.6E1,5E0,5E0,1E1,3.1E1,3.2E1],"tree_param":{"num_deleted":"0","num_feature":"6","num_nodes":"23","size_leaf_vector":"1"}},{"base_weights":[2.1673997E-4,-1.5605419E-2,3.1648185E-2,-2.0146064E-2,-0E0,-0E0,4.248519E-2,-2.1586027E-3,-6.273564E-3,1.8719817E-2,-1.3320051E-2,-0E0,-7.1758786E-3,2.6311515E-2,4.606375E-3,3.5657922E-5,-9.1055845E-4,1.2315005E-3,-0E0,-0E0,-1.0623983E-3,-1.7692855E-3,-0E0,-0E0,1.7555408E-3],"categories":[],"categories_nodes":[],"categories_segments":[],"categories_sizes":[],"default_left":[0,0,0,0,0,0,0,0,0,0,0,0,0,0,0,0,0,0,0,0,0,0,0,0,0],"id":12,"left_children":[1,3,5,7,9,11,13,-1,15,17,19,-1,21,23,-1,-1,-1,-1,-1,-1,-1,-1,-1,-1,-1],"loss_changes":[1.4974882E-1,1.5664425E-2,4.3643877E-2,2.1371998E-2,1.0024834E-2,9.783715E-4,2.5730282E-3,0E0,1.7699286E-2,1.4842935E-3,2.4015084E-3,0E0,1.5299559E-2,3.3290725E-2,0E0,0E0,0E0,0E0,0E0,0E0,0E0,0E0,0E0,0E0,0E0],"parents":[2147483647,0,0,1,1,2,2,3,3,4,4,5,5,6,6,8,8,9,9,10,10,12,12,13,13],"right_children":[2,4,6,8,10,12,14,-1,16,18,20,-1,22,24,-1,-1,-1,-1,-1,-1,-1,-1,-1,-1,-1],"split_conditions":[3.45E-1,2.5862068E-1,8.5346214E-2,6.478405E-2,9.039548E-2,3.52E-1,4.06E-1,-2.1586027E-3,-2.65E-1,2.7306274E-1,-2.42E-1,-0E0,3.62E-1,-2.97E-1,4.606375E-3,3.5657922E-5,-9.1055845E-4,1.2315005E-3,-0E0,-0E0,-1.0623983E-3,-1.7692855E-3,-0E0,-0E0,1.7555408E-3],"split_indices":[0,5,1,1,1,0,0,0,2,5,2,0,0,2,0,0,0,0,0,0,0,0,0,0,0],"split_type":[0,0,0,0,0,0,0,0,0,0,0,0,0,0,0,0,0,0,0,0,0,0,0,0,0],"sum_hessian":[2.81E2,1.77E2,1.04E2,1.44E2,3.3E1,2.3E1,8.1E1,3.9E1,1.05E2,1.8E1,1.5E1,6E0,1.7E1,7.1E1,1E1,4.1E1,6.4E1,1.2E1,6E0,5E0,1E1,1.1E1,6E0,5E0,6.6E1],"tree_param":{"num_deleted":"0","num_feature":"6","num_nodes":"25","size_leaf_vector":"1"}},{"base_weights":[5.78573E-4,-1.1603862E-2,2.5282219E-2,-1.8973107E-2,-0E0,1.2936893E-2,3.4423121E-3,-2.3059174E-2,-0E0,2.0769354E-2,-6.8784286E-3,4.0163916E-2,-0E0,-9.8999066E-5,-1.7661959E-3,-0E0,-6.726841E-5,1.2939775E-3,-0E0,-6.247795E-4,-0E0,-0E0,2.631809E-3,4.0613883E-4,-5.3257437E-4],"categories":[],"categories_nodes":[],"categories_segments":[],"categories_sizes":[],"default_left":[0,0,0,0,0,0,0,0,0,0,0,0,0,0,0,0,0,0,0,0,0,0,0,0,0],"id":13,"left_children":[1,3,5,7,9,11,-1,13,15,17,19,21,23,-1,-1,-1,-1,-1,-1,-1,-1,-1,-1,-1,-1],"loss_changes":[9.109019E-2,2.4088163E-2,1.4335193E-2,7.2505325E-3,1.3313933E-2,2.6209503E-2,0E0,7.836856E-3,2.7150236E-5,3.564408E-3,1.06936E-3,5.158007E-3,5.794967E-3,0E0,0E0,0E0,0E0,0E0,0E0,0E0,0E0,0E0,0E0,0E0,0E0],"parents":[2147483647,0,0,1,1,2,2,3,3,4,4,5,5,7,7,8,8,9,9,10,10,11,11,12,12],"right_children":[2,4,6,8,10,12,-1,14,16,18,20,22,24,-1,-1,-1,-1,-1,-1,-1,-1,-1,-1,-1,-1],"split_conditions":[3.45E-1,2.3639774E-1,4.06E-1,-2.48E-1,-2.44E-1,3.52E-1,3.4423121E-3,-2.66E-1,-2.39E-1,4.87E1,-2.21E-1,4.34E1,5E1,-9.8999066E-5,-1.7661959E-3,-0E0,-6.726841E-5,1.2939775E-3,-0E0,-6.247795E-4,-0E0,-0E0,2.631809E-3,4.0613883E-4,-5.3257437E-4],"split_indices":[0,5,0,2,2,0,0,2,2,3,2,3,3,0,0,0,0,0,0,0,0,0,0,0,0],"split_type":[0,0,0,0,0,0,0,0,0,0,0,0,0,0,0,0,0,0,0,0,0,0,0,0,0],"sum_hessian":[2.76E2,1.72E2,1.04E2,1.3E2,4.2E1,9.2E1,1.2E1,1.01E2,2.9E1,2.7E1,1.5E1,2.4E1,6.8E1,5.3E1,4.8E1,1.6E1,1.3E1,2.2E1,5E0,1E1,5E0,9E0,1.5E1,4.8E1,2E1],"tree_param":{"num_deleted":"0","num_feature":"6","num_nodes":"25","size_leaf_vector":"1"}},{"base_weights":[2.5543598E-3,-6.148405E-3,4.265581E-2,-2.3948168E-2,6.8574015E-4,-0E0,5.008636E-2,-0E0,-2.1866325E-3,1.2257128E-2,-0E0,5.820838E-2,-0E0,-6.90242E-4,8.099377E-5,1.111856E-3,-0E0,-2.1165707E-4,-0E0,-0E0,3.411086E-3],"categories":[],"categories_nodes":[],"categories_segments":[],"categories_sizes":[],"default_left":[0,0,0,0,0,0,0,0,0,0,0,0,0,0,0,0,0,0,0,0,0],"id":14,"left_children":[1,3,5,7,9,-1,11,13,-1,15,17,19,-1,-1,-1,-1,-1,-1,-1,-1,-1],"loss_changes":[1.1370447E-1,3.781798E-2,1.8080592E-2,1.7232787E-2,6.0953023E-3,0E0,1.0096446E-2,6.9000092E-3,0E0,6.6970005E-3,1.361881E-3,1.8060073E-2,0E0,0E0,0E0,0E0,0E0,0E0,0E0,0E0,0E0],"parents":[2147483647,0,0,1,1,2,2,3,3,4,4,6,6,7,7,9,9,10,10,11,11],"right_children":[2,4,6,8,10,-1,12,14,-1,16,18,20,-1,-1,-1,-1,-1,-1,-1,-1,-1],"split_conditions":[3.58E-1,6.9E0,4.49E1,3.22E-1,-2.68E-1,-0E0,-2.54E-1,5.7E0,-2.1866325E-3,3.43E-1,-2.34E-1,1.13E1,-0E0,-6.90242E-4,8.099377E-5,1.111856E-3,-0E0,-2.1165707E-4,-0E0,-0E0,3.411086E-3],"split_indices":[0,4,3,0,2,0,2,4,0,0,2,4,0,0,0,0,0,0,0,0,0],"split_type":[0,0,0,0,0,0,0,0,0,0,0,0,0,0,0,0,0,0,0,0,0],"sum_hessian":[2.7E2,2.13E2,5.7E1,7.8E1,1.35E2,9E0,4.8E1,4.7E1,3.1E1,3.9E1,9.6E1,3.8E1,1E1,3.4E1,1.3E1,2.4E1,1.5E1,7.4E1,2.2E1,7E0,3.1E1],"tree_param":{"num_deleted":"0","num_feature":"6","num_nodes":"21","size_leaf_vector":"1"}},{"base_weights":[-0E0,-1.19750155E-2,3.0067218E-2,-0E0,-1.8249763E-2,3.2196067E-2,-0E0,-1.5740187E-3,3.0772635E-3,-2.3569912E-2,-0E0,2.0939403E-3,-0E0,-0E0,-8.164439E-4,1.1287391E-3,-0E0,-1.3393924E-3,-0E0,4.7720992E-4,-0E0,-0E0,6.354973E-5],"categories":[],"categories_nodes":[],"categories_segments":[],"categories_sizes":[],"default_left":[0,0,0,0,0,0,0,0,0,0,0,0,0,0,0,0,0,0,0,0,0,0,0],"id":15,"left_children":[1,3,5,7,9,11,-1,13,15,17,19,-1,21,-1,-1,-1,-1,-1,-1,-1,-1,-1,-1],"loss_changes":[9.87213E-2,1.618492E-2,5.0233454E-3,4.2062555E-4,1.8591862E-2,9.549797E-3,0E0,4.976821E-3,9.860981E-3,1.4329985E-2,1.1841924E-3,0E0,1.2923417E-5,0E0,0E0,0E0,0E0,0E0,0E0,0E0,0E0,0E0,0E0],"parents":[2147483647,0,0,1,1,2,2,3,3,4,4,5,5,7,7,8,8,9,9,10,10,12,12],"right_children":[2,4,6,8,10,12,-1,14,16,18,20,-1,22,-1,-1,-1,-1,-1,-1,-1,-1,-1,-1],"split_conditions":[4.74E1,-2.66E-1,-2.37E-1,1.627543E-1,2.6149425E-1,2.447665E-1,-0E0,1.2423313E-1,1.9785276E-1,-2.2E-1,2.757079E-1,2.0939403E-3,5.38E1,-0E0,-8.164439E-4,1.1287391E-3,-0E0,-1.3393924E-3,-0E0,4.7720992E-4,-0E0,-0E0,6.354973E-5],"split_indices":[3,2,2,5,5,5,0,5,5,2,5,0,3,0,0,0,0,0,0,0,0,0,0],"split_type":[0,0,0,0,0,0,0,0,0,0,0,0,0,0,0,0,0,0,0,0,0,0,0],"sum_hessian":[2.76E2,2.01E2,7.5E1,6.7E1,1.34E2,7E1,5E0,3.4E1,3.3E1,1.13E2,2.1E1,4.6E1,2.4E1,1.7E1,1.7E1,1.8E1,1.5E1,1.07E2,6E0,1.1E1,1E1,1.8E1,6E0],"tree_param":{"num_deleted":"0","num_feature":"6","num_nodes":"23","size_leaf_vector":"1"}},{"base_weights":[-6.023325E-4,-1.3109394E-2,2.8006483E-2,-2.0736521E-2,-0E0,2.275707E-3,-0E0,-0E0,-2.8760582E-2,-0E0,1.38567E-2,-0E0,1.2866132E-3,-5.9126814E-6,3.4000428E-4,-1.6077018E-3,-0E0,-3.9684048E-4,-0E0,2.6024773E-3,-0E0,-0E0,-6.259374E-4],"categories":[],"categories_nodes":[],"categories_segments":[],"categories_sizes":[],"default_left":[0,0,0,0,0,0,0,0,0,0,0,0,0,0,0,0,0,0,0,0,0,0,0],"id":16,"left_children":[1,3,5,7,9,-1,11,13,15,17,19,21,-1,-1,-1,-1,-1,-1,-1,-1,-1,-1,-1],"loss_changes":[8.917943E-2,3.0129243E-2,1.5526835E-2,2.9797018E-2,5.9522516E-3,0E0,7.945793E-3,1.1562388E-3,1.8395625E-2,1.1338728E-3,2.9266765E-2,2.3507855E-3,0E0,0E0,0E0,0E0,0E0,0E0,0E0,0E0,0E0,0E0,0E0],"parents":[2147483647,0,0,1,1,2,2,3,3,4,4,6,6,7,7,8,8,9,9,10,10,11,11],"right_children":[2,4,6,8,10,-1,12,14,16,18,20,22,-1,-1,-1,-1,-1,-1,-1,-1,-1,-1,-1],"split_conditions":[1.23E1,3.45E-1,-2.54E-1,-2.74E-1,9.6E0,2.275707E-3,2.77865E-1,5.8E0,-2.2E-1,1.625E-1,1.06E1,2.5892857E-1,1.2866132E-3,-5.9126814E-6,3.4000428E-4,-1.6077018E-3,-0E0,-3.9684048E-4,-0E0,2.6024773E-3,-0E0,-0E0,-6.259374E-4],"split_indices":[4,0,2,2,4,0,5,4,2,5,4,5,0,0,0,0,0,0,0,0,0,0,0],"split_type":[0,0,0,0,0,0,0,0,0,0,0,0,0,0,0,0,0,0,0,0,0,0,0],"sum_hessian":[2.66E2,1.98E2,6.8E1,1.48E2,5E1,3.2E1,3.6E1,3.6E1,1.12E2,2.1E1,2.9E1,2.6E1,1E1,1.3E1,2.3E1,1.07E2,5E0,1.6E1,5E0,1.1E1,1.8E1,1.3E1,1.3E1],"tree_param":{"num_deleted":"0","num_feature":"6","num_nodes":"23","size_leaf_vector":"1"}},{"base_weights":[3.9264066E-3,-1.328003E-2,1.9554948E-2,-1.7484432E-2,-0E0,-0E0,2.6915312E-2,-0E0,-2.0160608E-2,-0E0,-8.33571E-3,2.9676527E-2,-0E0,-0E0,-1.1536125E-3,-7.58633E-4,-0E0,5.750368E-4,2.570085E-3,-0E0,5.689827E-4],"categories":[],"categories_nodes":[],"categories_segments":[],"categories_sizes":[],"default_left":[0,0,0,0,0,0,0,0,0,0,0,0,0,0,0,0,0,0,0,0,0],"id":17,"left_children":[1,3,5,7,-1,9,11,-1,13,-1,15,17,19,-1,-1,-1,-1,-1,-1,-1,-1],"loss_changes":[7.5994045E-2,1.2911234E-2,3.196694E-2,4.377231E-3,0E0,1.6676174E-3,4.8734695E-3,0E0,3.5958998E-3,0E0,2.2459459E-3,1.0802411E-2,1.2949652E-3,0E0,0E0,0E0,0E0,0E0,0E0,0E0,0E0],"parents":[2147483647,0,0,1,1,2,2,3,3,5,5,6,6,8,8,10,10,11,11,12,12],"right_children":[2,4,6,8,-1,10,12,-1,14,-1,16,18,20,-1,-1,-1,-1,-1,-1,-1,-1],"split_conditions":[3.31E-1,1.27E1,7.9E0,2.7E0,-0E0,1.202346E-1,2.735043E-1,-0E0,3.01E-1,-0E0,7.6E0,2.3639774E-1,3.58E-1,-0E0,-1.1536125E-3,-7.58633E-4,-0E0,5.750368E-4,2.570085E-3,-0E0,5.689827E-4],"split_indices":[0,4,4,4,0,5,5,0,0,0,4,5,0,0,0,0,0,0,0,0,0],"split_type":[0,0,0,0,0,0,0,0,0,0,0,0,0,0,0,0,0,0,0,0,0],"sum_hessian":[2.67E2,1.12E2,1.55E2,1.06E2,6E0,3E1,1.25E2,1.6E1,9E1,8E0,2.2E1,1.08E2,1.7E1,1.5E1,7.5E1,1.5E1,7E0,7.3E1,3.5E1,9E0,8E0],"tree_param":{"num_deleted":"0","num_feature":"6","num_nodes":"21","size_leaf_vector":"1"}},{"base_weights":[-0E0,-1.0080938E-2,1.7422516E-3,-2.6144644E-2,-0E0,-3.0194975E-2,-0E0,4.944495E-3,-1.7006623E-2,-0E0,-1.6039722E-3,-0E0,1.2802625E-3,-1.2683359E-3,-0E0],"categories":[],"categories_nodes":[],"categories_segments":[],"categories_sizes":[],"default_left":[0,0,0,0,0,0,0,0,0,0,0,0,0,0,0],"id":18,"left_children":[1,3,-1,5,7,9,-1,11,13,-1,-1,-1,-1,-1,-1],"loss_changes":[1.0360574E-1,2.8326197E-2,0E0,1.23276785E-2,1.5822507E-2,8.93794E-4,0E0,1.2561315E-2,9.860568E-3,0E0,0E0,0E0,0E0,0E0,0E0],"parents":[2147483647,0,0,1,1,3,3,4,4,5,5,7,7,8,8],"right_children":[2,4,-1,6,8,10,-1,12,14,-1,-1,-1,-1,-1,-1],"split_conditions":[1.27E1,6.8E0,1.7422516E-3,3.48E-1,2.3180076E-1,-3.02E-1,-0E0,-2.48E-1,3.39E-1,-0E0,-1.6039722E-3,-0E0,1.2802625E-3,-1.2683359E-3,-0E0],"split_indices":[4,4,0,0,5,2,0,2,0,0,0,0,0,0,0],"split_type":[0,0,0,0,0,0,0,0,0,0,0,0,0,0,0],"sum_hessian":[2.82E2,2.17E2,6.5E1,7.2E1,1.45E2,6.7E1,5E0,1.01E2,4.4E1,7E0,6E1,8E1,2.1E1,3.4E1,1E1],"tree_param":{"num_deleted":"0","num_feature":"6","num_nodes":"15","size_leaf_vector":"1"}},{"base_weights":[-1.0028221E-3,-3.1555995E-2,4.0715258E-3,-1.9673582E-3,-0E0,-1.9816697E-2,1.2411735E-2,-2.8427683E-2,-0E0,-0E0,1.6303917E-2,-0E0,-2.166706E-3,-8.2511036E-4,5.4316224E-6,1.4386215E-3,1.4947656E-4],"categories":[],"categories_nodes":[],"categories_segments":[],"categories_sizes":[],"default_left":[0,0,0,0,0,0,0,0,0,0,0,0,0,0,0,0,0],"id":19,"left_children":[1,3,5,-1,-1,7,9,11,-1,13,15,-1,-1,-1,-1,-1,-1],"loss_changes":[5.7254642E-2,1.125221E-2,4.201528E-2,0E0,0E0,1.4238328E-2,1.4031364E-2,2.1062482E-2,0E0,5.174252E-3,1.0508686E-2,0E0,0E0,0E0,0E0,0E0,0E0],"parents":[2147483647,0,0,1,1,2,2,5,5,6,6,7,7,9,9,10,10],"right_children":[2,4,6,-1,-1,8,10,12,-1,14,16,-1,-1,-1,-1,-1,-1],"split_conditions":[6.478405E-2,9.7E0,6E0,-1.9673582E-3,-0E0,4.13E1,-2.89E-1,2.7E0,-0E0,1.0845295E-1,9.6E0,-0E0,-2.166706E-3,-8.2511036E-4,5.4316224E-6,1.4386215E-3,1.4947656E-4],"split_indices":[1,4,4,0,0,3,2,4,0,1,4,0,0,0,0,0,0],"split_type":[0,0,0,0,0,0,0,0,0,0,0,0,0,0,0,0,0],"sum_hessian":[2.77E2,5.2E1,2.25E2,4E1,1.2E1,4.2E1,1.83E2,3.7E1,5E0,2.5E1,1.58E2,1.1E1,2.6E1,1.7E1,8E0,6.1E1,9.7E1],"tree_param":{"num_deleted":"0","num_feature":"6","num_nodes":"17","size_leaf_vector":"1"}},{"base_weights":[-1.47154E-3,-6.472925E-3,3.2661203E-3,-2.4033286E-2,-0E0,-0E0,-3.4717195E-2,-1.8023891E-2,2.948009E-3,-2.3168148E-3,-0E0,-0E0,-1.5987067E-3,6.0479844E-4,-4.0137325E-4],"categories":[],"categories_nodes":[],"categories_segments":[],"categories_sizes":[],"default_left":[0,0,0,0,0,0,0,0,0,0,0,0,0,0,0],"id":20,"left_children":[1,3,-1,5,7,-1,9,11,13,-1,-1,-1,-1,-1,-1],"loss_changes":[6.62946E-2,2.7260758E-2,0E0,1.1922799E-2,1.3523346E-2,0E0,1.8083759E-2,1.9672858E-2,1.9598203E-2,0E0,0E0,0E0,0E0,0E0,0E0],"parents":[2147483647,0,0,1,1,3,3,4,4,6,6,7,7,8,8],"right_children":[2,4,-1,6,8,-1,10,12,14,-1,-1,-1,-1,-1,-1],"split_conditions":[1.4993122E-1,6.806283E-2,3.2661203E-3,3.19E-1,6E0,-0E0,2.3435226E-1,1.15277775E-1,1.0755814E-1,-2.3168148E-3,-0E0,-0E0,-1.5987067E-3,6.0479844E-4,-4.0137325E-4],"split_indices":[1,1,0,0,4,0,5,5,1,0,0,0,0,0,0],"split_type":[0,0,0,0,0,0,0,0,0,0,0,0,0,0,0],"sum_hessian":[2.82E2,2.71E2,1.1E1,6.5E1,2.06E2,2.5E1,4E1,3.5E1,1.71E2,3E1,1E1,6E0,2.9E1,1.18E2,5.3E1],"tree_param":{"num_deleted":"0","num_feature":"6","num_nodes":"15","size_leaf_vector":"1"}},{"base_weights":[-3.4060198E-4,-1.3053869E-2,2.2651652E-2,-1.4039255E-3,-4.407875E-3,-0E0,5.7337027E-2,-0E0,-1.4717342E-2,7.6124043E-4,-0E0,-0E0,3.685224E-3,4.1636275E-4,-6.801348E-4,-1.1038049E-3,-0E0,-2.5301133E-4,-0E0],"categories":[],"categories_nodes":[],"categories_segments":[],"categories_sizes":[],"default_left":[0,0,0,0,0,0,0,0,0,0,0,0,0,0,0,0,0,0,0],"id":21,"left_children":[1,3,5,-1,7,9,11,13,15,-1,17,-1,-1,-1,-1,-1,-1,-1,-1],"loss_changes":[7.646913E-2,8.580543E-3,5.5012763E-2,0E0,1.12423245E-2,2.086153E-3,3.7182726E-2,7.976593E-3,2.9783836E-3,0E0,1.1522651E-3,0E0,0E0,0E0,0E0,0E0,0E0,0E0,0E0],"parents":[2147483647,0,0,1,1,2,2,4,4,5,5,6,6,7,7,8,8,10,10],"right_children":[2,4,6,-1,8,10,12,14,16,-1,18,-1,-1,-1,-1,-1,-1,-1,-1],"split_conditions":[4.74E1,5.8E0,1.0958904E-1,-1.4039255E-3,4.3E1,4.8E1,4.78E1,1.0769231E-1,8.5346214E-2,7.6124043E-4,1.68E1,-0E0,3.685224E-3,4.1636275E-4,-6.801348E-4,-1.1038049E-3,-0E0,-2.5301133E-4,-0E0],"split_indices":[3,4,1,0,3,3,3,1,1,0,4,0,0,0,0,0,0,0,0],"split_type":[0,0,0,0,0,0,0,0,0,0,0,0,0,0,0,0,0,0,0],"sum_hessian":[2.74E2,1.91E2,8.3E1,4.7E1,1.44E2,5.5E1,2.8E1,8.1E1,6.3E1,7E0,4.8E1,5E0,2.3E1,6.5E1,1.6E1,3.3E1,3E1,4.3E1,5E0],"tree_param":{"num_deleted":"0","num_feature":"6","num_nodes":"19","size_leaf_vector":"1"}},{"base_weights":[2.736345E-3,-0E0,5.6877382E-2,-1.6884258E-2,6.071208E-3,-0E0,3.715153E-3,-0E0,-2.236129E-2,1.4707196E-2,-0E0,-0E0,-1.3995145E-3,-1.1610985E-4,1.3885883E-3,-5.8002747E-4,6.511624E-5],"categories":[],"categories_nodes":[],"categories_segments":[],"categories_sizes":[],"default_left":[0,0,0,0,0,0,0,0,0,0,0,0,0,0,0,0,0],"id":22,"left_children":[1,3,5,7,9,-1,-1,-1,11,13,15,-1,-1,-1,-1,-1,-1],"loss_changes":[6.260421E-2,3.1077724E-2,1.2592487E-2,1.3985377E-2,1.2257238E-2,0E0,0E0,0E0,1.0855645E-2,3.2209672E-2,3.4830421E-3,0E0,0E0,0E0,0E0,0E0,0E0],"parents":[2147483647,0,0,1,1,2,2,3,3,4,4,8,8,9,9,10,10],"right_children":[2,4,6,8,10,-1,-1,-1,12,14,16,-1,-1,-1,-1,-1,-1],"split_conditions":[5.38E1,7E0,1.61E1,2.3E0,1.05E1,-0E0,3.715153E-3,-0E0,-2.88E-1,6.331471E-2,4.52E1,-0E0,-1.3995145E-3,-1.1610985E-4,1.3885883E-3,-5.8002747E-4,6.511624E-5],"split_indices":[3,4,4,4,4,0,0,0,2,1,3,0,0,0,0,0,0],"split_type":[0,0,0,0,0,0,0,0,0,0,0,0,0,0,0,0,0],"sum_hessian":[2.78E2,2.6E2,1.8E1,8.4E1,1.76E2,6E0,1.2E1,9E0,7.5E1,8.5E1,9.1E1,1.4E1,6.1E1,2.1E1,6.4E1,2.3E1,6.8E1],"tree_param":{"num_deleted":"0","num_feature":"6","num_nodes":"17","size_leaf_vector":"1"}},{"base_weights":[-0E0,-4.5862356E-3,3.402428E-2,-1.0885909E-2,1.0271773E-3,-0E0,2.0448836E-3,-1.4764749E-2,-0E0,1.3866264E-2,-8.588233E-3,-1.0304374E-3,-0E0,6.459374E-5,-0E0,1.0668492E-3,-0E0,-1.2948929E-3,-0E0],"categories":[],"categories_nodes":[],"categories_segments":[],"categories_sizes":[],"default_left":[0,0,0,0,0,0,0,0,0,0,0,0,0,0,0,0,0,0,0],"id":23,"left_children":[1,3,5,7,9,-1,-1,11,13,15,17,-1,-1,-1,-1,-1,-1,-1,-1],"loss_changes":[5.2680038E-2,1.3721671E-2,1.2750592E-2,9.279741E-3,1.4111419E-2,0E0,0E0,1.3500886E-2,4.0054572E-5,1.0387131E-2,1.3139586E-2,0E0,0E0,0E0,0E0,0E0,0E0,0E0,0E0],"parents":[2147483647,0,0,1,1,2,2,3,3,4,4,7,7,8,8,9,9,10,10],"right_children":[2,4,6,8,10,-1,-1,12,14,16,18,-1,-1,-1,-1,-1,-1,-1,-1],"split_conditions":[3.68E-1,2.276176E-1,4.23E1,-2.48E-1,-2.42E-1,-0E0,2.0448836E-3,3.45E-1,3.39E-1,3.48E-1,-2.19E-1,-1.0304374E-3,-0E0,6.459374E-5,-0E0,1.0668492E-3,-0E0,-1.2948929E-3,-0E0],"split_indices":[0,5,3,2,2,0,0,0,0,0,2,0,0,0,0,0,0,0,0],"split_type":[0,0,0,0,0,0,0,0,0,0,0,0,0,0,0,0,0,0,0],"sum_hessian":[2.85E2,2.46E2,3.9E1,1.57E2,8.9E1,5E0,3.4E1,1.27E2,3E1,6E1,2.9E1,9.6E1,3.1E1,2.2E1,8E0,4.7E1,1.3E1,2.1E1,8E0],"tree_param":{"num_deleted":"0","num_feature":"6","num_nodes":"19","size_leaf_vector":"1"}},{"base_weights":[1.0297867E-3,-0E0,3.998376E-3,-7.3502404E-3,4.356516E-3,-1.8939326E-2,-0E0,-0E0,1.9077756E-2,-1.5782515E-3,-0E0,9.338789E-4,-5.215963E-4,1.0418337E-4,-1.0762364E-3,2.077663E-3,-0E0],"categories":[],"categories_nodes":[],"categories_segments":[],"categories_sizes":[],"default_left":[0,0,0,0,0,0,0,0,0,0,0,0,0,0,0,0,0],"id":24,"left_children":[1,3,-1,5,7,9,11,13,15,-1,-1,-1,-1,-1,-1,-1,-1],"loss_changes":[5.085301E-2,1.0121419E-2,0E0,7.771806E-3,1.5370134E-2,1.4825216E-2,1.7276783E-2,1.054458E-2,2.8422143E-2,0E0,0E0,0E0,0E0,0E0,0E0,0E0,0E0],"parents":[2147483647,0,0,1,1,3,3,4,4,5,5,6,6,7,7,8,8],"right_children":[2,4,-1,6,8,10,12,14,16,-1,-1,-1,-1,-1,-1,-1,-1],"split_conditions":[5.63E1,3.35E-1,3.998376E-3,6.466165E-2,2.3639774E-1,2.3435226E-1,7.628524E-2,1.2135176E-1,2.6061776E-1,-1.5782515E-3,-0E0,9.338789E-4,-5.215963E-4,1.0418337E-4,-1.0762364E-3,2.077663E-3,-0E0],"split_indices":[3,0,0,1,5,5,1,1,5,0,0,0,0,0,0,0,0],"split_type":[0,0,0,0,0,0,0,0,0,0,0,0,0,0,0,0,0],"sum_hessian":[2.86E2,2.8E2,6E0,1.33E2,1.47E2,4E1,9.3E1,9.9E1,4.8E1,2.8E1,1.2E1,2.6E1,6.7E1,7.9E1,2E1,2.5E1,2.3E1],"tree_param":{"num_deleted":"0","num_feature":"6","num_nodes":"17","size_leaf_vector":"1"}},{"base_weights":[-0E0,-1.0066915E-2,2.578391E-2,-0E0,-1.5960265E-2,-0E0,3.7154708E-2,-6.6434666E-5,9.825409E-5,-2.070059E-2,-0E0,-0E0,2.0093366E-3,-0E0,-3.5595367E-4,-1.4817626E-3,-0E0],"categories":[],"categories_nodes":[],"categories_segments":[],"categories_sizes":[],"default_left":[0,0,0,0,0,0,0,0,0,0,0,0,0,0,0,0,0],"id":25,"left_children":[1,3,5,7,9,-1,11,13,-1,15,-1,-1,-1,-1,-1,-1,-1],"loss_changes":[7.631528E-2,1.2388935E-2,2.9745243E-2,5.8196834E-5,1.1705328E-2,0E0,3.2342374E-3,2.4831055E-3,0E0,1.3398878E-2,0E0,0E0,0E0,0E0,0E0,0E0,0E0],"parents":[2147483647,0,0,1,1,2,2,3,3,4,4,6,6,7,7,9,9],"right_children":[2,4,6,8,10,-1,12,14,-1,16,-1,-1,-1,-1,-1,-1,-1],"split_conditions":[4.74E1,-2.65E-1,8.225108E-2,-2.7E-1,2.5448614E-1,-0E0,4.78E1,5.8267716E-2,9.825409E-5,9.490334E-2,-0E0,-0E0,2.0093366E-3,-0E0,-3.5595367E-4,-1.4817626E-3,-0E0],"split_indices":[3,2,1,2,5,0,3,1,0,1,0,0,0,0,0,0,0],"split_type":[0,0,0,0,0,0,0,0,0,0,0,0,0,0,0,0,0],"sum_hessian":[2.82E2,2E2,8.2E1,7.3E1,1.27E2,2.2E1,6E1,6E1,1.3E1,1.02E2,2.5E1,7E0,5.3E1,1.3E1,4.7E1,6.4E1,3.8E1],"tree_param":{"num_deleted":"0","num_feature":"6","num_nodes":"17","size_leaf_vector":"1"}},{"base_weights":[-0E0,-3.4788402E-3,3.3351645E-2,-1.4756257E-3,-0E0,-0E0,3.917233E-2,3.3724504E-3,-2.792621E-3,2.3965912E-3,-0E0,7.6278456E-4,-0E0,-7.8780344E-4,1.4443894E-5],"categories":[],"categories_nodes":[],"categories_segments":[],"categories_sizes":[],"default_left":[0,0,0,0,0,0,0,0,0,0,0,0,0,0,0],"id":26,"left_children":[1,3,5,-1,7,-1,9,11,13,-1,-1,-1,-1,-1,-1],"loss_changes":[4.6261307E-2,1.1926449E-2,5.7221316E-3,0E0,1.9298744E-3,0E0,3.738489E-3,4.7956333E-3,1.4773346E-2,0E0,0E0,0E0,0E0,0E0,0E0],"parents":[2147483647,0,0,1,1,2,2,4,4,6,6,7,7,8,8],"right_children":[2,4,6,-1,8,-1,10,12,14,-1,-1,-1,-1,-1,-1],"split_conditions":[3.68E-1,2.97E1,-3.16E-1,-1.4756257E-3,-2.76E-1,-0E0,-2.63E-1,4.17E1,-2.57E-1,2.3965912E-3,-0E0,7.6278456E-4,-0E0,-7.8780344E-4,1.4443894E-5],"split_indices":[0,3,2,0,2,0,2,3,2,0,0,0,0,0,0],"split_type":[0,0,0,0,0,0,0,0,0,0,0,0,0,0,0],"sum_hessian":[2.73E2,2.36E2,3.7E1,1.5E1,2.21E2,7E0,3E1,4.7E1,1.74E2,2.1E1,9E0,2.1E1,2.6E1,6.3E1,1.11E2],"tree_param":{"num_deleted":"0","num_feature":"6","num_nodes":"15","size_leaf_vector":"1"}},{"base_weights":[-0E0,-1.4969485E-2,3.3195226E-3,-0E0,-1.7686902E-2,-2.3037393E-3,1.1764691E-2,-9.4662263E-4,-0E0,2.497742E-3,-1.0843738E-2,2.7657686E-2,-0E0,5.350241E-4,-0E0,-1.0823007E-3,-0E0,1.9424286E-3,-0E0,-9.523914E-4,7.8500464E-4],"categories":[],"categories_nodes":[],"categories_segments":[],"categories_sizes":[],"default_left":[0,0,0,0,0,0,0,0,0,0,0,0,0,0,0,0,0,0,0,0,0],"id":27,"left_children":[1,3,5,-1,7,9,11,-1,-1,13,15,17,19,-1,-1,-1,-1,-1,-1,-1,-1],"loss_changes":[1.5564439E-2,2.331539E-3,1.584971E-2,0E0,4.4276286E-4,8.573661E-3,2.3452545E-2,0E0,0E0,2.6628692E-3,1.449091E-2,2.207971E-2,2.3544382E-2,0E0,0E0,0E0,0E0,0E0,0E0,0E0,0E0],"parents":[2147483647,0,0,1,1,2,2,4,4,5,5,6,6,9,9,10,10,11,11,12,12],"right_children":[2,4,6,-1,8,10,12,-1,-1,14,16,18,20,-1,-1,-1,-1,-1,-1,-1,-1],"split_conditions":[3.69E1,5.699482E-2,8.715596E-2,-0E0,1.1111111E-1,4.17E1,2.0156556E-1,-9.4662263E-4,-0E0,7.442748E-2,2.3435226E-1,4.93E1,4.74E1,5.350241E-4,-0E0,-1.0823007E-3,-0E0,1.9424286E-3,-0E0,-9.523914E-4,7.8500464E-4],"split_indices":[3,1,1,0,1,3,5,0,0,1,5,3,3,0,0,0,0,0,0,0,0],"split_type":[0,0,0,0,0,0,0,0,0,0,0,0,0,0,0,0,0,0,0,0,0],"sum_hessian":[2.87E2,5.6E1,2.31E2,9E0,4.7E1,1.04E2,1.27E2,4.2E1,5E0,3E1,7.4E1,5.2E1,7.5E1,2.3E1,7E0,4.8E1,2.6E1,4E1,1.2E1,3.3E1,4.2E1],"tree_param":{"num_deleted":"0","num_feature":"6","num_nodes":"21","size_leaf_vector":"1"}},{"base_weights":[2.186508E-3,-5.9313816E-3,3.601765E-2,-1.1611806E-2,9.1081153E-4,-0E0,2.2031495E-3,-0E0,-1.4659518E-2,-0E0,1.43566765E-2,-0E0,-8.414802E-4,-0E0,-4.5103347E-4,1.6297268E-3,-0E0],"categories":[],"categories_nodes":[],"categories_segments":[],"categories_sizes":[],"default_left":[0,0,0,0,0,0,0,0,0,0,0,0,0,0,0,0,0],"id":28,"left_children":[1,3,5,7,9,-1,-1,-1,11,13,15,-1,-1,-1,-1,-1,-1],"loss_changes":[9.181962E-2,1.3689092E-2,2.3106724E-2,9.776868E-3,7.783393E-3,0E0,0E0,0E0,5.308345E-3,1.4647046E-3,1.4478142E-2,0E0,0E0,0E0,0E0,0E0,0E0],"parents":[2147483647,0,0,1,1,2,2,3,3,4,4,8,8,9,9,10,10],"right_children":[2,4,6,8,10,-1,-1,-1,12,14,16,-1,-1,-1,-1,-1,-1],"split_conditions":[1.27E1,3.45E-1,4.56E1,2.7E0,9.7E0,-0E0,2.2031495E-3,-0E0,3.01E-1,1.3354038E-1,4.79E1,-0E0,-8.414802E-4,-0E0,-4.5103347E-4,1.6297268E-3,-0E0],"split_indices":[4,0,3,4,4,0,0,0,0,5,3,0,0,0,0,0,0],"split_type":[0,0,0,0,0,0,0,0,0,0,0,0,0,0,0,0,0],"sum_hessian":[2.76E2,2.12E2,6.4E1,1.55E2,5.7E1,1E1,5.4E1,1.3E1,1.42E2,2.1E1,3.6E1,1.6E1,1.26E2,5E0,1.6E1,1.9E1,1.7E1],"tree_param":{"num_deleted":"0","num_feature":"6","num_nodes":"17","size_leaf_vector":"1"}},{"base_weights":[-0E0,-1.3576938E-3,3.7373074E-3,-1.0364754E-2,-0E0,-1.5045003E-3,-0E0,7.4034585E-3,-5.0379583E-3,2.4579046E-4,-0E0,-0E0,6.308874E-4,-1.0385694E-3,-0E0],"categories":[],"categories_nodes":[],"categories_segments":[],"categories_sizes":[],"default_left":[0,0,0,0,0,0,0,0,0,0,0,0,0,0,0],"id":29,"left_children":[1,3,-1,5,7,-1,9,11,13,-1,-1,-1,-1,-1,-1],"loss_changes":[6.1972987E-2,3.88842E-3,0E0,1.6419843E-2,9.169466E-3,0E0,2.6581695E-4,9.21556E-3,2.1445408E-2,0E0,0E0,0E0,0E0,0E0,0E0],"parents":[2147483647,0,0,1,1,3,3,4,4,6,6,7,7,8,8],"right_children":[2,4,-1,6,8,-1,10,12,14,-1,-1,-1,-1,-1,-1],"split_conditions":[4.06E-1,-2.85E-1,3.7373074E-3,1.627543E-1,1.950078E-1,-1.5045003E-3,3.39E-1,2.95E1,2.3639774E-1,2.4579046E-4,-0E0,-0E0,6.308874E-4,-1.0385694E-3,-0E0],"split_indices":[0,2,0,5,5,0,0,3,5,0,0,0,0,0,0],"split_type":[0,0,0,0,0,0,0,0,0,0,0,0,0,0,0],"sum_hessian":[2.87E2,2.78E2,9E0,3.9E1,2.39E2,2.1E1,1.8E1,1E2,1.39E2,9E0,9E0,9E0,9.1E1,5.6E1,8.3E1],"tree_param":{"num_deleted":"0","num_feature":"6","num_nodes":"15","size_leaf_vector":"1"}},{"base_weights":[8.0172025E-4,-9.4190525E-4,4.4141848E-2,-8.563245E-3,1.0033004E-2,2.551705E-3,-0E0,-0E0,-1.3153472E-2,2.5942435E-2,-4.0771663E-3,-0E0,3.7150012E-4,-0E0,-9.297474E-4,-0E0,2.0150002E-3,-1.1592074E-3,-0E0],"categories":[],"categories_nodes":[],"categories_segments":[],"categories_sizes":[],"default_left":[0,0,0,0,0,0,0,0,0,0,0,0,0,0,0,0,0,0,0],"id":30,"left_children":[1,3,5,7,9,-1,-1,11,13,15,17,-1,-1,-1,-1,-1,-1,-1,-1],"loss_changes":[4.2918004E-2,2.1267908E-2,1.4090873E-3,1.2606164E-2,2.9327445E-2,0E0,0E0,1.3801235E-3,6.550504E-3,1.982762E-2,1.0822148E-2,0E0,0E0,0E0,0E0,0E0,0E0,0E0,0E0],"parents":[2147483647,0,0,1,1,2,2,3,3,4,4,7,7,8,8,9,9,10,10],"right_children":[2,4,6,8,10,-1,-1,12,14,16,18,-1,-1,-1,-1,-1,-1,-1,-1],"split_conditions":[5.38E1,2.3639774E-1,-2.55E-1,1.4468865E-1,2.7306274E-1,2.551705E-3,-0E0,1.037415E-1,-2.71E-1,4.38E1,2.986111E-1,-0E0,3.7150012E-4,-0E0,-9.297474E-4,-0E0,2.0150002E-3,-1.1592074E-3,-0E0],"split_indices":[3,5,2,5,5,0,0,5,2,3,5,0,0,0,0,0,0,0,0],"split_type":[0,0,0,0,0,0,0,0,0,0,0,0,0,0,0,0,0,0,0],"sum_hessian":[2.79E2,2.59E2,2E1,1.8E2,7.9E1,1.5E1,5E0,3.2E1,1.48E2,5.3E1,2.6E1,9E0,2.3E1,5.6E1,9.2E1,2E1,3.3E1,1.9E1,7E0],"tree_param":{"num_deleted":"0","num_feature":"6","num_nodes":"19","size_leaf_vector":"1"}},{"base_weights":[3.8712122E-3,-0E0,3.8716537E-3,-7.400956E-4,1.6525354E-2,5.192767E-3,-5.087483E-3,-0E0,3.373351E-2,-0E0,9.3528925E-4,-5.7712867E-4,-0E0,-3.0122834E-4,-0E0,2.6479184E-3,-0E0],"categories":[],"categories_nodes":[],"categories_segments":[],"categories_sizes":[],"default_left":[0,0,0,0,0,0,0,0,0,0,0,0,0,0,0,0,0],"id":31,"left_children":[1,3,-1,5,7,9,11,13,15,-1,-1,-1,-1,-1,-1,-1,-1],"loss_changes":[4.37559E-2,1.0780769E-2,0E0,6.1387983E-3,1.5522436E-2,9.767868E-3,1.0481539E-2,3.9924943E-4,7.482223E-3,0E0,0E0,0E0,0E0,0E0,0E0,0E0,0E0],"parents":[2147483647,0,0,1,1,3,3,4,4,5,5,6,6,7,7,8,8],"right_children":[2,4,-1,6,8,10,12,14,16,-1,-1,-1,-1,-1,-1,-1,-1],"split_conditions":[5.61E1,3.67E-1,3.8716537E-3,-2.75E-1,-2.76E-1,-2.89E-1,2.3873122E-1,3.96E-1,-2.63E-1,-0E0,9.3528925E-4,-5.7712867E-4,-0E0,-3.0122834E-4,-0E0,2.6479184E-3,-0E0],"split_indices":[3,0,0,2,2,2,5,0,2,0,0,0,0,0,0,0,0],"split_type":[0,0,0,0,0,0,0,0,0,0,0,0,0,0,0,0,0],"sum_hessian":[2.79E2,2.73E2,6E0,2.36E2,3.7E1,5.1E1,1.85E2,1.6E1,2.1E1,2.1E1,3E1,1.13E2,7.2E1,9E0,7E0,1E1,1.1E1],"tree_param":{"num_deleted":"0","num_feature":"6","num_nodes":"17","size_leaf_vector":"1"}},{"base_weights":[-0E0,-2.2674212E-3,3.394661E-2,-8.061571E-3,-0E0,-0E0,4.9013983E-2,-0E0,-1.35229565E-2,1.6598586E-2,-1.5128317E-3,3.0397146E-3,-0E0,-0E0,3.8944886E-4,-0E0,-9.3672145E-4,1.7439276E-3,-0E0,-5.107059E-4,-0E0],"categories":[],"categories_nodes":[],"categories_segments":[],"categories_sizes":[],"default_left":[0,0,0,0,0,0,0,0,0,0,0,0,0,0,0,0,0,0,0,0,0],"id":32,"left_children":[1,3,5,7,9,-1,11,13,15,17,19,-1,-1,-1,-1,-1,-1,-1,-1,-1,-1],"loss_changes":[3.0156301E-2,6.126733E-3,1.4433363E-2,8.801734E-3,8.815544E-3,0E0,4.804626E-3,1.0313587E-3,6.8891384E-3,1.0923307E-2,4.5244587E-3,0E0,0E0,0E0,0E0,0E0,0E0,0E0,0E0,0E0,0E0],"parents":[2147483647,0,0,1,1,2,2,3,3,4,4,6,6,7,7,8,8,9,9,10,10],"right_children":[2,4,6,8,10,-1,12,14,16,18,20,-1,-1,-1,-1,-1,-1,-1,-1,-1,-1],"split_conditions":[1.56E1,8.2E0,4.98E1,-2.8E-1,9.5E0,-0E0,-2.55E-1,3.2E1,3.46E1,4.23E1,4.55E1,3.0397146E-3,-0E0,-0E0,3.8944886E-4,-0E0,-9.3672145E-4,1.7439276E-3,-0E0,-5.107059E-4,-0E0],"split_indices":[4,4,3,2,4,0,2,3,3,3,3,0,0,0,0,0,0,0,0,0,0],"split_type":[0,0,0,0,0,0,0,0,0,0,0,0,0,0,0,0,0,0,0,0,0],"sum_hessian":[2.83E2,2.6E2,2.3E1,1.13E2,1.47E2,7E0,1.6E1,2.6E1,8.7E1,2.9E1,1.18E2,1.1E1,5E0,1.1E1,1.5E1,2.3E1,6.4E1,1.4E1,1.5E1,4.4E1,7.4E1],"tree_param":{"num_deleted":"0","num_feature":"6","num_nodes":"21","size_leaf_vector":"1"}},{"base_weights":[-0E0,-5.0877347E-3,2.3531847E-2,-1.6659403E-2,-0E0,3.9757434E-2,-0E0,-0E0,-2.181529E-2,1.6872438E-2,-7.893508E-3,-0E0,5.1014543E-2,-4.8974026E-3,1.9514518E-3,-1.1928694E-3,-0E0,1.3897681E-3,-0E0,-0E0,-8.967337E-4,3.1054148E-3,-0E0,-1.0519073E-3,-0E0],"categories":[],"categories_nodes":[],"categories_segments":[],"categories_sizes":[],"default_left":[0,0,0,0,0,0,0,0,0,0,0,0,0,0,0,0,0,0,0,0,0,0,0,0,0],"id":33,"left_children":[1,3,5,7,9,11,13,-1,15,17,19,-1,21,23,-1,-1,-1,-1,-1,-1,-1,-1,-1,-1,-1],"loss_changes":[4.1584775E-2,1.5779082E-2,1.3006654E-2,8.135974E-3,2.0695666E-2,1.0856859E-2,1.7403504E-2,0E0,2.367571E-3,1.4270127E-2,1.5299741E-2,0E0,1.8619299E-3,6.4340737E-3,0E0,0E0,0E0,0E0,0E0,0E0,0E0,0E0,0E0,0E0,0E0],"parents":[2147483647,0,0,1,1,2,2,3,3,4,4,5,5,6,6,8,8,9,9,10,10,12,12,13,13],"right_children":[2,4,6,8,10,12,14,-1,16,18,20,-1,22,24,-1,-1,-1,-1,-1,-1,-1,-1,-1,-1,-1],"split_conditions":[1.27E1,6.9E0,1.45E1,-2.88E-1,8.8E0,4.52E1,1.76E1,-0E0,2.2161423E-1,4.3E1,1.9785276E-1,-0E0,5.12E1,2.8025478E-1,1.9514518E-3,-1.1928694E-3,-0E0,1.3897681E-3,-0E0,-0E0,-8.967337E-4,3.1054148E-3,-0E0,-1.0519073E-3,-0E0],"split_indices":[4,4,4,2,4,3,4,0,5,3,5,0,3,5,0,0,0,0,0,0,0,0,0,0,0],"split_type":[0,0,0,0,0,0,0,0,0,0,0,0,0,0,0,0,0,0,0,0,0,0,0,0,0],"sum_hessian":[2.77E2,2.14E2,6.3E1,7.5E1,1.39E2,2.9E1,3.4E1,1.5E1,6E1,5.1E1,8.8E1,8E0,2.1E1,2.5E1,9E0,5.4E1,6E0,3.6E1,1.5E1,2.5E1,6.3E1,1.4E1,7E0,1.4E1,1.1E1],"tree_param":{"num_deleted":"0","num_feature":"6","num_nodes":"25","size_leaf_vector":"1"}},{"base_weights":[4.7191614E-4,-4.2352052E-3,2.4156203E-2,-0E0,-1.7638873E-2,-0E0,2.9478421E-2,-6.109919E-3,8.85458E-3,-0E0,-2.8503045E-2,-0E0,3.5212133E-2,-0E0,-1.3386001E-3,2.0753331E-3,-0E0,-3.49841E-4,-0E0,-0E0,-1.8083744E-3,-0E0,1.8646851E-3],"categories":[],"categories_nodes":[],"categories_segments":[],"categories_sizes":[],"default_left":[0,0,0,0,0,0,0,0,0,0,0,0,0,0,0,0,0,0,0,0,0,0,0],"id":34,"left_children":[1,3,5,7,9,-1,11,13,15,17,19,-1,21,-1,-1,-1,-1,-1,-1,-1,-1,-1,-1],"loss_changes":[4.1157894E-2,1.6037928E-2,1.3055269E-2,9.027306E-3,6.085243E-3,0E0,1.40738115E-2,2.2174072E-2,1.9726567E-2,1.0770208E-3,5.3965356E-3,0E0,8.940473E-4,0E0,0E0,0E0,0E0,0E0,0E0,0E0,0E0,0E0,0E0],"parents":[2147483647,0,0,1,1,2,2,3,3,4,4,6,6,7,7,8,8,9,9,10,10,12,12],"right_children":[2,4,6,8,10,-1,12,14,16,18,20,-1,22,-1,-1,-1,-1,-1,-1,-1,-1,-1,-1],"split_conditions":[1.27E1,2.1870047E-1,5.928854E-2,8.225108E-2,9.039548E-2,-0E0,4.38E1,4.08E1,1.4468865E-1,2.542373E-1,2.3255815E-1,-0E0,1.6744915E-1,-0E0,-1.3386001E-3,2.0753331E-3,-0E0,-3.49841E-4,-0E0,-0E0,-1.8083744E-3,-0E0,1.8646851E-3],"split_indices":[4,5,1,1,1,0,3,3,5,5,5,0,5,0,0,0,0,0,0,0,0,0,0],"split_type":[0,0,0,0,0,0,0,0,0,0,0,0,0,0,0,0,0,0,0,0,0,0,0],"sum_hessian":[2.76E2,2.14E2,6.2E1,1.52E2,6.2E1,6E0,5.6E1,7.6E1,7.6E1,3.2E1,3E1,6E0,5E1,4.3E1,3.3E1,1.3E1,6.3E1,2E1,1.2E1,8E0,2.2E1,5E0,4.5E1],"tree_param":{"num_deleted":"0","num_feature":"6","num_nodes":"23","size_leaf_vector":"1"}},{"base_weights":[1.0108591E-4,-8.130435E-3,1.9578427E-2,-1.0895374E-2,-0E0,-0E0,2.2495402E-2,-1.4807696E-2,-0E0,9.3317265E-3,-5.2916125E-4,-0E0,2.5288574E-2,-9.628974E-4,-0E0,7.46426E-5,-2.0708212E-4,6.3452864E-4,-0E0,3.2131368E-4,2.0946588E-3],"categories":[],"categories_nodes":[],"categories_segments":[],"categories_sizes":[],"default_left":[0,0,0,0,0,0,0,0,0,0,0,0,0,0,0,0,0,0,0,0,0],"id":35,"left_children":[1,3,5,7,9,-1,11,13,15,17,-1,-1,19,-1,-1,-1,-1,-1,-1,-1,-1],"loss_changes":[5.157555E-2,5.590641E-3,1.0110803E-2,5.55473E-3,3.5832413E-3,0E0,9.8823905E-3,6.7979544E-3,4.330856E-4,1.1919236E-3,0E0,0E0,4.4295266E-3,0E0,0E0,0E0,0E0,0E0,0E0,0E0,0E0],"parents":[2147483647,0,0,1,1,2,2,3,3,4,4,6,6,7,7,8,8,9,9,12,12],"right_children":[2,4,6,8,10,-1,12,14,16,18,-1,-1,20,-1,-1,-1,-1,-1,-1,-1,-1],"split_conditions":[3.45E-1,2.5862068E-1,-3.26E-1,-2.49E-1,2.8411216E-1,-0E0,3.87E1,2.1132076E-1,-2.39E-1,4.75E1,-5.2916125E-4,-0E0,3.68E-1,-9.628974E-4,-0E0,7.46426E-5,-2.0708212E-4,6.3452864E-4,-0E0,3.2131368E-4,2.0946588E-3],"split_indices":[0,5,2,2,5,0,3,5,2,3,0,0,0,0,0,0,0,0,0,0,0],"split_type":[0,0,0,0,0,0,0,0,0,0,0,0,0,0,0,0,0,0,0,0,0],"sum_hessian":[2.82E2,1.81E2,1.01E2,1.47E2,3.4E1,5E0,9.6E1,1.04E2,4.3E1,2.5E1,9E0,5E0,9.1E1,7.9E1,2.5E1,2.3E1,2E1,2E1,5E0,5.8E1,3.3E1],"tree_param":{"num_deleted":"0","num_feature":"6","num_nodes":"21","size_leaf_vector":"1"}},{"base_weights":[-3.53271E-3,-8.156454E-3,1.9492086E-2,-1.5913825E-2,-0E0,1.1585874E-3,-0E0,-1.9639961E-2,-0E0,-0E0,-9.0760755E-4,-0E0,-1.2451649E-3,6.25158E-4,-0E0],"categories":[],"categories_nodes":[],"categories_segments":[],"categories_sizes":[],"default_left":[0,0,0,0,0,0,0,0,0,0,0,0,0,0,0],"id":36,"left_children":[1,3,5,7,9,-1,-1,11,-1,13,-1,-1,-1,-1,-1],"loss_changes":[2.4885014E-2,8.800384E-3,2.0250045E-3,1.0426955E-2,8.237515E-3,0E0,0E0,1.3355497E-2,0E0,4.220884E-3,0E0,0E0,0E0,0E0,0E0],"parents":[2147483647,0,0,1,1,2,2,3,3,4,4,7,7,9,9],"right_children":[2,4,6,8,10,-1,-1,12,-1,14,-1,-1,-1,-1,-1],"split_conditions":[3.79E-1,7.8E0,2.4186046E-1,3.48E-1,4.96E1,1.1585874E-3,-0E0,2.7E0,-0E0,1.9379845E-1,-9.0760755E-4,-0E0,-1.2451649E-3,6.25158E-4,-0E0],"split_indices":[0,4,5,0,3,0,0,4,0,5,0,0,0,0,0],"split_type":[0,0,0,0,0,0,0,0,0,0,0,0,0,0,0],"sum_hessian":[2.82E2,2.54E2,2.8E1,1E2,1.54E2,2.3E1,5E0,9.2E1,8E0,1.31E2,2.3E1,1.4E1,7.8E1,2.5E1,1.06E2],"tree_param":{"num_deleted":"0","num_feature":"6","num_nodes":"15","size_leaf_vector":"1"}},{"base_weights":[-0E0,-7.08095E-3,2.8334362E-2,-9.3544036E-4,-2.6120342E-2,-0E0,3.6671206E-2,-7.8046685E-3,1.1573747E-2,-3.811378E-2,-0E0,-0E0,2.0302883E-3,-1.1828712E-3,-0E0,1.1969707E-3,-0E0,-0E0,-2.272972E-3],"categories":[],"categories_nodes":[],"categories_segments":[],"categories_sizes":[],"default_left":[0,0,0,0,0,0,0,0,0,0,0,0,0,0,0,0,0,0,0],"id":37,"left_children":[1,3,5,7,9,-1,11,13,15,17,-1,-1,-1,-1,-1,-1,-1,-1,-1],"loss_changes":[5.76454E-2,1.2281735E-2,7.2266012E-3,1.4536598E-2,1.3119249E-2,0E0,2.2690594E-3,2.954147E-2,2.9704664E-3,2.9481426E-3,0E0,0E0,0E0,0E0,0E0,0E0,0E0,0E0,0E0],"parents":[2147483647,0,0,1,1,2,2,3,3,4,4,6,6,7,7,8,8,9,9],"right_children":[2,4,6,8,10,-1,12,14,16,18,-1,-1,-1,-1,-1,-1,-1,-1,-1],"split_conditions":[3.58E-1,-2.39E-1,4.76E1,-2.48E-1,-2.2E-1,-0E0,1.23E1,7.3E0,7.2E0,-2.37E-1,-0E0,-0E0,2.0302883E-3,-1.1828712E-3,-0E0,1.1969707E-3,-0E0,-0E0,-2.272972E-3],"split_indices":[0,2,3,2,2,0,4,4,4,2,0,0,0,0,0,0,0,0,0],"split_type":[0,0,0,0,0,0,0,0,0,0,0,0,0,0,0,0,0,0,0],"sum_hessian":[2.75E2,2.19E2,5.6E1,1.87E2,3.2E1,1.8E1,3.8E1,1.47E2,4E1,2.3E1,9E0,6E0,3.2E1,6.7E1,8E1,1.3E1,2.7E1,6E0,1.7E1],"tree_param":{"num_deleted":"0","num_feature":"6","num_nodes":"19","size_leaf_vector":"1"}},{"base_weights":[1.6842184E-3,-0E0,2.2098627E-3,-7.3705334E-3,3.575235E-3,-0E0,-1.7662166E-2,-8.364844E-3,1.4054595E-2,-0E0,2.91524E-4,-1.8342537E-3,-0E0,-0E0,-8.906703E-4,1.5364897E-3,-0E0],"categories":[],"categories_nodes":[],"categories_segments":[],"categories_sizes":[],"default_left":[0,0,0,0,0,0,0,0,0,0,0,0,0,0,0,0,0],"id":38,"left_children":[1,3,-1,5,7,9,11,13,15,-1,-1,-1,-1,-1,-1,-1,-1],"loss_changes":[3.4358397E-2,8.298907E-3,0E0,1.51686985E-2,2.209891E-2,1.4957577E-3,2.1540726E-2,8.876849E-3,3.045E-2,0E0,0E0,0E0,0E0,0E0,0E0,0E0,0E0],"parents":[2147483647,0,0,1,1,3,3,4,4,5,5,6,6,7,7,8,8],"right_children":[2,4,-1,6,8,10,12,14,16,-1,-1,-1,-1,-1,-1,-1,-1],"split_conditions":[5.38E1,8.301887E-2,2.2098627E-3,3.98E1,4.04E1,2.76E1,9.7E0,1.4331724E-1,1.06E1,-0E0,2.91524E-4,-1.8342537E-3,-0E0,-0E0,-8.906703E-4,1.5364897E-3,-0E0],"split_indices":[3,1,0,3,3,3,4,5,4,0,0,0,0,0,0,0,0],"split_type":[0,0,0,0,0,0,0,0,0,0,0,0,0,0,0,0,0],"sum_hessian":[2.81E2,2.65E2,1.6E1,1.15E2,1.5E2,4.8E1,6.7E1,4.8E1,1.02E2,6E0,4.2E1,3E1,3.7E1,1.1E1,3.7E1,5.2E1,5E1],"tree_param":{"num_deleted":"0","num_feature":"6","num_nodes":"17","size_leaf_vector":"1"}},{"base_weights":[2.4527435E-3,-1.6057065E-3,2.2681996E-2,-1.5479429E-2,-0E0,-0E0,3.3496153E-2,-0E0,-2.0663146E-2,7.357759E-3,-2.5193484E-3,-3.3223927E-3,-0E0,-0E0,2.1181141E-3,-0E0,-1.3746386E-3,-0E0,1.1223977E-3,-4.471497E-4,-0E0,-0E0,-4.0246398E-4],"categories":[],"categories_nodes":[],"categories_segments":[],"categories_sizes":[],"default_left":[0,0,0,0,0,0,0,0,0,0,0,0,0,0,0,0,0,0,0,0,0,0,0],"id":39,"left_children":[1,3,5,7,9,11,13,-1,15,17,19,21,-1,-1,-1,-1,-1,-1,-1,-1,-1,-1,-1],"loss_changes":[3.2367326E-2,1.1220208E-2,1.9292891E-2,5.3375997E-3,5.0108153E-3,1.4349782E-4,1.7254323E-2,0E0,4.0852483E-3,1.7120685E-2,2.4158377E-3,3.7482934E-4,0E0,0E0,0E0,0E0,0E0,0E0,0E0,0E0,0E0,0E0,0E0],"parents":[2147483647,0,0,1,1,2,2,3,3,4,4,5,5,6,6,8,8,9,9,10,10,11,11],"right_children":[2,4,6,8,10,12,14,-1,16,18,20,22,-1,-1,-1,-1,-1,-1,-1,-1,-1,-1,-1],"split_conditions":[1.27E1,3.15E-1,2.3551401E-1,2.7E0,4.3E1,4.01E-1,4.56E1,-0E0,3.46E1,6.8E0,3.44E-1,1.48E1,-0E0,-0E0,2.1181141E-3,-0E0,-1.3746386E-3,-0E0,1.1223977E-3,-4.471497E-4,-0E0,-0E0,-4.0246398E-4],"split_indices":[4,0,5,4,3,0,3,0,3,4,0,4,0,0,0,0,0,0,0,0,0,0,0],"split_type":[0,0,0,0,0,0,0,0,0,0,0,0,0,0,0,0,0,0,0,0,0,0,0],"sum_hessian":[2.63E2,2E2,6.3E1,4.7E1,1.53E2,1.8E1,4.5E1,9E0,3.8E1,8.2E1,7.1E1,1.1E1,7E0,8E0,3.7E1,1.2E1,2.6E1,4.1E1,4.1E1,3.4E1,3.7E1,5E0,6E0],"tree_param":{"num_deleted":"0","num_feature":"6","num_nodes":"23","size_leaf_vector":"1"}},{"base_weights":[4.860742E-3,9.779461E-4,2.2400348E-3,-1.0836539E-3,5.194737E-3,-4.873332E-3,-0E0,-1.0262212E-2,1.1428941E-2,-0E0,-5.961038E-4,-0E0,-6.8485056E-4,9.7193354E-4,-0E0],"categories":[],"categories_nodes":[],"categories_segments":[],"categories_sizes":[],"default_left":[0,0,0,0,0,0,0,0,0,0,0,0,0,0,0],"id":40,"left_children":[1,3,-1,5,7,9,-1,11,13,-1,-1,-1,-1,-1,-1],"loss_changes":[1.982477E-2,4.3705343E-3,0E0,2.11501E-3,1.6910356E-2,4.8743533E-3,0E0,1.014024E-3,1.5706679E-2,0E0,0E0,0E0,0E0,0E0,0E0],"parents":[2147483647,0,0,1,1,3,3,4,4,5,5,7,7,8,8],"right_children":[2,4,-1,6,8,10,-1,12,14,-1,-1,-1,-1,-1,-1],"split_conditions":[4.06E-1,3.27E-1,2.2400348E-3,-2.2E-1,-2.89E-1,1.8195051E-1,-0E0,6.3E0,-2.51E-1,-0E0,-5.961038E-4,-0E0,-6.8485056E-4,9.7193354E-4,-0E0],"split_indices":[0,0,0,2,2,5,0,4,2,0,0,0,0,0,0],"split_type":[0,0,0,0,0,0,0,0,0,0,0,0,0,0,0],"sum_hessian":[2.74E2,2.63E2,1.1E1,9.8E1,1.65E2,9.2E1,6E0,2.4E1,1.41E2,4.4E1,4.8E1,6E0,1.8E1,8.9E1,5.2E1],"tree_param":{"num_deleted":"0","num_feature":"6","num_nodes":"15","size_leaf_vector":"1"}},{"base_weights":[1.6354218E-4,-1.112099E-2,8.658553E-3,-1.5322073E-2,-0E0,-0E0,1.3008177E-2,-0E0,-1.9933186E-2,-2.0563842E-3,4.896486E-3,1.8309643E-3,2.8114354E-3,-1.1796693E-3,-0E0,1.4128259E-3,-0E0,-0E0,4.9615424E-4],"categories":[],"categories_nodes":[],"categories_segments":[],"categories_sizes":[],"default_left":[0,0,0,0,0,0,0,0,0,0,0,0,0,0,0,0,0,0,0],"id":41,"left_children":[1,3,5,7,-1,9,11,-1,13,-1,15,-1,17,-1,-1,-1,-1,-1,-1],"loss_changes":[2.6282098E-2,9.478178E-3,1.2735385E-2,7.406762E-3,0E0,2.2492813E-2,1.8359002E-2,0E0,3.2803472E-3,0E0,1.2271405E-2,0E0,6.570271E-3,0E0,0E0,0E0,0E0,0E0,0E0],"parents":[2147483647,0,0,1,1,2,2,3,3,5,5,6,6,8,8,10,10,12,12],"right_children":[2,4,6,8,-1,10,12,-1,14,-1,16,-1,18,-1,-1,-1,-1,-1,-1],"split_conditions":[4.03E1,-2.2E-1,1.6608997E-1,1.2423313E-1,-0E0,3.48E-1,1.950078E-1,-0E0,2.1116929E-1,-2.0563842E-3,4.93E1,1.8309643E-3,2.3639774E-1,-1.1796693E-3,-0E0,1.4128259E-3,-0E0,-0E0,4.9615424E-4],"split_indices":[3,2,5,5,0,0,5,0,5,0,3,0,5,0,0,0,0,0,0],"split_type":[0,0,0,0,0,0,0,0,0,0,0,0,0,0,0,0,0,0,0],"sum_hessian":[2.83E2,9.6E1,1.87E2,9E1,6E0,3E1,1.57E2,1.9E1,7.1E1,1.1E1,1.9E1,3.1E1,1.26E2,5.6E1,1.5E1,1.4E1,5E0,5.1E1,7.5E1],"tree_param":{"num_deleted":"0","num_feature":"6","num_nodes":"19","size_leaf_vector":"1"}},{"base_weights":[1.5721555E-3,-0E0,1.9189388E-3,-1.23038115E-2,1.6432978E-3,-1.6233506E-2,-0E0,-8.694711E-4,5.044969E-3,-1.0122459E-3,-0E0,5.2968135E-5,-8.702273E-4,-0E0,5.539035E-4],"categories":[],"categories_nodes":[],"categories_segments":[],"categories_sizes":[],"default_left":[0,0,0,0,0,0,0,0,0,0,0,0,0,0,0],"id":42,"left_children":[1,3,-1,5,7,9,-1,11,13,-1,-1,-1,-1,-1,-1],"loss_changes":[2.726642E-2,8.476852E-3,0E0,2.9326389E-3,4.011187E-3,3.5403883E-3,0E0,9.6765645E-3,7.077439E-3,0E0,0E0,0E0,0E0,0E0,0E0],"parents":[2147483647,0,0,1,1,3,3,4,4,5,5,7,7,8,8],"right_children":[2,4,-1,6,8,10,-1,12,14,-1,-1,-1,-1,-1,-1],"split_conditions":[5.34E1,6.3897766E-2,1.9189388E-3,4.68E1,3.7E1,3.36E-1,-0E0,7.912458E-2,9.561753E-2,-1.0122459E-3,-0E0,5.2968135E-5,-8.702273E-4,-0E0,5.539035E-4],"split_indices":[3,1,0,3,3,0,0,1,1,0,0,0,0,0,0],"split_type":[0,0,0,0,0,0,0,0,0,0,0,0,0,0,0],"sum_hessian":[2.89E2,2.72E2,1.7E1,5E1,2.22E2,3.9E1,1.1E1,4.4E1,1.78E2,3.3E1,6E0,1.4E1,3E1,8.5E1,9.3E1],"tree_param":{"num_deleted":"0","num_feature":"6","num_nodes":"15","size_leaf_vector":"1"}},{"base_weights":[-0E0,-0E0,1.2878545E-3,5.6559104E-4,-7.3672454E-3,-1.0121336E-3,3.0744E-2,-1.7402148E-2,-0E0,-0E0,-1.1215279E-3,1.752257E-3,-0E0,-1.2287943E-3,-0E0,1.2243883E-3,-0E0],"categories":[],"categories_nodes":[],"categories_segments":[],"categories_sizes":[],"default_left":[0,0,0,0,0,0,0,0,0,0,0,0,0,0,0,0,0],"id":43,"left_children":[1,3,-1,5,7,9,11,13,15,-1,-1,-1,-1,-1,-1,-1,-1],"loss_changes":[7.961132E-3,4.1841795E-3,0E0,2.3736611E-2,1.3136584E-2,1.1406032E-2,9.3339756E-4,1.1729179E-2,8.395109E-3,0E0,0E0,0E0,0E0,0E0,0E0,0E0,0E0],"parents":[2147483647,0,0,1,1,3,3,4,4,5,5,6,6,7,7,8,8],"right_children":[2,4,-1,6,8,10,12,14,16,-1,-1,-1,-1,-1,-1,-1,-1],"split_conditions":[4.06E-1,1.0050251E-1,1.2878545E-3,9.585121E-2,1.2566371E-1,9.039548E-2,2.3831071E-1,4.98E1,3.66E-1,-0E0,-1.1215279E-3,1.752257E-3,-0E0,-1.2287943E-3,-0E0,1.2243883E-3,-0E0],"split_indices":[0,1,0,1,1,1,5,3,0,0,0,0,0,0,0,0,0],"split_type":[0,0,0,0,0,0,0,0,0,0,0,0,0,0,0,0,0],"sum_hessian":[2.67E2,2.57E2,1E1,1.83E2,7.4E1,1.6E2,2.3E1,5.5E1,1.9E1,1.39E2,2.1E1,1.8E1,5E0,4.6E1,9E0,1.2E1,7E0],"tree_param":{"num_deleted":"0","num_feature":"6","num_nodes":"17","size_leaf_vector":"1"}},{"base_weights":[2.1308594E-4,-1.7927675E-2,3.5307868E-3,-0E0,-1.1461136E-3,8.937811E-3,-4.78004E-3,2.3085752E-3,4.134432E-2,-1.0221885E-2,-0E0,5.69717E-4,-4.270002E-4,-0E0,3.4657256E-3,-0E0,-1.0781431E-3],"categories":[],"categories_nodes":[],"categories_segments":[],"categories_sizes":[],"default_left":[0,0,0,0,0,0,0,0,0,0,0,0,0,0,0,0,0],"id":44,"left_children":[1,3,5,-1,-1,7,9,11,13,15,-1,-1,-1,-1,-1,-1,-1],"loss_changes":[8.877343E-3,5.199397E-4,1.3353606E-2,0E0,0E0,1.837077E-2,4.4117947E-3,1.8476853E-2,1.0762803E-2,6.702573E-3,0E0,0E0,0E0,0E0,0E0,0E0,0E0],"parents":[2147483647,0,0,1,1,2,2,5,5,6,6,7,7,8,8,9,9],"right_children":[2,4,6,-1,-1,8,10,12,14,16,-1,-1,-1,-1,-1,-1,-1],"split_conditions":[2.97E1,2.54E1,2.4493243E-1,-0E0,-1.1461136E-3,2.3551401E-1,1.23844735E-1,4.61E1,4.85E1,9.039548E-2,-0E0,5.69717E-4,-4.270002E-4,-0E0,3.4657256E-3,-0E0,-1.0781431E-3],"split_indices":[3,3,5,0,0,5,1,3,3,1,0,0,0,0,0,0,0],"split_type":[0,0,0,0,0,0,0,0,0,0,0,0,0,0,0,0,0],"sum_hessian":[2.63E2,1.6E1,2.47E2,6E0,1E1,1.86E2,6.1E1,1.69E2,1.7E1,5.4E1,7E0,1.17E2,5.2E1,1E1,7E0,2.9E1,2.5E1],"tree_param":{"num_deleted":"0","num_feature":"6","num_nodes":"17","size_leaf_vector":"1"}},{"base_weights":[-2.4794575E-3,-6.0094907E-3,2.6507005E-3,-0E0,-1.2447596E-2,-3.4656848E-3,1.5548121E-2,-0E0,-1.7199794E-2,-5.664401E-4,-0E0,1.4252524E-3,-0E0,-0E0,2.813673E-4,-0E0,-9.3897013E-4],"categories":[],"categories_nodes":[],"categories_segments":[],"categories_sizes":[],"default_left":[0,0,0,0,0,0,0,0,0,0,0,0,0,0,0,0,0],"id":45,"left_children":[1,3,-1,5,7,9,11,13,15,-1,-1,-1,-1,-1,-1,-1,-1],"loss_changes":[3.0418025E-2,1.3635078E-2,0E0,9.711709E-3,1.2554381E-2,7.5899754E-3,1.323573E-2,7.2834146E-4,4.7608055E-3,0E0,0E0,0E0,0E0,0E0,0E0,0E0,0E0],"parents":[2147483647,0,0,1,1,3,3,4,4,5,5,6,6,7,7,8,8],"right_children":[2,4,-1,6,8,10,12,14,16,-1,-1,-1,-1,-1,-1,-1,-1],"split_conditions":[5.63E1,1.8994413E-1,2.6507005E-3,3.48E-1,-2.72E-1,-2.49E-1,4.93E1,-2.89E-1,3.55E1,-5.664401E-4,-0E0,1.4252524E-3,-0E0,-0E0,2.813673E-4,-0E0,-9.3897013E-4],"split_indices":[3,5,0,0,2,2,3,2,3,0,0,0,0,0,0,0,0],"split_type":[0,0,0,0,0,0,0,0,0,0,0,0,0,0,0,0,0],"sum_hessian":[2.7E2,2.64E2,6E0,1.16E2,1.48E2,8.2E1,3.4E1,2.9E1,1.19E2,6.5E1,1.7E1,2.5E1,9E0,8E0,2.1E1,6E0,1.13E2],"tree_param":{"num_deleted":"0","num_feature":"6","num_nodes":"17","size_leaf_vector":"1"}},{"base_weights":[-0E0,-8.953292E-4,2.2665614E-3,-7.714148E-3,6.5365003E-4,-0E0,-1.2815458E-2,1.6168721E-2,-0E0,-0E0,6.734148E-4,-8.944284E-4,-0E0,-0E0,1.2280687E-3,-1.0256963E-3,5.694275E-5],"categories":[],"categories_nodes":[],"categories_segments":[],"categories_sizes":[],"default_left":[0,0,0,0,0,0,0,0,0,0,0,0,0,0,0,0,0],"id":46,"left_children":[1,3,-1,5,7,9,11,13,15,-1,-1,-1,-1,-1,-1,-1,-1],"loss_changes":[2.488029E-2,6.455504E-3,0E0,8.011603E-3,6.7257644E-3,1.8139498E-3,3.943052E-3,5.268106E-3,9.417595E-3,0E0,0E0,0E0,0E0,0E0,0E0,0E0,0E0],"parents":[2147483647,0,0,1,1,3,3,4,4,5,5,6,6,7,7,8,8],"right_children":[2,4,-1,6,8,10,12,14,16,-1,-1,-1,-1,-1,-1,-1,-1],"split_conditions":[5.53E1,7.8E0,2.2665614E-3,1.2423313E-1,8.8E0,3.2E1,1.9160838E-1,3.9E1,9.7E0,-0E0,6.734148E-4,-8.944284E-4,-0E0,-0E0,1.2280687E-3,-1.0256963E-3,5.694275E-5],"split_indices":[3,4,0,5,4,3,5,3,4,0,0,0,0,0,0,0,0],"split_type":[0,0,0,0,0,0,0,0,0,0,0,0,0,0,0,0,0],"sum_hessian":[2.84E2,2.74E2,1E1,1.09E2,1.65E2,2.2E1,8.7E1,2.4E1,1.41E2,1.4E1,8E0,5.6E1,3.1E1,6E0,1.8E1,2E1,1.21E2],"tree_param":{"num_deleted":"0","num_feature":"6","num_nodes":"17","size_leaf_vector":"1"}},{"base_weights":[-0E0,-2.2184912E-3,6.940499E-4,-7.682866E-3,-0E0,1.7940035E-2,-0E0,-0E0,-2.378991E-2,-0E0,8.936336E-3,3.3219982E-2,-0E0,-1.1643996E-2,3.205601E-3,-0E0,6.055919E-4,-0E0,-1.7095832E-3,-0E0,1.339611E-3,-0E0,1.9402528E-3,-0E0,-1.0354632E-3,-0E0,7.347894E-4],"categories":[],"categories_nodes":[],"categories_segments":[],"categories_sizes":[],"default_left":[0,0,0,0,0,0,0,0,0,0,0,0,0,0,0,0,0,0,0,0,0,0,0,0,0,0,0],"id":47,"left_children":[1,3,5,7,9,11,13,15,17,-1,19,21,-1,23,25,-1,-1,-1,-1,-1,-1,-1,-1,-1,-1,-1,-1],"loss_changes":[6.952807E-4,4.3380857E-3,1.022389E-2,1.9944012E-2,2.0763108E-3,1.5083012E-2,8.708412E-3,4.4008987E-3,5.493587E-3,0E0,7.973212E-3,2.1710433E-4,0E0,1.0013313E-2,7.929611E-3,0E0,0E0,0E0,0E0,0E0,0E0,0E0,0E0,0E0,0E0,0E0,0E0],"parents":[2147483647,0,0,1,1,2,2,3,3,4,4,5,5,6,6,7,7,8,8,10,10,11,11,13,13,14,14],"right_children":[2,4,6,8,10,12,14,16,18,-1,20,22,-1,24,26,-1,-1,-1,-1,-1,-1,-1,-1,-1,-1,-1,-1],"split_conditions":[8.3E0,1.8432511E-1,1.9152047E-1,3.22E-1,3.08E-1,4.86E1,2.3873122E-1,2.97E1,3.84E1,-0E0,4.01E1,9.2E0,-0E0,4.47E1,3.35E-1,-0E0,6.055919E-4,-0E0,-1.7095832E-3,-0E0,1.339611E-3,-0E0,1.9402528E-3,-0E0,-1.0354632E-3,-0E0,7.347894E-4],"split_indices":[4,5,5,0,0,3,5,3,3,0,3,4,0,3,0,0,0,0,0,0,0,0,0,0,0,0,0],"split_type":[0,0,0,0,0,0,0,0,0,0,0,0,0,0,0,0,0,0,0,0,0,0,0,0,0,0,0],"sum_hessian":[2.78E2,1.24E2,1.54E2,8.2E1,4.2E1,3E1,1.24E2,4E1,4.2E1,1.8E1,2.4E1,2.1E1,9E0,5.7E1,6.7E1,1.2E1,2.8E1,1.8E1,2.4E1,1.2E1,1.2E1,6E0,1.5E1,1.7E1,4E1,2.9E1,3.8E1],"tree_param":{"num_deleted":"0","num_feature":"6","num_nodes":"27","size_leaf_vector":"1"}},{"base_weights":[-0E0,-1.2518042E-3,1.7483997E-3,-1.09676E-2,-0E0,-0E0,-8.346067E-4,2.674268E-3,-1.1983235E-2,-2.4611322E-4,4.1387408E-4,-0E0,-8.4653863E-4],"categories":[],"categories_nodes":[],"categories_segments":[],"categories_sizes":[],"default_left":[0,0,0,0,0,0,0,0,0,0,0,0,0],"id":48,"left_children":[1,3,-1,5,7,-1,-1,9,11,-1,-1,-1,-1],"loss_changes":[1.6318979E-2,6.4333365E-3,0E0,5.9604254E-3,4.280845E-3,0E0,0E0,1.01444E-2,8.545052E-4,0E0,0E0,0E0,0E0],"parents":[2147483647,0,0,1,1,3,3,4,4,7,7,8,8],"right_children":[2,4,-1,6,8,-1,-1,10,12,-1,-1,-1,-1],"split_conditions":[4.06E-1,3.17E-1,1.7483997E-3,5.8536585E-2,3.74E-1,-0E0,-8.346067E-4,6.9E0,9.829868E-2,-2.4611322E-4,4.1387408E-4,-0E0,-8.4653863E-4],"split_indices":[0,0,0,1,0,0,0,4,1,0,0,0,0],"split_type":[0,0,0,0,0,0,0,0,0,0,0,0,0],"sum_hessian":[2.79E2,2.68E2,1.1E1,5.5E1,2.13E2,1.1E1,4.4E1,1.95E2,1.8E1,4.5E1,1.5E2,7E0,1.1E1],"tree_param":{"num_deleted":"0","num_feature":"6","num_nodes":"13","size_leaf_vector":"1"}},{"base_weights":[1.9438548E-3,-7.530445E-3,1.3213015E-2,-1.0870584E-2,-0E0,-0E0,2.0863425E-2,-0E0,-1.54134575E-2,5.074564E-4,-0E0,-0E0,-5.248583E-3,3.1991694E-2,-0E0,-6.7811593E-4,7.2476006E-4,-0E0,-1.2683751E-3,-6.503766E-4,-0E0,-0E0,1.6632226E-3,-0E0,-2.8049716E-4],"categories":[],"categories_nodes":[],"categories_segments":[],"categories_sizes":[],"default_left":[0,0,0,0,0,0,0,0,0,0,0,0,0,0,0,0,0,0,0,0,0,0,0,0,0],"id":49,"left_children":[1,3,5,7,9,11,13,15,17,-1,-1,-1,19,21,23,-1,-1,-1,-1,-1,-1,-1,-1,-1,-1],"loss_changes":[3.3468995E-2,6.2222723E-3,2.2126434E-2,7.674044E-3,1.3390625E-3,9.090715E-4,3.883138E-2,6.0154083E-3,1.2080809E-2,0E0,0E0,0E0,3.4900215E-3,5.035922E-4,7.553151E-4,0E0,0E0,0E0,0E0,0E0,0E0,0E0,0E0,0E0,0E0],"parents":[2147483647,0,0,1,1,2,2,3,3,4,4,5,5,6,6,7,7,8,8,12,12,13,13,14,14],"right_children":[2,4,6,8,10,12,14,16,18,-1,-1,-1,20,22,24,-1,-1,-1,-1,-1,-1,-1,-1,-1,-1],"split_conditions":[8.5346214E-2,2.646566E-1,4.03E1,3.52E1,2.787194E-1,1.4331724E-1,2.580645E-1,2.76E1,-2.71E-1,5.074564E-4,-0E0,-0E0,-2.38E-1,1.4191419E-1,9.3797274E-2,-6.7811593E-4,7.2476006E-4,-0E0,-1.2683751E-3,-6.503766E-4,-0E0,-0E0,1.6632226E-3,-0E0,-2.8049716E-4],"split_indices":[1,5,3,3,5,5,5,3,2,0,0,0,2,5,1,0,0,0,0,0,0,0,0,0,0],"split_type":[0,0,0,0,0,0,0,0,0,0,0,0,0,0,0,0,0,0,0,0,0,0,0,0,0],"sum_hessian":[2.83E2,1.3E2,1.53E2,1.14E2,1.6E1,4.2E1,1.11E2,2.6E1,8.8E1,1.1E1,5E0,1.1E1,3.1E1,8.4E1,2.7E1,9E0,1.7E1,3.8E1,5E1,2.4E1,7E0,6E0,7.8E1,5E0,2.2E1],"tree_param":{"num_deleted":"0","num_feature":"6","num_nodes":"25","size_leaf_vector":"1"}},{"base_weights":[-9.930448E-4,-6.024302E-3,4.386122E-3,-0E0,-1.6211905E-2,3.9052904E-2,-0E0,-1.3116767E-2,3.3567678E-3,-0E0,-3.2325275E-2,-0E0,2.9284302E-3,-1.2285621E-2,2.1434794E-3,-0E0,-1.0571071E-3,4.3262818E-4,-0E0,-0E0,7.08793E-5,-0E0,-2.1385585E-3,-8.172949E-4,-0E0,7.131339E-4,-0E0],"categories":[],"categories_nodes":[],"categories_segments":[],"categories_sizes":[],"default_left":[0,0,0,0,0,0,0,0,0,0,0,0,0,0,0,0,0,0,0,0,0,0,0,0,0,0,0],"id":50,"left_children":[1,3,5,7,9,11,13,15,17,19,21,-1,-1,23,25,-1,-1,-1,-1,-1,-1,-1,-1,-1,-1,-1,-1],"loss_changes":[8.368656E-3,1.1429705E-2,2.2728357E-2,5.7608597E-3,2.65339E-2,3.0401815E-3,4.4421633E-3,5.188445E-3,5.547629E-3,3.4162353E-5,1.7266963E-2,0E0,0E0,1.9191103E-3,4.6662334E-3,0E0,0E0,0E0,0E0,0E0,0E0,0E0,0E0,0E0,0E0,0E0,0E0],"parents":[2147483647,0,0,1,1,2,2,3,3,4,4,5,5,6,6,7,7,8,8,9,9,10,10,13,13,14,14],"right_children":[2,4,6,8,10,12,14,16,18,20,22,-1,-1,24,26,-1,-1,-1,-1,-1,-1,-1,-1,-1,-1,-1,-1],"split_conditions":[2.3873122E-1,1.950078E-1,2.4420401E-1,3.14E1,4.3E1,4.81E1,4.56E1,2.37E1,5.15E1,2.1116929E-1,-2.84E-1,-0E0,2.9284302E-3,-2.19E-1,4.94E1,-0E0,-1.0571071E-3,4.3262818E-4,-0E0,-0E0,7.08793E-5,-0E0,-2.1385585E-3,-8.172949E-4,-0E0,7.131339E-4,-0E0],"split_indices":[5,5,5,3,3,3,3,3,3,5,2,0,0,2,3,0,0,0,0,0,0,0,0,0,0,0,0],"split_type":[0,0,0,0,0,0,0,0,0,0,0,0,0,0,0,0,0,0,0,0,0,0,0,0,0,0,0],"sum_hessian":[2.75E2,1.9E2,8.5E1,1.22E2,6.8E1,1.4E1,7.1E1,2.5E1,9.7E1,2.7E1,4.1E1,8E0,6E0,2.6E1,4.5E1,5E0,2E1,8.7E1,1E1,1.2E1,1.5E1,9E0,3.2E1,2.1E1,5E0,2.2E1,2.3E1],"tree_param":{"num_deleted":"0","num_feature":"6","num_nodes":"27","size_leaf_vector":"1"}},{"base_weights":[3.740876E-4,-0E0,9.849334E-3,-0E0,-5.1522832E-3,2.408998E-2,-0E0,-1.0224123E-3,2.1293925E-2,4.468251E-3,-1.716308E-2,3.0376522E-2,-0E0,-1.2885005E-2,7.482534E-4,-3.3747256E-4,-0E0,-0E0,1.5306695E-3,1.3851095E-3,-0E0,-1.13011E-3,-0E0,-0E0,1.9061075E-3,-9.673155E-4,-0E0],"categories":[],"categories_nodes":[],"categories_segments":[],"categories_sizes":[],"default_left":[0,0,0,0,0,0,0,0,0,0,0,0,0,0,0,0,0,0,0,0,0,0,0,0,0,0,0],"id":51,"left_children":[1,3,5,7,9,11,13,15,17,19,21,23,-1,25,-1,-1,-1,-1,-1,-1,-1,-1,-1,-1,-1,-1,-1],"loss_changes":[5.780959E-3,2.415688E-3,1.158925E-2,1.2811059E-2,1.7015865E-2,3.813047E-3,6.282023E-3,2.7094297E-3,7.921881E-3,1.55366445E-2,8.7338425E-3,3.4832153E-3,0E0,2.9184972E-3,0E0,0E0,0E0,0E0,0E0,0E0,0E0,0E0,0E0,0E0,0E0,0E0,0E0],"parents":[2147483647,0,0,1,1,2,2,3,3,4,4,5,5,6,6,7,7,8,8,9,9,10,10,11,11,13,13],"right_children":[2,4,6,8,10,12,14,16,18,20,22,24,-1,26,-1,-1,-1,-1,-1,-1,-1,-1,-1,-1,-1,-1,-1],"split_conditions":[1.27E1,8.7E0,1.45E1,7.8E0,1.921824E-1,5.12E1,5.38E1,-2.61E-1,1.6608997E-1,4.79E1,4.85E1,4.52E1,-0E0,2.846821E-1,7.482534E-4,-3.3747256E-4,-0E0,-0E0,1.5306695E-3,1.3851095E-3,-0E0,-1.13011E-3,-0E0,-0E0,1.9061075E-3,-9.673155E-4,-0E0],"split_indices":[4,4,4,4,5,3,3,2,5,3,3,3,0,5,0,0,0,0,0,0,0,0,0,0,0,0,0],"split_type":[0,0,0,0,0,0,0,0,0,0,0,0,0,0,0,0,0,0,0,0,0,0,0,0,0,0,0],"sum_hessian":[2.81E2,2.23E2,5.8E1,1.34E2,8.9E1,2.8E1,3E1,1.08E2,2.6E1,2.7E1,6.2E1,2.1E1,7E0,2.1E1,9E0,6E1,4.8E1,6E0,2E1,1.9E1,8E0,5.2E1,1E1,6E0,1.5E1,1.6E1,5E0],"tree_param":{"num_deleted":"0","num_feature":"6","num_nodes":"27","size_leaf_vector":"1"}},{"base_weights":[-0E0,-1.16628595E-2,3.4302778E-3,-0E0,-2.3974655E-2,-6.902254E-4,8.093517E-3,-0E0,4.1073535E-4,-3.316318E-2,-0E0,2.5988207E-4,-1.2187901E-2,1.5739398E-2,-0E0,-2.1824571E-3,-0E0,-1.0436457E-3,-0E0,2.3138945E-3,1.0909791E-4,-6.843506E-4,3.49783E-5],"categories":[],"categories_nodes":[],"categories_segments":[],"categories_sizes":[],"default_left":[0,0,0,0,0,0,0,0,0,0,0,0,0,0,0,0,0,0,0,0,0,0,0],"id":52,"left_children":[1,3,5,7,9,11,13,-1,-1,15,-1,-1,17,19,21,-1,-1,-1,-1,-1,-1,-1,-1],"loss_changes":[1.1483801E-2,1.8612163E-2,7.8055905E-3,1.012221E-3,1.4202628E-2,7.548239E-3,1.4240847E-2,0E0,0E0,1.1554666E-2,0E0,0E0,1.1891153E-2,1.6556475E-2,4.3277754E-3,0E0,0E0,0E0,0E0,0E0,0E0,0E0,0E0],"parents":[2147483647,0,0,1,1,2,2,3,3,4,4,5,5,6,6,9,9,12,12,13,13,14,14],"right_children":[2,4,6,8,10,12,14,-1,-1,16,-1,-1,18,20,22,-1,-1,-1,-1,-1,-1,-1,-1],"split_conditions":[1.6567165E-1,1.2423313E-1,4.03E1,-2.96E-1,9.6E0,1.7285945E-1,2.4493243E-1,-0E0,4.1073535E-4,-2.56E-1,-0E0,2.5988207E-4,-2.28E-1,4.23E1,4.56E1,-2.1824571E-3,-0E0,-1.0436457E-3,-0E0,2.3138945E-3,1.0909791E-4,-6.843506E-4,3.49783E-5],"split_indices":[5,5,3,2,4,5,5,0,0,2,0,0,2,3,3,0,0,0,0,0,0,0,0],"split_type":[0,0,0,0,0,0,0,0,0,0,0,0,0,0,0,0,0,0,0,0,0,0,0],"sum_hessian":[2.75E2,6.4E1,2.11E2,1.8E1,4.6E1,5.6E1,1.55E2,5E0,1.3E1,3.6E1,1E1,9E0,4.7E1,9.7E1,5.8E1,2.6E1,1E1,4.2E1,5E0,1.7E1,8E1,2.1E1,3.7E1],"tree_param":{"num_deleted":"0","num_feature":"6","num_nodes":"23","size_leaf_vector":"1"}},{"base_weights":[1.4689128E-3,-0E0,2.318383E-3,-1.3849285E-2,1.182014E-3,-0E0,-1.3443253E-3,5.9826877E-3,-5.9306324E-3,-5.2263233E-5,5.8082305E-4,-7.1500475E-4,-0E0],"categories":[],"categories_nodes":[],"categories_segments":[],"categories_sizes":[],"default_left":[0,0,0,0,0,0,0,0,0,0,0,0,0],"id":53,"left_children":[1,3,-1,5,7,-1,-1,9,11,-1,-1,-1,-1],"loss_changes":[1.6593363E-2,4.004718E-3,0E0,6.4761257E-3,8.906527E-3,0E0,0E0,1.310988E-2,9.644717E-3,0E0,0E0,0E0,0E0],"parents":[2147483647,0,0,1,1,3,3,4,4,7,7,8,8],"right_children":[2,4,-1,6,8,-1,-1,10,12,-1,-1,-1,-1],"split_conditions":[5.63E1,2.97E1,2.318383E-3,2.37E1,1.0755814E-1,-0E0,-1.3443253E-3,6.478405E-2,4.06E-1,-5.2263233E-5,5.8082305E-4,-7.1500475E-4,-0E0],"split_indices":[3,3,0,3,1,0,0,1,0,0,0,0,0],"split_type":[0,0,0,0,0,0,0,0,0,0,0,0,0],"sum_hessian":[2.79E2,2.73E2,6E0,1.7E1,2.56E2,5E0,1.2E1,1.95E2,6.1E1,4.8E1,1.47E2,5.6E1,5E0],"tree_param":{"num_deleted":"0","num_feature":"6","num_nodes":"13","size_leaf_vector":"1"}},{"base_weights":[-2.6864125E-3,-6.053347E-3,1.6767078E-3,-5.02038E-4,-1.502538E-2,-8.707907E-3,4.22859E-3,-0E0,-2.3614077E-2,-0E0,-5.723962E-4,7.056764E-4,-3.2083593E-5,-1.5900837E-3,-0E0],"categories":[],"categories_nodes":[],"categories_segments":[],"categories_sizes":[],"default_left":[0,0,0,0,0,0,0,0,0,0,0,0,0,0,0],"id":54,"left_children":[1,3,-1,5,7,9,11,-1,13,-1,-1,-1,-1,-1,-1],"loss_changes":[2.1543939E-2,5.967807E-3,0E0,1.0348818E-2,1.5755499E-2,4.254263E-3,1.127941E-2,0E0,2.0805415E-2,0E0,0E0,0E0,0E0,0E0,0E0],"parents":[2147483647,0,0,1,1,3,3,4,4,5,5,6,6,8,8],"right_children":[2,4,-1,6,8,10,12,-1,14,-1,-1,-1,-1,-1,-1],"split_conditions":[4.06E-1,3.52E-1,1.6767078E-3,8.2E0,1.5625E-1,2.7E0,-2.43E-1,-0E0,2.7768013E-1,-0E0,-5.723962E-4,7.056764E-4,-3.2083593E-5,-1.5900837E-3,-0E0],"split_indices":[0,0,0,4,5,4,2,0,5,0,0,0,0,0,0],"split_type":[0,0,0,0,0,0,0,0,0,0,0,0,0,0,0],"sum_hessian":[2.84E2,2.74E2,1E1,2.05E2,6.9E1,1.13E2,9.2E1,1.4E1,5.5E1,1.6E1,9.7E1,6.3E1,2.9E1,5E1,5E0],"tree_param":{"num_deleted":"0","num_feature":"6","num_nodes":"15","size_leaf_vector":"1"}},{"base_weights":[1.1925923E-3,-0E0,2.0586595E-2,-1.3633876E-2,1.2207866E-3,-0E0,3.276198E-2,-0E0,-2.7055474E-2,1.5685178E-2,-0E0,-0E0,2.255437E-3,-1.7220542E-3,-0E0,1.4267046E-3,-0E0,4.4254676E-4,-3.454171E-4],"categories":[],"categories_nodes":[],"categories_segments":[],"categories_sizes":[],"default_left":[0,0,0,0,0,0,0,0,0,0,0,0,0,0,0,0,0,0,0],"id":55,"left_children":[1,3,5,7,9,-1,11,-1,13,15,17,-1,-1,-1,-1,-1,-1,-1,-1],"loss_changes":[1.6559767E-2,1.0130466E-2,1.310141E-2,9.180188E-3,1.0054352E-2,0E0,4.5378488E-3,0E0,1.133237E-3,1.3278591E-2,8.27438E-3,0E0,0E0,0E0,0E0,0E0,0E0,0E0,0E0],"parents":[2147483647,0,0,1,1,2,2,3,3,4,4,6,6,8,8,9,9,10,10],"right_children":[2,4,6,8,10,-1,12,-1,14,16,18,-1,-1,-1,-1,-1,-1,-1,-1],"split_conditions":[3.68E-1,6.478405E-2,1.6608997E-1,4.17E1,7.628524E-2,-0E0,4.97E1,-0E0,2.276176E-1,3.36E-1,1.6968699E-1,-0E0,2.255437E-3,-1.7220542E-3,-0E0,1.4267046E-3,-0E0,4.4254676E-4,-3.454171E-4],"split_indices":[0,1,5,3,1,0,3,0,5,0,5,0,0,0,0,0,0,0,0],"split_type":[0,0,0,0,0,0,0,0,0,0,0,0,0,0,0,0,0,0,0],"sum_hessian":[2.74E2,2.36E2,3.8E1,5.1E1,1.85E2,1.2E1,2.6E1,2.7E1,2.4E1,4E1,1.45E2,1.1E1,1.5E1,1.5E1,9E0,2.7E1,1.3E1,3.6E1,1.09E2],"tree_param":{"num_deleted":"0","num_feature":"6","num_nodes":"19","size_leaf_vector":"1"}},{"base_weights":[-0E0,-9.210845E-3,5.0574797E-3,-1.7408067E-2,-0E0,1.3512972E-2,-7.221968E-4,-0E0,-1.4059704E-3,1.2080446E-2,-0E0,8.633246E-4,3.319198E-2,-1.45516815E-2,-0E0,-6.704265E-5,-0E0,-0E0,9.407401E-4,6.5614976E-4,-9.34865E-5,-0E0,3.026258E-3,-0E0,-1.0883436E-3,2.2891288E-4,-0E0],"categories":[],"categories_nodes":[],"categories_segments":[],"categories_sizes":[],"default_left":[0,0,0,0,0,0,0,0,0,0,0,0,0,0,0,0,0,0,0,0,0,0,0,0,0,0,0],"id":56,"left_children":[1,3,5,7,9,11,13,15,-1,17,-1,19,21,23,25,-1,-1,-1,-1,-1,-1,-1,-1,-1,-1,-1,-1],"loss_changes":[1.3051817E-2,1.5032061E-2,1.43318465E-2,1.0850621E-2,3.2106177E-3,8.05722E-3,4.625673E-3,2.876619E-5,0E0,2.453331E-3,0E0,8.322706E-3,1.3855264E-2,3.3960124E-3,5.030506E-4,0E0,0E0,0E0,0E0,0E0,0E0,0E0,0E0,0E0,0E0,0E0,0E0],"parents":[2147483647,0,0,1,1,2,2,3,3,4,4,5,5,6,6,7,7,9,9,11,11,12,12,13,13,14,14],"right_children":[2,4,6,8,10,12,14,16,-1,18,-1,20,22,24,26,-1,-1,-1,-1,-1,-1,-1,-1,-1,-1,-1,-1],"split_conditions":[1.8432511E-1,3.48E-1,2.4493243E-1,3.22E-1,4.93E1,2.3639774E-1,4.39E1,2.97E1,-1.4059704E-3,3.57E-1,-0E0,4.54E1,4.85E1,6.998445E-2,4.94E1,-6.704265E-5,-0E0,-0E0,9.407401E-4,6.5614976E-4,-9.34865E-5,-0E0,3.026258E-3,-0E0,-1.0883436E-3,2.2891288E-4,-0E0],"split_indices":[5,0,5,0,3,5,3,3,0,0,0,3,3,1,3,0,0,0,0,0,0,0,0,0,0,0,0],"split_type":[0,0,0,0,0,0,0,0,0,0,0,0,0,0,0,0,0,0,0,0,0,0,0,0,0,0,0],"sum_hessian":[2.63E2,1.03E2,1.6E2,7.7E1,2.6E1,9.9E1,6.1E1,3.5E1,4.2E1,2E1,6E0,7.7E1,2.2E1,2E1,4.1E1,1.4E1,2.1E1,6E0,1.4E1,4.6E1,3.1E1,1.3E1,9E0,5E0,1.5E1,2.2E1,1.9E1],"tree_param":{"num_deleted":"0","num_feature":"6","num_nodes":"27","size_leaf_vector":"1"}},{"base_weights":[-0E0,-5.5943634E-3,1.4851971E-2,-1.6413996E-2,-0E0,3.134605E-2,-0E0,-2.2500869E-2,-0E0,1.2195556E-2,-3.4417869E-3,-0E0,3.9147742E-2,-1.1338302E-2,1.7914517E-3,-0E0,-1.2589796E-3,-0E0,1.0422504E-3,-8.076585E-4,-0E0,2.2972922E-3,-0E0,-1.3124818E-3,-0E0],"categories":[],"categories_nodes":[],"categories_segments":[],"categories_sizes":[],"default_left":[0,0,0,0,0,0,0,0,0,0,0,0,0,0,0,0,0,0,0,0,0,0,0,0,0],"id":57,"left_children":[1,3,5,7,9,11,13,15,-1,17,19,-1,21,23,-1,-1,-1,-1,-1,-1,-1,-1,-1,-1,-1],"loss_changes":[2.137957E-2,1.0201031E-2,1.6122054E-2,1.1615645E-2,5.1029436E-3,6.3212737E-3,1.5281633E-2,1.574086E-3,0E0,3.9659175E-3,1.1103202E-2,0E0,1.2172721E-3,7.985583E-3,0E0,0E0,0E0,0E0,0E0,0E0,0E0,0E0,0E0,0E0,0E0],"parents":[2147483647,0,0,1,1,2,2,3,3,4,4,5,5,6,6,7,7,9,9,10,10,12,12,13,13],"right_children":[2,4,6,8,10,12,14,16,-1,18,20,-1,22,24,-1,-1,-1,-1,-1,-1,-1,-1,-1,-1,-1],"split_conditions":[1.27E1,1.627543E-1,1.45E1,9.6E0,1.7274472E-1,4.52E1,5.63E1,2.3E0,-0E0,6.7292646E-2,4.03E1,-0E0,5.15E1,2.635253E-1,1.7914517E-3,-0E0,-1.2589796E-3,-0E0,1.0422504E-3,-8.076585E-4,-0E0,2.2972922E-3,-0E0,-1.3124818E-3,-0E0],"split_indices":[4,5,4,4,5,3,3,4,0,1,3,0,3,5,0,0,0,0,0,0,0,0,0,0,0],"split_type":[0,0,0,0,0,0,0,0,0,0,0,0,0,0,0,0,0,0,0,0,0,0,0,0,0],"sum_hessian":[2.86E2,2.23E2,6.3E1,6.2E1,1.61E2,2.9E1,3.4E1,5.5E1,7E0,2.1E1,1.4E2,7E0,2.2E1,2.7E1,7E0,9E0,4.6E1,6E0,1.5E1,4.7E1,9.3E1,1.6E1,6E0,1.5E1,1.2E1],"tree_param":{"num_deleted":"0","num_feature":"6","num_nodes":"25","size_leaf_vector":"1"}},{"base_weights":[-0E0,-2.7406649E-3,1.5301713E-3,-0E0,-1.1265682E-2,-2.9840644E-3,1.9089581E-2,-0E0,-2.004617E-2,-0E0,-6.400241E-4,-0E0,1.3449534E-3,-1.6122245E-3,-0E0],"categories":[],"categories_nodes":[],"categories_segments":[],"categories_sizes":[],"default_left":[0,0,0,0,0,0,0,0,0,0,0,0,0,0,0],"id":58,"left_children":[1,3,-1,5,7,9,11,-1,13,-1,-1,-1,-1,-1,-1],"loss_changes":[1.3161713E-2,6.0728034E-3,0E0,1.1352917E-2,9.685671E-3,5.0403033E-3,3.18495E-3,0E0,8.311322E-3,0E0,0E0,0E0,0E0,0E0,0E0],"parents":[2147483647,0,0,1,1,3,3,4,4,5,5,6,6,8,8],"right_children":[2,4,-1,6,8,10,12,-1,14,-1,-1,-1,-1,-1,-1],"split_conditions":[4.06E-1,3.52E-1,1.5301713E-3,3.45E-1,1.8654434E-1,-2.43E-1,-2.71E-1,-0E0,2.3551401E-1,-0E0,-6.400241E-4,-0E0,1.3449534E-3,-1.6122245E-3,-0E0],"split_indices":[0,0,0,0,5,2,2,0,5,0,0,0,0,0,0],"split_type":[0,0,0,0,0,0,0,0,0,0,0,0,0,0,0],"sum_hessian":[2.64E2,2.54E2,1E1,1.93E2,6.1E1,1.68E2,2.5E1,1.9E1,4.2E1,1.3E2,3.8E1,9E0,1.6E1,2.3E1,1.9E1],"tree_param":{"num_deleted":"0","num_feature":"6","num_nodes":"15","size_leaf_vector":"1"}},{"base_weights":[-0E0,-1.950416E-3,2.0034555E-3,-7.0677865E-3,-0E0,-1.0255647E-2,-0E0,1.4223169E-2,-1.6931777E-3,-6.8080175E-4,-0E0,1.2467246E-3,-0E0,-8.3090767E-4,8.786275E-5],"categories":[],"categories_nodes":[],"categories_segments":[],"categories_sizes":[],"default_left":[0,0,0,0,0,0,0,0,0,0,0,0,0,0,0],"id":59,"left_children":[1,3,-1,5,7,9,-1,11,13,-1,-1,-1,-1,-1,-1],"loss_changes":[1.23267155E-2,5.006361E-3,0E0,6.0011647E-3,7.860603E-3,4.21938E-3,0E0,9.301636E-3,1.4235042E-2,0E0,0E0,0E0,0E0,0E0,0E0],"parents":[2147483647,0,0,1,1,3,3,4,4,5,5,7,7,8,8],"right_children":[2,4,-1,6,8,10,-1,12,14,-1,-1,-1,-1,-1,-1],"split_conditions":[5.63E1,8.3E0,2.0034555E-3,3.55E-1,1.9152047E-1,2.0347004E-1,-0E0,4.93E1,2.3639774E-1,-6.8080175E-4,-0E0,1.2467246E-3,-0E0,-8.3090767E-4,8.786275E-5],"split_indices":[3,4,0,0,5,5,0,3,5,0,0,0,0,0,0],"split_type":[0,0,0,0,0,0,0,0,0,0,0,0,0,0,0],"sum_hessian":[2.89E2,2.84E2,5E0,1.2E2,1.64E2,1.13E2,7E0,3.5E1,1.29E2,8.6E1,2.7E1,2.5E1,1E1,5E1,7.9E1],"tree_param":{"num_deleted":"0","num_feature":"6","num_nodes":"15","size_leaf_vector":"1"}},{"base_weights":[-0E0,2.7620066E-3,-7.027232E-3,-0E0,7.583666E-3,-2.1539478E-2,-0E0,-3.928483E-3,8.8529655E-4,2.0132167E-2,-0E0,-1.4535208E-3,-0E0,-6.107019E-4,-0E0,-0E0,1.3277476E-3,-7.6127326E-4,4.961314E-4],"categories":[],"categories_nodes":[],"categories_segments":[],"categories_sizes":[],"default_left":[0,0,0,0,0,0,0,0,0,0,0,0,0,0,0,0,0,0,0],"id":60,"left_children":[1,3,5,7,9,11,-1,13,-1,15,17,-1,-1,-1,-1,-1,-1,-1,-1],"loss_changes":[3.8595635E-3,5.477251E-3,1.1015295E-2,4.5808596E-3,1.4119586E-2,4.756295E-3,0E0,8.981796E-3,0E0,1.095649E-2,1.2445693E-2,0E0,0E0,0E0,0E0,0E0,0E0,0E0,0E0],"parents":[2147483647,0,0,1,1,2,2,3,3,4,4,5,5,7,7,9,9,10,10],"right_children":[2,4,6,8,10,12,-1,14,-1,16,18,-1,-1,-1,-1,-1,-1,-1,-1],"split_conditions":[-2.37E-1,8.5346214E-2,-2.2E-1,-2.48E-1,9.963768E-2,2.6395175E-1,-0E0,2.1116929E-1,8.8529655E-4,-2.91E-1,1.085044E-1,-1.4535208E-3,-0E0,-6.107019E-4,-0E0,-0E0,1.3277476E-3,-7.6127326E-4,4.961314E-4],"split_indices":[2,1,2,2,1,5,0,5,0,2,1,0,0,0,0,0,0,0,0],"split_type":[0,0,0,0,0,0,0,0,0,0,0,0,0,0,0,0,0,0,0],"sum_hessian":[2.83E2,2.45E2,3.8E1,1.19E2,1.26E2,2.6E1,1.2E1,1.12E2,7E0,5.1E1,7.5E1,1.9E1,7E0,7E1,4.2E1,7E0,4.4E1,3.3E1,4.2E1],"tree_param":{"num_deleted":"0","num_feature":"6","num_nodes":"19","size_leaf_vector":"1"}},{"base_weights":[8.189471E-4,-0E0,1.5330696E-3,-3.006098E-3,5.2527357E-3,-0E0,-2.0826576E-2,1.3213266E-2,-0E0,-1.14662935E-5,3.6024945E-4,-0E0,-1.220026E-3,1.0030555E-3,-0E0,-8.7607926E-4,3.1400108E-4],"categories":[],"categories_nodes":[],"categories_segments":[],"categories_sizes":[],"default_left":[0,0,0,0,0,0,0,0,0,0,0,0,0,0,0,0,0],"id":61,"left_children":[1,3,-1,5,7,9,11,13,15,-1,-1,-1,-1,-1,-1,-1,-1],"loss_changes":[1.0148177E-2,4.209206E-3,0E0,1.8660078E-2,8.3413925E-3,3.0674804E-3,4.6201125E-3,8.09046E-3,7.416085E-3,0E0,0E0,0E0,0E0,0E0,0E0,0E0,0E0],"parents":[2147483647,0,0,1,1,3,3,4,4,5,5,6,6,7,7,8,8],"right_children":[2,4,-1,6,8,10,12,14,16,-1,-1,-1,-1,-1,-1,-1,-1],"split_conditions":[4.06E-1,2.3639774E-1,1.5330696E-3,4.61E1,2.735043E-1,4.04E1,1.4740369E-1,3.52E-1,3.58E-1,-1.14662935E-5,3.6024945E-4,-0E0,-1.220026E-3,1.0030555E-3,-0E0,-8.7607926E-4,3.1400108E-4],"split_indices":[0,5,0,3,5,3,5,0,0,0,0,0,0,0,0,0,0],"split_type":[0,0,0,0,0,0,0,0,0,0,0,0,0,0,0,0,0],"sum_hessian":[2.86E2,2.77E2,9E0,1.89E2,8.8E1,1.44E2,4.5E1,6E1,2.8E1,8.7E1,5.7E1,5E0,4E1,4.5E1,1.5E1,2.1E1,7E0],"tree_param":{"num_deleted":"0","num_feature":"6","num_nodes":"17","size_leaf_vector":"1"}},{"base_weights":[-0E0,-0E0,1.7955268E-3,-8.843448E-3,1.5224106E-4,-1.8261729E-2,-0E0,6.323393E-3,-3.311671E-3,-0E0,-1.5311035E-3,-0E0,1.8035719E-3,-4.7058068E-4,-0E0],"categories":[],"categories_nodes":[],"categories_segments":[],"categories_sizes":[],"default_left":[0,0,0,0,0,0,0,0,0,0,0,0,0,0,0],"id":62,"left_children":[1,3,-1,5,7,9,-1,11,13,-1,-1,-1,-1,-1,-1],"loss_changes":[1.4185232E-2,4.618985E-3,0E0,1.0726387E-2,5.972643E-3,1.5382245E-3,0E0,2.2245986E-2,5.124029E-3,0E0,0E0,0E0,0E0,0E0,0E0],"parents":[2147483647,0,0,1,1,3,3,4,4,5,5,7,7,8,8],"right_children":[2,4,-1,6,8,10,-1,12,14,-1,-1,-1,-1,-1,-1],"split_conditions":[4.06E-1,6.466165E-2,1.7955268E-3,9.7E0,9.963768E-2,4.17E1,-0E0,9.561753E-2,1.36E1,-0E0,-1.5311035E-3,-0E0,1.8035719E-3,-4.7058068E-4,-0E0],"split_indices":[0,1,0,4,1,3,0,1,4,0,0,0,0,0,0],"split_type":[0,0,0,0,0,0,0,0,0,0,0,0,0,0,0],"sum_hessian":[2.71E2,2.62E2,9E0,5.7E1,2.05E2,4.4E1,1.3E1,1.25E2,8E1,2.8E1,1.6E1,1.06E2,1.9E1,6.6E1,1.4E1],"tree_param":{"num_deleted":"0","num_feature":"6","num_nodes":"15","size_leaf_vector":"1"}},{"base_weights":[-0E0,-3.2977234E-3,3.260236E-2,-0E0,-1.380374E-2,-0E0,1.8556677E-3,-1.8997843E-3,1.0296141E-3,-0E0,-2.4899116E-2,-9.36264E-4,-0E0,-0E0,3.414353E-5,-1.5952162E-3,-0E0],"categories":[],"categories_nodes":[],"categories_segments":[],"categories_sizes":[],"default_left":[0,0,0,0,0,0,0,0,0,0,0,0,0,0,0,0,0],"id":63,"left_children":[1,3,5,7,9,-1,-1,11,-1,13,15,-1,-1,-1,-1,-1,-1],"loss_changes":[2.7241886E-2,1.11147845E-2,3.4619868E-4,1.0348482E-2,1.1508953E-2,0E0,0E0,5.365299E-3,0E0,8.393619E-6,1.1225285E-2,0E0,0E0,0E0,0E0,0E0,0E0],"parents":[2147483647,0,0,1,1,2,2,3,3,4,4,7,7,9,9,10,10],"right_children":[2,4,6,8,10,-1,-1,12,-1,14,16,-1,-1,-1,-1,-1,-1],"split_conditions":[1.3114753E-1,9.963768E-2,4.51E1,9.561753E-2,1.01E1,-0E0,1.8556677E-3,3.07E1,1.0296141E-3,4.04E1,5.38E1,-9.36264E-4,-0E0,-0E0,3.414353E-5,-1.5952162E-3,-0E0],"split_indices":[1,1,3,1,4,0,0,3,0,3,3,0,0,0,0,0,0],"split_type":[0,0,0,0,0,0,0,0,0,0,0,0,0,0,0,0,0],"sum_hessian":[2.76E2,2.55E2,2.1E1,1.84E2,7.1E1,5E0,1.6E1,1.63E2,2.1E1,3.2E1,3.9E1,1.5E1,1.48E2,1.6E1,1.6E1,3.4E1,5E0],"tree_param":{"num_deleted":"0","num_feature":"6","num_nodes":"17","size_leaf_vector":"1"}},{"base_weights":[1.5788457E-3,-0E0,2.1653732E-3,-2.839408E-3,4.905719E-3,-0E0,-1.6928043E-2,1.514726E-3,-0E0,-1.9753757E-5,1.5321391E-3,-1.1248139E-3,-0E0,-3.0396058E-4,6.036362E-4],"categories":[],"categories_nodes":[],"categories_segments":[],"categories_sizes":[],"default_left":[0,0,0,0,0,0,0,0,0,0,0,0,0,0,0],"id":64,"left_children":[1,3,-1,5,7,9,11,-1,13,-1,-1,-1,-1,-1,-1],"loss_changes":[1.6184349E-2,3.921464E-3,0E0,1.269498E-2,1.9451119E-2,1.2223755E-2,7.720176E-3,0E0,5.1735314E-3,0E0,0E0,0E0,0E0,0E0,0E0],"parents":[2147483647,0,0,1,1,3,3,4,4,5,5,6,6,8,8],"right_children":[2,4,-1,6,8,10,12,-1,14,-1,-1,-1,-1,-1,-1],"split_conditions":[5.61E1,9.532063E-2,2.1653732E-3,4.61E1,9.963768E-2,4.49E1,3.79E-1,1.514726E-3,1.3114753E-1,-1.9753757E-5,1.5321391E-3,-1.1248139E-3,-0E0,-3.0396058E-4,6.036362E-4],"split_indices":[3,1,0,3,1,3,0,0,1,0,0,0,0,0,0],"split_type":[0,0,0,0,0,0,0,0,0,0,0,0,0,0,0],"sum_hessian":[2.77E2,2.7E2,7E0,1.65E2,1.05E2,1.18E2,4.7E1,2.2E1,8.3E1,1.07E2,1.1E1,4.1E1,6E0,6.7E1,1.6E1],"tree_param":{"num_deleted":"0","num_feature":"6","num_nodes":"15","size_leaf_vector":"1"}},{"base_weights":[-0E0,-0E0,1.3313756E-3,2.9093057E-3,-5.3695445E-3,-0E0,7.0614624E-3,-1.6671492E-2,-0E0,-0E0,-1.8556428E-4,5.857823E-4,-0E0,-0E0,-9.0515334E-4,9.2275714E-4,-4.9077393E-5],"categories":[],"categories_nodes":[],"categories_segments":[],"categories_sizes":[],"default_left":[0,0,0,0,0,0,0,0,0,0,0,0,0,0,0,0,0],"id":65,"left_children":[1,3,-1,5,7,9,11,13,15,-1,-1,-1,-1,-1,-1,-1,-1],"loss_changes":[5.6721945E-3,5.2198656E-3,0E0,4.708397E-3,1.34159895E-2,1.7905732E-4,8.166032E-3,1.4976859E-3,6.532914E-3,0E0,0E0,0E0,0E0,0E0,0E0,0E0,0E0],"parents":[2147483647,0,0,1,1,3,3,4,4,5,5,6,6,7,7,8,8],"right_children":[2,4,-1,6,8,10,12,14,16,-1,-1,-1,-1,-1,-1,-1,-1],"split_conditions":[5.63E1,1.950078E-1,1.3313756E-3,2.94E1,2.3639774E-1,2.37E1,4.93E1,3.59E1,2.4493243E-1,-0E0,-1.8556428E-4,5.857823E-4,-0E0,-0E0,-9.0515334E-4,9.2275714E-4,-4.9077393E-5],"split_indices":[3,5,0,3,5,3,3,3,5,0,0,0,0,0,0,0,0],"split_type":[0,0,0,0,0,0,0,0,0,0,0,0,0,0,0,0,0],"sum_hessian":[2.77E2,2.71E2,6E0,1.31E2,1.4E2,1.6E1,1.15E2,6.1E1,7.9E1,5E0,1.1E1,1E2,1.5E1,5E0,5.6E1,1.7E1,6.2E1],"tree_param":{"num_deleted":"0","num_feature":"6","num_nodes":"17","size_leaf_vector":"1"}},{"base_weights":[-0E0,-1.2103213E-2,2.511761E-3,-1.966706E-2,-0E0,8.33298E-3,-7.448155E-3,-2.324681E-2,-0E0,-0E0,1.103172E-2,-1.9401077E-2,-0E0,-0E0,-1.4880028E-3,3.4253004E-5,-2.6889617E-4,6.864154E-4,-0E0,-0E0,-1.7124539E-3],"categories":[],"categories_nodes":[],"categories_segments":[],"categories_sizes":[],"default_left":[0,0,0,0,0,0,0,0,0,0,0,0,0,0,0,0,0,0,0,0,0],"id":66,"left_children":[1,3,5,7,-1,9,11,13,-1,15,17,19,-1,-1,-1,-1,-1,-1,-1,-1,-1],"loss_changes":[1.0934907E-2,1.1751924E-2,1.3553807E-2,4.666254E-3,0E0,5.3206272E-3,9.91296E-3,3.2869298E-3,0E0,7.277445E-4,6.343836E-3,1.3008321E-2,0E0,0E0,0E0,0E0,0E0,0E0,0E0,0E0,0E0],"parents":[2147483647,0,0,1,1,2,2,3,3,5,5,6,6,7,7,9,9,10,10,11,11],"right_children":[2,4,6,8,-1,10,12,14,-1,16,18,20,-1,-1,-1,-1,-1,-1,-1,-1,-1],"split_conditions":[1.627543E-1,9.6E0,-2.42E-1,-2.55E-1,-0E0,6.8E0,-2.28E-1,1.202346E-1,-0E0,1.7274472E-1,2.735043E-1,1.9694072E-1,-0E0,-0E0,-1.4880028E-3,3.4253004E-5,-2.6889617E-4,6.864154E-4,-0E0,-0E0,-1.7124539E-3],"split_indices":[5,4,2,2,0,4,2,5,0,5,5,5,0,0,0,0,0,0,0,0,0],"split_type":[0,0,0,0,0,0,0,0,0,0,0,0,0,0,0,0,0,0,0,0,0],"sum_hessian":[2.85E2,6.3E1,2.22E2,5.3E1,1E1,1.72E2,5E1,4.6E1,7E0,3.1E1,1.41E2,3.2E1,1.8E1,1.5E1,3.1E1,8E0,2.3E1,1.24E2,1.7E1,1.2E1,2E1],"tree_param":{"num_deleted":"0","num_feature":"6","num_nodes":"21","size_leaf_vector":"1"}},{"base_weights":[6.232419E-3,-1.2803387E-3,1.3248198E-2,-0E0,-6.3353116E-3,1.6822284E-2,-0E0,-0E0,4.108371E-4,-0E0,-9.581723E-3,1.8379752E-2,-0E0,-8.105876E-3,6.9021806E-4,-0E0,-7.597317E-4,-0E0,1.0205308E-3,-9.446341E-4,-0E0],"categories":[],"categories_nodes":[],"categories_segments":[],"categories_sizes":[],"default_left":[0,0,0,0,0,0,0,0,0,0,0,0,0,0,0,0,0,0,0,0,0],"id":67,"left_children":[1,3,5,7,9,11,13,-1,-1,-1,15,17,-1,19,-1,-1,-1,-1,-1,-1,-1],"loss_changes":[2.1145005E-2,2.836451E-3,8.631259E-3,6.7514845E-4,2.9573997E-3,3.1655245E-3,4.8230076E-3,0E0,0E0,0E0,1.6513248E-3,2.32587E-3,0E0,4.6507595E-3,0E0,0E0,0E0,0E0,0E0,0E0,0E0],"parents":[2147483647,0,0,1,1,2,2,3,3,4,4,5,5,6,6,10,10,11,11,13,13],"right_children":[2,4,6,8,10,12,14,-1,-1,-1,16,18,-1,20,-1,-1,-1,-1,-1,-1,-1],"split_conditions":[7.8E0,1.4331724E-1,-2.42E-1,-2.68E-1,-2.84E-1,2.735043E-1,-2.28E-1,-0E0,4.108371E-4,-0E0,3.12E-1,1.6608997E-1,-0E0,3.47E-1,6.9021806E-4,-0E0,-7.597317E-4,-0E0,1.0205308E-3,-9.446341E-4,-0E0],"split_indices":[4,5,2,2,2,5,2,0,0,0,0,5,0,0,0,0,0,0,0,0,0],"split_type":[0,0,0,0,0,0,0,0,0,0,0,0,0,0,0,0,0,0,0,0,0],"sum_hessian":[2.85E2,1.04E2,1.81E2,3.1E1,7.3E1,1.42E2,3.9E1,2.3E1,8E0,1E1,6.3E1,1.28E2,1.4E1,2.5E1,1.4E1,3.2E1,3.1E1,1.9E1,1.09E2,1.6E1,9E0],"tree_param":{"num_deleted":"0","num_feature":"6","num_nodes":"21","size_leaf_vector":"1"}},{"base_weights":[1.9565397E-3,-0E0,1.5393888E-3,-6.506951E-3,1.2490728E-3,-6.816067E-4,-0E0,4.389996E-3,-4.119976E-3,1.29648E-4,-3.3662896E-4,-0E0,4.0759417E-4,-6.518901E-4,-0E0],"categories":[],"categories_nodes":[],"categories_segments":[],"categories_sizes":[],"default_left":[0,0,0,0,0,0,0,0,0,0,0,0,0,0,0],"id":68,"left_children":[1,3,-1,5,7,-1,9,11,13,-1,-1,-1,-1,-1,-1],"loss_changes":[1.7874405E-2,2.4963603E-3,0E0,7.066014E-5,3.8137576E-3,0E0,1.4472334E-3,6.124202E-3,1.8363637E-3,0E0,0E0,0E0,0E0,0E0,0E0],"parents":[2147483647,0,0,1,1,3,3,4,4,6,6,7,7,8,8],"right_children":[2,4,-1,6,8,-1,10,12,14,-1,-1,-1,-1,-1,-1],"split_conditions":[5.38E1,3.14E-1,1.5393888E-3,2.97E1,1.45E1,-6.816067E-4,3.46E1,6.9E0,1.56E1,1.29648E-4,-3.3662896E-4,-0E0,4.0759417E-4,-6.518901E-4,-0E0],"split_indices":[3,0,0,3,4,0,3,4,4,0,0,0,0,0,0],"split_type":[0,0,0,0,0,0,0,0,0,0,0,0,0,0,0],"sum_hessian":[2.81E2,2.63E2,1.8E1,4.9E1,2.14E2,1E1,3.9E1,1.94E2,2E1,1.1E1,2.8E1,4.7E1,1.47E2,1.1E1,9E0],"tree_param":{"num_deleted":"0","num_feature":"6","num_nodes":"15","size_leaf_vector":"1"}},{"base_weights":[1.4167187E-3,-9.011078E-4,4.6879733E-3,1.1180787E-2,-0E0,1.7944349E-2,-0E0,-1.6899703E-2,1.0806931E-2,1.0872508E-3,-0E0,-1.736708E-4,-0E0,-0E0,-1.2019627E-3,-0E0,8.150862E-4],"categories":[],"categories_nodes":[],"categories_segments":[],"categories_sizes":[],"default_left":[0,0,0,0,0,0,0,0,0,0,0,0,0,0,0,0,0],"id":69,"left_children":[1,-1,3,5,7,9,11,13,15,-1,-1,-1,-1,-1,-1,-1,-1],"loss_changes":[1.0543872E-2,0E0,8.940956E-3,1.7376805E-2,2.6427157E-2,8.786768E-3,1.6890466E-4,5.1092617E-3,1.0354203E-2,0E0,0E0,0E0,0E0,0E0,0E0,0E0,0E0],"parents":[2147483647,0,0,2,2,3,3,4,4,5,5,6,6,7,7,8,8],"right_children":[2,-1,4,6,8,10,12,14,16,-1,-1,-1,-1,-1,-1,-1,-1],"split_conditions":[2.97E1,-9.011078E-4,4.3E1,1.0769231E-1,8.5346214E-2,9.4E0,1.2569061E-1,-2.72E-1,4.39E1,1.0872508E-3,-0E0,-1.736708E-4,-0E0,-0E0,-1.2019627E-3,-0E0,8.150862E-4],"split_indices":[3,0,3,1,1,4,1,2,3,0,0,0,0,0,0,0,0],"split_type":[0,0,0,0,0,0,0,0,0,0,0,0,0,0,0,0,0],"sum_hessian":[2.66E2,1.5E1,2.51E2,1.14E2,1.37E2,9.7E1,1.7E1,5.7E1,8E1,8.4E1,1.3E1,1.2E1,5E0,2.1E1,3.6E1,7E0,7.3E1],"tree_param":{"num_deleted":"0","num_feature":"6","num_nodes":"17","size_leaf_vector":"1"}},{"base_weights":[-1.342191E-3,-1.0655089E-2,-0E0,-0E0,-1.4914295E-2,8.834734E-3,-0E0,-9.756628E-4,-0E0,2.4298904E-2,-0E0,-3.8935605E-3,7.8850775E-4,-0E0,2.0824913E-3,-0E0,-5.6501746E-4,-1.6218233E-4,6.703867E-4],"categories":[],"categories_nodes":[],"categories_segments":[],"categories_sizes":[],"default_left":[0,0,0,0,0,0,0,0,0,0,0,0,0,0,0,0,0,0,0],"id":70,"left_children":[1,3,5,-1,7,9,11,-1,-1,13,-1,15,17,-1,-1,-1,-1,-1,-1],"loss_changes":[7.430141E-3,5.176571E-3,2.0293654E-3,0E0,7.437689E-3,5.0558755E-3,1.7507474E-3,0E0,0E0,5.0577153E-3,0E0,6.091671E-3,9.494051E-3,0E0,0E0,0E0,0E0,0E0,0E0],"parents":[2147483647,0,0,1,1,2,2,4,4,5,5,6,6,9,9,11,11,12,12],"right_children":[2,4,6,-1,8,10,12,-1,-1,14,-1,16,18,-1,-1,-1,-1,-1,-1],"split_conditions":[1.627543E-1,2.3E0,1.7285945E-1,-0E0,3.91E-1,8.62069E-2,2.3873122E-1,-9.756628E-4,-0E0,6.709265E-2,-0E0,3.34E-1,3.35E-1,-0E0,2.0824913E-3,-0E0,-5.6501746E-4,-1.6218233E-4,6.703867E-4],"split_indices":[5,4,5,0,0,1,5,0,0,1,0,0,0,0,0,0,0,0,0],"split_type":[0,0,0,0,0,0,0,0,0,0,0,0,0,0,0,0,0,0,0],"sum_hessian":[2.85E2,6.8E1,2.17E2,1.1E1,5.7E1,2.4E1,1.93E2,5.2E1,5E0,1E1,1.4E1,1.1E2,8.3E1,5E0,5E0,5.1E1,5.9E1,3.4E1,4.9E1],"tree_param":{"num_deleted":"0","num_feature":"6","num_nodes":"19","size_leaf_vector":"1"}},{"base_weights":[-0E0,-5.59561E-3,3.8125436E-3,-1.025173E-2,-0E0,9.422228E-3,-0E0,-1.5185247E-2,-0E0,-0E0,6.487699E-4,1.7738953E-2,-0E0,-9.354064E-3,2.4315037E-3,-0E0,-1.087365E-3,-0E0,1.2228547E-3,-7.0287794E-4,7.2464456E-5,-1.2571127E-3,-0E0,6.840063E-4,-0E0],"categories":[],"categories_nodes":[],"categories_segments":[],"categories_sizes":[],"default_left":[0,0,0,0,0,0,0,0,0,0,0,0,0,0,0,0,0,0,0,0,0,0,0,0,0],"id":71,"left_children":[1,3,5,7,9,11,13,15,-1,-1,-1,17,19,21,23,-1,-1,-1,-1,-1,-1,-1,-1,-1,-1],"loss_changes":[5.789983E-3,5.4041804E-3,6.673141E-3,9.263026E-3,2.0203313E-3,1.31974295E-2,3.846392E-3,1.0390544E-2,0E0,0E0,0E0,1.2351068E-2,4.376935E-3,1.1496251E-2,2.4485877E-3,0E0,0E0,0E0,0E0,0E0,0E0,0E0,0E0,0E0,0E0],"parents":[2147483647,0,0,1,1,2,2,3,3,4,4,5,5,6,6,7,7,11,11,12,12,13,13,14,14],"right_children":[2,4,6,8,10,12,14,16,-1,-1,-1,18,20,22,24,-1,-1,-1,-1,-1,-1,-1,-1,-1,-1],"split_conditions":[7.8E0,-2.48E-1,3.52E-1,3.57E-1,3.1E-1,-2.42E-1,1.097561E-1,3.1E-1,-0E0,-0E0,6.487699E-4,5.6726094E-2,-2.28E-1,3.66E-1,1.23595506E-1,-0E0,-1.087365E-3,-0E0,1.2228547E-3,-7.0287794E-4,7.2464456E-5,-1.2571127E-3,-0E0,6.840063E-4,-0E0],"split_indices":[4,2,0,0,0,2,1,0,0,0,0,1,2,0,1,0,0,0,0,0,0,0,0,0,0],"split_type":[0,0,0,0,0,0,0,0,0,0,0,0,0,0,0,0,0,0,0,0,0,0,0,0,0],"sum_hessian":[2.72E2,1.04E2,1.68E2,8.1E1,2.3E1,1.01E2,6.7E1,7.6E1,5E0,1.3E1,1E1,6.9E1,3.2E1,4E1,2.7E1,1.8E1,5.8E1,1.3E1,5.6E1,2E1,1.2E1,2.2E1,1.8E1,1.2E1,1.5E1],"tree_param":{"num_deleted":"0","num_feature":"6","num_nodes":"25","size_leaf_vector":"1"}},{"base_weights":[-0E0,8.871799E-3,-7.689296E-3,-0E0,1.2968453E-2,-1.1585034E-2,-0E0,-0E0,1.4467459E-2,-1.454952E-2,-0E0,-0E0,8.8362966E-4,-0E0,-8.112403E-4],"categories":[],"categories_nodes":[],"categories_segments":[],"categories_sizes":[],"default_left":[0,0,0,0,0,0,0,0,0,0,0,0,0,0,0],"id":72,"left_children":[1,3,5,-1,7,9,-1,-1,11,13,-1,-1,-1,-1,-1],"loss_changes":[1.9633815E-2,9.2445295E-3,1.066067E-2,0E0,3.6007706E-3,1.05836205E-2,0E0,0E0,3.6297254E-3,2.577059E-3,0E0,0E0,0E0,0E0,0E0],"parents":[2147483647,0,0,1,1,2,2,4,4,5,5,8,8,9,9],"right_children":[2,4,6,-1,8,10,-1,-1,12,14,-1,-1,-1,-1,-1],"split_conditions":[-2.66E-1,5.6726094E-2,1.2569061E-1,-0E0,-3.25E-1,5.03E1,-0E0,-0E0,3.92E1,3.46E1,-0E0,-0E0,8.8362966E-4,-0E0,-8.112403E-4],"split_indices":[2,1,1,0,2,3,0,0,3,3,0,0,0,0,0],"split_type":[0,0,0,0,0,0,0,0,0,0,0,0,0,0,0],"sum_hessian":[2.87E2,1.22E2,1.65E2,1.1E1,1.11E2,1.51E2,1.4E1,5E0,1.06E2,1.45E2,6E0,2.4E1,8.2E1,1.9E1,1.26E2],"tree_param":{"num_deleted":"0","num_feature":"6","num_nodes":"15","size_leaf_vector":"1"}},{"base_weights":[3.2538082E-3,-1.5059698E-3,6.503812E-3,-8.661358E-3,-0E0,-0E0,8.437778E-3,-0E0,-1.1751062E-3,1.981054E-4,-0E0,1.0819558E-2,-0E0,7.2221784E-4,-0E0,-1.0112992E-3,3.2691658E-4],"categories":[],"categories_nodes":[],"categories_segments":[],"categories_sizes":[],"default_left":[0,0,0,0,0,0,0,0,0,0,0,0,0,0,0,0,0],"id":73,"left_children":[1,3,5,7,9,-1,11,-1,-1,-1,-1,13,15,-1,-1,-1,-1],"loss_changes":[6.8189753E-3,2.9578505E-3,5.7340544E-3,6.8665133E-3,1.09888104E-4,0E0,7.5659594E-3,0E0,0E0,0E0,0E0,1.0855269E-2,7.2537847E-3,0E0,0E0,0E0,0E0],"parents":[2147483647,0,0,1,1,2,2,3,3,4,4,6,6,11,11,12,12],"right_children":[2,4,6,8,10,-1,12,-1,-1,-1,-1,14,16,-1,-1,-1,-1],"split_conditions":[6.478405E-2,1.04E1,2.97E1,4.08E1,1.39E1,-0E0,2.735043E-1,-0E0,-1.1751062E-3,1.981054E-4,-0E0,1.2044374E-1,1.0958904E-1,7.2221784E-4,-0E0,-1.0112992E-3,3.2691658E-4],"split_indices":[1,4,3,3,4,0,5,0,0,0,0,1,1,0,0,0,0],"split_type":[0,0,0,0,0,0,0,0,0,0,0,0,0,0,0,0,0],"sum_hessian":[2.76E2,5E1,2.26E2,3.9E1,1.1E1,1.2E1,2.14E2,2.3E1,1.6E1,5E0,6E0,1.94E2,2E1,1.6E2,3.4E1,1.5E1,5E0],"tree_param":{"num_deleted":"0","num_feature":"6","num_nodes":"17","size_leaf_vector":"1"}},{"base_weights":[-5.082561E-3,-9.004716E-3,-0E0,-0E0,-2.6858307E-2,-0E0,8.697822E-3,-1.6995974E-2,3.5945866E-3,-0E0,-3.0440843E-2,-0E0,-1.8729E-2,1.521832E-2,-0E0,-0E0,-1.3326423E-3,5.5283745E-4,-2.0963802E-4,-0E0,-1.6233312E-3,-1.5759483E-3,-0E0,-0E0,1.3590604E-3],"categories":[],"categories_nodes":[],"categories_segments":[],"categories_sizes":[],"default_left":[0,0,0,0,0,0,0,0,0,0,0,0,0,0,0,0,0,0,0,0,0,0,0,0,0],"id":74,"left_children":[1,3,5,7,9,11,13,15,17,-1,19,-1,21,23,-1,-1,-1,-1,-1,-1,-1,-1,-1,-1,-1],"loss_changes":[9.146072E-3,2.4738863E-2,3.4043444E-3,1.2962921E-2,6.1408766E-3,6.3139577E-3,4.469963E-3,1.9425815E-3,9.85875E-3,0E0,1.2288652E-3,0E0,6.6008302E-3,4.6856003E-3,0E0,0E0,0E0,0E0,0E0,0E0,0E0,0E0,0E0,0E0,0E0],"parents":[2147483647,0,0,1,1,2,2,3,3,4,4,5,5,6,6,7,7,8,8,10,10,12,12,13,13],"right_children":[2,4,6,8,10,12,14,16,18,-1,20,-1,22,24,-1,-1,-1,-1,-1,-1,-1,-1,-1,-1,-1],"split_conditions":[1.23E1,9.5E0,9.642857E-2,6.478405E-2,6.2215477E-2,1.45E1,3.95E-1,3.19E-1,1.0958904E-1,-0E0,-3E-1,-0E0,3.84E-1,1.36E1,-0E0,-0E0,-1.3326423E-3,5.5283745E-4,-2.0963802E-4,-0E0,-1.6233312E-3,-1.5759483E-3,-0E0,-0E0,1.3590604E-3],"split_indices":[4,4,1,1,1,4,0,0,1,0,2,0,0,4,0,0,0,0,0,0,0,0,0,0,0],"split_type":[0,0,0,0,0,0,0,0,0,0,0,0,0,0,0,0,0,0,0,0,0,0,0,0,0],"sum_hessian":[2.78E2,2E2,7.8E1,1.45E2,5.5E1,3.5E1,4.3E1,3.8E1,1.07E2,6E0,4.9E1,1.9E1,1.6E1,3.2E1,1.1E1,2.1E1,1.7E1,8.7E1,2E1,5E0,4.4E1,1.1E1,5E0,1.7E1,1.5E1],"tree_param":{"num_deleted":"0","num_feature":"6","num_nodes":"25","size_leaf_vector":"1"}},{"base_weights":[-0E0,-3.3696874E-3,7.391854E-3,-0E0,-8.769545E-3,-0E0,1.1748789E-2,-4.974452E-3,3.6208068E-3,-0E0,-1.9197106E-2,-0E0,1.661309E-2,-4.3075506E-4,-0E0,4.636063E-4,-0E0,-0E0,1.536155E-4,-1.3342254E-3,-0E0,-0E0,1.3462933E-3],"categories":[],"categories_nodes":[],"categories_segments":[],"categories_sizes":[],"default_left":[0,0,0,0,0,0,0,0,0,0,0,0,0,0,0,0,0,0,0,0,0,0,0],"id":75,"left_children":[1,3,5,7,9,-1,11,13,15,17,19,-1,21,-1,-1,-1,-1,-1,-1,-1,-1,-1,-1],"loss_changes":[6.502362E-3,3.221816E-3,5.230842E-3,3.015323E-3,1.3687259E-2,0E0,3.5855127E-3,3.290003E-3,4.982353E-3,1.2270815E-4,6.102234E-3,0E0,6.8793E-3,0E0,0E0,0E0,0E0,0E0,0E0,0E0,0E0,0E0,0E0],"parents":[2147483647,0,0,1,1,2,2,3,3,4,4,6,6,7,7,8,8,9,9,10,10,12,12],"right_children":[2,4,6,8,10,-1,12,14,16,18,20,-1,22,-1,-1,-1,-1,-1,-1,-1,-1,-1,-1],"split_conditions":[1.27E1,2.15625E-1,5.928854E-2,6.8E0,8.5E0,-0E0,3.46E-1,1.1111111E-1,1.2135176E-1,7.8E0,2.5862068E-1,-0E0,2.3551401E-1,-4.3075506E-4,-0E0,4.636063E-4,-0E0,-0E0,1.536155E-4,-1.3342254E-3,-0E0,-0E0,1.3462933E-3],"split_indices":[4,5,1,4,4,0,0,1,1,4,5,0,5,0,0,0,0,0,0,0,0,0,0],"split_type":[0,0,0,0,0,0,0,0,0,0,0,0,0,0,0,0,0,0,0,0,0,0,0],"sum_hessian":[2.98E2,2.29E2,6.9E1,1.55E2,7.4E1,5E0,6.4E1,7.8E1,7.7E1,2.3E1,5.1E1,2E1,4.4E1,6.9E1,9E0,6.8E1,9E0,1.2E1,1.1E1,3.4E1,1.7E1,1.9E1,2.5E1],"tree_param":{"num_deleted":"0","num_feature":"6","num_nodes":"23","size_leaf_vector":"1"}},{"base_weights":[1.8694216E-3,5.0712824E-3,-2.9338936E-3,-0E0,8.181046E-3,-1.4017051E-2,-0E0,3.0739268E-4,-5.5142334E-3,-0E0,1.0901111E-2,-0E0,-2.0937292E-2,-0E0,2.757803E-4,-0E0,-9.6139184E-4,-0E0,7.180911E-4,-1.8039305E-3,-0E0],"categories":[],"categories_nodes":[],"categories_segments":[],"categories_sizes":[],"default_left":[0,0,0,0,0,0,0,0,0,0,0,0,0,0,0,0,0,0,0,0,0],"id":76,"left_children":[1,3,5,7,9,11,-1,13,15,-1,17,-1,19,-1,-1,-1,-1,-1,-1,-1,-1],"loss_changes":[5.450863E-3,4.9172393E-3,7.6079844E-3,9.163607E-4,4.776608E-3,4.2187786E-3,0E0,8.47656E-4,5.3728614E-3,0E0,6.796431E-3,0E0,8.552291E-3,0E0,0E0,0E0,0E0,0E0,0E0,0E0,0E0],"parents":[2147483647,0,0,1,1,2,2,3,3,4,4,5,5,7,7,8,8,10,10,12,12],"right_children":[2,4,6,8,10,12,-1,14,16,-1,18,-1,20,-1,-1,-1,-1,-1,-1,-1,-1],"split_conditions":[-2.4E-1,7E0,-2.2E-1,3.24E-1,3.27E-1,1.9142419E-1,-0E0,1.6287878E-1,1.4623955E-1,-0E0,-2.89E-1,-0E0,2.6395175E-1,-0E0,2.757803E-4,-0E0,-9.6139184E-4,-0E0,7.180911E-4,-1.8039305E-3,-0E0],"split_indices":[2,4,2,0,0,5,0,5,5,0,2,0,5,0,0,0,0,0,0,0,0],"split_type":[0,0,0,0,0,0,0,0,0,0,0,0,0,0,0,0,0,0,0,0,0],