{"learner":{"attributes":{"scikit_learn":"{\"_estimator_type\": \"regressor\"}"},"feature_names":["xslg","barrel_pct","exit_velocity","hard_hit_pct","launch_angle","sweet_spot_pct","iso","bb_pct"],"feature_types":["float","float","float","float","float","float","float","float"],"gradient_booster":{"model":{"cats":{"enc":[],"feature_segments":[],"sorted_idx":[]},"gbtree_model_param":{"num_parallel_tree":"1","num_trees":"300"},"iteration_indptr":[0,1,2,3,4,5,6,7,8,9,10,11,12,13,14,15,16,17,18,19,20,21,22,23,24,25,26,27,28,29,30,31,32,33,34,35,36,37,38,39,40,41,42,43,44,45,46,47,48,49,50,51,52,53,54,55,56,57,58,59,60,61,62,63,64,65,66,67,68,69,70,71,72,73,74,75,76,77,78,79,80,81,82,83,84,85,86,87,88,89,90,91,92,93,94,95,96,97,98,99,100,101,102,103,104,105,106,107,108,109,110,111,112,113,114,115,116,117,118,119,120,121,122,123,124,125,126,127,128,129,130,131,132,133,134,135,136,137,138,139,140,141,142,143,144,145,146,147,148,149,150,151,152,153,154,155,156,157,158,159,160,161,162,163,164,165,166,167,168,169,170,171,172,173,174,175,176,177,178,179,180,181,182,183,184,185,186,187,188,189,190,191,192,193,194,195,196,197,198,199,200,201,202,203,204,205,206,207,208,209,210,211,212,213,214,215,216,217,218,219,220,221,222,223,224,225,226,227,228,229,230,231,232,233,234,235,236,237,238,239,240,241,242,243,244,245,246,247,248,249,250,251,252,253,254,255,256,257,258,259,260,261,262,263,264,265,266,267,268,269,270,271,272,273,274,275,276,277,278,279,280,281,282,283,284,285,286,287,288,289,290,291,292,293,294,295,296,297,298,299,300],"tree_info":[0,0,0,0,0,0,0,0,0,0,0,0,0,0,0,0,0,0,0,0,0,0,0,0,0,0,0,0,0,0,0,0,0,0,0,0,0,0,0,0,0,0,0,0,0,0,0,0,0,0,0,0,0,0,0,0,0,0,0,0,0,0,0,0,0,0,0,0,0,0,0,0,0,0,0,0,0,0,0,0,0,0,0,0,0,0,0,0,0,0,0,0,0,0,0,0,0,0,0,0,0,0,0,0,0,0,0,0,0,0,0,0,0,0,0,0,0,0,0,0,0,0,0,0,0,0,0,0,0,0,0,0,0,0,0,0,0,0,0,0,0,0,0,0,0,0,0,0,0,0,0,0,0,0,0,0,0,0,0,0,0,0,0,0,0,0,0,0,0,0,0,0,0,0,0,0,0,0,0,0,0,0,0,0,0,0,0,0,0,0,0,0,0,0,0,0,0,0,0,0,0,0,0,0,0,0,0,0,0,0,0,0,0,0,0,0,0,0,0,0,0,0,0,0,0,0,0,0,0,0,0,0,0,0,0,0,0,0,0,0,0,0,0,0,0,0,0,0,0,0,0,0,0,0,0,0,0,0,0,0,0,0,0,0,0,0,0,0,0,0,0,0,0,0,0,0,0,0,0,0,0,0,0,0,0,0,0,0,0,0,0,0,0,0,0,0,0,0,0,0],"trees":[{"base_weights":[-0E0,-2.4176115E-2,1.7245648E-2,-0E0,-2.6544526E-2,-0E0,2.5067884E-2,-1.3752168E-3,-0E0,1.7769798E-3,-0E0,2.8177753E-2,-0E0,2.4037703E-4,-0E0,-0E0,1.7444737E-3],"categories":[],"categories_nodes":[],"categories_segments":[],"categories_sizes":[],"default_left":[0,0,0,0,0,0,0,0,0,0,0,0,0,0,0,0,0],"id":0,"left_children":[1,3,5,-1,7,9,11,-1,-1,13,-1,15,-1,-1,-1,-1,-1],"loss_changes":[1.1576633E-1,5.9276223E-3,1.5853483E-2,0E0,5.449727E-4,1.6735581E-4,4.551217E-3,0E0,0E0,7.802544E-4,0E0,7.2935E-3,0E0,0E0,0E0,0E0,0E0],"parents":[2147483647,0,0,1,1,2,2,4,4,5,5,6,6,9,9,11,11],"right_children":[2,4,6,-1,8,10,12,-1,-1,14,-1,16,-1,-1,-1,-1,-1],"split_conditions":[4.28E-1,2.95E1,4.63E-1,-0E0,-2.24E-1,3.66E1,-2.45E-1,-1.3752168E-3,-0E0,-2.45E-1,-0E0,1.1E1,-0E0,2.4037703E-4,-0E0,-0E0,1.7444737E-3],"split_indices":[0,5,0,0,6,5,6,0,0,6,0,1,0,0,0,0,0],"split_type":[0,0,0,0,0,0,0,0,0,0,0,0,0,0,0,0,0],"sum_hessian":[2.81E2,1.06E2,1.75E2,1E1,9.6E1,6.8E1,1.07E2,9E1,6E0,5.1E1,1.7E1,9E1,1.7E1,3.9E1,1.2E1,2.6E1,6.4E1],"tree_param":{"num_deleted":"0","num_feature":"8","num_nodes":"17","size_leaf_vector":"1"}},{"base_weights":[-0E0,-2.3554947E-2,1.3757533E-2,-2.703876E-2,-0E0,-0E0,1.9387137E-2,-0E0,-3.0315196E-2,5.5990703E-3,-0E0,-0E0,2.4212984E-2,-0E0,-1.6297594E-3,-0E0,3.93755E-4,-4.6080684E-5,-0E0,1.47145E-3,-0E0],"categories":[],"categories_nodes":[],"categories_segments":[],"categories_sizes":[],"default_left":[0,0,0,0,0,0,0,0,0,0,0,0,0,0,0,0,0,0,0,0,0],"id":1,"left_children":[1,3,5,7,-1,9,11,-1,13,15,17,-1,19,-1,-1,-1,-1,-1,-1,-1,-1],"loss_changes":[9.1190666E-2,5.347494E-3,9.915236E-3,5.3206086E-3,0E0,9.09138E-4,8.743469E-3,0E0,5.445391E-3,3.31206E-4,2.2933036E-5,0E0,1.2497246E-2,0E0,0E0,0E0,0E0,0E0,0E0,0E0,0E0],"parents":[2147483647,0,0,1,1,2,2,3,3,5,5,6,6,8,8,9,9,10,10,12,12],"right_children":[2,4,6,8,-1,10,12,-1,14,16,18,-1,20,-1,-1,-1,-1,-1,-1,-1,-1],"split_conditions":[8.93E1,1.72E1,9.06E1,5.2785926E-2,-0E0,3.51E1,9.9E0,-0E0,-2.97E-1,-2.62E-1,3.76E1,-0E0,-2.39E-1,-0E0,-1.6297594E-3,-0E0,3.93755E-4,-4.6080684E-5,-0E0,1.47145E-3,-0E0],"split_indices":[2,4,2,7,0,5,4,0,6,6,5,0,6,0,0,0,0,0,0,0,0],"split_type":[0,0,0,0,0,0,0,0,0,0,0,0,0,0,0,0,0,0,0,0,0],"sum_hessian":[2.75E2,1.03E2,1.72E2,8.5E1,1.8E1,6E1,1.12E2,1.2E1,7.3E1,2.7E1,3.3E1,2.6E1,8.6E1,5E0,6.8E1,9E0,1.8E1,2.5E1,8E0,7.2E1,1.4E1],"tree_param":{"num_deleted":"0","num_feature":"8","num_nodes":"21","size_leaf_vector":"1"}},{"base_weights":[-0E0,-2.0963386E-2,1.0704648E-2,-2.4027338E-2,-0E0,1.5824769E-2,-0E0,-0E0,-2.6635753E-2,-0E0,2.1455456E-2,-3.3369186E-5,-0E0,-1.4818145E-3,-0E0,-0E0,1.2281609E-3],"categories":[],"categories_nodes":[],"categories_segments":[],"categories_sizes":[],"default_left":[0,0,0,0,0,0,0,0,0,0,0,0,0,0,0,0,0],"id":2,"left_children":[1,3,5,7,-1,9,11,-1,13,-1,15,-1,-1,-1,-1,-1,-1],"loss_changes":[6.461147E-2,5.099334E-3,1.6151996E-2,2.4062097E-3,0E0,1.1434734E-2,9.798822E-6,0E0,1.2454502E-3,0E0,2.9808432E-3,0E0,0E0,0E0,0E0,0E0,0E0],"parents":[2147483647,0,0,1,1,2,2,3,3,5,5,6,6,8,8,10,10],"right_children":[2,4,6,8,-1,10,12,-1,14,-1,16,-1,-1,-1,-1,-1,-1],"split_conditions":[4.16E1,8.2E0,-2.39E-1,5.925926E-2,-0E0,9.9E0,1.49E1,-0E0,1.72E1,-0E0,9.8E0,-3.3369186E-5,-0E0,-1.4818145E-3,-0E0,-0E0,1.2281609E-3],"split_indices":[3,1,6,7,0,4,1,0,4,0,1,0,0,0,0,0,0],"split_type":[0,0,0,0,0,0,0,0,0,0,0,0,0,0,0,0,0],"sum_hessian":[2.65E2,1.02E2,1.63E2,8.6E1,1.6E1,1.38E2,2.5E1,1.3E1,7.3E1,3.9E1,9.9E1,2E1,5E0,6E1,1.3E1,1.9E1,8E1],"tree_param":{"num_deleted":"0","num_feature":"8","num_nodes":"17","size_leaf_vector":"1"}},{"base_weights":[-0E0,-1.345265E-2,2.0585863E-2,-2.1822376E-2,-0E0,-0E0,2.6101949E-2,-0E0,-2.629003E-2,-0E0,-8.7830366E-4,2.8128535E-2,-0E0,-1.4595377E-3,-0E0,-0E0,-2.1397379E-4,-0E0,1.4611298E-3],"categories":[],"categories_nodes":[],"categories_segments":[],"categories_sizes":[],"default_left":[0,0,0,0,0,0,0,0,0,0,0,0,0,0,0,0,0,0,0],"id":3,"left_children":[1,3,5,7,9,-1,11,-1,13,-1,15,17,-1,-1,-1,-1,-1,-1,-1],"loss_changes":[7.895255E-2,1.6608384E-2,1.3854951E-2,1.0651253E-2,3.7799447E-5,0E0,4.3527447E-3,0E0,9.418931E-3,0E0,6.581291E-4,9.3808025E-4,0E0,0E0,0E0,0E0,0E0,0E0,0E0],"parents":[2147483647,0,0,1,1,2,2,3,3,4,4,6,6,8,8,10,10,11,11],"right_children":[2,4,6,8,10,-1,12,-1,14,-1,16,18,-1,-1,-1,-1,-1,-1,-1],"split_conditions":[4.62E-1,4.26E-1,1.05E1,5.925926E-2,7.442748E-2,-0E0,1.99E1,-0E0,1.86E1,-0E0,4.33E-1,4.64E-1,-0E0,-1.4595377E-3,-0E0,-0E0,-2.1397379E-4,-0E0,1.4611298E-3],"split_indices":[0,0,4,7,7,0,4,0,4,0,0,0,0,0,0,0,0,0,0],"split_type":[0,0,0,0,0,0,0,0,0,0,0,0,0,0,0,0,0,0,0],"sum_hessian":[2.82E2,1.72E2,1.1E2,9.9E1,7.3E1,2.2E1,8.8E1,1.6E1,8.3E1,2.6E1,4.7E1,8.1E1,7E0,7.8E1,5E0,1.1E1,3.6E1,5E0,7.6E1],"tree_param":{"num_deleted":"0","num_feature":"8","num_nodes":"19","size_leaf_vector":"1"}},{"base_weights":[-0E0,-1.894995E-2,1.0887671E-2,-2.4903193E-2,-0E0,1.45571E-4,1.9546889E-2,-0E0,-2.8675798E-2,5.9463647E-3,-0E0,2.7708864E-2,-0E0,-1.5342907E-3,-0E0,4.3913233E-4,-0E0,1.5488452E-3,-0E0],"categories":[],"categories_nodes":[],"categories_segments":[],"categories_sizes":[],"default_left":[0,0,0,0,0,0,0,0,0,0,0,0,0,0,0,0,0,0,0],"id":4,"left_children":[1,3,5,7,-1,9,11,-1,13,15,-1,17,-1,-1,-1,-1,-1,-1,-1],"loss_changes":[6.395884E-2,1.0503534E-2,6.2402245E-3,4.428696E-3,0E0,2.3668448E-3,1.54823065E-2,0E0,3.7634596E-3,2.259023E-3,0E0,5.750466E-3,0E0,0E0,0E0,0E0,0E0,0E0,0E0],"parents":[2147483647,0,0,1,1,2,2,3,3,5,5,6,6,8,8,9,9,11,11],"right_children":[2,4,6,8,-1,10,12,-1,14,16,-1,18,-1,-1,-1,-1,-1,-1,-1],"split_conditions":[8.2E0,4.05E1,1.27E1,5.925926E-2,-0E0,9.856631E-2,1.77E1,-0E0,1.95E1,1.17E1,-0E0,3.92E1,-0E0,-1.5342907E-3,-0E0,4.3913233E-4,-0E0,1.5488452E-3,-0E0],"split_indices":[1,3,1,7,0,7,4,0,4,1,0,5,0,0,0,0,0,0,0],"split_type":[0,0,0,0,0,0,0,0,0,0,0,0,0,0,0,0,0,0,0],"sum_hessian":[2.9E2,1.19E2,1.71E2,8.5E1,3.4E1,1.03E2,6.8E1,1.6E1,6.9E1,6.5E1,3.8E1,5.3E1,1.5E1,6.4E1,5E0,5.8E1,7E0,4.8E1,5E0],"tree_param":{"num_deleted":"0","num_feature":"8","num_nodes":"19","size_leaf_vector":"1"}},{"base_weights":[-0E0,-1.8481575E-2,1.2864453E-2,-0E0,-2.1916695E-2,-0E0,2.1911575E-2,-2.694252E-2,-0E0,1.7577717E-3,-0E0,-0E0,2.8419277E-2,-1.4272151E-3,-0E0,-0E0,1.9759354E-4,-0E0,-1.6833025E-4,-0E0,1.7538768E-3],"categories":[],"categories_nodes":[],"categories_segments":[],"categories_sizes":[],"default_left":[0,0,0,0,0,0,0,0,0,0,0,0,0,0,0,0,0,0,0,0,0],"id":5,"left_children":[1,3,5,-1,7,9,11,13,-1,15,17,-1,19,-1,-1,-1,-1,-1,-1,-1,-1],"loss_changes":[6.767132E-2,7.3020123E-3,2.0110505E-2,0E0,5.8956295E-3,1.0505188E-4,1.4527667E-2,2.058681E-3,0E0,2.5414565E-4,4.1935904E-4,0E0,1.9479819E-2,0E0,0E0,0E0,0E0,0E0,0E0,0E0,0E0],"parents":[2147483647,0,0,1,1,2,2,4,4,5,5,6,6,7,7,9,9,10,10,12,12],"right_children":[2,4,6,-1,8,10,12,14,-1,16,18,-1,20,-1,-1,-1,-1,-1,-1,-1,-1],"split_conditions":[4.26E-1,5.925926E-2,9.05E1,-0E0,8.93E1,7.442748E-2,9.9E0,8.2E0,-0E0,-2.76E-1,4.42E-1,-0E0,4.62E-1,-1.4272151E-3,-0E0,-0E0,1.9759354E-4,-0E0,-1.6833025E-4,-0E0,1.7538768E-3],"split_indices":[0,7,2,0,2,7,4,1,0,6,0,0,0,0,0,0,0,0,0,0,0],"split_type":[0,0,0,0,0,0,0,0,0,0,0,0,0,0,0,0,0,0,0,0,0],"sum_hessian":[2.9E2,1.06E2,1.84E2,1.6E1,9E1,8E1,1.04E2,6.7E1,2.3E1,3.2E1,4.8E1,2.5E1,7.9E1,6.2E1,5E0,1.1E1,2.1E1,1.3E1,3.5E1,1.2E1,6.7E1],"tree_param":{"num_deleted":"0","num_feature":"8","num_nodes":"21","size_leaf_vector":"1"}},{"base_weights":[-0E0,-1.926204E-2,8.810261E-3,-2.2615686E-2,-0E0,1.5184426E-2,-2.7228594E-5,-0E0,-2.6148725E-2,-0E0,2.1018943E-2,-0E0,-1.6515851E-3,-0E0,-1.3746674E-3,-0E0,1.3960864E-3,-0E0,-2.4542413E-4],"categories":[],"categories_nodes":[],"categories_segments":[],"categories_sizes":[],"default_left":[0,0,0,0,0,0,0,0,0,0,0,0,0,0,0,0,0,0,0],"id":6,"left_children":[1,3,5,7,-1,9,11,-1,13,-1,15,-1,17,-1,-1,-1,-1,-1,-1],"loss_changes":[4.5775965E-2,6.0306154E-3,1.845143E-2,4.883319E-3,0E0,1.4281783E-2,1.0907226E-4,0E0,6.2040985E-4,0E0,6.080013E-3,0E0,7.341527E-4,0E0,0E0,0E0,0E0,0E0,0E0],"parents":[2147483647,0,0,1,1,2,2,3,3,5,5,6,6,8,8,10,10,12,12],"right_children":[2,4,6,8,-1,10,12,-1,14,-1,16,-1,18,-1,-1,-1,-1,-1,-1],"split_conditions":[7E0,4.17E1,-2.45E-1,5.925926E-2,-0E0,1.05E1,1.21E1,-0E0,-3.02E-1,-0E0,9.05E1,-0E0,7.131783E-2,-0E0,-1.3746674E-3,-0E0,1.3960864E-3,-0E0,-2.4542413E-4],"split_indices":[1,3,6,7,0,4,4,0,6,0,2,0,7,0,0,0,0,0,0],"split_type":[0,0,0,0,0,0,0,0,0,0,0,0,0,0,0,0,0,0,0],"sum_hessian":[2.72E2,8.1E1,1.91E2,7E1,1.1E1,1.43E2,4.8E1,1.1E1,5.9E1,3.7E1,1.06E2,1E1,3.8E1,5E0,5.4E1,3.9E1,6.7E1,5E0,3.3E1],"tree_param":{"num_deleted":"0","num_feature":"8","num_nodes":"19","size_leaf_vector":"1"}},{"base_weights":[-0E0,-1.8674076E-2,1.2153153E-2,-0E0,-2.1550993E-2,-0E0,1.9205732E-2,-2.4591722E-2,-0E0,-0E0,2.3425397E-2,-0E0,-1.3128765E-3,-0E0,1.415353E-3],"categories":[],"categories_nodes":[],"categories_segments":[],"categories_sizes":[],"default_left":[0,0,0,0,0,0,0,0,0,0,0,0,0,0,0],"id":7,"left_children":[1,3,5,-1,7,-1,9,11,-1,-1,13,-1,-1,-1,-1],"loss_changes":[6.308265E-2,7.392414E-3,1.5314961E-2,0E0,6.1156973E-3,0E0,6.4106807E-3,1.9502006E-3,0E0,0E0,6.9553815E-3,0E0,0E0,0E0,0E0],"parents":[2147483647,0,0,1,1,2,2,4,4,6,6,7,7,10,10],"right_children":[2,4,6,-1,8,-1,10,12,-1,-1,14,-1,-1,-1,-1],"split_conditions":[4.26E-1,5.4158606E-2,4.48E1,-0E0,1.72E1,-0E0,4.63E-1,6.7E0,-0E0,-0E0,1.05E1,-0E0,-1.3128765E-3,-0E0,1.415353E-3],"split_indices":[0,7,3,0,4,0,0,4,0,0,4,0,0,0,0],"split_type":[0,0,0,0,0,0,0,0,0,0,0,0,0,0,0],"sum_hessian":[2.87E2,9.8E1,1.89E2,9E0,8.9E1,7.3E1,1.16E2,7.8E1,1.1E1,2.7E1,8.9E1,7E0,7.1E1,2E1,6.9E1],"tree_param":{"num_deleted":"0","num_feature":"8","num_nodes":"15","size_leaf_vector":"1"}},{"base_weights":[-0E0,-1.9171236E-2,1.0144458E-2,-2.0732949E-2,-0E0,-0E0,1.9928075E-2,-0E0,-1.2136748E-3,4.1111256E-3,-0E0,-0E0,2.3677122E-2,-0E0,2.9299976E-4,-0E0,-2.2217199E-4,-0E0,1.369312E-3],"categories":[],"categories_nodes":[],"categories_segments":[],"categories_sizes":[],"default_left":[0,0,0,0,0,0,0,0,0,0,0,0,0,0,0,0,0,0,0],"id":8,"left_children":[1,3,5,7,-1,9,11,-1,-1,13,15,-1,17,-1,-1,-1,-1,-1,-1],"loss_changes":[5.6791686E-2,4.2695664E-3,1.2437677E-2,4.4212043E-3,0E0,8.281664E-4,5.066272E-3,0E0,0E0,6.827733E-4,9.0823113E-4,0E0,5.5609494E-3,0E0,0E0,0E0,0E0,0E0,0E0],"parents":[2147483647,0,0,1,1,2,2,3,3,5,5,6,6,9,9,10,10,12,12],"right_children":[2,4,6,8,-1,10,12,-1,-1,14,16,-1,18,-1,-1,-1,-1,-1,-1],"split_conditions":[4.26E-1,1.95E1,4.78E-1,5.925926E-2,-0E0,7.941653E-2,1.05E1,-0E0,-1.2136748E-3,-2.93E-1,4.33E-1,-0E0,4.34E1,-0E0,2.9299976E-4,-0E0,-2.2217199E-4,-0E0,1.369312E-3],"split_indices":[0,4,0,7,0,7,4,0,0,6,0,0,3,0,0,0,0,0,0],"split_type":[0,0,0,0,0,0,0,0,0,0,0,0,0,0,0,0,0,0,0],"sum_hessian":[2.83E2,1.01E2,1.82E2,9.6E1,5E0,1.05E2,7.7E1,1.9E1,7.7E1,4.7E1,5.8E1,1.4E1,6.3E1,5E0,4.2E1,1.4E1,4.4E1,9E0,5.4E1],"tree_param":{"num_deleted":"0","num_feature":"8","num_nodes":"19","size_leaf_vector":"1"}},{"base_weights":[-0E0,-1.8970458E-2,1.2186071E-2,-2.276541E-2,-0E0,-0E0,2.5023162E-2,-0E0,-1.3471408E-3,6.7766644E-3,-7.7107403E-4,-0E0,2.9302396E-2,-0E0,5.004425E-4,-0E0,-2.8012748E-4,1.5335125E-3,-0E0],"categories":[],"categories_nodes":[],"categories_segments":[],"categories_sizes":[],"default_left":[0,0,0,0,0,0,0,0,0,0,0,0,0,0,0,0,0,0,0],"id":9,"left_children":[1,3,5,7,-1,9,11,-1,-1,13,15,-1,17,-1,-1,-1,-1,-1,-1],"loss_changes":[6.6402294E-2,6.3804872E-3,2.1664815E-2,6.658677E-3,0E0,2.2405805E-3,5.253341E-3,0E0,0E0,2.103302E-3,1.5331603E-3,0E0,4.6481192E-4,0E0,0E0,0E0,0E0,0E0,0E0],"parents":[2147483647,0,0,1,1,2,2,3,3,5,5,6,6,9,9,10,10,12,12],"right_children":[2,4,6,8,-1,10,12,-1,-1,14,16,-1,18,-1,-1,-1,-1,-1,-1],"split_conditions":[4.26E-1,8.2E0,4.78E-1,5.925926E-2,-0E0,7.941653E-2,9.05E1,-0E0,-1.3471408E-3,-2.98E-1,4.33E-1,-0E0,3.94E1,-0E0,5.004425E-4,-0E0,-2.8012748E-4,1.5335125E-3,-0E0],"split_indices":[0,1,0,7,0,7,2,0,0,6,0,0,5,0,0,0,0,0,0],"split_type":[0,0,0,0,0,0,0,0,0,0,0,0,0,0,0,0,0,0,0],"sum_hessian":[2.88E2,1.07E2,1.81E2,8.6E1,2.1E1,1.05E2,7.6E1,1.6E1,7E1,4.6E1,5.9E1,1.5E1,6.1E1,5E0,4.1E1,1.1E1,4.8E1,5.6E1,5E0],"tree_param":{"num_deleted":"0","num_feature":"8","num_nodes":"19","size_leaf_vector":"1"}},{"base_weights":[-0E0,-8.193565E-3,1.8261136E-2,-1.8376159E-2,-0E0,-0E0,2.2029757E-2,-0E0,-1.9904274E-2,1.0939249E-3,-9.652174E-3,1.2058303E-3,-0E0,-1.1434505E-3,-0E0,1.332141E-4,-0E0,-0E0,-6.928102E-4],"categories":[],"categories_nodes":[],"categories_segments":[],"categories_sizes":[],"default_left":[0,0,0,0,0,0,0,0,0,0,0,0,0,0,0,0,0,0,0],"id":10,"left_children":[1,3,5,7,9,-1,11,-1,13,15,17,-1,-1,-1,-1,-1,-1,-1,-1],"loss_changes":[4.1646324E-2,1.4405435E-2,5.019475E-3,2.6536547E-3,3.1976844E-3,0E0,1.702942E-3,0E0,2.3000427E-3,4.8010674E-4,2.3014164E-3,0E0,0E0,0E0,0E0,0E0,0E0,0E0,0E0],"parents":[2147483647,0,0,1,1,2,2,3,3,4,4,6,6,8,8,9,9,10,10],"right_children":[2,4,6,8,10,-1,12,-1,14,16,18,-1,-1,-1,-1,-1,-1,-1,-1],"split_conditions":[4.78E-1,7E0,1.05E1,5.1136363E-2,1.0694184E-1,-0E0,-2.39E-1,-0E0,4.25E-1,3.68E1,-2.75E-1,1.2058303E-3,-0E0,-1.1434505E-3,-0E0,1.332141E-4,-0E0,-0E0,-6.928102E-4],"split_indices":[0,1,4,7,7,0,6,0,0,5,6,0,0,0,0,0,0,0,0],"split_type":[0,0,0,0,0,0,0,0,0,0,0,0,0,0,0,0,0,0,0],"sum_hessian":[2.95E2,2.16E2,7.9E1,8.4E1,1.32E2,1.5E1,6.4E1,6E0,7.8E1,1.01E2,3.1E1,5.6E1,8E0,6.3E1,1.5E1,8.3E1,1.8E1,5E0,2.6E1],"tree_param":{"num_deleted":"0","num_feature":"8","num_nodes":"19","size_leaf_vector":"1"}},{"base_weights":[9.0079167E-4,-8.41676E-3,1.4982394E-2,-1.2826235E-2,-0E0,1.864873E-2,-0E0,-1.673811E-2,-0E0,-0E0,1.9890424E-2,-0E0,-8.8606117E-4,-0E0,1.0356103E-3],"categories":[],"categories_nodes":[],"categories_segments":[],"categories_sizes":[],"default_left":[0,0,0,0,0,0,0,0,0,0,0,0,0,0,0],"id":11,"left_children":[1,3,5,7,-1,9,-1,11,-1,-1,13,-1,-1,-1,-1],"loss_changes":[3.9091863E-2,5.662796E-3,7.3350184E-3,4.0984843E-3,0E0,3.0465014E-3,0E0,5.2105077E-4,0E0,0E0,7.626824E-4,0E0,0E0,0E0,0E0],"parents":[2147483647,0,0,1,1,2,2,3,3,5,5,7,7,10,10],"right_children":[2,4,6,8,-1,10,-1,12,-1,-1,14,-1,-1,-1,-1],"split_conditions":[9.02E1,8.2E0,-2.44E-1,3.88E1,-0E0,7.2E0,-0E0,5.2117262E-2,-0E0,-0E0,2.92E1,-0E0,-8.8606117E-4,-0E0,1.0356103E-3],"split_indices":[2,1,6,3,0,1,0,7,0,0,5,0,0,0,0],"split_type":[0,0,0,0,0,0,0,0,0,0,0,0,0,0,0],"sum_hessian":[2.69E2,1.41E2,1.28E2,9.4E1,4.7E1,1.03E2,2.5E1,6.9E1,2.5E1,5E0,9.8E1,6E0,6.3E1,6E0,9.2E1],"tree_param":{"num_deleted":"0","num_feature":"8","num_nodes":"15","size_leaf_vector":"1"}},{"base_weights":[-0E0,-9.014231E-3,2.1351298E-2,-1.7609494E-2,-0E0,2.3468416E-2,-0E0,-2.0968542E-2,-0E0,-0E0,2.6238075E-2,-0E0,-1.1492437E-3,-0E0,1.4240232E-3],"categories":[],"categories_nodes":[],"categories_segments":[],"categories_sizes":[],"default_left":[0,0,0,0,0,0,0,0,0,0,0,0,0,0,0],"id":12,"left_children":[1,3,5,7,-1,9,-1,11,-1,-1,13,-1,-1,-1,-1],"loss_changes":[5.41704E-2,1.4366804E-2,4.5711547E-3,7.1131233E-3,0E0,3.0277856E-3,0E0,3.3952892E-3,0E0,0E0,3.231395E-3,0E0,0E0,0E0,0E0],"parents":[2147483647,0,0,1,1,2,2,3,3,5,5,7,7,10,10],"right_children":[2,4,6,8,-1,10,-1,12,-1,-1,14,-1,-1,-1,-1],"split_conditions":[4.75E-1,4.24E-1,-2.39E-1,1.72E1,-0E0,1.05E1,-0E0,2.94E1,-0E0,-0E0,4.31E1,-0E0,-1.1492437E-3,-0E0,1.4240232E-3],"split_indices":[0,0,6,4,0,4,0,5,0,0,3,0,0,0,0],"split_type":[0,0,0,0,0,0,0,0,0,0,0,0,0,0,0],"sum_hessian":[2.8E2,1.99E2,8.1E1,9.7E1,1.02E2,7.5E1,6E0,8.4E1,1.3E1,1.1E1,6.4E1,8E0,7.6E1,6E0,5.8E1],"tree_param":{"num_deleted":"0","num_feature":"8","num_nodes":"15","size_leaf_vector":"1"}},{"base_weights":[-0E0,-1.4233417E-2,7.2057764E-3,-1.6966622E-2,-0E0,-0E0,1.1344822E-2,-0E0,-2.0757938E-2,1.4345617E-2,-0E0,-0E0,-1.2476457E-3,-0E0,7.7792123E-4],"categories":[],"categories_nodes":[],"categories_segments":[],"categories_sizes":[],"default_left":[0,0,0,0,0,0,0,0,0,0,0,0,0,0,0],"id":13,"left_children":[1,3,5,7,-1,-1,9,-1,11,13,-1,-1,-1,-1,-1],"loss_changes":[2.8550524E-2,5.6277495E-3,7.4081225E-3,5.2629113E-3,0E0,0E0,6.548861E-3,0E0,5.7593826E-3,2.718415E-3,0E0,0E0,0E0,0E0,0E0],"parents":[2147483647,0,0,1,1,2,2,3,3,6,6,8,8,9,9],"right_children":[2,4,6,8,-1,-1,10,-1,12,14,-1,-1,-1,-1,-1],"split_conditions":[4.04E1,1.96E1,1.05E1,5.925926E-2,-0E0,-0E0,-2.39E-1,-0E0,9.5E0,8.91E1,-0E0,-0E0,-1.2476457E-3,-0E0,7.7792123E-4],"split_indices":[3,4,4,7,0,0,6,0,4,2,0,0,0,0,0],"split_type":[0,0,0,0,0,0,0,0,0,0,0,0,0,0,0],"sum_hessian":[2.76E2,9.1E1,1.85E2,8.3E1,8E0,5.4E1,1.31E2,1.6E1,6.7E1,1.13E2,1.8E1,1.2E1,5.5E1,6E0,1.07E2],"tree_param":{"num_deleted":"0","num_feature":"8","num_nodes":"15","size_leaf_vector":"1"}},{"base_weights":[-0E0,-8.369928E-3,1.5699258E-2,-1.48143675E-2,-0E0,-0E0,1.9675955E-2,-1.8147258E-2,-0E0,2.2283746E-2,-0E0,-9.67413E-4,-0E0,-0E0,1.3259895E-3],"categories":[],"categories_nodes":[],"categories_segments":[],"categories_sizes":[],"default_left":[0,0,0,0,0,0,0,0,0,0,0,0,0,0,0],"id":14,"left_children":[1,3,5,7,-1,-1,9,11,-1,13,-1,-1,-1,-1,-1],"loss_changes":[3.7295543E-2,9.598151E-3,6.359674E-3,5.82619E-3,0E0,0E0,5.000092E-3,1.4915355E-3,0E0,2.6389137E-3,0E0,0E0,0E0,0E0,0E0],"parents":[2147483647,0,0,1,1,2,2,3,3,6,6,7,7,9,9],"right_children":[2,4,6,8,-1,-1,10,12,-1,14,-1,-1,-1,-1,-1],"split_conditions":[4.63E-1,8.93E1,1.05E1,1.72E1,-0E0,-0E0,-2.39E-1,4.43E-1,-0E0,9.04E1,-0E0,-9.67413E-4,-0E0,-0E0,1.3259895E-3],"split_indices":[0,2,4,4,0,0,6,0,0,2,0,0,0,0,0],"split_type":[0,0,0,0,0,0,0,0,0,0,0,0,0,0,0],"sum_hessian":[2.69E2,1.68E2,1.01E2,9.6E1,7.2E1,2.1E1,8E1,8.1E1,1.5E1,7.2E1,8E0,7.5E1,6E0,1.8E1,5.4E1],"tree_param":{"num_deleted":"0","num_feature":"8","num_nodes":"15","size_leaf_vector":"1"}},{"base_weights":[-0E0,-1.5433185E-2,8.444163E-3,-1.6862629E-2,-0E0,-0E0,1.3302695E-2,-0E0,-1.7950838E-2,-0E0,1.5099118E-2,-9.935414E-4,-0E0,8.4246974E-4,-0E0],"categories":[],"categories_nodes":[],"categories_segments":[],"categories_sizes":[],"default_left":[0,0,0,0,0,0,0,0,0,0,0,0,0,0,0],"id":15,"left_children":[1,3,5,7,-1,-1,9,-1,11,-1,13,-1,-1,-1,-1],"loss_changes":[3.741611E-2,3.4255926E-3,6.8819486E-3,2.1772701E-3,0E0,0E0,4.193466E-3,0E0,5.8103725E-4,0E0,3.2045096E-3,0E0,0E0,0E0,0E0],"parents":[2147483647,0,0,1,1,2,2,3,3,6,6,8,8,10,10],"right_children":[2,4,6,8,-1,-1,10,-1,12,-1,14,-1,-1,-1,-1],"split_conditions":[4.26E-1,1.95E1,4.61E-1,4.368175E-2,-0E0,-0E0,8.6E0,-0E0,8.2E0,-0E0,4.05E1,-9.935414E-4,-0E0,8.4246974E-4,-0E0],"split_indices":[0,4,0,7,0,0,4,0,1,0,5,0,0,0,0],"split_type":[0,0,0,0,0,0,0,0,0,0,0,0,0,0,0],"sum_hessian":[2.75E2,1.03E2,1.72E2,9.8E1,5E0,6.5E1,1.07E2,5E0,9.3E1,6E0,1.01E2,7.7E1,1.6E1,9.2E1,9E0],"tree_param":{"num_deleted":"0","num_feature":"8","num_nodes":"15","size_leaf_vector":"1"}},{"base_weights":[-0E0,-1.4925376E-2,7.047981E-3,-0E0,-1.7459543E-2,-0E0,1.2964095E-2,-0E0,-1.983992E-2,-0E0,-1.6718174E-3,1.4120062E-2,-0E0,-0E0,-1.0396907E-3,-2.728396E-4,-0E0,-0E0,7.3901465E-4],"categories":[],"categories_nodes":[],"categories_segments":[],"categories_sizes":[],"default_left":[0,0,0,0,0,0,0,0,0,0,0,0,0,0,0,0,0,0,0],"id":16,"left_children":[1,3,5,-1,7,9,11,-1,13,-1,15,17,-1,-1,-1,-1,-1,-1,-1],"loss_changes":[3.0201994E-2,5.2171517E-3,1.0398048E-2,0E0,2.6961453E-3,1.2018385E-4,2.1422133E-3,0E0,7.451009E-4,0E0,8.624432E-4,9.302944E-4,0E0,0E0,0E0,0E0,0E0,0E0,0E0],"parents":[2147483647,0,0,1,1,2,2,4,4,5,5,6,6,8,8,10,10,11,11],"right_children":[2,4,6,-1,8,10,12,-1,14,-1,16,18,-1,-1,-1,-1,-1,-1,-1],"split_conditions":[4.28E-1,2.94E1,9.02E1,-0E0,5.925926E-2,3.49E1,3.94E1,-0E0,3.05E1,-0E0,3.83E1,2.92E1,-0E0,-0E0,-1.0396907E-3,-2.728396E-4,-0E0,-0E0,7.3901465E-4],"split_indices":[0,5,2,0,7,5,5,0,5,0,5,5,0,0,0,0,0,0,0],"split_type":[0,0,0,0,0,0,0,0,0,0,0,0,0,0,0,0,0,0,0],"sum_hessian":[2.66E2,9.5E1,1.71E2,9E0,8.6E1,6E1,1.11E2,1.3E1,7.3E1,1.9E1,4.1E1,1.04E2,7E0,5E0,6.8E1,3.1E1,1E1,5E0,9.9E1],"tree_param":{"num_deleted":"0","num_feature":"8","num_nodes":"19","size_leaf_vector":"1"}},{"base_weights":[-0E0,-1.1521341E-2,7.5240736E-3,-0E0,-6.7580264E-4,-0E0,1.6129913E-2,1.6191315E-3,-0E0,-0E0,1.9466612E-2,3.3554246E-4,-0E0,-0E0,1.0598511E-3],"categories":[],"categories_nodes":[],"categories_segments":[],"categories_sizes":[],"default_left":[0,0,0,0,0,0,0,0,0,0,0,0,0,0,0],"id":17,"left_children":[1,3,5,-1,-1,7,9,11,-1,-1,13,-1,-1,-1,-1],"loss_changes":[2.2593599E-2,2.9676324E-3,8.6219255E-3,0E0,0E0,2.0710538E-4,1.9908901E-3,2.3148821E-3,0E0,0E0,6.545E-4,0E0,0E0,0E0,0E0],"parents":[2147483647,0,0,1,1,2,2,5,5,6,6,7,7,10,10],"right_children":[2,4,6,-1,-1,8,10,12,-1,-1,14,-1,-1,-1,-1],"split_conditions":[8.91E1,5.1136363E-2,4.78E-1,-0E0,-6.7580264E-4,4.76E1,9.11E1,3.65E1,-0E0,-0E0,7.1847506E-2,3.3554246E-4,-0E0,-0E0,1.0598511E-3],"split_indices":[2,7,0,0,0,3,2,5,0,0,7,0,0,0,0],"split_type":[0,0,0,0,0,0,0,0,0,0,0,0,0,0,0],"sum_hessian":[2.66E2,9.4E1,1.72E2,1E1,8.4E1,1.03E2,6.9E1,7.7E1,2.6E1,1.7E1,5.2E1,5.4E1,2.3E1,7E0,4.5E1],"tree_param":{"num_deleted":"0","num_feature":"8","num_nodes":"15","size_leaf_vector":"1"}},{"base_weights":[-0E0,-1.6841562E-2,8.149694E-3,-8.9488237E-4,-0E0,-0E0,1.40101565E-2,-0E0,1.667417E-2,-0E0,9.3079946E-4],"categories":[],"categories_nodes":[],"categories_segments":[],"categories_sizes":[],"default_left":[0,0,0,0,0,0,0,0,0,0,0],"id":18,"left_children":[1,3,5,-1,-1,-1,7,-1,9,-1,-1],"loss_changes":[3.9999403E-2,3.5107136E-5,8.908515E-3,0E0,0E0,0E0,6.1297584E-3,0E0,1.9324142E-3,0E0,0E0],"parents":[2147483647,0,0,1,1,2,2,6,6,8,8],"right_children":[2,4,6,-1,-1,-1,8,-1,10,-1,-1],"split_conditions":[4.26E-1,9.1E0,4.64E-1,-8.9488237E-4,-0E0,-0E0,9.1E0,-0E0,4.36E1,-0E0,9.3079946E-4],"split_indices":[0,1,0,0,0,0,4,0,3,0,0],"split_type":[0,0,0,0,0,0,0,0,0,0,0],"sum_hessian":[2.81E2,9.5E1,1.86E2,8.4E1,1.1E1,7.9E1,1.07E2,1E1,9.7E1,1.4E1,8.3E1],"tree_param":{"num_deleted":"0","num_feature":"8","num_nodes":"11","size_leaf_vector":"1"}},{"base_weights":[-0E0,-1.0916538E-2,3.914839E-3,-1.3742604E-2,-0E0,-0E0,8.991224E-3,-0E0,-1.650977E-2,-0E0,1.2987035E-2,-0E0,-9.077042E-4,-0E0,7.604345E-4],"categories":[],"categories_nodes":[],"categories_segments":[],"categories_sizes":[],"default_left":[0,0,0,0,0,0,0,0,0,0,0,0,0,0,0],"id":19,"left_children":[1,3,5,7,-1,-1,9,-1,11,-1,13,-1,-1,-1,-1],"loss_changes":[1.5417995E-2,5.1903455E-3,4.3665455E-3,4.6818946E-3,0E0,0E0,3.7611742E-3,0E0,1.1686422E-4,0E0,2.389905E-3,0E0,0E0,0E0,0E0],"parents":[2147483647,0,0,1,1,2,2,3,3,6,6,8,8,10,10],"right_children":[2,4,6,8,-1,-1,10,-1,12,-1,14,-1,-1,-1,-1],"split_conditions":[4.26E-1,1.72E1,9.1E1,2.95E1,-0E0,-0E0,9.9E0,-0E0,5.925926E-2,-0E0,4.61E-1,-0E0,-9.077042E-4,-0E0,7.604345E-4],"split_indices":[0,4,2,5,0,0,4,0,7,0,0,0,0,0,0],"split_type":[0,0,0,0,0,0,0,0,0,0,0,0,0,0,0],"sum_hessian":[2.77E2,1.05E2,1.72E2,9.3E1,1.2E1,8.7E1,8.5E1,1.2E1,8.1E1,2.3E1,6.2E1,1.4E1,6.7E1,7E0,5.5E1],"tree_param":{"num_deleted":"0","num_feature":"8","num_nodes":"15","size_leaf_vector":"1"}},{"base_weights":[-0E0,-1.1528919E-2,4.6534357E-3,-0E0,-1.4040219E-2,-0E0,1.1881203E-2,-0E0,-2.4115792E-2,1.9600175E-3,-0E0,-0E0,1.6384069E-2,-1.3000784E-3,-0E0,3.5383232E-4,-0E0,-1.0947163E-4,-0E0,-0E0,1.0397387E-3],"categories":[],"categories_nodes":[],"categories_segments":[],"categories_sizes":[],"default_left":[0,0,0,0,0,0,0,0,0,0,0,0,0,0,0,0,0,0,0,0,0],"id":20,"left_children":[1,3,5,-1,7,9,11,-1,13,15,17,-1,19,-1,-1,-1,-1,-1,-1,-1,-1],"loss_changes":[1.785398E-2,3.1939372E-3,4.713139E-3,0E0,6.1127413E-3,1.5366674E-4,2.663442E-3,0E0,3.9999746E-4,1.3987798E-3,3.2596578E-4,0E0,3.8604047E-3,0E0,0E0,0E0,0E0,0E0,0E0,0E0,0E0],"parents":[2147483647,0,0,1,1,2,2,4,4,5,5,6,6,8,8,9,9,10,10,12,12],"right_children":[2,4,6,-1,8,10,12,-1,14,16,18,-1,20,-1,-1,-1,-1,-1,-1,-1,-1],"split_conditions":[4.26E-1,5.925926E-2,4.84E1,-0E0,3.4E1,3.41E1,9.9E0,-0E0,1.58E1,1.0086455E-1,9.12E1,-0E0,4.75E-1,-1.3000784E-3,-0E0,3.5383232E-4,-0E0,-1.0947163E-4,-0E0,-0E0,1.0397387E-3],"split_indices":[0,7,3,0,5,5,4,0,4,7,2,0,0,0,0,0,0,0,0,0,0],"split_type":[0,0,0,0,0,0,0,0,0,0,0,0,0,0,0,0,0,0,0,0,0],"sum_hessian":[2.81E2,1.03E2,1.78E2,1.8E1,8.5E1,1.19E2,5.9E1,4.7E1,3.8E1,3.8E1,8.1E1,1.9E1,4E1,3.3E1,5E0,2.9E1,9E0,6.6E1,1.5E1,7E0,3.3E1],"tree_param":{"num_deleted":"0","num_feature":"8","num_nodes":"21","size_leaf_vector":"1"}},{"base_weights":[-0E0,-7.647966E-3,7.2999955E-3,-0E0,-1.2548152E-2,-0E0,9.759622E-3,-0E0,-1.6011288E-2,-0E0,1.3735712E-2,-8.5110916E-4,-0E0,-0E0,7.663948E-4],"categories":[],"categories_nodes":[],"categories_segments":[],"categories_sizes":[],"default_left":[0,0,0,0,0,0,0,0,0,0,0,0,0,0,0],"id":21,"left_children":[1,3,5,-1,7,-1,9,-1,11,-1,13,-1,-1,-1,-1],"loss_changes":[1.5619552E-2,6.7243557E-3,2.9850486E-3,0E0,5.671639E-3,0E0,4.064693E-3,0E0,1.4230572E-3,0E0,1.5483368E-3,0E0,0E0,0E0,0E0],"parents":[2147483647,0,0,1,1,2,2,4,4,6,6,8,8,10,10],"right_children":[2,4,6,-1,8,-1,10,-1,12,-1,14,-1,-1,-1,-1],"split_conditions":[4.61E-1,7.442748E-2,9E1,-0E0,3.07E1,-0E0,7.442748E-2,-0E0,4.86E1,-0E0,3.06E1,-8.5110916E-4,-0E0,-0E0,7.663948E-4],"split_indices":[0,7,2,0,5,0,7,0,3,0,5,0,0,0,0],"split_type":[0,0,0,0,0,0,0,0,0,0,0,0,0,0,0],"sum_hessian":[2.73E2,1.63E2,1.1E2,6.1E1,1.02E2,1.8E1,9.2E1,1.8E1,8.4E1,2.5E1,6.7E1,7.9E1,5E0,7E0,6E1],"tree_param":{"num_deleted":"0","num_feature":"8","num_nodes":"15","size_leaf_vector":"1"}},{"base_weights":[6.7757536E-4,-8.469532E-3,8.726721E-3,-0E0,-1.0295997E-2,9.495019E-3,-0E0,-1.18109E-2,-0E0,-0E0,1.1134256E-2,-6.576792E-4,-0E0,-0E0,6.035033E-4],"categories":[],"categories_nodes":[],"categories_segments":[],"categories_sizes":[],"default_left":[0,0,0,0,0,0,0,0,0,0,0,0,0,0,0],"id":22,"left_children":[1,3,5,-1,7,9,-1,11,-1,-1,13,-1,-1,-1,-1],"loss_changes":[2.0891808E-2,2.2581914E-3,2.0551756E-3,0E0,2.3500836E-3,2.0409096E-3,0E0,1.4985353E-3,0E0,0E0,1.648359E-3,0E0,0E0,0E0,0E0],"parents":[2147483647,0,0,1,1,2,2,4,4,5,5,7,7,10,10],"right_children":[2,4,6,-1,8,10,-1,12,-1,-1,14,-1,-1,-1,-1],"split_conditions":[4.26E-1,2.95E1,2.13E1,-0E0,1.95E1,3.24E1,-0E0,3.73E1,-0E0,-0E0,3.79E1,-6.576792E-4,-0E0,-0E0,6.035033E-4],"split_indices":[0,5,4,0,4,5,0,5,0,0,3,0,0,0,0],"split_type":[0,0,0,0,0,0,0,0,0,0,0,0,0,0,0],"sum_hessian":[2.78E2,1.01E2,1.77E2,1.2E1,8.9E1,1.72E2,5E0,8.4E1,5E0,3.1E1,1.41E2,7.6E1,8E0,1E1,1.31E2],"tree_param":{"num_deleted":"0","num_feature":"8","num_nodes":"15","size_leaf_vector":"1"}},{"base_weights":[-0E0,-5.2580894E-3,1.0918497E-2,-8.205388E-3,-0E0,-0E0,1.4080245E-2,-0E0,-1.2462841E-2,-0E0,9.0368325E-4,-0E0,-8.109637E-4],"categories":[],"categories_nodes":[],"categories_segments":[],"categories_sizes":[],"default_left":[0,0,0,0,0,0,0,0,0,0,0,0,0],"id":23,"left_children":[1,3,5,7,-1,-1,9,-1,11,-1,-1,-1,-1],"loss_changes":[1.757692E-2,5.039765E-3,5.3253714E-3,7.452175E-3,0E0,0E0,5.676532E-3,0E0,6.65053E-3,0E0,0E0,0E0,0E0],"parents":[2147483647,0,0,1,1,2,2,3,3,6,6,8,8],"right_children":[2,4,6,8,-1,-1,10,-1,12,-1,-1,-1,-1],"split_conditions":[4.64E-1,1.67E1,9.9E0,9.5E0,-0E0,-0E0,4.38E1,-0E0,5.925926E-2,-0E0,9.0368325E-4,-0E0,-8.109637E-4],"split_indices":[0,4,4,4,0,0,3,0,7,0,0,0,0],"split_type":[0,0,0,0,0,0,0,0,0,0,0,0,0],"sum_hessian":[2.84E2,1.81E2,1.03E2,1.48E2,3.3E1,1.5E1,8.8E1,3.7E1,1.11E2,1.8E1,7E1,2.1E1,9E1],"tree_param":{"num_deleted":"0","num_feature":"8","num_nodes":"13","size_leaf_vector":"1"}},{"base_weights":[-0E0,-8.497667E-3,4.515077E-3,-1.1681505E-2,-0E0,8.617073E-3,-0E0,-0E0,-1.3408513E-2,-0E0,1.0198882E-2,-0E0,-7.729552E-3,-0E0,-7.223487E-4,-0E0,5.9888867E-4,-7.024932E-4,-0E0],"categories":[],"categories_nodes":[],"categories_segments":[],"categories_sizes":[],"default_left":[0,0,0,0,0,0,0,0,0,0,0,0,0,0,0,0,0,0,0],"id":24,"left_children":[1,3,5,7,-1,9,11,-1,13,-1,15,-1,17,-1,-1,-1,-1,-1,-1],"loss_changes":[1.1073973E-2,4.787231E-3,7.6564243E-3,2.0152153E-3,0E0,2.324923E-3,1.5533953E-3,0E0,7.9528894E-4,0E0,3.955627E-3,0E0,2.591977E-3,0E0,0E0,0E0,0E0,0E0,0E0],"parents":[2147483647,0,0,1,1,2,2,3,3,5,5,6,6,8,8,10,10,12,12],"right_children":[2,4,6,8,-1,10,12,-1,14,-1,16,-1,18,-1,-1,-1,-1,-1,-1],"split_conditions":[4.26E-1,1.72E1,-2.45E-1,2.94E1,-0E0,3.22E1,3.39E1,-0E0,6.7E0,-0E0,8.4E0,-0E0,-2.26E-1,-0E0,-7.223487E-4,-0E0,5.9888867E-4,-7.024932E-4,-0E0],"split_indices":[0,4,6,5,0,5,5,0,4,0,4,0,6,0,0,0,0,0,0],"split_type":[0,0,0,0,0,0,0,0,0,0,0,0,0,0,0,0,0,0,0],"sum_hessian":[2.85E2,9.8E1,1.87E2,8.6E1,1.2E1,1.53E2,3.4E1,1E1,7.6E1,2.2E1,1.31E2,1E1,2.4E1,7E0,6.9E1,9E0,1.22E2,1.9E1,5E0],"tree_param":{"num_deleted":"0","num_feature":"8","num_nodes":"19","size_leaf_vector":"1"}},{"base_weights":[-0E0,-5.064345E-3,1.2652925E-2,-7.176633E-3,-0E0,-0E0,2.1387404E-2,-0E0,-1.23422025E-2,1.1981681E-3,-0E0,-2.637103E-5,-0E0,-0E0,-6.9243903E-4],"categories":[],"categories_nodes":[],"categories_segments":[],"categories_sizes":[],"default_left":[0,0,0,0,0,0,0,0,0,0,0,0,0,0,0],"id":25,"left_children":[1,3,5,7,-1,-1,9,11,13,-1,-1,-1,-1,-1,-1],"loss_changes":[1.5779845E-2,5.2250964E-3,8.210761E-3,5.380444E-3,0E0,0E0,1.8016547E-3,2.6148211E-5,1.5370473E-3,0E0,0E0,0E0,0E0,0E0,0E0],"parents":[2147483647,0,0,1,1,2,2,3,3,6,6,7,7,8,8],"right_children":[2,4,6,8,-1,-1,10,12,14,-1,-1,-1,-1,-1,-1],"split_conditions":[1.28E1,5.09E-1,4.81E1,8.62069E-2,-0E0,-0E0,-2.39E-1,8.291874E-2,3.08E1,1.1981681E-3,-0E0,-2.637103E-5,-0E0,-0E0,-6.9243903E-4],"split_indices":[1,0,3,7,0,0,6,7,5,0,0,0,0,0,0],"split_type":[0,0,0,0,0,0,0,0,0,0,0,0,0,0,0],"sum_hessian":[2.81E2,2.2E2,6.1E1,2.1E2,1E1,2.3E1,3.8E1,1.05E2,1.05E2,3.3E1,5E0,9.2E1,1.3E1,1.4E1,9.1E1],"tree_param":{"num_deleted":"0","num_feature":"8","num_nodes":"15","size_leaf_vector":"1"}},{"base_weights":[-0E0,-5.3155487E-3,1.3979706E-2,-0E0,-7.8042513E-3,1.6393451E-2,-0E0,-1.0257444E-2,-0E0,-0E0,1.8887218E-2,-6.231983E-4,-0E0,-0E0,1.12371E-3],"categories":[],"categories_nodes":[],"categories_segments":[],"categories_sizes":[],"default_left":[0,0,0,0,0,0,0,0,0,0,0,0,0,0,0],"id":26,"left_children":[1,3,5,-1,7,9,-1,11,-1,-1,13,-1,-1,-1,-1],"loss_changes":[2.1005388E-2,3.6915168E-3,3.9105145E-3,0E0,2.4211202E-3,3.4808684E-3,0E0,3.3901073E-3,0E0,0E0,3.4341328E-3,0E0,0E0,0E0,0E0],"parents":[2147483647,0,0,1,1,2,2,4,4,5,5,7,7,10,10],"right_children":[2,4,6,-1,8,10,-1,12,-1,-1,14,-1,-1,-1,-1],"split_conditions":[4.78E-1,9.5E0,3.94E1,-0E0,1.67E1,9E1,-0E0,4.64E-1,-0E0,-0E0,1.05E1,-6.231983E-4,-0E0,-0E0,1.12371E-3],"split_indices":[0,4,5,0,4,2,0,0,0,0,4,0,0,0,0],"split_type":[0,0,0,0,0,0,0,0,0,0,0,0,0,0,0],"sum_hessian":[2.72E2,1.95E2,7.7E1,4.5E1,1.5E2,7E1,7E0,1.09E2,4.1E1,8E0,6.2E1,9.5E1,1.4E1,1.2E1,5E1],"tree_param":{"num_deleted":"0","num_feature":"8","num_nodes":"15","size_leaf_vector":"1"}},{"base_weights":[-0E0,-6.5511125E-3,3.2592076E-3,-8.964903E-3,-0E0,6.9978097E-3,-2.7768355E-4,-0E0,-1.0198117E-2,-0E0,8.166506E-3,-4.912966E-4,-0E0,-5.866251E-4,-0E0,-0E0,4.7078673E-4],"categories":[],"categories_nodes":[],"categories_segments":[],"categories_sizes":[],"default_left":[0,0,0,0,0,0,0,0,0,0,0,0,0,0,0,0,0],"id":27,"left_children":[1,3,5,7,-1,9,11,-1,13,-1,15,-1,-1,-1,-1,-1,-1],"loss_changes":[5.922434E-3,1.9295311E-3,6.035001E-3,1.0538711E-3,0E0,2.4261186E-3,2.5074193E-3,0E0,5.354285E-4,0E0,2.6944103E-3,0E0,0E0,0E0,0E0,0E0,0E0],"parents":[2147483647,0,0,1,1,2,2,3,3,5,5,6,6,8,8,10,10],"right_children":[2,4,6,8,-1,10,12,-1,14,-1,16,-1,-1,-1,-1,-1,-1],"split_conditions":[7E0,4.25E-1,1.12026356E-1,5.2785926E-2,-0E0,3.7E1,5.08E-1,-0E0,3.95E1,-0E0,-3E-1,-4.912966E-4,-0E0,-5.866251E-4,-0E0,-0E0,4.7078673E-4],"split_indices":[1,0,7,7,0,3,0,0,3,0,6,0,0,0,0,0,0],"split_type":[0,0,0,0,0,0,0,0,0,0,0,0,0,0,0,0,0],"sum_hessian":[2.86E2,8.6E1,2E2,6.9E1,1.7E1,1.65E2,3.5E1,6E0,6.3E1,8E0,1.57E2,2.4E1,1.1E1,5.1E1,1.2E1,9E0,1.48E2],"tree_param":{"num_deleted":"0","num_feature":"8","num_nodes":"17","size_leaf_vector":"1"}},{"base_weights":[-0E0,-3.8760684E-3,1.299896E-2,-0E0,-8.387083E-3,-0E0,1.7605659E-2,-0E0,4.8388103E-3,-0E0,-9.433055E-3,-0E0,9.916943E-4,-0E0,3.1015012E-4,-5.3662184E-4,-0E0],"categories":[],"categories_nodes":[],"categories_segments":[],"categories_sizes":[],"default_left":[0,0,0,0,0,0,0,0,0,0,0,0,0,0,0,0,0],"id":28,"left_children":[1,3,5,7,9,-1,11,-1,13,-1,15,-1,-1,-1,-1,-1,-1],"loss_changes":[1.6045747E-2,6.6725267E-3,6.2065544E-3,9.131494E-4,2.1273196E-3,0E0,3.2053571E-3,0E0,3.5659928E-4,0E0,2.3331046E-3,0E0,0E0,0E0,0E0,0E0,0E0],"parents":[2147483647,0,0,1,1,2,2,3,3,4,4,6,6,8,8,10,10],"right_children":[2,4,6,8,10,-1,12,-1,14,-1,16,-1,-1,-1,-1,-1,-1],"split_conditions":[4.79E-1,7.022901E-2,1.05E1,8.85E1,5.4E0,-0E0,4.23E1,-0E0,8.5E0,-0E0,-2.26E-1,-0E0,9.916943E-4,-0E0,3.1015012E-4,-5.3662184E-4,-0E0],"split_indices":[0,7,4,2,4,0,3,0,4,0,6,0,0,0,0,0,0],"split_type":[0,0,0,0,0,0,0,0,0,0,0,0,0,0,0,0,0],"sum_hessian":[2.75E2,2E2,7.5E1,6.4E1,1.36E2,1.5E1,6E1,2.7E1,3.7E1,5E0,1.31E2,5E0,5.5E1,6E0,3.1E1,1.21E2,1E1],"tree_param":{"num_deleted":"0","num_feature":"8","num_nodes":"17","size_leaf_vector":"1"}},{"base_weights":[-0E0,-1.0409942E-2,1.8188164E-3,-1.2597548E-2,-0E0,7.986356E-3,-0E0,-0E0,-1.4719038E-2,1.3956012E-2,-0E0,-4.2606685E-3,3.2443637E-5,-8.3688565E-4,-0E0,-0E0,7.687294E-4,-3.2291232E-4,-0E0],"categories":[],"categories_nodes":[],"categories_segments":[],"categories_sizes":[],"default_left":[0,0,0,0,0,0,0,0,0,0,0,0,0,0,0,0,0,0,0],"id":29,"left_children":[1,3,5,7,-1,9,11,-1,13,15,-1,17,-1,-1,-1,-1,-1,-1,-1],"loss_changes":[8.523581E-3,1.2433822E-3,6.0397144E-3,1.3534054E-3,0E0,8.820742E-3,1.9461921E-3,0E0,1.6472898E-3,1.4375933E-3,0E0,1.811402E-3,0E0,0E0,0E0,0E0,0E0,0E0,0E0],"parents":[2147483647,0,0,1,1,2,2,3,3,5,5,6,6,8,8,9,9,11,11],"right_children":[2,4,6,8,-1,10,12,-1,14,16,-1,18,-1,-1,-1,-1,-1,-1,-1],"split_conditions":[8.85E1,1.72E1,3.45E1,9.5E0,-0E0,1.0755814E-1,5.4E1,-0E0,3.87E1,-2.84E-1,-0E0,1.82E1,3.2443637E-5,-8.3688565E-4,-0E0,-0E0,7.687294E-4,-3.2291232E-4,-0E0],"split_indices":[2,4,5,4,0,7,3,0,3,6,0,4,0,0,0,0,0,0,0],"split_type":[0,0,0,0,0,0,0,0,0,0,0,0,0,0,0,0,0,0,0],"sum_hessian":[2.86E2,7E1,2.16E2,5.5E1,1.5E1,1.04E2,1.12E2,9E0,4.6E1,7.8E1,2.6E1,1.05E2,7E0,4.1E1,5E0,8E0,7E1,8.8E1,1.7E1],"tree_param":{"num_deleted":"0","num_feature":"8","num_nodes":"19","size_leaf_vector":"1"}},{"base_weights":[-0E0,-6.654884E-3,7.2644236E-3,-9.893729E-3,-0E0,9.700623E-3,-0E0,-0E0,-5.457638E-4,-0E0,1.1589333E-2,6.351682E-4,-0E0],"categories":[],"categories_nodes":[],"categories_segments":[],"categories_sizes":[],"default_left":[0,0,0,0,0,0,0,0,0,0,0,0,0],"id":30,"left_children":[1,3,5,7,-1,9,-1,-1,-1,-1,11,-1,-1],"loss_changes":[1.38889905E-2,3.23655E-3,1.2674676E-3,1.2324164E-3,0E0,1.0388149E-3,0E0,0E0,0E0,0E0,1.4122734E-3,0E0,0E0],"parents":[2147483647,0,0,1,1,2,2,3,3,5,5,10,10],"right_children":[2,4,6,8,-1,10,-1,-1,-1,-1,12,-1,-1],"split_conditions":[8.2E0,4.04E1,3.57E1,-3.04E-1,-0E0,4.38E-1,-0E0,-0E0,-5.457638E-4,-0E0,-2.19E-1,6.351682E-4,-0E0],"split_indices":[1,3,5,6,0,0,0,0,0,0,6,0,0],"split_type":[0,0,0,0,0,0,0,0,0,0,0,0,0],"sum_hessian":[2.78E2,1.15E2,1.63E2,8.4E1,3.1E1,1.04E2,5.9E1,5E0,7.9E1,2.4E1,8E1,7.5E1,5E0],"tree_param":{"num_deleted":"0","num_feature":"8","num_nodes":"13","size_leaf_vector":"1"}},{"base_weights":[1.4105465E-3,-5.181916E-3,6.9014346E-3,-0E0,-6.673802E-3,-0E0,9.587779E-3,-4.297765E-4,-0E0,-0E0,1.3107683E-2,-0E0,7.5694313E-4],"categories":[],"categories_nodes":[],"categories_segments":[],"categories_sizes":[],"default_left":[0,0,0,0,0,0,0,0,0,0,0,0,0],"id":31,"left_children":[1,3,5,-1,7,-1,9,-1,-1,-1,11,-1,-1],"loss_changes":[1.1066857E-2,1.3161039E-3,4.0413886E-3,0E0,1.3718037E-3,0E0,3.5083126E-3,0E0,0E0,0E0,3.789151E-3,0E0,0E0],"parents":[2147483647,0,0,1,1,2,2,4,4,6,6,10,10],"right_children":[2,4,6,-1,8,-1,10,-1,-1,-1,12,-1,-1],"split_conditions":[8.91E1,2.94E1,1.05E1,-0E0,1.72E1,-0E0,4.61E-1,-4.297765E-4,-0E0,-0E0,4.11E1,-0E0,7.5694313E-4],"split_indices":[2,5,4,0,4,0,0,0,0,0,3,0,0],"split_type":[0,0,0,0,0,0,0,0,0,0,0,0,0],"sum_hessian":[2.78E2,8.5E1,1.93E2,5E0,8E1,5E1,1.43E2,6.6E1,1.4E1,4.7E1,9.6E1,8E0,8.8E1],"tree_param":{"num_deleted":"0","num_feature":"8","num_nodes":"13","size_leaf_vector":"1"}},{"base_weights":[-0E0,-5.596419E-3,5.1819696E-3,-9.23692E-3,-0E0,9.878137E-3,-0E0,-0E0,-6.5349316E-4,1.524827E-2,-0E0,-3.3144543E-3,1.7239264E-3,-0E0,8.6629315E-4,-2.973028E-4,-0E0,-0E0,3.9919472E-4],"categories":[],"categories_nodes":[],"categories_segments":[],"categories_sizes":[],"default_left":[0,0,0,0,0,0,0,0,0,0,0,0,0,0,0,0,0,0,0],"id":32,"left_children":[1,3,5,7,-1,9,11,-1,-1,13,-1,15,17,-1,-1,-1,-1,-1,-1],"loss_changes":[8.184685E-3,2.5186194E-3,4.721914E-3,1.1167275E-3,0E0,4.5831343E-3,5.4524577E-4,0E0,0E0,1.3588788E-3,0E0,7.492809E-4,1.2745439E-3,0E0,0E0,0E0,0E0,0E0,0E0],"parents":[2147483647,0,0,1,1,2,2,3,3,5,5,6,6,9,9,11,11,12,12],"right_children":[2,4,6,8,-1,10,12,-1,-1,14,-1,16,18,-1,-1,-1,-1,-1,-1],"split_conditions":[8.2E0,3.88E1,9.891808E-2,7.912458E-2,-0E0,3.54E1,1.24E1,-0E0,-6.5349316E-4,8.6E0,-0E0,3.76E1,4.98E1,-0E0,8.6629315E-4,-2.973028E-4,-0E0,-0E0,3.9919472E-4],"split_indices":[1,3,7,7,0,5,1,0,0,4,0,5,3,0,0,0,0,0,0],"split_type":[0,0,0,0,0,0,0,0,0,0,0,0,0,0,0,0,0,0,0],"sum_hessian":[2.82E2,1.11E2,1.71E2,6.9E1,4.2E1,9.4E1,7.7E1,2.9E1,4E1,5.8E1,3.6E1,3.6E1,4.1E1,9E0,4.9E1,3.1E1,5E0,2.1E1,2E1],"tree_param":{"num_deleted":"0","num_feature":"8","num_nodes":"19","size_leaf_vector":"1"}},{"base_weights":[-0E0,-2.2543678E-3,5.1660556E-3,-0E0,-4.1742134E-3,-0E0,8.218621E-3,-0E0,-6.2500574E-3,-0E0,6.4805953E-4,-0E0,-3.3709453E-4],"categories":[],"categories_nodes":[],"categories_segments":[],"categories_sizes":[],"default_left":[0,0,0,0,0,0,0,0,0,0,0,0,0],"id":33,"left_children":[1,3,5,-1,7,-1,9,-1,11,-1,-1,-1,-1],"loss_changes":[3.8212698E-3,1.4759363E-3,3.9272816E-3,0E0,8.292971E-4,0E0,3.3578756E-3,0E0,2.4486077E-4,0E0,0E0,0E0,0E0],"parents":[2147483647,0,0,1,1,2,2,4,4,6,6,8,8],"right_children":[2,4,6,-1,8,-1,10,-1,12,-1,-1,-1,-1],"split_conditions":[4.61E-1,9.5E0,9.1E0,-0E0,-2.6E-1,-0E0,9.1E1,-0E0,8.67E1,-0E0,6.4805953E-4,-0E0,-3.3709453E-4],"split_indices":[0,4,4,0,6,0,2,0,2,0,0,0,0],"split_type":[0,0,0,0,0,0,0,0,0,0,0,0,0],"sum_hessian":[2.76E2,1.67E2,1.09E2,3.5E1,1.32E2,9E0,1E2,5.3E1,7.9E1,4.1E1,5.9E1,6E0,7.3E1],"tree_param":{"num_deleted":"0","num_feature":"8","num_nodes":"13","size_leaf_vector":"1"}},{"base_weights":[-0E0,-8.545972E-3,3.1878408E-3,-0E0,-9.732762E-3,4.9248193E-3,-0E0,-0E0,-1.1558556E-2,-0E0,8.926144E-3,-6.44821E-4,-0E0,-0E0,5.001586E-4],"categories":[],"categories_nodes":[],"categories_segments":[],"categories_sizes":[],"default_left":[0,0,0,0,0,0,0,0,0,0,0,0,0,0,0],"id":34,"left_children":[1,3,5,-1,7,9,-1,-1,11,-1,13,-1,-1,-1,-1],"loss_changes":[7.1734106E-3,4.5482535E-4,2.255857E-3,0E0,1.3194638E-3,3.5776594E-3,0E0,0E0,8.37001E-4,0E0,1.3382956E-3,0E0,0E0,0E0,0E0],"parents":[2147483647,0,0,1,1,2,2,4,4,5,5,8,8,10,10],"right_children":[2,4,6,-1,8,10,-1,-1,12,-1,14,-1,-1,-1,-1],"split_conditions":[3.81E1,9.5E0,-2.39E-1,-0E0,5.2785926E-2,1.21E1,-0E0,-0E0,3.72E1,-0E0,3.92E1,-6.44821E-4,-0E0,-0E0,5.001586E-4],"split_indices":[3,4,6,0,7,4,0,0,3,0,3,0,0,0,0],"split_type":[0,0,0,0,0,0,0,0,0,0,0,0,0,0,0],"sum_hessian":[2.75E2,6.7E1,2.08E2,1.1E1,5.6E1,1.79E2,2.9E1,7E0,4.9E1,8.1E1,9.8E1,4.4E1,5E0,7E0,9.1E1],"tree_param":{"num_deleted":"0","num_feature":"8","num_nodes":"15","size_leaf_vector":"1"}},{"base_weights":[-0E0,-6.6223973E-3,4.9404264E-3,-0E0,-9.040136E-3,6.6462387E-3,-0E0,-1.1730203E-2,-0E0,-0E0,7.6703816E-3,-0E0,-6.860531E-4,-0E0,4.6879766E-4],"categories":[],"categories_nodes":[],"categories_segments":[],"categories_sizes":[],"default_left":[0,0,0,0,0,0,0,0,0,0,0,0,0,0,0],"id":35,"left_children":[1,3,5,-1,7,9,-1,11,-1,-1,13,-1,-1,-1,-1],"loss_changes":[9.01775E-3,3.1150337E-3,2.1685306E-3,0E0,3.6568204E-3,1.3463283E-3,0E0,1.7581237E-3,0E0,0E0,2.665164E-3,0E0,0E0,0E0,0E0],"parents":[2147483647,0,0,1,1,2,2,4,4,5,5,7,7,10,10],"right_children":[2,4,6,-1,8,10,-1,12,-1,-1,14,-1,-1,-1,-1],"split_conditions":[4.26E-1,2.99E1,-2.44E-1,-0E0,1.72E1,8.4E0,-0E0,5.925926E-2,-0E0,-0E0,3.22E1,-0E0,-6.860531E-4,-0E0,4.6879766E-4],"split_indices":[0,5,6,0,4,4,0,7,0,0,5,0,0,0,0],"split_type":[0,0,0,0,0,0,0,0,0,0,0,0,0,0,0],"sum_hessian":[2.81E2,1.04E2,1.77E2,1.1E1,9.3E1,1.46E2,3.1E1,8.1E1,1.2E1,1.4E1,1.32E2,1.3E1,6.8E1,1.4E1,1.18E2],"tree_param":{"num_deleted":"0","num_feature":"8","num_nodes":"15","size_leaf_vector":"1"}},{"base_weights":[-8.936061E-4,-4.491656E-3,9.027099E-3,-0E0,-7.8105545E-3,8.6095574E-4,-0E0,-0E0,4.647938E-3,-9.904612E-3,-0E0,-0E0,4.0403265E-4,-0E0,-5.32563E-4],"categories":[],"categories_nodes":[],"categories_segments":[],"categories_sizes":[],"default_left":[0,0,0,0,0,0,0,0,0,0,0,0,0,0,0],"id":36,"left_children":[1,3,5,7,9,-1,-1,-1,11,13,-1,-1,-1,-1,-1],"loss_changes":[7.915111E-3,6.139823E-3,3.0484046E-3,7.993231E-4,3.7104348E-3,0E0,0E0,0E0,1.0942887E-3,1.6368544E-3,0E0,0E0,0E0,0E0,0E0],"parents":[2147483647,0,0,1,1,2,2,3,3,4,4,8,8,9,9],"right_children":[2,4,6,8,10,-1,-1,-1,12,14,-1,-1,-1,-1,-1],"split_conditions":[5.09E-1,7.022901E-2,1.43E1,8.86E1,1.81E1,8.6095574E-4,-0E0,-0E0,9.1E0,5.2E0,-0E0,-0E0,4.0403265E-4,-0E0,-5.32563E-4],"split_indices":[0,7,4,2,4,0,0,0,4,4,0,0,0,0,0],"split_type":[0,0,0,0,0,0,0,0,0,0,0,0,0,0,0],"sum_hessian":[2.81E2,2.44E2,3.7E1,6.4E1,1.8E2,1.9E1,1.8E1,2.9E1,3.5E1,1.49E2,3.1E1,8E0,2.7E1,6E0,1.43E2],"tree_param":{"num_deleted":"0","num_feature":"8","num_nodes":"15","size_leaf_vector":"1"}},{"base_weights":[-0E0,-2.3142754E-3,7.0752953E-3,-0E0,-8.634828E-3,-0E0,1.0268347E-2,-0E0,3.819355E-3,-0E0,-1.206775E-2,-0E0,1.2549144E-2,3.2257134E-4,-0E0,-6.9265015E-4,-0E0,6.843395E-4,-0E0],"categories":[],"categories_nodes":[],"categories_segments":[],"categories_sizes":[],"default_left":[0,0,0,0,0,0,0,0,0,0,0,0,0,0,0,0,0,0,0],"id":37,"left_children":[1,3,5,7,9,-1,11,-1,13,-1,15,-1,17,-1,-1,-1,-1,-1,-1],"loss_changes":[4.6182075E-3,6.640245E-3,2.6112737E-3,1.0065356E-3,4.769964E-3,0E0,1.2861481E-3,0E0,1.5323396E-3,0E0,1.1010747E-3,0E0,2.788487E-4,0E0,0E0,0E0,0E0,0E0,0E0],"parents":[2147483647,0,0,1,1,2,2,3,3,4,4,6,6,8,8,10,10,12,12],"right_children":[2,4,6,8,10,-1,12,-1,14,-1,16,-1,18,-1,-1,-1,-1,-1,-1],"split_conditions":[4.79E-1,8.6036675E-2,9.05E1,6.3E0,9.5E0,-0E0,1.05E1,-0E0,4.72E-1,-0E0,3.73E1,-0E0,3.94E1,3.2257134E-4,-0E0,-6.9265015E-4,-0E0,6.843395E-4,-0E0],"split_indices":[0,7,2,1,4,0,4,0,0,0,5,0,5,0,0,0,0,0,0],"split_type":[0,0,0,0,0,0,0,0,0,0,0,0,0,0,0,0,0,0,0],"sum_hessian":[2.74E2,2.06E2,6.8E1,1.04E2,1.02E2,1.2E1,5.6E1,3.7E1,6.7E1,1.8E1,8.4E1,1.1E1,4.5E1,5.9E1,8E0,6.9E1,1.5E1,3.9E1,6E0],"tree_param":{"num_deleted":"0","num_feature":"8","num_nodes":"19","size_leaf_vector":"1"}},{"base_weights":[-0E0,-8.399222E-3,3.7669947E-3,-0E0,-1.0481416E-2,6.2280484E-3,-0E0,-5.628959E-4,-0E0,-0E0,8.3410805E-3,-0E0,4.5883722E-4],"categories":[],"categories_nodes":[],"categories_segments":[],"categories_sizes":[],"default_left":[0,0,0,0,0,0,0,0,0,0,0,0,0],"id":38,"left_children":[1,3,5,-1,7,9,-1,-1,-1,-1,11,-1,-1],"loss_changes":[7.580502E-3,1.3781278E-3,3.3416492E-3,0E0,1.3422826E-4,2.0798617E-3,0E0,0E0,0E0,0E0,1.1268966E-3,0E0,0E0],"parents":[2147483647,0,0,1,1,2,2,4,4,5,5,10,10],"right_children":[2,4,6,-1,8,10,-1,-1,-1,-1,12,-1,-1],"split_conditions":[6.3E0,-2.91E-1,-2.44E-1,-0E0,4.13E1,8E0,-0E0,-5.628959E-4,-0E0,-0E0,8.88E1,-0E0,4.5883722E-4],"split_indices":[1,6,6,0,3,1,0,0,0,0,2,0,0],"split_type":[0,0,0,0,0,0,0,0,0,0,0,0,0],"sum_hessian":[2.8E2,6.1E1,2.19E2,1E1,5.1E1,1.65E2,5.4E1,4.5E1,6E0,4.4E1,1.21E2,8E0,1.13E2],"tree_param":{"num_deleted":"0","num_feature":"8","num_nodes":"13","size_leaf_vector":"1"}},{"base_weights":[-0E0,-7.3870593E-3,1.873016E-3,-9.0817055E-3,-0E0,4.1413256E-3,-0E0,-0E0,-5.388322E-4,-0E0,5.212577E-3,-0E0,3.5238158E-4],"categories":[],"categories_nodes":[],"categories_segments":[],"categories_sizes":[],"default_left":[0,0,0,0,0,0,0,0,0,0,0,0,0],"id":39,"left_children":[1,3,5,7,-1,9,-1,-1,-1,-1,11,-1,-1],"loss_changes":[5.8349813E-3,1.607032E-3,1.8046886E-3,1.5161755E-3,0E0,1.0224602E-3,0E0,0E0,0E0,0E0,2.1393993E-3,0E0,0E0],"parents":[2147483647,0,0,1,1,2,2,3,3,5,5,10,10],"right_children":[2,4,6,8,-1,10,-1,-1,-1,-1,12,-1,-1],"split_conditions":[4.26E-1,8.2E0,-2.45E-1,5.925926E-2,-0E0,6.9E0,-0E0,-0E0,-5.388322E-4,-0E0,8.4E0,-0E0,3.5238158E-4],"split_indices":[0,1,6,7,0,1,0,0,0,0,4,0,0],"split_type":[0,0,0,0,0,0,0,0,0,0,0,0,0],"sum_hessian":[2.62E2,9.4E1,1.68E2,8.1E1,1.3E1,1.38E2,3E1,1.1E1,7E1,1.4E1,1.24E2,1.4E1,1.1E2],"tree_param":{"num_deleted":"0","num_feature":"8","num_nodes":"13","size_leaf_vector":"1"}},{"base_weights":[-0E0,-4.0271293E-4,1.3192438E-2,-0E0,-6.8558007E-3,8.656462E-4,-0E0,3.5784063E-3,-6.936285E-4,-0E0,-4.225914E-4,-0E0,4.5981232E-4,-2.3831734E-4,-0E0],"categories":[],"categories_nodes":[],"categories_segments":[],"categories_sizes":[],"default_left":[0,0,0,0,0,0,0,0,0,0,0,0,0,0,0],"id":40,"left_children":[1,3,5,7,9,-1,-1,11,13,-1,-1,-1,-1,-1,-1],"loss_changes":[6.652459E-3,2.4051815E-3,2.6783203E-3,1.2261713E-3,8.418318E-4,0E0,0E0,3.6424845E-3,1.6103064E-3,0E0,0E0,0E0,0E0,0E0,0E0],"parents":[2147483647,0,0,1,1,2,2,3,3,4,4,7,7,8,8],"right_children":[2,4,6,8,10,-1,-1,12,14,-1,-1,-1,-1,-1,-1],"split_conditions":[5.09E-1,1.0755814E-1,-2.54E-1,3.41E1,7.8E0,8.656462E-4,-0E0,8.85E1,1.57E1,-0E0,-4.225914E-4,-0E0,4.5981232E-4,-2.3831734E-4,-0E0],"split_indices":[0,7,6,5,4,0,0,2,4,0,0,0,0,0,0],"split_type":[0,0,0,0,0,0,0,0,0,0,0,0,0,0,0],"sum_hessian":[2.74E2,2.38E2,3.6E1,1.88E2,5E1,2.9E1,7E0,9E1,9.8E1,6E0,4.4E1,3.5E1,5.5E1,7.1E1,2.7E1],"tree_param":{"num_deleted":"0","num_feature":"8","num_nodes":"15","size_leaf_vector":"1"}},{"base_weights":[-0E0,-6.5798447E-3,2.0406926E-3,-0E0,-7.978658E-3,4.65881E-3,-0E0,-4.5403323E-4,-0E0,8.32133E-3,-0E0,-3.541764E-3,-0E0,-0E0,5.1554426E-4,-3.4031083E-4,-0E0],"categories":[],"categories_nodes":[],"categories_segments":[],"categories_sizes":[],"default_left":[0,0,0,0,0,0,0,0,0,0,0,0,0,0,0,0,0],"id":41,"left_children":[1,3,5,-1,7,9,11,-1,-1,13,-1,15,-1,-1,-1,-1,-1],"loss_changes":[4.4429745E-3,1.3083101E-3,2.6665875E-3,0E0,2.9314123E-4,2.4388996E-3,4.3904327E-4,0E0,0E0,2.5501167E-3,0E0,9.0436963E-4,0E0,0E0,0E0,0E0,0E0],"parents":[2147483647,0,0,1,1,2,2,4,4,5,5,6,6,9,9,11,11],"right_children":[2,4,6,-1,8,10,12,-1,-1,14,-1,16,-1,-1,-1,-1,-1],"split_conditions":[8.87E1,2.96E1,1.12026356E-1,-0E0,1.62E1,3.51E1,1.4652015E-1,-4.5403323E-4,-0E0,-2.93E-1,-0E0,3.71E1,-0E0,-0E0,5.1554426E-4,-3.4031083E-4,-0E0],"split_indices":[2,5,7,0,4,5,7,0,0,6,0,5,0,0,0,0,0],"split_type":[0,0,0,0,0,0,0,0,0,0,0,0,0,0,0,0,0],"sum_hessian":[2.83E2,8.1E1,2.02E2,6E0,7.5E1,1.6E2,4.2E1,6.1E1,1.4E1,8.4E1,7.6E1,3.3E1,9E0,6E0,7.8E1,2.7E1,6E0],"tree_param":{"num_deleted":"0","num_feature":"8","num_nodes":"17","size_leaf_vector":"1"}},{"base_weights":[-0E0,-1.72915E-3,4.6039536E-3,-0E0,-6.911342E-3,2.8108005E-4,-0E0,-0E0,3.1366518E-3,-9.041739E-3,-0E0,-0E0,3.0698953E-4,-5.085005E-4,-0E0],"categories":[],"categories_nodes":[],"categories_segments":[],"categories_sizes":[],"default_left":[0,0,0,0,0,0,0,0,0,0,0,0,0,0,0],"id":42,"left_children":[1,3,5,7,9,-1,-1,-1,11,13,-1,-1,-1,-1,-1],"loss_changes":[3.3673488E-3,3.1190547E-3,8.8838255E-4,5.509608E-4,1.9767084E-3,0E0,0E0,0E0,8.8152627E-4,9.568273E-4,0E0,0E0,0E0,0E0,0E0],"parents":[2147483647,0,0,1,1,2,2,3,3,4,4,8,8,9,9],"right_children":[2,4,6,8,10,-1,-1,-1,12,14,-1,-1,-1,-1,-1],"split_conditions":[9.02E1,3.49E1,-2.39E-1,5.9E0,3.94E1,2.8108005E-4,-0E0,-0E0,1.18E1,2E1,-0E0,-0E0,3.0698953E-4,-5.085005E-4,-0E0],"split_indices":[2,5,6,1,5,0,0,0,4,4,0,0,0,0,0],"split_type":[0,0,0,0,0,0,0,0,0,0,0,0,0,0,0],"sum_hessian":[2.88E2,1.53E2,1.35E2,8E1,7.3E1,1.18E2,1.7E1,2.6E1,5.4E1,6.6E1,7E0,1.8E1,3.6E1,6.1E1,5E0],"tree_param":{"num_deleted":"0","num_feature":"8","num_nodes":"15","size_leaf_vector":"1"}},{"base_weights":[-0E0,-3.925059E-3,2.0442447E-3,-4.6251034E-3,-0E0,3.3949276E-3,-0E0,-0E0,-5.2144015E-3,-0E0,4.3612886E-3,-2.9076295E-4,-0E0,-0E0,3.375852E-4],"categories":[],"categories_nodes":[],"categories_segments":[],"categories_sizes":[],"default_left":[0,0,0,0,0,0,0,0,0,0,0,0,0,0,0],"id":43,"left_children":[1,3,5,7,-1,9,-1,-1,11,-1,13,-1,-1,-1,-1],"loss_changes":[2.2285737E-3,3.2987935E-4,9.2937436E-4,2.8114265E-4,0E0,5.3924485E-4,0E0,0E0,2.4638767E-4,0E0,1.7329569E-3,0E0,0E0,0E0,0E0],"parents":[2147483647,0,0,1,1,2,2,3,3,5,5,8,8,10,10],"right_children":[2,4,6,8,-1,10,-1,-1,12,-1,14,-1,-1,-1,-1],"split_conditions":[4.29E-1,1.72E1,-2.44E-1,-2.91E-1,-0E0,4.17E1,-0E0,-0E0,4.23E-1,-0E0,9.9E0,-2.9076295E-4,-0E0,-0E0,3.375852E-4],"split_indices":[0,4,6,6,0,3,0,0,0,0,4,0,0,0,0],"split_type":[0,0,0,0,0,0,0,0,0,0,0,0,0,0,0],"sum_hessian":[2.66E2,9.6E1,1.7E2,8.4E1,1.2E1,1.41E2,2.9E1,8E0,7.6E1,2.8E1,1.13E2,6.8E1,8E0,2.9E1,8.4E1],"tree_param":{"num_deleted":"0","num_feature":"8","num_nodes":"15","size_leaf_vector":"1"}},{"base_weights":[-0E0,-6.8315805E-4,1.1249644E-2,-0E0,-6.1753406E-3,6.0827396E-4,-0E0,-0E0,4.2557637E-3,-8.561914E-3,-0E0,3.740942E-4,-0E0,-5.0190376E-4,-0E0],"categories":[],"categories_nodes":[],"categories_segments":[],"categories_sizes":[],"default_left":[0,0,0,0,0,0,0,0,0,0,0,0,0,0,0],"id":44,"left_children":[1,3,5,7,9,-1,-1,-1,11,13,-1,-1,-1,-1,-1],"loss_changes":[7.311147E-3,3.601537E-3,4.8233476E-4,1.3945873E-3,3.0451065E-3,0E0,0E0,0E0,1.740214E-3,9.137988E-4,0E0,0E0,0E0,0E0,0E0],"parents":[2147483647,0,0,1,1,2,2,3,3,4,4,8,8,9,9],"right_children":[2,4,6,8,10,-1,-1,-1,12,14,-1,-1,-1,-1,-1],"split_conditions":[1.28E1,8.784773E-2,1.91E1,6.3E0,5.08E-1,6.0827396E-4,-0E0,-0E0,4.61E1,1.73E1,-0E0,3.740942E-4,-0E0,-5.0190376E-4,-0E0],"split_indices":[1,7,4,1,0,0,0,0,3,4,0,0,0,0,0],"split_type":[0,0,0,0,0,0,0,0,0,0,0,0,0,0,0],"sum_hessian":[2.62E2,2.07E2,5.5E1,1.12E2,9.5E1,5E1,5E0,3.7E1,7.5E1,9E1,5E0,5.4E1,2.1E1,7.4E1,1.6E1],"tree_param":{"num_deleted":"0","num_feature":"8","num_nodes":"15","size_leaf_vector":"1"}},{"base_weights":[-0E0,3.522811E-4,-3.7082718E-3,-0E0,2.6274198E-3,-0E0,-3.362691E-4,-2.5859723E-4,-0E0,-0E0,5.159649E-3,-0E0,-5.466252E-5,3.433458E-4,-0E0],"categories":[],"categories_nodes":[],"categories_segments":[],"categories_sizes":[],"default_left":[0,0,0,0,0,0,0,0,0,0,0,0,0,0,0],"id":45,"left_children":[1,3,5,7,9,-1,-1,11,-1,-1,13,-1,-1,-1,-1],"loss_changes":[5.789669E-4,1.1929746E-3,9.877945E-4,3.2098815E-6,1.6799052E-3,0E0,0E0,4.818356E-5,0E0,0E0,1.5778856E-3,0E0,0E0,0E0,0E0],"parents":[2147483647,0,0,1,1,2,2,3,3,4,4,7,7,10,10],"right_children":[2,4,6,8,10,-1,-1,12,-1,-1,14,-1,-1,-1,-1],"split_conditions":[-2.39E-1,6.3E0,7.745267E-2,-2.5E-1,1.2E1,-0E0,-3.362691E-4,5.1136363E-2,-0E0,-0E0,-2.44E-1,-0E0,-5.466252E-5,3.433458E-4,-0E0],"split_indices":[6,1,7,6,4,0,0,7,0,0,6,0,0,0,0],"split_type":[0,0,0,0,0,0,0,0,0,0,0,0,0,0,0],"sum_hessian":[2.69E2,2.31E2,3.8E1,5.6E1,1.75E2,6E0,3.2E1,4.6E1,1E1,6.8E1,1.07E2,5E0,4.1E1,9.3E1,1.4E1],"tree_param":{"num_deleted":"0","num_feature":"8","num_nodes":"15","size_leaf_vector":"1"}},{"base_weights":[-0E0,-1.505889E-3,1.026862E-2,-3.6991404E-3,-0E0,1.1977967E-2,-0E0,-5.428936E-3,-0E0,-0E0,7.207081E-4,-0E0,-3.099202E-4],"categories":[],"categories_nodes":[],"categories_segments":[],"categories_sizes":[],"default_left":[0,0,0,0,0,0,0,0,0,0,0,0,0],"id":46,"left_children":[1,3,5,7,-1,9,-1,11,-1,-1,-1,-1,-1],"loss_changes":[7.0477957E-3,2.4317498E-3,1.4968519E-3,2.2453258E-3,0E0,8.996129E-4,0E0,1.3057068E-3,0E0,0E0,0E0,0E0,0E0],"parents":[2147483647,0,0,1,1,2,2,3,3,5,5,7,7],"right_children":[2,4,6,8,-1,10,-1,12,-1,-1,-1,-1,-1],"split_conditions":[1.27E1,5.08E-1,3.92E1,1.64E1,-0E0,1.17E1,-0E0,5.4E0,-0E0,-0E0,7.207081E-4,-0E0,-3.099202E-4],"split_indices":[1,0,5,4,0,4,0,4,0,0,0,0,0],"split_type":[0,0,0,0,0,0,0,0,0,0,0,0,0],"sum_hessian":[2.83E2,2.23E2,6E1,2.13E2,1E1,5.4E1,6E0,1.74E2,3.9E1,1.3E1,4.1E1,7E0,1.67E2],"tree_param":{"num_deleted":"0","num_feature":"8","num_nodes":"13","size_leaf_vector":"1"}},{"base_weights":[-9.035891E-4,-7.825683E-3,-0E0,-4.3712347E-4,-0E0,2.8351774E-3,-0E0,6.8675876E-3,-0E0,-2.6303986E-3,-0E0,-0E0,4.8513082E-4,-0E0,-2.4390155E-4],"categories":[],"categories_nodes":[],"categories_segments":[],"categories_sizes":[],"default_left":[0,0,0,0,0,0,0,0,0,0,0,0,0,0,0],"id":47,"left_children":[1,3,5,-1,-1,7,9,11,-1,13,-1,-1,-1,-1,-1],"loss_changes":[3.7528893E-3,4.5229914E-4,4.1798802E-4,0E0,0E0,1.2799073E-3,9.548215E-4,5.614832E-4,0E0,1.9957817E-3,0E0,0E0,0E0,0E0,0E0],"parents":[2147483647,0,0,1,1,2,2,5,5,6,6,7,7,9,9],"right_children":[2,4,6,-1,-1,8,10,12,-1,14,-1,-1,-1,-1,-1],"split_conditions":[6.3E0,4.13E1,7.022901E-2,-4.3712347E-4,-0E0,4.63E1,5.08E-1,8.86E1,-0E0,8.82E1,-0E0,-0E0,4.8513082E-4,-0E0,-2.4390155E-4],"split_indices":[1,3,7,0,0,3,0,2,0,2,0,0,0,0,0],"split_type":[0,0,0,0,0,0,0,0,0,0,0,0,0,0,0],"sum_hessian":[2.77E2,6.3E1,2.14E2,5.6E1,7E0,5E1,1.64E2,3.4E1,1.6E1,1.36E2,2.8E1,1.2E1,2.2E1,1.4E1,1.22E2],"tree_param":{"num_deleted":"0","num_feature":"8","num_nodes":"15","size_leaf_vector":"1"}},{"base_weights":[-7.379468E-4,-3.6576844E-3,2.5609133E-4,-5.957669E-3,-0E0,-0E0,-8.770201E-3,-5.078776E-4,-0E0],"categories":[],"categories_nodes":[],"categories_segments":[],"categories_sizes":[],"default_left":[0,0,0,0,0,0,0,0,0],"id":48,"left_children":[1,3,-1,5,-1,-1,7,-1,-1],"loss_changes":[4.095917E-3,3.4660557E-3,0E0,2.0246473E-3,0E0,0E0,2.3745196E-3,0E0,0E0],"parents":[2147483647,0,0,1,1,3,3,6,6],"right_children":[2,4,-1,6,-1,-1,8,-1,-1],"split_conditions":[5.09E-1,1.65E1,2.5609133E-4,3.34E1,-0E0,-0E0,5.09E1,-5.078776E-4,-0E0],"split_indices":[0,4,0,5,0,0,3,0,0],"split_type":[0,0,0,0,0,0,0,0,0],"sum_hessian":[2.78E2,2.43E2,3.5E1,1.88E2,5.5E1,7.6E1,1.12E2,1.06E2,6E0],"tree_param":{"num_deleted":"0","num_feature":"8","num_nodes":"9","size_leaf_vector":"1"}},{"base_weights":[-0E0,-3.7068129E-3,3.3235946E-3,-6.2426915E-3,-0E0,-0E0,5.444174E-3,-7.3575242E-3,-0E0,-0E0,9.13329E-3,-0E0,-3.8897505E-4,-0E0,5.61408E-4],"categories":[],"categories_nodes":[],"categories_segments":[],"categories_sizes":[],"default_left":[0,0,0,0,0,0,0,0,0,0,0,0,0,0,0],"id":49,"left_children":[1,3,5,7,-1,-1,9,11,-1,-1,13,-1,-1,-1,-1],"loss_changes":[3.39363E-3,1.6105062E-3,2.0698106E-3,7.127295E-4,0E0,0E0,2.9892568E-3,1.1258223E-4,0E0,0E0,2.0720204E-3,0E0,0E0,0E0,0E0],"parents":[2147483647,0,0,1,1,2,2,3,3,6,6,7,7,10,10],"right_children":[2,4,6,8,-1,-1,10,12,-1,-1,14,-1,-1,-1,-1],"split_conditions":[7E0,4.25E-1,7.475083E-2,1.72E1,-0E0,-0E0,4.59E-1,5.2117262E-2,-0E0,-0E0,1.05E1,-0E0,-3.8897505E-4,-0E0,5.61408E-4],"split_indices":[1,0,7,4,0,0,0,7,0,0,4,0,0,0,0],"split_type":[0,0,0,0,0,0,0,0,0,0,0,0,0,0,0],"sum_hessian":[2.82E2,8.5E1,1.97E2,7E1,1.5E1,5.5E1,1.42E2,6.3E1,7E0,5.7E1,8.5E1,5E0,5.8E1,1.3E1,7.2E1],"tree_param":{"num_deleted":"0","num_feature":"8","num_nodes":"15","size_leaf_vector":"1"}},{"base_weights":[-0E0,-2.276364E-3,2.697468E-3,-3.566919E-3,-0E0,-0E0,3.8975E-3,-0E0,-4.419806E-3,-0E0,5.528714E-3,-0E0,-2.685709E-4,3.0801844E-4,-0E0],"categories":[],"categories_nodes":[],"categories_segments":[],"categories_sizes":[],"default_left":[0,0,0,0,0,0,0,0,0,0,0,0,0,0,0],"id":50,"left_children":[1,3,5,7,-1,-1,9,-1,11,-1,13,-1,-1,-1,-1],"loss_changes":[1.7987093E-3,7.3055783E-4,3.811312E-4,3.1683012E-4,0E0,0E0,6.059833E-4,0E0,6.197698E-4,0E0,2.3539178E-4,0E0,0E0,0E0,0E0],"parents":[2147483647,0,0,1,1,2,2,3,3,6,6,8,8,10,10],"right_children":[2,4,6,8,-1,-1,10,-1,12,-1,14,-1,-1,-1,-1],"split_conditions":[8.93E1,1.95E1,1.17E1,8.67E1,-0E0,-0E0,4.64E-1,-0E0,-3.04E-1,-0E0,-2.39E-1,-0E0,-2.685709E-4,3.0801844E-4,-0E0],"split_indices":[2,4,4,2,0,0,0,0,6,0,6,0,0,0,0],"split_type":[0,0,0,0,0,0,0,0,0,0,0,0,0,0,0],"sum_hessian":[2.74E2,1.05E2,1.69E2,9.9E1,6E0,6.4E1,1.05E2,1.9E1,8E1,3.4E1,7.1E1,5E0,7.5E1,6.3E1,8E0],"tree_param":{"num_deleted":"0","num_feature":"8","num_nodes":"15","size_leaf_vector":"1"}},{"base_weights":[-0E0,1.6942421E-3,-3.216628E-3,-0E0,5.89099E-3,-6.5518725E-3,-0E0,-2.1853126E-5,-0E0,1.0018894E-2,-0E0,-0E0,-7.8517925E-3,5.786651E-4,-0E0,-0E0,-4.2113717E-4],"categories":[],"categories_nodes":[],"categories_segments":[],"categories_sizes":[],"default_left":[0,0,0,0,0,0,0,0,0,0,0,0,0,0,0,0,0],"id":51,"left_children":[1,3,5,7,9,11,-1,-1,-1,13,-1,-1,15,-1,-1,-1,-1],"loss_changes":[1.8843119E-3,3.377976E-3,4.1009365E-3,4.9666146E-6,4.9501965E-3,1.8175631E-3,0E0,0E0,0E0,2.1163411E-3,0E0,0E0,7.6032244E-4,0E0,0E0,0E0,0E0],"parents":[2147483647,0,0,1,1,2,2,3,3,4,4,5,5,9,9,12,12],"right_children":[2,4,6,8,10,12,-1,-1,-1,14,-1,-1,16,-1,-1,-1,-1],"split_conditions":[3.45E1,3.88E-1,5.53E-1,8.84E1,1.095008E-1,5.2117262E-2,-0E0,-2.1853126E-5,-0E0,1.42E1,-0E0,-0E0,3.63E-1,5.786651E-4,-0E0,-0E0,-4.2113717E-4],"split_indices":[5,0,0,2,7,7,0,0,0,1,0,0,0,0,0,0,0],"split_type":[0,0,0,0,0,0,0,0,0,0,0,0,0,0,0,0,0],"sum_hessian":[2.8E2,1.39E2,1.41E2,3.2E1,1.07E2,1.28E2,1.3E1,2.4E1,8E0,8.5E1,2.2E1,1E1,1.18E2,7.9E1,6E0,5E0,1.13E2],"tree_param":{"num_deleted":"0","num_feature":"8","num_nodes":"17","size_leaf_vector":"1"}},{"base_weights":[-0E0,-3.7971253E-3,2.4834464E-3,-0E0,-2.1642078E-4,6.7195077E-3,-0E0,-0E0,9.656569E-3,-1.1910714E-3,-0E0,5.672737E-4,-0E0,-1.4526419E-4,-0E0],"categories":[],"categories_nodes":[],"categories_segments":[],"categories_sizes":[],"default_left":[0,0,0,0,0,0,0,0,0,0,0,0,0,0,0],"id":52,"left_children":[1,3,5,-1,-1,7,9,-1,11,13,-1,-1,-1,-1,-1],"loss_changes":[2.539632E-3,3.380262E-4,3.3270586E-3,0E0,0E0,3.0350713E-3,1.0214287E-4,0E0,2.1940367E-3,4.549417E-4,0E0,0E0,0E0,0E0,0E0],"parents":[2147483647,0,0,1,1,2,2,5,5,6,6,8,8,9,9],"right_children":[2,4,6,-1,-1,8,10,-1,12,14,-1,-1,-1,-1,-1],"split_conditions":[8.93E1,2.96E1,3.51E1,-0E0,-2.1642078E-4,-2.8E-1,9.33E1,-0E0,9.33E1,4.19E1,-0E0,5.672737E-4,-0E0,-1.4526419E-4,-0E0],"split_indices":[2,5,5,0,0,6,2,0,2,5,0,0,0,0,0],"split_type":[0,0,0,0,0,0,0,0,0,0,0,0,0,0,0],"sum_hessian":[2.74E2,9.8E1,1.76E2,5E0,9.3E1,9.6E1,8E1,1.8E1,7.8E1,7E1,1E1,7.3E1,5E0,6.4E1,6E0],"tree_param":{"num_deleted":"0","num_feature":"8","num_nodes":"15","size_leaf_vector":"1"}},{"base_weights":[2.1902153E-5,-3.963233E-3,4.279225E-3,-0E0,-2.521948E-4,6.8898923E-3,-0E0,-0E0,7.6419124E-3,-0E0,3.9279234E-4],"categories":[],"categories_nodes":[],"categories_segments":[],"categories_sizes":[],"default_left":[0,0,0,0,0,0,0,0,0,0,0],"id":53,"left_children":[1,3,5,-1,-1,7,-1,-1,9,-1,-1],"loss_changes":[4.9423976E-3,3.6942586E-4,3.5606448E-3,0E0,0E0,1.1829683E-3,0E0,0E0,1.6554445E-4,0E0,0E0],"parents":[2147483647,0,0,1,1,2,2,5,5,8,8],"right_children":[2,4,6,-1,-1,8,-1,-1,10,-1,-1],"split_conditions":[7E0,8.67E1,-2.44E-1,-0E0,-2.521948E-4,8.85E1,-0E0,-0E0,4.15E-1,-0E0,3.9279234E-4],"split_indices":[1,2,6,0,0,2,0,0,0,0,0],"split_type":[0,0,0,0,0,0,0,0,0,0,0],"sum_hessian":[2.78E2,8.3E1,1.95E2,1.8E1,6.5E1,1.49E2,4.6E1,8E0,1.41E2,5E0,1.36E2],"tree_param":{"num_deleted":"0","num_feature":"8","num_nodes":"11","size_leaf_vector":"1"}},{"base_weights":[-6.325102E-4,-8.437468E-3,-0E0,-9.634711E-3,-0E0,1.1489808E-3,-0E0,-1.05582075E-2,-0E0,-0E0,4.011404E-3,-0E0,-6.495531E-4,-0E0,2.5244997E-4],"categories":[],"categories_nodes":[],"categories_segments":[],"categories_sizes":[],"default_left":[0,0,0,0,0,0,0,0,0,0,0,0,0,0,0],"id":54,"left_children":[1,3,5,7,-1,9,-1,11,-1,-1,13,-1,-1,-1,-1],"loss_changes":[5.225295E-3,5.0882716E-4,2.4290885E-4,5.059764E-4,0E0,1.4305926E-3,0E0,3.9658835E-4,0E0,0E0,3.6588986E-4,0E0,0E0,0E0,0E0],"parents":[2147483647,0,0,1,1,2,2,3,3,5,5,7,7,10,10],"right_children":[2,4,6,8,-1,10,-1,12,-1,-1,14,-1,-1,-1,-1],"split_conditions":[8.85E1,1.72E1,-2.39E-1,3.87E1,-0E0,1.2E1,-0E0,8.67E1,-0E0,-0E0,8.98E1,-0E0,-6.495531E-4,-0E0,2.5244997E-4],"split_indices":[2,4,6,3,0,4,0,2,0,0,2,0,0,0,0],"split_type":[0,0,0,0,0,0,0,0,0,0,0,0,0,0,0],"sum_hessian":[2.83E2,7.3E1,2.1E2,6.1E1,1.2E1,1.82E2,2.8E1,5.5E1,6E0,8E1,1.02E2,1.7E1,3.8E1,2.4E1,7.8E1],"tree_param":{"num_deleted":"0","num_feature":"8","num_nodes":"15","size_leaf_vector":"1"}},{"base_weights":[-0E0,-1.284928E-3,7.6085185E-3,1.4075917E-3,-8.077824E-3,1.357147E-2,-0E0,6.75485E-3,-0E0,-1.0860969E-2,-0E0,-0E0,8.2745607E-4,-0E0,5.865866E-4,-0E0,-3.949991E-5,-0E0,-6.723517E-4],"categories":[],"categories_nodes":[],"categories_segments":[],"categories_sizes":[],"default_left":[0,0,0,0,0,0,0,0,0,0,0,0,0,0,0,0,0,0,0],"id":55,"left_children":[1,3,5,7,9,11,-1,13,15,17,-1,-1,-1,-1,-1,-1,-1,-1,-1],"loss_changes":[2.763117E-3,7.674298E-3,2.2311483E-3,4.146493E-3,3.2581547E-3,3.251019E-4,0E0,4.9787923E-3,1.0609651E-5,3.9199824E-3,0E0,0E0,0E0,0E0,0E0,0E0,0E0,0E0,0E0],"parents":[2147483647,0,0,1,1,2,2,3,3,4,4,5,5,7,7,8,8,9,9],"right_children":[2,4,6,8,10,12,-1,14,16,18,-1,-1,-1,-1,-1,-1,-1,-1,-1],"split_conditions":[5.09E-1,3.41E1,1.58E1,1.0755814E-1,1.76E1,5.24E-1,-0E0,3.68E1,8.1E0,5.6726094E-2,-0E0,-0E0,8.2745607E-4,-0E0,5.865866E-4,-0E0,-3.949991E-5,-0E0,-6.723517E-4],"split_indices":[0,5,4,7,4,0,0,3,1,7,0,0,0,0,0,0,0,0,0],"split_type":[0,0,0,0,0,0,0,0,0,0,0,0,0,0,0,0,0,0,0],"sum_hessian":[2.73E2,2.34E2,3.9E1,1.16E2,1.18E2,2.3E1,1.6E1,9.4E1,2.2E1,9.2E1,2.6E1,7E0,1.6E1,2.8E1,6.6E1,7E0,1.5E1,1.1E1,8.1E1],"tree_param":{"num_deleted":"0","num_feature":"8","num_nodes":"19","size_leaf_vector":"1"}},{"base_weights":[-0E0,-4.8264866E-3,3.4584457E-3,-0E0,-6.385991E-3,5.558648E-3,-0E0,-8.157299E-3,-0E0,-0E0,3.1850592E-4,-4.5360075E-4,-0E0],"categories":[],"categories_nodes":[],"categories_segments":[],"categories_sizes":[],"default_left":[0,0,0,0,0,0,0,0,0,0,0,0,0],"id":56,"left_children":[1,3,5,-1,7,9,-1,11,-1,-1,-1,-1,-1],"loss_changes":[4.3376656E-3,1.0902877E-3,2.1479304E-3,0E0,1.1249902E-3,3.9469404E-4,0E0,5.936264E-4,0E0,0E0,0E0,0E0,0E0],"parents":[2147483647,0,0,1,1,2,2,4,4,5,5,7,7],"right_children":[2,4,6,-1,8,10,-1,12,-1,-1,-1,-1,-1],"split_conditions":[4.26E-1,5.925926E-2,-2.44E-1,-0E0,8.2E0,3.22E1,-0E0,4.22E1,-0E0,-0E0,3.1850592E-4,-4.5360075E-4,-0E0],"split_indices":[0,7,6,0,1,5,0,3,0,0,0,0,0],"split_type":[0,0,0,0,0,0,0,0,0,0,0,0,0],"sum_hessian":[2.62E2,1E2,1.62E2,1.7E1,8.3E1,1.31E2,3.1E1,6.7E1,1.6E1,2.2E1,1.09E2,6.1E1,6E0],"tree_param":{"num_deleted":"0","num_feature":"8","num_nodes":"13","size_leaf_vector":"1"}},{"base_weights":[-0E0,1.3357548E-3,-3.1440845E-3,-0E0,6.604981E-3,-6.1319387E-3,-0E0,5.963533E-4,-0E0,-7.864245E-3,-0E0,-0E0,-5.462677E-4],"categories":[],"categories_nodes":[],"categories_segments":[],"categories_sizes":[],"default_left":[0,0,0,0,0,0,0,0,0,0,0,0,0],"id":57,"left_children":[1,3,5,-1,7,9,-1,-1,-1,11,-1,-1,-1],"loss_changes":[1.829796E-3,2.956299E-3,4.1138884E-3,0E0,4.497083E-3,1.9536451E-3,0E0,0E0,0E0,2.357577E-3,0E0,0E0,0E0],"parents":[2147483647,0,0,1,1,2,2,4,4,5,5,9,9],"right_children":[2,4,6,-1,8,10,-1,-1,-1,12,-1,-1,-1],"split_conditions":[3.4E1,8.93E1,9.33E1,-0E0,1.0755814E-1,1.82E1,-0E0,5.963533E-4,-0E0,7.022901E-2,-0E0,-0E0,-5.462677E-4],"split_indices":[5,2,2,0,7,4,0,0,0,7,0,0,0],"split_type":[0,0,0,0,0,0,0,0,0,0,0,0,0],"sum_hessian":[2.86E2,1.26E2,1.6E2,5.5E1,7.1E1,1.5E2,1E1,5.2E1,1.9E1,1.22E2,2.8E1,4E1,8.2E1],"tree_param":{"num_deleted":"0","num_feature":"8","num_nodes":"13","size_leaf_vector":"1"}},{"base_weights":[-0E0,-1.6489513E-3,1.5656739E-3,-0E0,-4.8829284E-3,3.661867E-3,-0E0,-0E0,-7.3346454E-3,-0E0,7.6732E-3,-0E0,-4.8227803E-4,-0E0,4.2254358E-4],"categories":[],"categories_nodes":[],"categories_segments":[],"categories_sizes":[],"default_left":[0,0,0,0,0,0,0,0,0,0,0,0,0,0,0],"id":58,"left_children":[1,3,5,-1,7,9,-1,-1,11,-1,13,-1,-1,-1,-1],"loss_changes":[6.802061E-4,1.0503365E-3,8.2788384E-4,0E0,1.2708924E-3,2.3444958E-3,0E0,0E0,1.4183272E-3,0E0,3.3638952E-4,0E0,0E0,0E0,0E0],"parents":[2147483647,0,0,1,1,2,2,4,4,5,5,8,8,10,10],"right_children":[2,4,6,-1,8,10,-1,-1,12,-1,14,-1,-1,-1,-1],"split_conditions":[4.05E1,7.912458E-2,-2.61E-1,-0E0,9.5E0,1.05E1,-0E0,-0E0,-2.91E-1,-0E0,4.18E1,-0E0,-4.8227803E-4,-0E0,4.2254358E-4],"split_indices":[3,7,6,0,4,4,0,0,6,0,3,0,0,0,0],"split_type":[0,0,0,0,0,0,0,0,0,0,0,0,0,0,0],"sum_hessian":[2.63E2,9.4E1,1.69E2,4.1E1,5.3E1,9.1E1,7.8E1,7E0,4.6E1,3.2E1,5.9E1,5E0,4.1E1,6E0,5.3E1],"tree_param":{"num_deleted":"0","num_feature":"8","num_nodes":"15","size_leaf_vector":"1"}},{"base_weights":[-0E0,-3.4877479E-3,5.8869395E-4,-5.0597168E-3,-0E0,3.5175527E-3,-0E0,-0E0,-2.7185885E-4,4.305427E-3,-0E0,-0E0,-2.0836978E-3,2.3846862E-4,-0E0,-3.346031E-4,-0E0],"categories":[],"categories_nodes":[],"categories_segments":[],"categories_sizes":[],"default_left":[0,0,0,0,0,0,0,0,0,0,0,0,0,0,0,0,0],"id":59,"left_children":[1,3,5,7,-1,9,11,-1,-1,13,-1,-1,15,-1,-1,-1,-1],"loss_changes":[1.2833248E-3,1.0620267E-3,1.2570438E-3,2.7440721E-5,0E0,5.482767E-4,3.039258E-4,0E0,0E0,2.8874993E-4,0E0,0E0,2.3383123E-3,0E0,0E0,0E0,0E0],"parents":[2147483647,0,0,1,1,2,2,3,3,5,5,6,6,9,9,12,12],"right_children":[2,4,6,8,-1,10,12,-1,-1,14,-1,-1,16,-1,-1,-1,-1],"split_conditions":[4.24E-1,1.62E1,1.51E1,2.95E1,-0E0,3.94E1,-2.77E-1,-0E0,-2.7185885E-4,-2.44E-1,-0E0,-0E0,-2.26E-1,2.3846862E-4,-0E0,-3.346031E-4,-0E0],"split_indices":[0,4,4,5,0,5,6,0,0,6,0,0,6,0,0,0,0],"split_type":[0,0,0,0,0,0,0,0,0,0,0,0,0,0,0,0,0],"sum_hessian":[2.89E2,9.8E1,1.91E2,8.7E1,1.1E1,1.05E2,8.6E1,1.1E1,7.6E1,9.9E1,6E0,1.8E1,6.8E1,9.3E1,6E0,5.7E1,1.1E1],"tree_param":{"num_deleted":"0","num_feature":"8","num_nodes":"17","size_leaf_vector":"1"}},{"base_weights":[-0E0,-2.7261705E-3,3.8372236E-4,-4.2542247E-3,-0E0,1.782189E-3,-0E0,-0E0,-5.7391315E-3,3.2927156E-3,-0E0,-0E0,-3.6610765E-4,-0E0,4.520005E-4],"categories":[],"categories_nodes":[],"categories_segments":[],"categories_sizes":[],"default_left":[0,0,0,0,0,0,0,0,0,0,0,0,0,0,0],"id":60,"left_children":[1,3,5,7,-1,9,-1,-1,11,13,-1,-1,-1,-1,-1],"loss_changes":[8.0701156E-4,8.665964E-4,4.116643E-4,8.563028E-4,0E0,7.5430196E-4,0E0,0E0,1.2497143E-3,2.893472E-3,0E0,0E0,0E0,0E0,0E0],"parents":[2147483647,0,0,1,1,2,2,3,3,5,5,8,8,9,9],"right_children":[2,4,6,8,-1,10,-1,-1,12,14,-1,-1,-1,-1,-1],"split_conditions":[4.26E-1,1.72E1,3.69E1,8.67E1,-0E0,1.1148086E-1,-0E0,-0E0,5.4158606E-2,1.44E1,-0E0,-0E0,-3.6610765E-4,-0E0,4.520005E-4],"split_indices":[0,4,5,2,0,7,0,0,7,4,0,0,0,0,0],"split_type":[0,0,0,0,0,0,0,0,0,0,0,0,0,0,0],"sum_hessian":[2.82E2,1.03E2,1.79E2,8.9E1,1.4E1,1.36E2,4.3E1,1.5E1,7.4E1,1.08E2,2.8E1,6E0,6.8E1,6E1,4.8E1],"tree_param":{"num_deleted":"0","num_feature":"8","num_nodes":"15","size_leaf_vector":"1"}},{"base_weights":[-0E0,1.2474575E-3,-3.0246337E-3,-0E0,8.09231E-3,-2.990554E-4,-0E0,-0E0,4.3507697E-4],"categories":[],"categories_nodes":[],"categories_segments":[],"categories_sizes":[],"default_left":[0,0,0,0,0,0,0,0,0],"id":61,"left_children":[1,3,5,-1,7,-1,-1,-1,-1],"loss_changes":[7.382332E-4,2.556253E-3,4.0360703E-4,0E0,6.1085448E-6,0E0,0E0,0E0,0E0],"parents":[2147483647,0,0,1,1,2,2,4,4],"right_children":[2,4,6,-1,8,-1,-1,-1,-1],"split_conditions":[-2.39E-1,4.96E-1,-2.26E-1,-0E0,4.49E1,-2.990554E-4,-0E0,-0E0,4.3507697E-4],"split_indices":[6,0,6,0,3,0,0,0,0],"split_type":[0,0,0,0,0,0,0,0,0],"sum_hessian":[2.85E2,2.49E2,3.6E1,2.06E2,4.3E1,1.9E1,1.7E1,6E0,3.7E1],"tree_param":{"num_deleted":"0","num_feature":"8","num_nodes":"9","size_leaf_vector":"1"}},{"base_weights":[-0E0,-4.1770744E-3,4.4480516E-3,-0E0,-6.126971E-3,-0E0,6.007488E-3,-8.155339E-3,-0E0,6.8780556E-3,-0E0,-0E0,-4.959712E-4,3.7520198E-4,-0E0],"categories":[],"categories_nodes":[],"categories_segments":[],"categories_sizes":[],"default_left":[0,0,0,0,0,0,0,0,0,0,0,0,0,0,0],"id":62,"left_children":[1,3,5,-1,7,-1,9,11,-1,13,-1,-1,-1,-1,-1],"loss_changes":[5.019134E-3,2.8551577E-3,1.3021852E-3,0E0,2.2579604E-3,0E0,7.954936E-4,1.9221203E-3,0E0,5.017044E-4,0E0,0E0,0E0,0E0,0E0],"parents":[2147483647,0,0,1,1,2,2,4,4,6,6,7,7,9,9],"right_children":[2,4,6,-1,8,-1,10,12,-1,14,-1,-1,-1,-1,-1],"split_conditions":[4.63E-1,2.97E1,9.1E0,-0E0,1.67E1,-0E0,-2.39E-1,8.7E0,-0E0,2.02E1,-0E0,-0E0,-4.959712E-4,3.7520198E-4,-0E0],"split_indices":[0,5,4,0,4,0,6,4,0,4,0,0,0,0,0],"split_type":[0,0,0,0,0,0,0,0,0,0,0,0,0,0,0],"sum_hessian":[2.7E2,1.7E2,1E2,1.6E1,1.54E2,1E1,9E1,1.2E2,3.4E1,8.5E1,5E0,2E1,1E2,8E1,5E0],"tree_param":{"num_deleted":"0","num_feature":"8","num_nodes":"15","size_leaf_vector":"1"}},{"base_weights":[-0E0,1.3288709E-3,-2.1823994E-3,-0E0,5.0254543E-3,-5.2165617E-3,-0E0,8.647433E-3,-0E0,-0E0,-6.6237105E-3,-0E0,5.126119E-4,-3.5390083E-4,-0E0],"categories":[],"categories_nodes":[],"categories_segments":[],"categories_sizes":[],"default_left":[0,0,0,0,0,0,0,0,0,0,0,0,0,0,0],"id":63,"left_children":[1,3,5,-1,7,9,-1,11,-1,-1,13,-1,-1,-1,-1],"loss_changes":[9.2724606E-4,2.4656754E-3,2.8197987E-3,0E0,2.6069386E-3,1.447296E-3,0E0,1.3125832E-3,0E0,0E0,4.0281005E-4,0E0,0E0,0E0,0E0],"parents":[2147483647,0,0,1,1,2,2,4,4,5,5,7,7,10,10],"right_children":[2,4,6,-1,8,10,-1,12,-1,-1,14,-1,-1,-1,-1],"split_conditions":[3.45E1,3.81E1,5.49E-1,-0E0,9.14E1,3.19E1,-0E0,-2.81E-1,-0E0,-0E0,-2.29E-1,-0E0,5.126119E-4,-3.5390083E-4,-0E0],"split_indices":[5,3,0,0,2,3,0,6,0,0,6,0,0,0,0],"split_type":[0,0,0,0,0,0,0,0,0,0,0,0,0,0,0],"sum_hessian":[2.75E2,1.32E2,1.43E2,2.7E1,1.05E2,1.27E2,1.6E1,6.9E1,3.6E1,1.6E1,1.11E2,8E0,6.1E1,1.05E2,6E0],"tree_param":{"num_deleted":"0","num_feature":"8","num_nodes":"15","size_leaf_vector":"1"}},{"base_weights":[-0E0,-5.650196E-5,4.3099467E-3,-0E0,-2.4436305E-3,8.18576E-3,-0E0,8.2948356E-4,-0E0,-4.6876143E-3,-0E0,-0E0,4.7672182E-4,-0E0,2.0993632E-4,-3.1212828E-4,-0E0],"categories":[],"categories_nodes":[],"categories_segments":[],"categories_sizes":[],"default_left":[0,0,0,0,0,0,0,0,0,0,0,0,0,0,0,0,0],"id":64,"left_children":[1,3,5,7,9,11,-1,13,-1,15,-1,-1,-1,-1,-1,-1,-1],"loss_changes":[7.809399E-4,8.7702257E-4,1.6990702E-3,5.9171693E-5,1.3195872E-3,2.4791737E-4,0E0,6.6362973E-4,0E0,1.4268022E-3,0E0,0E0,0E0,0E0,0E0,0E0,0E0],"parents":[2147483647,0,0,1,1,2,2,3,3,4,4,5,5,7,7,9,9],"right_children":[2,4,6,8,10,12,-1,14,-1,16,-1,-1,-1,-1,-1,-1,-1],"split_conditions":[5.09E-1,3.35E1,-2.44E-1,9.25E1,1.58E1,1.17E1,-0E0,8.93E1,-0E0,1.3E1,-0E0,-0E0,4.7672182E-4,-0E0,2.0993632E-4,-3.1212828E-4,-0E0],"split_indices":[0,5,6,2,4,4,0,2,0,1,0,0,0,0,0,0,0],"split_type":[0,0,0,0,0,0,0,0,0,0,0,0,0,0,0,0,0],"sum_hessian":[2.77E2,2.37E2,4E1,9.2E1,1.45E2,3.5E1,5E0,8.4E1,8E0,9.8E1,4.7E1,7E0,2.8E1,4.5E1,3.9E1,9.1E1,7E0],"tree_param":{"num_deleted":"0","num_feature":"8","num_nodes":"17","size_leaf_vector":"1"}},{"base_weights":[-0E0,-6.95275E-4,-0E0,-0E0,-3.4820451E-3,1.8958511E-3,-0E0,-0E0,-4.8782397E-3,-0E0,1.8590433E-4,-0E0,-3.1051342E-4],"categories":[],"categories_nodes":[],"categories_segments":[],"categories_sizes":[],"default_left":[0,0,0,0,0,0,0,0,0,0,0,0,0],"id":65,"left_children":[1,3,-1,5,7,9,-1,-1,11,-1,-1,-1,-1],"loss_changes":[1.2810295E-4,1.351103E-3,0E0,4.313102E-4,1.2336776E-3,1.1446448E-3,0E0,0E0,1.4523999E-3,0E0,0E0,0E0,0E0],"parents":[2147483647,0,0,1,1,3,3,4,4,5,5,8,8],"right_children":[2,4,-1,6,8,10,-1,-1,12,-1,-1,-1,-1],"split_conditions":[5.51E1,3.51E1,-0E0,1.095008E-1,-3.14E-1,2.95E1,-0E0,-0E0,3.65E-1,-0E0,1.8590433E-4,-0E0,-3.1051342E-4],"split_indices":[3,5,0,7,6,3,0,0,0,0,0,0,0],"split_type":[0,0,0,0,0,0,0,0,0,0,0,0,0],"sum_hessian":[2.76E2,2.63E2,1.3E1,1.43E2,1.2E2,1.18E2,2.5E1,8E0,1.12E2,6E0,1.12E2,6E0,1.06E2],"tree_param":{"num_deleted":"0","num_feature":"8","num_nodes":"13","size_leaf_vector":"1"}},{"base_weights":[-0E0,-2.0178966E-3,4.9263E-3,-0E0,-5.1488695E-3,8.19295E-3,-0E0,-0E0,2.8529575E-3,-7.731363E-3,-0E0,-0E0,5.8562274E-4,-0E0,3.2984474E-4,-0E0,-5.318091E-4],"categories":[],"categories_nodes":[],"categories_segments":[],"categories_sizes":[],"default_left":[0,0,0,0,0,0,0,0,0,0,0,0,0,0,0,0,0],"id":66,"left_children":[1,3,5,7,9,11,-1,-1,13,15,-1,-1,-1,-1,-1,-1,-1],"loss_changes":[2.081553E-3,3.5969047E-3,3.84658E-4,4.3952581E-4,3.3037867E-3,7.18168E-4,0E0,0E0,1.4317923E-3,4.667083E-3,0E0,0E0,0E0,0E0,0E0,0E0,0E0],"parents":[2147483647,0,0,1,1,2,2,3,3,4,4,5,5,8,8,9,9],"right_children":[2,4,6,8,10,12,-1,-1,14,16,-1,-1,-1,-1,-1,-1,-1],"split_conditions":[5.09E-1,7.022901E-2,1.43E1,1.02E1,1.72E1,5.24E-1,-0E0,-0E0,5.6E0,3.07E1,-0E0,-0E0,5.8562274E-4,-0E0,3.2984474E-4,-0E0,-5.318091E-4],"split_indices":[0,7,4,4,4,0,0,0,1,5,0,0,0,0,0,0,0],"split_type":[0,0,0,0,0,0,0,0,0,0,0,0,0,0,0,0,0],"sum_hessian":[2.84E2,2.41E2,4.3E1,7E1,1.71E2,2E1,2.3E1,1.8E1,5.2E1,1.3E2,4.1E1,6E0,1.4E1,1.1E1,4.1E1,2.1E1,1.09E2],"tree_param":{"num_deleted":"0","num_feature":"8","num_nodes":"17","size_leaf_vector":"1"}},{"base_weights":[1.3516886E-4,-0E0,7.0870263E-3,-0E0,-5.043428E-3,-0E0,8.825398E-3,-0E0,1.8613414E-3,-0E0,-3.3048936E-4,-0E0,5.2631093E-4,2.3887282E-4,-0E0],"categories":[],"categories_nodes":[],"categories_segments":[],"categories_sizes":[],"default_left":[0,0,0,0,0,0,0,0,0,0,0,0,0,0,0],"id":67,"left_children":[1,3,5,7,9,-1,11,-1,13,-1,-1,-1,-1,-1,-1],"loss_changes":[2.1042642E-3,1.0683188E-3,7.723535E-4,4.8850744E-4,4.608062E-4,0E0,6.637976E-4,0E0,1.748253E-3,0E0,0E0,0E0,0E0,0E0,0E0],"parents":[2147483647,0,0,1,1,2,2,3,3,4,4,6,6,8,8],"right_children":[2,4,6,8,10,-1,12,-1,14,-1,-1,-1,-1,-1,-1],"split_conditions":[5.09E-1,1.1148086E-1,6.782334E-2,8.85E1,7.8E0,-0E0,9.1E1,-0E0,3.65E1,-0E0,-3.3048936E-4,-0E0,5.2631093E-4,2.3887282E-4,-0E0],"split_indices":[0,7,7,2,4,0,2,0,5,0,0,0,0,0,0],"split_type":[0,0,0,0,0,0,0,0,0,0,0,0,0,0,0],"sum_hessian":[2.84E2,2.44E2,4E1,2.04E2,4E1,5E0,3.5E1,6.5E1,1.39E2,7E0,3.3E1,5E0,3E1,9.6E1,4.3E1],"tree_param":{"num_deleted":"0","num_feature":"8","num_nodes":"15","size_leaf_vector":"1"}},{"base_weights":[-0E0,-2.2496986E-3,2.5378165E-3,-3.4560503E-3,-0E0,-0E0,4.5516416E-3,-0E0,-3.331184E-4,8.304078E-3,-0E0,-0E0,4.3982625E-4],"categories":[],"categories_nodes":[],"categories_segments":[],"categories_sizes":[],"default_left":[0,0,0,0,0,0,0,0,0,0,0,0,0],"id":68,"left_children":[1,3,5,7,-1,-1,9,-1,-1,11,-1,-1,-1],"loss_changes":[1.7297912E-3,4.3586464E-4,1.245009E-3,7.976703E-4,0E0,0E0,3.4578813E-3,0E0,0E0,1.994092E-4,0E0,0E0,0E0],"parents":[2147483647,0,0,1,1,2,2,3,3,6,6,9,9],"right_children":[2,4,6,8,-1,-1,10,-1,-1,12,-1,-1,-1],"split_conditions":[8.85E1,8.2E0,1.2E1,7.912458E-2,-0E0,-0E0,-2.44E-1,-0E0,-3.331184E-4,6.8E0,-0E0,-0E0,4.3982625E-4],"split_indices":[2,1,4,7,0,0,6,0,0,1,0,0,0],"split_type":[0,0,0,0,0,0,0,0,0,0,0,0,0],"sum_hessian":[2.8E2,7E1,2.1E2,6.5E1,5E0,8.6E1,1.24E2,3.1E1,3.4E1,8.6E1,3.8E1,7E0,7.9E1],"tree_param":{"num_deleted":"0","num_feature":"8","num_nodes":"13","size_leaf_vector":"1"}},{"base_weights":[-0E0,-3.1638194E-3,1.3672096E-3,-4.1631493E-3,-0E0,3.494012E-3,-0E0,-0E0,-2.8215116E-4,6.830986E-3,-0E0,-5.1976694E-3,-0E0,-0E0,4.377379E-4,-3.5433815E-4,-0E0],"categories":[],"categories_nodes":[],"categories_segments":[],"categories_sizes":[],"default_left":[0,0,0,0,0,0,0,0,0,0,0,0,0,0,0,0,0],"id":69,"left_children":[1,3,5,7,-1,9,11,-1,-1,13,-1,15,-1,-1,-1,-1,-1],"loss_changes":[9.91261E-4,3.006691E-4,1.5504151E-3,4.680254E-4,0E0,2.8184704E-3,1.053615E-3,0E0,0E0,1.1421642E-3,0E0,6.539399E-4,0E0,0E0,0E0,0E0,0E0],"parents":[2147483647,0,0,1,1,2,2,3,3,5,5,6,6,9,9,11,11],"right_children":[2,4,6,8,-1,10,12,-1,-1,14,-1,16,-1,-1,-1,-1,-1],"split_conditions":[6.3E0,4.13E1,1.0694184E-1,8.8E0,-0E0,4.63E1,9.29E1,-0E0,-2.8215116E-4,1.12E1,-0E0,2E1,-0E0,-0E0,4.377379E-4,-3.5433815E-4,-0E0],"split_indices":[1,3,7,4,0,3,2,0,0,4,0,4,0,0,0,0,0],"split_type":[0,0,0,0,0,0,0,0,0,0,0,0,0,0,0,0,0],"sum_hessian":[2.65E2,5.8E1,2.07E2,5E1,8E0,1.57E2,5E1,9E0,4.1E1,1E2,5.7E1,3.7E1,1.3E1,2.5E1,7.5E1,3.2E1,5E0],"tree_param":{"num_deleted":"0","num_feature":"8","num_nodes":"17","size_leaf_vector":"1"}},{"base_weights":[-0E0,-1.0391925E-3,-0E0,-0E0,-3.1604203E-3,1.333066E-3,-0E0,-5.1021473E-3,-0E0,1.394506E-4,-0E0,-3.319344E-4,-0E0],"categories":[],"categories_nodes":[],"categories_segments":[],"categories_sizes":[],"default_left":[0,0,0,0,0,0,0,0,0,0,0,0,0],"id":70,"left_children":[1,3,5,-1,7,9,-1,11,-1,-1,-1,-1,-1],"loss_changes":[2.6782046E-4,1.1605003E-3,5.8643145E-5,0E0,1.409157E-3,1.5915732E-4,0E0,1.2612352E-3,0E0,0E0,0E0,0E0,0E0],"parents":[2147483647,0,0,1,1,2,2,4,4,5,5,7,7],"right_children":[2,4,6,-1,8,10,-1,12,-1,-1,-1,-1,-1],"split_conditions":[5.09E-1,3.4E1,3.81E1,-0E0,1.67E1,1.78E1,-0E0,1.22E1,-0E0,1.394506E-4,-0E0,-3.319344E-4,-0E0],"split_indices":[0,5,5,0,4,4,0,1,0,0,0,0,0],"split_type":[0,0,0,0,0,0,0,0,0,0,0,0,0],"sum_hessian":[2.84E2,2.46E2,3.8E1,1.05E2,1.41E2,3.1E1,7E0,1.07E2,3.4E1,2.6E1,5E0,9.1E1,1.6E1],"tree_param":{"num_deleted":"0","num_feature":"8","num_nodes":"13","size_leaf_vector":"1"}},{"base_weights":[-0E0,-2.9049267E-4,5.2992976E-3,-0E0,-4.852247E-3,6.296461E-3,-0E0,-0E0,4.5427047E-3,-0E0,-6.2772185E-3,-0E0,7.167481E-3,-7.639696E-5,-0E0,-0E0,4.4722934E-4,-3.9537126E-4,-0E0,-0E0,3.7423667E-4],"categories":[],"categories_nodes":[],"categories_segments":[],"categories_sizes":[],"default_left":[0,0,0,0,0,0,0,0,0,0,0,0,0,0,0,0,0,0,0,0,0],"id":71,"left_children":[1,3,5,7,9,11,-1,13,15,-1,17,-1,19,-1,-1,-1,-1,-1,-1,-1,-1],"loss_changes":[2.6830325E-3,2.0096202E-3,8.605991E-4,1.2794422E-3,1.166872E-3,7.354985E-4,0E0,7.237254E-5,2.7208393E-3,0E0,1.4353441E-3,0E0,1.0571536E-4,0E0,0E0,0E0,0E0,0E0,0E0,0E0,0E0],"parents":[2147483647,0,0,1,1,2,2,3,3,4,4,5,5,7,7,8,8,10,10,12,12],"right_children":[2,4,6,8,10,12,-1,14,16,-1,18,-1,20,-1,-1,-1,-1,-1,-1,-1,-1],"split_conditions":[9.09E1,3.49E1,3.94E1,3.93E-1,3.65E-1,4.22E-1,-0E0,8.84E1,-2.81E-1,-0E0,4.02E1,-0E0,2.92E1,-7.639696E-5,-0E0,-0E0,4.4722934E-4,-3.9537126E-4,-0E0,-0E0,3.7423667E-4],"split_indices":[2,5,5,0,0,0,0,2,6,0,5,0,5,0,0,0,0,0,0,0,0],"split_type":[0,0,0,0,0,0,0,0,0,0,0,0,0,0,0,0,0,0,0,0,0],"sum_hessian":[2.71E2,1.78E2,9.3E1,9.4E1,8.4E1,8.7E1,6E0,3.4E1,6E1,5E0,7.9E1,6E0,8.1E1,2.9E1,5E0,1.2E1,4.8E1,7.2E1,7E0,5E0,7.6E1],"tree_param":{"num_deleted":"0","num_feature":"8","num_nodes":"21","size_leaf_vector":"1"}},{"base_weights":[-0E0,-6.2080054E-4,8.117909E-4,-0E0,-3.2232814E-3,3.1633096E-4,-0E0,-0E0,2.917079E-3,-5.164249E-3,-0E0,2.711349E-4,-0E0,-0E0,-3.8638813E-4],"categories":[],"categories_nodes":[],"categories_segments":[],"categories_sizes":[],"default_left":[0,0,0,0,0,0,0,0,0,0,0,0,0,0,0],"id":72,"left_children":[1,3,5,7,9,-1,-1,-1,11,13,-1,-1,-1,-1,-1],"loss_changes":[1.2380295E-4,1.9831017E-3,7.3149987E-4,2.4677117E-4,2.1358675E-3,0E0,0E0,0E0,4.589644E-4,3.4898855E-3,0E0,0E0,0E0,0E0,0E0],"parents":[2147483647,0,0,1,1,2,2,3,3,4,4,8,8,9,9],"right_children":[2,4,6,8,10,-1,-1,-1,12,14,-1,-1,-1,-1,-1],"split_conditions":[5.08E-1,6.317689E-2,1.43E1,3.84E1,1.7E1,3.1633096E-4,-0E0,-0E0,3.68E1,3.09E1,-0E0,2.711349E-4,-0E0,-0E0,-3.8638813E-4],"split_indices":[0,7,4,3,4,0,0,0,5,5,0,0,0,0,0],"split_type":[0,0,0,0,0,0,0,0,0,0,0,0,0,0,0],"sum_hessian":[2.86E2,2.44E2,4.2E1,4.6E1,1.98E2,1.7E1,2.5E1,1.9E1,2.7E1,1.56E2,4.2E1,2.2E1,5E0,2.9E1,1.27E2],"tree_param":{"num_deleted":"0","num_feature":"8","num_nodes":"15","size_leaf_vector":"1"}},{"base_weights":[-0E0,-3.340399E-4,3.3628512E-3,-0E0,-2.9654754E-3,-0E0,6.1633443E-3,-0E0,5.284483E-4,-0E0,-4.8568537E-3,9.220442E-3,-0E0,9.026061E-5,-0E0,-0E0,-2.5542872E-4,-0E0,6.761831E-4],"categories":[],"categories_nodes":[],"categories_segments":[],"categories_sizes":[],"default_left":[0,0,0,0,0,0,0,0,0,0,0,0,0,0,0,0,0,0,0],"id":73,"left_children":[1,3,5,7,9,-1,11,-1,13,-1,15,17,-1,-1,-1,-1,-1,-1,-1],"loss_changes":[1.453174E-3,8.2726777E-4,2.058573E-3,1.0332533E-5,9.957161E-4,0E0,5.860077E-4,0E0,9.0689995E-5,0E0,1.2980425E-5,1.4058878E-3,0E0,0E0,0E0,0E0,0E0,0E0,0E0],"parents":[2147483647,0,0,1,1,2,2,3,3,4,4,6,6,8,8,10,10,11,11],"right_children":[2,4,6,8,10,-1,12,-1,14,-1,16,18,-1,-1,-1,-1,-1,-1,-1],"split_conditions":[9.02E1,7.628524E-2,7.475083E-2,1.07E1,-2.77E-1,-0E0,1.0755814E-1,-0E0,4.54E-1,-0E0,8.67E1,-2.71E-1,-0E0,9.026061E-5,-0E0,-0E0,-2.5542872E-4,-0E0,6.761831E-4],"split_indices":[2,7,7,4,6,0,7,0,0,0,2,6,0,0,0,0,0,0,0],"split_type":[0,0,0,0,0,0,0,0,0,0,0,0,0,0,0,0,0,0,0],"sum_hessian":[2.75E2,1.5E2,1.25E2,5.6E1,9.4E1,3.5E1,9E1,2.1E1,3.5E1,1.8E1,7.6E1,4.6E1,4.4E1,2.9E1,6E0,7E0,6.9E1,1.8E1,2.8E1],"tree_param":{"num_deleted":"0","num_feature":"8","num_nodes":"19","size_leaf_vector":"1"}},{"base_weights":[-0E0,-2.2279858E-3,3.8029498E-4,-5.0948113E-3,-0E0,5.005278E-3,-0E0,-0E0,-6.6795084E-3,3.6721732E-4,-0E0,-3.993605E-4,-0E0],"categories":[],"categories_nodes":[],"categories_segments":[],"categories_sizes":[],"default_left":[0,0,0,0,0,0,0,0,0,0,0,0,0],"id":74,"left_children":[1,3,5,7,-1,9,-1,-1,11,-1,-1,-1,-1],"loss_changes":[1.1298003E-3,2.5900195E-3,9.440525E-4,2.3558873E-3,0E0,7.740548E-4,0E0,0E0,1.7153011E-3,0E0,0E0,0E0,0E0],"parents":[2147483647,0,0,1,1,2,2,3,3,5,5,8,8],"right_children":[2,4,6,8,-1,10,-1,-1,12,-1,-1,-1,-1],"split_conditions":[1.73E1,-2.57E-1,-2.39E-1,2.89E1,-0E0,2.03E1,-0E0,-0E0,5.49E-1,3.6721732E-4,-0E0,-3.993605E-4,-0E0],"split_indices":[4,6,6,5,0,4,0,0,0,0,0,0,0],"split_type":[0,0,0,0,0,0,0,0,0,0,0,0,0],"sum_hessian":[2.77E2,2.24E2,5.3E1,1.41E2,8.3E1,3.6E1,1.7E1,7E0,1.34E2,3E1,6E0,1.2E2,1.4E1],"tree_param":{"num_deleted":"0","num_feature":"8","num_nodes":"13","size_leaf_vector":"1"}},{"base_weights":[-0E0,-1.4226729E-3,2.9067798E-3,3.7780963E-5,-5.8303126E-3,-0E0,5.858662E-3,-0E0,5.798262E-3,-7.0980303E-3,-0E0,-0E0,4.5066816E-4,4.8022167E-4,-0E0,-0E0,-3.8234258E-4],"categories":[],"categories_nodes":[],"categories_segments":[],"categories_sizes":[],"default_left":[0,0,0,0,0,0,0,0,0,0,0,0,0,0,0,0,0],"id":75,"left_children":[1,3,5,7,9,-1,11,-1,13,15,-1,-1,-1,-1,-1,-1,-1],"loss_changes":[1.2838873E-3,4.158389E-3,1.6527865E-3,1.0421237E-3,1.8435176E-3,0E0,7.908987E-4,0E0,1.0794232E-3,7.353509E-4,0E0,0E0,0E0,0E0,0E0,0E0,0E0],"parents":[2147483647,0,0,1,1,2,2,3,3,4,4,6,6,8,8,9,9],"right_children":[2,4,6,8,10,-1,12,-1,14,16,-1,-1,-1,-1,-1,-1,-1],"split_conditions":[9.1E1,7.022901E-2,8.652246E-2,7.5E0,4.02E1,-0E0,3.47E1,-0E0,3.54E1,-3.02E-1,-0E0,-0E0,4.5066816E-4,4.8022167E-4,-0E0,-0E0,-3.8234258E-4],"split_indices":[2,7,7,1,5,0,5,0,5,6,0,0,0,0,0,0,0],"split_type":[0,0,0,0,0,0,0,0,0,0,0,0,0,0,0,0,0],"sum_hessian":[2.97E2,1.94E2,1.03E2,6.2E1,1.32E2,3.1E1,7.2E1,3.3E1,2.9E1,1.25E2,7E0,3.3E1,3.9E1,2.1E1,8E0,5E0,1.2E2],"tree_param":{"num_deleted":"0","num_feature":"8","num_nodes":"17","size_leaf_vector":"1"}},{"base_weights":[-0E0,1.4549111E-3,-0E0,-0E0,3.2059578E-3,-1.3799524E-4,-0E0,-0E0,4.9495115E-3,2.9225126E-4,-0E0],"categories":[],"categories_nodes":[],"categories_segments":[],"categories_sizes":[],"default_left":[0,0,0,0,0,0,0,0,0,0,0],"id":76,"left_children":[1,3,5,-1,7,-1,-1,-1,9,-1,-1],"loss_changes":[5.101406E-4,9.699151E-4,2.0566101E-4,0E0,1.4106687E-3,0E0,0E0,0E0,7.64858E-4,0E0,0E0],"parents":[2147483647,0,0,1,1,2,2,4,4,8,8],"right_children":[2,4,6,-1,8,-1,-1,-1,10,-1,-1],"split_conditions":[-2.39E-1,1.21E1,-2.26E-1,-0E0,6.3E0,-1.3799524E-4,-0E0,-0E0,-2.44E-1,2.9225126E-4,-0E0],"split_indices":[6,4,6,0,1,0,0,0,6,0,0],"split_type":[0,0,0,0,0,0,0,0,0,0,0],"sum_hessian":[2.8E2,2.39E2,4.1E1,9.7E1,1.42E2,2.5E1,1.6E1,2.6E1,1.16E2,1.05E2,1.1E1],"tree_param":{"num_deleted":"0","num_feature":"8","num_nodes":"11","size_leaf_vector":"1"}},{"base_weights":[-0E0,1.8126228E-3,-3.6386395E-4,-0E0,5.314182E-3,-3.8892145E-3,-0E0,8.7824045E-3,-0E0,-0E0,-5.8655366E-3,5.4916594E-4,-0E0,-0E0,-3.3923815E-4],"categories":[],"categories_nodes":[],"categories_segments":[],"categories_sizes":[],"default_left":[0,0,0,0,0,0,0,0,0,0,0,0,0,0,0],"id":77,"left_children":[1,3,5,-1,7,9,-1,11,-1,-1,13,-1,-1,-1,-1],"loss_changes":[4.698545E-4,2.3456851E-3,1.9617775E-3,0E0,2.9118543E-3,2.0782289E-3,0E0,2.3747622E-3,0E0,0E0,5.896003E-4,0E0,0E0,0E0,0E0],"parents":[2147483647,0,0,1,1,2,2,4,4,5,5,7,7,10,10],"right_children":[2,4,6,-1,8,10,-1,12,-1,-1,14,-1,-1,-1,-1],"split_conditions":[3.45E1,3.99E-1,5.53E-1,-0E0,1.0755814E-1,5.6726094E-2,-0E0,1.42E1,-0E0,-0E0,3.34E1,5.4916594E-4,-0E0,-0E0,-3.3923815E-4],"split_indices":[5,0,0,0,7,7,0,1,0,0,3,0,0,0,0],"split_type":[0,0,0,0,0,0,0,0,0,0,0,0,0,0,0],"sum_hessian":[2.82E2,1.35E2,1.47E2,3.8E1,9.7E1,1.29E2,1.8E1,7.2E1,2.5E1,1.3E1,1.16E2,6.5E1,7E0,1.7E1,9.9E1],"tree_param":{"num_deleted":"0","num_feature":"8","num_nodes":"15","size_leaf_vector":"1"}},{"base_weights":[-0E0,3.6259677E-4,-9.055473E-4,-0E0,5.478814E-3,-3.0449405E-3,-0E0,1.0530673E-2,-0E0,-0E0,-5.091432E-3,6.252101E-4,-0E0,-0E0,-3.9498258E-4],"categories":[],"categories_nodes":[],"categories_segments":[],"categories_sizes":[],"default_left":[0,0,0,0,0,0,0,0,0,0,0,0,0,0,0],"id":78,"left_children":[1,3,5,-1,7,9,-1,11,-1,-1,13,-1,-1,-1,-1],"loss_changes":[1.7894665E-4,1.4316319E-3,1.2580926E-3,0E0,2.7731778E-3,1.7088085E-3,0E0,9.4570406E-4,0E0,0E0,1.4812879E-3,0E0,0E0,0E0,0E0],"parents":[2147483647,0,0,1,1,2,2,4,4,5,5,7,7,10,10],"right_children":[2,4,6,-1,8,10,-1,12,-1,-1,14,-1,-1,-1,-1],"split_conditions":[7.022901E-2,6.3E0,4.85E-1,-0E0,9.1E1,-2.75E-1,-0E0,3.7E1,-0E0,-0E0,7.7E0,6.252101E-4,-0E0,-0E0,-3.9498258E-4],"split_indices":[7,1,0,0,2,6,0,5,0,0,1,0,0,0,0],"split_type":[0,0,0,0,0,0,0,0,0,0,0,0,0,0,0],"sum_hessian":[2.73E2,6.8E1,2.05E2,2.2E1,4.6E1,1.52E2,5.3E1,3.6E1,1E1,3.3E1,1.19E2,3.1E1,5E0,4.7E1,7.2E1],"tree_param":{"num_deleted":"0","num_feature":"8","num_nodes":"15","size_leaf_vector":"1"}},{"base_weights":[-0E0,1.5199052E-3,-0E0,-0E0,4.668955E-3,-5.670234E-3,-0E0,8.140521E-3,-0E0,-0E0,-8.2232915E-3,5.1793485E-4,-0E0,-5.278042E-4,-0E0],"categories":[],"categories_nodes":[],"categories_segments":[],"categories_sizes":[],"default_left":[0,0,0,0,0,0,0,0,0,0,0,0,0,0,0],"id":79,"left_children":[1,3,5,-1,7,9,-1,11,-1,-1,13,-1,-1,-1,-1],"loss_changes":[4.7357293E-4,2.9270938E-3,1.961245E-3,0E0,2.2983886E-3,1.2846361E-3,0E0,1.7048237E-3,0E0,0E0,1.5456483E-3,0E0,0E0,0E0,0E0],"parents":[2147483647,0,0,1,1,2,2,4,4,5,5,7,7,10,10],"right_children":[2,4,6,-1,8,10,-1,12,-1,-1,14,-1,-1,-1,-1],"split_conditions":[1.0755814E-1,6.3E0,9.29E1,-0E0,1.06E1,1.13E1,-0E0,4.61E1,-0E0,-0E0,2.07E1,5.1793485E-4,-0E0,-5.278042E-4,-0E0],"split_indices":[7,1,2,0,1,4,0,3,0,0,4,0,0,0,0],"split_type":[0,0,0,0,0,0,0,0,0,0,0,0,0,0,0],"sum_hessian":[2.79E2,2.03E2,7.6E1,4.9E1,1.54E2,5.9E1,1.7E1,8.4E1,7E1,1.3E1,4.6E1,6.7E1,1.7E1,4.1E1,5E0],"tree_param":{"num_deleted":"0","num_feature":"8","num_nodes":"15","size_leaf_vector":"1"}},{"base_weights":[-0E0,-0E0,3.537338E-3,-0E0,-3.3069695E-3,-0E0,6.7863106E-3,1.014962E-3,-0E0,-0E0,-4.838447E-3,-0E0,8.662648E-3,-0E0,1.6437226E-4,-3.0834877E-4,-0E0,-0E0,4.923512E-4],"categories":[],"categories_nodes":[],"categories_segments":[],"categories_sizes":[],"default_left":[0,0,0,0,0,0,0,0,0,0,0,0,0,0,0,0,0,0,0],"id":80,"left_children":[1,3,5,7,9,-1,11,13,-1,-1,15,-1,17,-1,-1,-1,-1,-1,-1],"loss_changes":[1.151174E-3,1.4326221E-3,2.2568228E-3,5.871843E-5,1.0488981E-3,0E0,1.6197809E-3,3.9518802E-4,0E0,0E0,1.0554169E-3,0E0,9.839823E-4,0E0,0E0,0E0,0E0,0E0,0E0],"parents":[2147483647,0,0,1,1,2,2,3,3,4,4,6,6,7,7,10,10,12,12],"right_children":[2,4,6,8,10,-1,12,14,-1,-1,16,-1,18,-1,-1,-1,-1,-1,-1],"split_conditions":[9.1E1,7.022901E-2,7.194245E-2,4.63E1,8.76E1,-0E0,4.22E-1,4.8E0,-0E0,-0E0,4.85E-1,-0E0,6.3E0,-0E0,1.6437226E-4,-3.0834877E-4,-0E0,-0E0,4.923512E-4],"split_indices":[2,7,7,3,2,0,0,1,0,0,0,0,4,0,0,0,0,0,0],"split_type":[0,0,0,0,0,0,0,0,0,0,0,0,0,0,0,0,0,0,0],"sum_hessian":[2.79E2,1.89E2,9E1,6E1,1.29E2,1.8E1,7.2E1,5.5E1,5E0,2.5E1,1.04E2,7E0,6.5E1,1.5E1,4E1,9.1E1,1.3E1,5E0,6E1],"tree_param":{"num_deleted":"0","num_feature":"8","num_nodes":"19","size_leaf_vector":"1"}},{"base_weights":[-0E0,-0E0,-9.553725E-4,-0E0,2.9565636E-3,-3.378752E-3,-0E0,1.975883E-4,-0E0,-5.0429916E-3,-0E0,-0E0,-2.9580115E-4],"categories":[],"categories_nodes":[],"categories_segments":[],"categories_sizes":[],"default_left":[0,0,0,0,0,0,0,0,0,0,0,0,0],"id":81,"left_children":[1,3,5,-1,7,9,-1,-1,-1,11,-1,-1,-1],"loss_changes":[2.1175492E-4,3.3216822E-4,1.8431187E-3,0E0,1.8317482E-4,2.293958E-3,0E0,0E0,0E0,1.3560578E-3,0E0,0E0,0E0],"parents":[2147483647,0,0,1,1,2,2,4,4,5,5,9,9],"right_children":[2,4,6,-1,8,10,-1,-1,-1,12,-1,-1,-1],"split_conditions":[6.317689E-2,6.3E0,1.72E1,-0E0,1.32E1,1.3978495E-1,-0E0,1.975883E-4,-0E0,-3.04E-1,-0E0,-0E0,-2.9580115E-4],"split_indices":[7,1,4,0,1,7,0,0,0,6,0,0,0],"split_type":[0,0,0,0,0,0,0,0,0,0,0,0,0],"sum_hessian":[2.77E2,4.7E1,2.3E2,1.1E1,3.6E1,1.78E2,5.2E1,3.1E1,5E0,1.69E2,9E0,8E0,1.61E2],"tree_param":{"num_deleted":"0","num_feature":"8","num_nodes":"13","size_leaf_vector":"1"}},{"base_weights":[-0E0,4.5826955E-4,-0E0,-0E0,2.4315522E-3,-1.2465211E-4,-0E0,-0E0,3.717814E-3,2.4235775E-4,-0E0],"categories":[],"categories_nodes":[],"categories_segments":[],"categories_sizes":[],"default_left":[0,0,0,0,0,0,0,0,0,0,0],"id":82,"left_children":[1,3,5,-1,7,-1,-1,-1,9,-1,-1],"loss_changes":[5.040264E-5,7.655148E-4,1.6159675E-4,0E0,7.4598455E-4,0E0,0E0,0E0,7.8758923E-4,0E0,0E0],"parents":[2147483647,0,0,1,1,2,2,4,4,8,8],"right_children":[2,4,6,-1,8,-1,-1,-1,10,-1,-1],"split_conditions":[-2.39E-1,1.21E1,-2.28E-1,-0E0,6.3E0,-1.2465211E-4,-0E0,-0E0,-2.44E-1,2.4235775E-4,-0E0],"split_indices":[6,4,6,0,1,0,0,0,6,0,0],"split_type":[0,0,0,0,0,0,0,0,0,0,0],"sum_hessian":[2.78E2,2.38E2,4E1,1.02E2,1.36E2,2.4E1,1.6E1,2.5E1,1.11E2,9.8E1,1.3E1],"tree_param":{"num_deleted":"0","num_feature":"8","num_nodes":"11","size_leaf_vector":"1"}},{"base_weights":[-0E0,-1.4880585E-3,4.8451694E-3,-0E0,-5.7164924E-3,-0E0,2.8832574E-4,-0E0,2.6872004E-3,-4.2940117E-4,-0E0,-8.586935E-5,-0E0,2.59642E-4,-0E0],"categories":[],"categories_nodes":[],"categories_segments":[],"categories_sizes":[],"default_left":[0,0,0,0,0,0,0,0,0,0,0,0,0,0,0],"id":83,"left_children":[1,3,5,7,9,-1,-1,11,13,-1,-1,-1,-1,-1,-1],"loss_changes":[1.5036777E-3,2.9972822E-3,1.5831215E-4,6.065679E-4,1.4533487E-3,0E0,0E0,1.6516741E-4,1.3079888E-3,0E0,0E0,0E0,0E0,0E0,0E0],"parents":[2147483647,0,0,1,1,2,2,3,3,4,4,7,7,8,8],"right_children":[2,4,6,8,10,-1,-1,12,14,-1,-1,-1,-1,-1,-1],"split_conditions":[5.09E-1,9.5E0,9.1E1,6.3E0,1.24E1,-0E0,2.8832574E-4,4.17E-1,3.69E1,-4.2940117E-4,-0E0,-8.586935E-5,-0E0,2.59642E-4,-0E0],"split_indices":[0,1,2,1,1,0,0,0,5,0,0,0,0,0,0],"split_type":[0,0,0,0,0,0,0,0,0,0,0,0,0,0,0],"sum_hessian":[2.91E2,2.53E2,3.8E1,1.46E2,1.07E2,7E0,3.1E1,6.4E1,8.2E1,6.6E1,4.1E1,5.4E1,1E1,6.9E1,1.3E1],"tree_param":{"num_deleted":"0","num_feature":"8","num_nodes":"15","size_leaf_vector":"1"}},{"base_weights":[-0E0,-2.8962758E-3,3.041531E-3,-4.9128286E-3,-0E0,4.691406E-3,-0E0,-2.6600095E-4,-0E0,-0E0,5.8493353E-3,-0E0,3.46287E-4],"categories":[],"categories_nodes":[],"categories_segments":[],"categories_sizes":[],"default_left":[0,0,0,0,0,0,0,0,0,0,0,0,0],"id":84,"left_children":[1,3,5,7,-1,9,-1,-1,-1,-1,11,-1,-1],"loss_changes":[2.5595108E-3,1.0678936E-3,1.7127797E-3,1.8765766E-4,0E0,1.0144655E-3,0E0,0E0,0E0,0E0,1.4039222E-3,0E0,0E0],"parents":[2147483647,0,0,1,1,2,2,3,3,5,5,10,10],"right_children":[2,4,6,8,-1,10,-1,-1,-1,-1,12,-1,-1],"split_conditions":[4.26E-1,8.2E0,-2.44E-1,9E1,-0E0,3.19E1,-0E0,-2.6600095E-4,-0E0,-0E0,8.4E0,-0E0,3.46287E-4],"split_indices":[0,1,6,2,0,5,0,0,0,0,4,0,0],"split_type":[0,0,0,0,0,0,0,0,0,0,0,0,0],"sum_hessian":[2.82E2,9.8E1,1.84E2,7.7E1,2.1E1,1.54E2,3E1,7.2E1,5E0,2.6E1,1.28E2,8E0,1.2E2],"tree_param":{"num_deleted":"0","num_feature":"8","num_nodes":"13","size_leaf_vector":"1"}},{"base_weights":[-0E0,-9.5088384E-4,-0E0,-3.224252E-3,-0E0,2.267388E-3,-0E0,-4.6195528E-3,-0E0,-0E0,3.9352383E-3,-0E0,-5.155047E-4,-0E0,2.7654605E-4],"categories":[],"categories_nodes":[],"categories_segments":[],"categories_sizes":[],"default_left":[0,0,0,0,0,0,0,0,0,0,0,0,0,0,0],"id":85,"left_children":[1,3,5,7,-1,9,-1,11,-1,-1,13,-1,-1,-1,-1],"loss_changes":[1.8264436E-4,1.5950375E-3,2.9303975E-4,1.273976E-3,0E0,2.6445996E-4,0E0,1.8380505E-3,0E0,0E0,3.6023278E-4,0E0,0E0,0E0,0E0],"parents":[2147483647,0,0,1,1,2,2,3,3,5,5,7,7,10,10],"right_children":[2,4,6,8,-1,10,-1,12,-1,-1,14,-1,-1,-1,-1],"split_conditions":[1.24E1,1.67E1,-2.39E-1,3.73E1,-0E0,4.88E1,-0E0,9.4E0,-0E0,-0E0,3.25E1,-0E0,-5.155047E-4,-0E0,2.7654605E-4],"split_indices":[1,4,6,5,0,3,0,1,0,0,5,0,0,0,0],"split_type":[0,0,0,0,0,0,0,0,0,0,0,0,0,0,0],"sum_hessian":[2.7E2,2E2,7E1,1.69E2,3.1E1,5.5E1,1.5E1,1.41E2,2.8E1,2.1E1,3.4E1,9.7E1,4.4E1,6E0,2.8E1],"tree_param":{"num_deleted":"0","num_feature":"8","num_nodes":"15","size_leaf_vector":"1"}},{"base_weights":[-0E0,-4.663806E-4,6.387799E-3,-0E0,-2.6273946E-3,-0E0,9.186223E-3,-3.9061373E-3,-0E0,-0E0,5.552407E-4,-2.7833154E-4,-0E0],"categories":[],"categories_nodes":[],"categories_segments":[],"categories_sizes":[],"default_left":[0,0,0,0,0,0,0,0,0,0,0,0,0],"id":86,"left_children":[1,3,5,-1,7,-1,9,11,-1,-1,-1,-1,-1],"loss_changes":[2.6204602E-3,1.3101208E-3,2.239392E-3,0E0,1.5238138E-3,0E0,1.3558031E-3,2.0432475E-3,0E0,0E0,0E0,0E0,0E0],"parents":[2147483647,0,0,1,1,2,2,4,4,6,6,7,7],"right_children":[2,4,6,-1,8,-1,10,12,-1,-1,-1,-1,-1],"split_conditions":[1.27E1,5.925926E-2,4.36E1,-0E0,5.08E-1,-0E0,1.05E1,1.73E1,-0E0,-0E0,5.552407E-4,-2.7833154E-4,-0E0],"split_indices":[1,7,3,0,0,0,4,4,0,0,0,0,0],"split_type":[0,0,0,0,0,0,0,0,0,0,0,0,0],"sum_hessian":[2.88E2,2.27E2,6.1E1,3.2E1,1.95E2,6E0,5.5E1,1.87E2,8E0,7E0,4.8E1,1.57E2,3E1],"tree_param":{"num_deleted":"0","num_feature":"8","num_nodes":"13","size_leaf_vector":"1"}},{"base_weights":[-0E0,-4.3156632E-4,5.9426187E-5,-1.8102598E-3,-0E0,3.4108213E-3,-0E0,-2.5378796E-3,-0E0,-0E0,5.777466E-3,-0E0,-1.5487293E-4,3.7771818E-4,-0E0],"categories":[],"categories_nodes":[],"categories_segments":[],"categories_sizes":[],"default_left":[0,0,0,0,0,0,0,0,0,0,0,0,0,0,0],"id":87,"left_children":[1,3,5,7,-1,9,-1,11,-1,-1,13,-1,-1,-1,-1],"loss_changes":[3.9967785E-5,4.944865E-4,6.860918E-4,4.8349402E-4,0E0,8.156718E-4,0E0,4.502684E-4,0E0,0E0,4.9533404E-4,0E0,0E0,0E0,0E0],"parents":[2147483647,0,0,1,1,2,2,3,3,5,5,7,7,10,10],"right_children":[2,4,6,8,-1,10,-1,12,-1,-1,14,-1,-1,-1,-1],"split_conditions":[-2.49E-1,4.86E1,3.57E1,4.19E1,-0E0,3.7E1,-0E0,1.4E0,-0E0,-0E0,4.82E1,-0E0,-1.5487293E-4,3.7771818E-4,-0E0],"split_indices":[6,3,5,5,0,3,0,1,0,0,3,0,0,0,0],"split_type":[0,0,0,0,0,0,0,0,0,0,0,0,0,0,0],"sum_hessian":[2.93E2,2.11E2,8.2E1,1.61E2,5E1,5.7E1,2.5E1,1.56E2,5E0,1.4E1,4.3E1,5E0,1.51E2,3.3E1,1E1],"tree_param":{"num_deleted":"0","num_feature":"8","num_nodes":"15","size_leaf_vector":"1"}},{"base_weights":[-0E0,-7.672092E-5,6.659925E-4,3.4114E-3,-0E0,4.882759E-3,-0E0,3.800712E-4,-0E0],"categories":[],"categories_nodes":[],"categories_segments":[],"categories_sizes":[],"default_left":[0,0,0,0,0,0,0,0,0],"id":88,"left_children":[1,-1,3,5,-1,7,-1,-1,-1],"loss_changes":[2.6293777E-4,0E0,8.30665E-4,8.210432E-4,0E0,1.8998268E-3,0E0,0E0,0E0],"parents":[2147483647,0,0,2,2,3,3,5,5],"right_children":[2,-1,4,6,-1,8,-1,-1,-1],"split_conditions":[8.85E1,-7.672092E-5,3.41E1,9.32E1,-0E0,1.095008E-1,-0E0,3.800712E-4,-0E0],"split_indices":[2,0,5,2,0,7,0,0,0],"split_type":[0,0,0,0,0,0,0,0,0],"sum_hessian":[2.7E2,7.2E1,1.98E2,7.7E1,1.21E2,7.1E1,6E0,6.1E1,1E1],"tree_param":{"num_deleted":"0","num_feature":"8","num_nodes":"9","size_leaf_vector":"1"}},{"base_weights":[-0E0,-1.1910623E-3,2.8927997E-4,-0E0,-5.591431E-3,2.2219466E-3,-0E0,-7.0245652E-3,-0E0,4.9953093E-3,-0E0,-0E0,-3.2044783E-5,-0E0,-4.0348448E-4,4.0877942E-4,-0E0],"categories":[],"categories_nodes":[],"categories_segments":[],"categories_sizes":[],"default_left":[0,0,0,0,0,0,0,0,0,0,0,0,0,0,0,0,0],"id":89,"left_children":[1,3,5,-1,7,9,11,13,-1,15,-1,-1,-1,-1,-1,-1,-1],"loss_changes":[1.7428416E-4,1.6544312E-3,6.856629E-4,0E0,7.032525E-4,1.7193917E-3,7.39345E-6,3.4870463E-4,0E0,1.991004E-3,0E0,0E0,0E0,0E0,0E0,0E0,0E0],"parents":[2147483647,0,0,1,1,2,2,4,4,5,5,6,6,7,7,9,9],"right_children":[2,4,6,-1,8,10,12,14,-1,16,-1,-1,-1,-1,-1,-1,-1],"split_conditions":[8.93E1,7.912458E-2,1.1148086E-1,-0E0,1.95E1,9.17E1,1.51E1,9.2E0,-0E0,3.67E1,-0E0,-0E0,-3.2044783E-5,-0E0,-4.0348448E-4,4.0877942E-4,-0E0],"split_indices":[2,7,7,0,4,2,4,4,0,5,0,0,0,0,0,0,0],"split_type":[0,0,0,0,0,0,0,0,0,0,0,0,0,0,0,0,0],"sum_hessian":[2.92E2,1.1E2,1.82E2,5.4E1,5.6E1,1.4E2,4.2E1,4.9E1,7E0,9.5E1,4.5E1,2.6E1,1.6E1,7E0,4.2E1,6.4E1,3.1E1],"tree_param":{"num_deleted":"0","num_feature":"8","num_nodes":"17","size_leaf_vector":"1"}},{"base_weights":[-0E0,-1.2916256E-3,1.1486956E-3,-0E0,-4.9119843E-3,-0E0,3.6527083E-4,5.4177776E-4,-0E0,-6.042133E-3,-0E0,-0E0,1.3381153E-4,-0E0,-3.587454E-4],"categories":[],"categories_nodes":[],"categories_segments":[],"categories_sizes":[],"default_left":[0,0,0,0,0,0,0,0,0,0,0,0,0,0,0],"id":90,"left_children":[1,3,5,7,9,-1,-1,11,-1,13,-1,-1,-1,-1,-1],"loss_changes":[4.520031E-4,2.4574455E-3,1.0824857E-3,2.5830039E-5,1.2541504E-3,0E0,0E0,4.1106474E-4,0E0,8.681584E-4,0E0,0E0,0E0,0E0,0E0],"parents":[2147483647,0,0,1,1,2,2,3,3,4,4,7,7,9,9],"right_children":[2,4,6,8,10,-1,-1,12,-1,14,-1,-1,-1,-1,-1],"split_conditions":[9.29E1,8.62069E-2,1.3E1,3.54E1,4.19E1,-0E0,3.6527083E-4,3.16E1,-0E0,3.09E1,-0E0,-0E0,1.3381153E-4,-0E0,-3.587454E-4],"split_indices":[2,7,1,5,5,0,0,5,0,5,0,0,0,0,0],"split_type":[0,0,0,0,0,0,0,0,0,0,0,0,0,0,0],"sum_hessian":[2.73E2,2.46E2,2.7E1,1.29E2,1.17E2,8E0,1.9E1,8.6E1,4.3E1,1.11E2,6E0,2.7E1,5.9E1,1.6E1,9.5E1],"tree_param":{"num_deleted":"0","num_feature":"8","num_nodes":"15","size_leaf_vector":"1"}},{"base_weights":[-0E0,-1.2037766E-3,1.4755086E-3,-0E0,-4.5043114E-3,-0E0,1.3453087E-4,2.1925818E-3,-0E0,-5.5144792E-3,-0E0,-0E0,2.9427002E-4,-0E0,-2.3630827E-4,-0E0,-3.3128224E-4],"categories":[],"categories_nodes":[],"categories_segments":[],"categories_sizes":[],"default_left":[0,0,0,0,0,0,0,0,0,0,0,0,0,0,0,0,0],"id":91,"left_children":[1,3,5,7,9,-1,-1,11,13,15,-1,-1,-1,-1,-1,-1,-1],"loss_changes":[4.289972E-4,2.2520924E-3,6.504881E-5,4.759341E-4,1.1332287E-3,0E0,0E0,1.8448076E-3,6.4776256E-4,1.0581324E-3,0E0,0E0,0E0,0E0,0E0,0E0,0E0],"parents":[2147483647,0,0,1,1,2,2,3,3,4,4,7,7,8,8,9,9],"right_children":[2,4,6,8,10,-1,-1,12,14,16,-1,-1,-1,-1,-1,-1,-1],"split_conditions":[5.38E1,8.784773E-2,3.22E1,4.63E1,4.19E1,-0E0,1.3453087E-4,5.8E0,3.34E1,3.09E1,-0E0,-0E0,2.9427002E-4,-0E0,-2.3630827E-4,-0E0,-3.3128224E-4],"split_indices":[3,7,5,3,5,0,0,1,5,5,0,0,0,0,0,0,0],"split_type":[0,0,0,0,0,0,0,0,0,0,0,0,0,0,0,0,0],"sum_hessian":[2.82E2,2.64E2,1.8E1,1.36E2,1.28E2,5E0,1.3E1,9.7E1,3.9E1,1.22E2,6E0,3.2E1,6.5E1,1.2E1,2.7E1,1.4E1,1.08E2],"tree_param":{"num_deleted":"0","num_feature":"8","num_nodes":"17","size_leaf_vector":"1"}},{"base_weights":[-0E0,-7.246357E-4,2.307989E-3,-0E0,-5.895575E-3,-0E0,7.6181213E-3,-0E0,8.703265E-4,-0E0,-3.4916858E-4,-0E0,4.488236E-4,-1.4105692E-4,-0E0,-0E0,1.17473064E-4],"categories":[],"categories_nodes":[],"categories_segments":[],"categories_sizes":[],"default_left":[0,0,0,0,0,0,0,0,0,0,0,0,0,0,0,0,0],"id":92,"left_children":[1,3,5,7,9,-1,11,13,15,-1,-1,-1,-1,-1,-1,-1,-1],"loss_changes":[3.3954502E-4,1.9189112E-3,1.7654707E-3,9.013871E-5,2.901284E-4,0E0,3.6351802E-4,5.2528223E-4,5.115378E-4,0E0,0E0,0E0,0E0,0E0,0E0,0E0,0E0],"parents":[2147483647,0,0,1,1,2,2,3,3,4,4,6,6,7,7,8,8],"right_children":[2,4,6,8,10,-1,12,14,16,-1,-1,-1,-1,-1,-1,-1,-1],"split_conditions":[5.09E-1,1.0694184E-1,6.782334E-2,-2.66E-1,-2.75E-1,-0E0,9.11E1,1.66E1,3.67E-1,-0E0,-3.4916858E-4,-0E0,4.488236E-4,-1.4105692E-4,-0E0,-0E0,1.17473064E-4],"split_indices":[0,7,7,6,6,0,2,4,0,0,0,0,0,0,0,0,0],"split_type":[0,0,0,0,0,0,0,0,0,0,0,0,0,0,0,0,0],"sum_hessian":[2.86E2,2.49E2,3.7E1,1.92E2,5.7E1,5E0,3.2E1,7.5E1,1.17E2,1.1E1,4.6E1,5E0,2.7E1,6.4E1,1.1E1,1E1,1.07E2],"tree_param":{"num_deleted":"0",